digraph Tree {
node [shape=box, style="filled, rounded", color="black", fontname="helvetica"] ;
edge [fontname="helvetica"] ;
0 [label="etytr <= 0.43\ngini = 0.47\nsamples = 4508\nvalue = [2657, 4401]\nclass = 0", fillcolor="#b1d8f5"] ;
1 [label="hbver <= 0.77\ngini = 0.5\nsamples = 2386\nvalue = [1679, 2040]\nclass = 0", fillcolor="#dceefa"] ;
0 -> 1 [labeldistance=2.5, labelangle=45, headlabel="True"] ;
2 [label="hbver <= 0.37\ngini = 0.5\nsamples = 2245\nvalue = [1668, 1833]\nclass = 0", fillcolor="#edf6fd"] ;
1 -> 2 ;
3 [label="leukocyty <= 0.7\ngini = 0.36\nsamples = 310\nvalue = [117, 378]\nclass = 0", fillcolor="#76bbed"] ;
2 -> 3 ;
4 [label="leukocyty <= 0.34\ngini = 0.31\nsamples = 294\nvalue = [90, 378]\nclass = 0", fillcolor="#68b4eb"] ;
3 -> 4 ;
5 [label="leukocyty <= 0.19\ngini = 0.05\nsamples = 91\nvalue = [4, 139]\nclass = 0", fillcolor="#3fa0e6"] ;
4 -> 5 ;
6 [label="gini = 0.0\nsamples = 45\nvalue = [0, 72]\nclass = 0", fillcolor="#399de5"] ;
5 -> 6 ;
7 [label="etytr <= 0.21\ngini = 0.11\nsamples = 46\nvalue = [4, 67]\nclass = 0", fillcolor="#45a3e7"] ;
5 -> 7 ;
8 [label="gini = 0.0\nsamples = 3\nvalue = [3, 0]\nclass = 1", fillcolor="#e58139"] ;
7 -> 8 ;
9 [label="erytrocyty <= 0.52\ngini = 0.03\nsamples = 43\nvalue = [1, 67]\nclass = 0", fillcolor="#3c9ee5"] ;
7 -> 9 ;
10 [label="er-cv <= 0.18\ngini = 0.12\nsamples = 11\nvalue = [1, 15]\nclass = 0", fillcolor="#46a4e7"] ;
9 -> 10 ;
11 [label="gini = 0.0\nsamples = 1\nvalue = [1, 0]\nclass = 1", fillcolor="#e58139"] ;
10 -> 11 ;
12 [label="gini = 0.0\nsamples = 10\nvalue = [0, 15]\nclass = 0", fillcolor="#399de5"] ;
10 -> 12 ;
13 [label="gini = 0.0\nsamples = 32\nvalue = [0, 52]\nclass = 0", fillcolor="#399de5"] ;
9 -> 13 ;
14 [label="erytrocyty <= 0.55\ngini = 0.39\nsamples = 203\nvalue = [86, 239]\nclass = 0", fillcolor="#80c0ee"] ;
4 -> 14 ;
15 [label="etytr <= 0.3\ngini = 0.14\nsamples = 131\nvalue = [16, 198]\nclass = 0", fillcolor="#49a5e7"] ;
14 -> 15 ;
16 [label="hematokrit <= 0.22\ngini = 0.49\nsamples = 15\nvalue = [12, 9]\nclass = 1", fillcolor="#f8e0ce"] ;
15 -> 16 ;
17 [label="gini = 0.0\nsamples = 2\nvalue = [0, 4]\nclass = 0", fillcolor="#399de5"] ;
16 -> 17 ;
18 [label="hematokrit <= 0.59\ngini = 0.42\nsamples = 13\nvalue = [12, 5]\nclass = 1", fillcolor="#f0b58b"] ;
16 -> 18 ;
19 [label="etytr <= 0.28\ngini = 0.15\nsamples = 9\nvalue = [11, 1]\nclass = 1", fillcolor="#e78c4b"] ;
18 -> 19 ;
20 [label="erytrocyty <= 0.45\ngini = 0.44\nsamples = 3\nvalue = [2, 1]\nclass = 1", fillcolor="#f2c09c"] ;
19 -> 20 ;
21 [label="gini = 0.0\nsamples = 1\nvalue = [0, 1]\nclass = 0", fillcolor="#399de5"] ;
20 -> 21 ;
22 [label="gini = 0.0\nsamples = 2\nvalue = [2, 0]\nclass = 1", fillcolor="#e58139"] ;
20 -> 22 ;
23 [label="gini = 0.0\nsamples = 6\nvalue = [9, 0]\nclass = 1", fillcolor="#e58139"] ;
19 -> 23 ;
24 [label="hbver <= 0.26\ngini = 0.32\nsamples = 4\nvalue = [1, 4]\nclass = 0", fillcolor="#6ab6ec"] ;
18 -> 24 ;
25 [label="gini = 0.0\nsamples = 1\nvalue = [1, 0]\nclass = 1", fillcolor="#e58139"] ;
24 -> 25 ;
26 [label="gini = 0.0\nsamples = 3\nvalue = [0, 4]\nclass = 0", fillcolor="#399de5"] ;
24 -> 26 ;
27 [label="erytrocyty <= 0.54\ngini = 0.04\nsamples = 116\nvalue = [4, 189]\nclass = 0", fillcolor="#3d9fe6"] ;
15 -> 27 ;
28 [label="blood_group <= 0.5\ngini = 0.01\nsamples = 112\nvalue = [1, 181]\nclass = 0", fillcolor="#3a9ee5"] ;
27 -> 28 ;
29 [label="etytr <= 0.36\ngini = 0.09\nsamples = 11\nvalue = [1, 21]\nclass = 0", fillcolor="#42a2e6"] ;
28 -> 29 ;
30 [label="etytr <= 0.36\ngini = 0.32\nsamples = 3\nvalue = [1, 4]\nclass = 0", fillcolor="#6ab6ec"] ;
29 -> 30 ;
31 [label="gini = 0.0\nsamples = 2\nvalue = [0, 4]\nclass = 0", fillcolor="#399de5"] ;
30 -> 31 ;
32 [label="gini = 0.0\nsamples = 1\nvalue = [1, 0]\nclass = 1", fillcolor="#e58139"] ;
30 -> 32 ;
33 [label="gini = 0.0\nsamples = 8\nvalue = [0, 17]\nclass = 0", fillcolor="#399de5"] ;
29 -> 33 ;
34 [label="gini = 0.0\nsamples = 101\nvalue = [0, 160]\nclass = 0", fillcolor="#399de5"] ;
28 -> 34 ;
35 [label="leukocyty <= 0.57\ngini = 0.4\nsamples = 4\nvalue = [3, 8]\nclass = 0", fillcolor="#83c2ef"] ;
27 -> 35 ;
36 [label="gini = 0.0\nsamples = 3\nvalue = [0, 8]\nclass = 0", fillcolor="#399de5"] ;
35 -> 36 ;
37 [label="gini = 0.0\nsamples = 1\nvalue = [3, 0]\nclass = 1", fillcolor="#e58139"] ;
35 -> 37 ;
38 [label="erytrocyty <= 0.85\ngini = 0.47\nsamples = 72\nvalue = [70, 41]\nclass = 1", fillcolor="#f4cbad"] ;
14 -> 38 ;
39 [label="leukocyty <= 0.46\ngini = 0.43\nsamples = 66\nvalue = [70, 32]\nclass = 1", fillcolor="#f1bb94"] ;
38 -> 39 ;
40 [label="blood_group <= 1.5\ngini = 0.49\nsamples = 31\nvalue = [20, 28]\nclass = 0", fillcolor="#c6e3f8"] ;
39 -> 40 ;
41 [label="hbver <= 0.28\ngini = 0.3\nsamples = 6\nvalue = [9, 2]\nclass = 1", fillcolor="#eb9d65"] ;
40 -> 41 ;
42 [label="gini = 0.0\nsamples = 2\nvalue = [0, 2]\nclass = 0", fillcolor="#399de5"] ;
41 -> 42 ;
43 [label="gini = 0.0\nsamples = 4\nvalue = [9, 0]\nclass = 1", fillcolor="#e58139"] ;
41 -> 43 ;
44 [label="er-cv <= 0.51\ngini = 0.42\nsamples = 25\nvalue = [11, 26]\nclass = 0", fillcolor="#8dc6f0"] ;
40 -> 44 ;
45 [label="leukocyty <= 0.42\ngini = 0.31\nsamples = 14\nvalue = [4, 17]\nclass = 0", fillcolor="#68b4eb"] ;
44 -> 45 ;
46 [label="erytrocyty <= 0.78\ngini = 0.12\nsamples = 10\nvalue = [1, 15]\nclass = 0", fillcolor="#46a4e7"] ;
45 -> 46 ;
47 [label="gini = 0.0\nsamples = 5\nvalue = [0, 11]\nclass = 0", fillcolor="#399de5"] ;
46 -> 47 ;
48 [label="etytr <= 0.27\ngini = 0.32\nsamples = 5\nvalue = [1, 4]\nclass = 0", fillcolor="#6ab6ec"] ;
46 -> 48 ;
49 [label="gini = 0.0\nsamples = 1\nvalue = [1, 0]\nclass = 1", fillcolor="#e58139"] ;
48 -> 49 ;
50 [label="gini = 0.0\nsamples = 4\nvalue = [0, 4]\nclass = 0", fillcolor="#399de5"] ;
48 -> 50 ;
51 [label="etytr <= 0.33\ngini = 0.48\nsamples = 4\nvalue = [3, 2]\nclass = 1", fillcolor="#f6d5bd"] ;
45 -> 51 ;
52 [label="gini = 0.0\nsamples = 2\nvalue = [3, 0]\nclass = 1", fillcolor="#e58139"] ;
51 -> 52 ;
53 [label="gini = 0.0\nsamples = 2\nvalue = [0, 2]\nclass = 0", fillcolor="#399de5"] ;
51 -> 53 ;
54 [label="erytrocyty <= 0.79\ngini = 0.49\nsamples = 11\nvalue = [7, 9]\nclass = 0", fillcolor="#d3e9f9"] ;
44 -> 54 ;
55 [label="etytr <= 0.21\ngini = 0.18\nsamples = 8\nvalue = [1, 9]\nclass = 0", fillcolor="#4fa8e8"] ;
54 -> 55 ;
56 [label="gini = 0.0\nsamples = 1\nvalue = [1, 0]\nclass = 1", fillcolor="#e58139"] ;
55 -> 56 ;
57 [label="gini = 0.0\nsamples = 7\nvalue = [0, 9]\nclass = 0", fillcolor="#399de5"] ;
55 -> 57 ;
58 [label="gini = 0.0\nsamples = 3\nvalue = [6, 0]\nclass = 1", fillcolor="#e58139"] ;
54 -> 58 ;
59 [label="hematokrit <= 0.17\ngini = 0.14\nsamples = 35\nvalue = [50, 4]\nclass = 1", fillcolor="#e78b49"] ;
39 -> 59 ;
60 [label="leukocyty <= 0.53\ngini = 0.41\nsamples = 3\nvalue = [5, 2]\nclass = 1", fillcolor="#efb388"] ;
59 -> 60 ;
61 [label="gini = 0.0\nsamples = 1\nvalue = [0, 2]\nclass = 0", fillcolor="#399de5"] ;
60 -> 61 ;
62 [label="gini = 0.0\nsamples = 2\nvalue = [5, 0]\nclass = 1", fillcolor="#e58139"] ;
60 -> 62 ;
63 [label="er-cv <= 0.37\ngini = 0.08\nsamples = 32\nvalue = [45, 2]\nclass = 1", fillcolor="#e68742"] ;
59 -> 63 ;
64 [label="blood_group <= 1.5\ngini = 0.38\nsamples = 6\nvalue = [6, 2]\nclass = 1", fillcolor="#eeab7b"] ;
63 -> 64 ;
65 [label="gini = 0.0\nsamples = 2\nvalue = [3, 0]\nclass = 1", fillcolor="#e58139"] ;
64 -> 65 ;
66 [label="hematokrit <= 0.49\ngini = 0.48\nsamples = 4\nvalue = [3, 2]\nclass = 1", fillcolor="#f6d5bd"] ;
64 -> 66 ;
67 [label="gini = 0.0\nsamples = 2\nvalue = [0, 2]\nclass = 0", fillcolor="#399de5"] ;
66 -> 67 ;
68 [label="gini = 0.0\nsamples = 2\nvalue = [3, 0]\nclass = 1", fillcolor="#e58139"] ;
66 -> 68 ;
69 [label="gini = 0.0\nsamples = 26\nvalue = [39, 0]\nclass = 1", fillcolor="#e58139"] ;
63 -> 69 ;
70 [label="gini = 0.0\nsamples = 6\nvalue = [0, 9]\nclass = 0", fillcolor="#399de5"] ;
38 -> 70 ;
71 [label="gini = 0.0\nsamples = 16\nvalue = [27, 0]\nclass = 1", fillcolor="#e58139"] ;
3 -> 71 ;
72 [label="leukocyty <= 0.44\ngini = 0.5\nsamples = 1935\nvalue = [1551, 1455]\nclass = 1", fillcolor="#fdf7f3"] ;
2 -> 72 ;
73 [label="erytrocyty <= 0.48\ngini = 0.28\nsamples = 956\nvalue = [256, 1235]\nclass = 0", fillcolor="#62b1ea"] ;
72 -> 73 ;
74 [label="hbver <= 0.66\ngini = 0.47\nsamples = 105\nvalue = [106, 64]\nclass = 1", fillcolor="#f5cdb1"] ;
73 -> 74 ;
75 [label="er-cv <= 0.17\ngini = 0.32\nsamples = 34\nvalue = [11, 43]\nclass = 0", fillcolor="#6cb6ec"] ;
74 -> 75 ;
76 [label="gini = 0.0\nsamples = 1\nvalue = [4, 0]\nclass = 1", fillcolor="#e58139"] ;
75 -> 76 ;
77 [label="leukocyty <= 0.26\ngini = 0.24\nsamples = 33\nvalue = [7, 43]\nclass = 0", fillcolor="#59ade9"] ;
75 -> 77 ;
78 [label="leukocyty <= 0.09\ngini = 0.05\nsamples = 25\nvalue = [1, 38]\nclass = 0", fillcolor="#3ea0e6"] ;
77 -> 78 ;
79 [label="gini = 0.0\nsamples = 16\nvalue = [0, 25]\nclass = 0", fillcolor="#399de5"] ;
78 -> 79 ;
80 [label="erytrocyty <= 0.43\ngini = 0.13\nsamples = 9\nvalue = [1, 13]\nclass = 0", fillcolor="#48a5e7"] ;
78 -> 80 ;
81 [label="gini = 0.0\nsamples = 1\nvalue = [1, 0]\nclass = 1", fillcolor="#e58139"] ;
80 -> 81 ;
82 [label="gini = 0.0\nsamples = 8\nvalue = [0, 13]\nclass = 0", fillcolor="#399de5"] ;
80 -> 82 ;
83 [label="er-cv <= 0.47\ngini = 0.5\nsamples = 8\nvalue = [6, 5]\nclass = 1", fillcolor="#fbeade"] ;
77 -> 83 ;
84 [label="gini = 0.0\nsamples = 3\nvalue = [4, 0]\nclass = 1", fillcolor="#e58139"] ;
83 -> 84 ;
85 [label="hematokrit <= 0.37\ngini = 0.41\nsamples = 5\nvalue = [2, 5]\nclass = 0", fillcolor="#88c4ef"] ;
83 -> 85 ;
86 [label="gini = 0.0\nsamples = 2\nvalue = [2, 0]\nclass = 1", fillcolor="#e58139"] ;
85 -> 86 ;
87 [label="gini = 0.0\nsamples = 3\nvalue = [0, 5]\nclass = 0", fillcolor="#399de5"] ;
85 -> 87 ;
88 [label="etytr <= 0.21\ngini = 0.3\nsamples = 71\nvalue = [95, 21]\nclass = 1", fillcolor="#eb9d65"] ;
74 -> 88 ;
89 [label="leukocyty <= 0.12\ngini = 0.46\nsamples = 15\nvalue = [8, 14]\nclass = 0", fillcolor="#aad5f4"] ;
88 -> 89 ;
90 [label="gini = 0.0\nsamples = 6\nvalue = [0, 12]\nclass = 0", fillcolor="#399de5"] ;
89 -> 90 ;
91 [label="hbver <= 0.68\ngini = 0.32\nsamples = 9\nvalue = [8, 2]\nclass = 1", fillcolor="#eca06a"] ;
89 -> 91 ;
92 [label="gini = 0.0\nsamples = 1\nvalue = [0, 1]\nclass = 0", fillcolor="#399de5"] ;
91 -> 92 ;
93 [label="blood_group <= 5.5\ngini = 0.2\nsamples = 8\nvalue = [8, 1]\nclass = 1", fillcolor="#e89152"] ;
91 -> 93 ;
94 [label="gini = 0.0\nsamples = 6\nvalue = [7, 0]\nclass = 1", fillcolor="#e58139"] ;
93 -> 94 ;
95 [label="er-cv <= 0.6\ngini = 0.5\nsamples = 2\nvalue = [1, 1]\nclass = 1", fillcolor="#ffffff"] ;
93 -> 95 ;
96 [label="gini = 0.0\nsamples = 1\nvalue = [0, 1]\nclass = 0", fillcolor="#399de5"] ;
95 -> 96 ;
97 [label="gini = 0.0\nsamples = 1\nvalue = [1, 0]\nclass = 1", fillcolor="#e58139"] ;
95 -> 97 ;
98 [label="smoker <= 0.5\ngini = 0.14\nsamples = 56\nvalue = [87, 7]\nclass = 1", fillcolor="#e78b49"] ;
88 -> 98 ;
99 [label="leukocyty <= 0.27\ngini = 0.24\nsamples = 31\nvalue = [42, 7]\nclass = 1", fillcolor="#e9965a"] ;
98 -> 99 ;
100 [label="gini = 0.0\nsamples = 4\nvalue = [0, 7]\nclass = 0", fillcolor="#399de5"] ;
99 -> 100 ;
101 [label="gini = 0.0\nsamples = 27\nvalue = [42, 0]\nclass = 1", fillcolor="#e58139"] ;
99 -> 101 ;
102 [label="gini = 0.0\nsamples = 25\nvalue = [45, 0]\nclass = 1", fillcolor="#e58139"] ;
98 -> 102 ;
103 [label="etytr <= 0.4\ngini = 0.2\nsamples = 851\nvalue = [150, 1171]\nclass = 0", fillcolor="#52aae8"] ;
73 -> 103 ;
104 [label="etytr <= 0.34\ngini = 0.18\nsamples = 840\nvalue = [132, 1171]\nclass = 0", fillcolor="#4fa8e8"] ;
103 -> 104 ;
105 [label="leukocyty <= 0.38\ngini = 0.17\nsamples = 781\nvalue = [111, 1102]\nclass = 0", fillcolor="#4da7e8"] ;
104 -> 105 ;
106 [label="leukocyty <= 0.29\ngini = 0.11\nsamples = 689\nvalue = [65, 1010]\nclass = 0", fillcolor="#46a3e7"] ;
105 -> 106 ;
107 [label="hbver <= 0.77\ngini = 0.07\nsamples = 542\nvalue = [32, 812]\nclass = 0", fillcolor="#41a1e6"] ;
106 -> 107 ;
108 [label="hbver <= 0.54\ngini = 0.07\nsamples = 541\nvalue = [31, 812]\nclass = 0", fillcolor="#41a1e6"] ;
107 -> 108 ;
109 [label="hematokrit <= 0.32\ngini = 0.13\nsamples = 223\nvalue = [25, 331]\nclass = 0", fillcolor="#48a4e7"] ;
108 -> 109 ;
110 [label="hbver <= 0.44\ngini = 0.27\nsamples = 52\nvalue = [14, 72]\nclass = 0", fillcolor="#5fb0ea"] ;
109 -> 110 ;
111 [label="hematokrit <= 0.17\ngini = 0.04\nsamples = 26\nvalue = [1, 44]\nclass = 0", fillcolor="#3d9fe6"] ;
110 -> 111 ;
112 [label="leukocyty <= 0.2\ngini = 0.24\nsamples = 5\nvalue = [1, 6]\nclass = 0", fillcolor="#5aade9"] ;
111 -> 112 ;
113 [label="gini = 0.0\nsamples = 3\nvalue = [0, 5]\nclass = 0", fillcolor="#399de5"] ;
112 -> 113 ;
114 [label="blood_group <= 4.5\ngini = 0.5\nsamples = 2\nvalue = [1, 1]\nclass = 1", fillcolor="#ffffff"] ;
112 -> 114 ;
115 [label="gini = 0.0\nsamples = 1\nvalue = [1, 0]\nclass = 1", fillcolor="#e58139"] ;
114 -> 115 ;
116 [label="gini = 0.0\nsamples = 1\nvalue = [0, 1]\nclass = 0", fillcolor="#399de5"] ;
114 -> 116 ;
117 [label="gini = 0.0\nsamples = 21\nvalue = [0, 38]\nclass = 0", fillcolor="#399de5"] ;
111 -> 117 ;
118 [label="er-cv <= 0.62\ngini = 0.43\nsamples = 26\nvalue = [13, 28]\nclass = 0", fillcolor="#95caf1"] ;
110 -> 118 ;
119 [label="etytr <= 0.17\ngini = 0.21\nsamples = 16\nvalue = [3, 22]\nclass = 0", fillcolor="#54aae9"] ;
118 -> 119 ;
120 [label="hbver <= 0.48\ngini = 0.5\nsamples = 3\nvalue = [2, 2]\nclass = 1", fillcolor="#ffffff"] ;
119 -> 120 ;
121 [label="gini = 0.0\nsamples = 1\nvalue = [2, 0]\nclass = 1", fillcolor="#e58139"] ;
120 -> 121 ;
122 [label="gini = 0.0\nsamples = 2\nvalue = [0, 2]\nclass = 0", fillcolor="#399de5"] ;
120 -> 122 ;
123 [label="leukocyty <= 0.19\ngini = 0.09\nsamples = 13\nvalue = [1, 20]\nclass = 0", fillcolor="#43a2e6"] ;
119 -> 123 ;
124 [label="gini = 0.0\nsamples = 10\nvalue = [0, 18]\nclass = 0", fillcolor="#399de5"] ;
123 -> 124 ;
125 [label="etytr <= 0.2\ngini = 0.44\nsamples = 3\nvalue = [1, 2]\nclass = 0", fillcolor="#9ccef2"] ;
123 -> 125 ;
126 [label="gini = 0.0\nsamples = 1\nvalue = [1, 0]\nclass = 1", fillcolor="#e58139"] ;
125 -> 126 ;
127 [label="gini = 0.0\nsamples = 2\nvalue = [0, 2]\nclass = 0", fillcolor="#399de5"] ;
125 -> 127 ;
128 [label="etytr <= 0.17\ngini = 0.47\nsamples = 10\nvalue = [10, 6]\nclass = 1", fillcolor="#f5cdb0"] ;
118 -> 128 ;
129 [label="gini = 0.0\nsamples = 2\nvalue = [0, 4]\nclass = 0", fillcolor="#399de5"] ;
128 -> 129 ;
130 [label="leukocyty <= 0.14\ngini = 0.28\nsamples = 8\nvalue = [10, 2]\nclass = 1", fillcolor="#ea9a61"] ;
128 -> 130 ;
131 [label="gini = 0.0\nsamples = 2\nvalue = [0, 2]\nclass = 0", fillcolor="#399de5"] ;
130 -> 131 ;
132 [label="gini = 0.0\nsamples = 6\nvalue = [10, 0]\nclass = 1", fillcolor="#e58139"] ;
130 -> 132 ;
133 [label="etytr <= 0.16\ngini = 0.08\nsamples = 171\nvalue = [11, 259]\nclass = 0", fillcolor="#41a1e6"] ;
109 -> 133 ;
134 [label="erytrocyty <= 0.63\ngini = 0.32\nsamples = 9\nvalue = [3, 12]\nclass = 0", fillcolor="#6ab6ec"] ;
133 -> 134 ;
135 [label="erytrocyty <= 0.54\ngini = 0.38\nsamples = 2\nvalue = [3, 1]\nclass = 1", fillcolor="#eeab7b"] ;
134 -> 135 ;
136 [label="gini = 0.0\nsamples = 1\nvalue = [0, 1]\nclass = 0", fillcolor="#399de5"] ;
135 -> 136 ;
137 [label="gini = 0.0\nsamples = 1\nvalue = [3, 0]\nclass = 1", fillcolor="#e58139"] ;
135 -> 137 ;
138 [label="gini = 0.0\nsamples = 7\nvalue = [0, 11]\nclass = 0", fillcolor="#399de5"] ;
134 -> 138 ;
139 [label="etytr <= 0.24\ngini = 0.06\nsamples = 162\nvalue = [8, 247]\nclass = 0", fillcolor="#3fa0e6"] ;
133 -> 139 ;
140 [label="etytr <= 0.24\ngini = 0.09\nsamples = 105\nvalue = [8, 154]\nclass = 0", fillcolor="#43a2e6"] ;
139 -> 140 ;
141 [label="er-cv <= 0.29\ngini = 0.06\nsamples = 103\nvalue = [5, 154]\nclass = 0", fillcolor="#3fa0e6"] ;
140 -> 141 ;
142 [label="er-cv <= 0.29\ngini = 0.39\nsamples = 10\nvalue = [4, 11]\nclass = 0", fillcolor="#81c1ee"] ;
141 -> 142 ;
143 [label="gini = 0.0\nsamples = 9\nvalue = [0, 11]\nclass = 0", fillcolor="#399de5"] ;
142 -> 143 ;
144 [label="gini = 0.0\nsamples = 1\nvalue = [4, 0]\nclass = 1", fillcolor="#e58139"] ;
142 -> 144 ;
145 [label="leukocyty <= 0.08\ngini = 0.01\nsamples = 93\nvalue = [1, 143]\nclass = 0", fillcolor="#3a9ee5"] ;
141 -> 145 ;
146 [label="er-cv <= 0.44\ngini = 0.1\nsamples = 11\nvalue = [1, 18]\nclass = 0", fillcolor="#44a2e6"] ;
145 -> 146 ;
147 [label="etytr <= 0.21\ngini = 0.38\nsamples = 3\nvalue = [1, 3]\nclass = 0", fillcolor="#7bbeee"] ;
146 -> 147 ;
148 [label="gini = 0.0\nsamples = 2\nvalue = [0, 3]\nclass = 0", fillcolor="#399de5"] ;
147 -> 148 ;
149 [label="gini = 0.0\nsamples = 1\nvalue = [1, 0]\nclass = 1", fillcolor="#e58139"] ;
147 -> 149 ;
150 [label="gini = 0.0\nsamples = 8\nvalue = [0, 15]\nclass = 0", fillcolor="#399de5"] ;
146 -> 150 ;
151 [label="gini = 0.0\nsamples = 82\nvalue = [0, 125]\nclass = 0", fillcolor="#399de5"] ;
145 -> 151 ;
152 [label="gini = 0.0\nsamples = 2\nvalue = [3, 0]\nclass = 1", fillcolor="#e58139"] ;
140 -> 152 ;
153 [label="gini = 0.0\nsamples = 57\nvalue = [0, 93]\nclass = 0", fillcolor="#399de5"] ;
139 -> 153 ;
154 [label="hematokrit <= 0.92\ngini = 0.02\nsamples = 318\nvalue = [6, 481]\nclass = 0", fillcolor="#3b9ee5"] ;
108 -> 154 ;
155 [label="blood_group <= 0.5\ngini = 0.02\nsamples = 317\nvalue = [5, 481]\nclass = 0", fillcolor="#3b9ee5"] ;
154 -> 155 ;
156 [label="erytrocyty <= 0.57\ngini = 0.11\nsamples = 37\nvalue = [3, 49]\nclass = 0", fillcolor="#45a3e7"] ;
155 -> 156 ;
157 [label="erytrocyty <= 0.53\ngini = 0.41\nsamples = 6\nvalue = [2, 5]\nclass = 0", fillcolor="#88c4ef"] ;
156 -> 157 ;
158 [label="gini = 0.0\nsamples = 4\nvalue = [0, 5]\nclass = 0", fillcolor="#399de5"] ;
157 -> 158 ;
159 [label="gini = 0.0\nsamples = 2\nvalue = [2, 0]\nclass = 1", fillcolor="#e58139"] ;
157 -> 159 ;
160 [label="er-cv <= 0.79\ngini = 0.04\nsamples = 31\nvalue = [1, 44]\nclass = 0", fillcolor="#3d9fe6"] ;
156 -> 160 ;
161 [label="gini = 0.0\nsamples = 28\nvalue = [0, 42]\nclass = 0", fillcolor="#399de5"] ;
160 -> 161 ;
162 [label="erytrocyty <= 0.67\ngini = 0.44\nsamples = 3\nvalue = [1, 2]\nclass = 0", fillcolor="#9ccef2"] ;
160 -> 162 ;
163 [label="gini = 0.0\nsamples = 1\nvalue = [1, 0]\nclass = 1", fillcolor="#e58139"] ;
162 -> 163 ;
164 [label="gini = 0.0\nsamples = 2\nvalue = [0, 2]\nclass = 0", fillcolor="#399de5"] ;
162 -> 164 ;
165 [label="hematokrit <= 0.56\ngini = 0.01\nsamples = 280\nvalue = [2, 432]\nclass = 0", fillcolor="#3a9de5"] ;
155 -> 165 ;
166 [label="gini = 0.0\nsamples = 179\nvalue = [0, 287]\nclass = 0", fillcolor="#399de5"] ;
165 -> 166 ;
167 [label="hematokrit <= 0.56\ngini = 0.03\nsamples = 101\nvalue = [2, 145]\nclass = 0", fillcolor="#3c9ee5"] ;
165 -> 167 ;
168 [label="gini = 0.0\nsamples = 1\nvalue = [1, 0]\nclass = 1", fillcolor="#e58139"] ;
167 -> 168 ;
169 [label="hematokrit <= 0.62\ngini = 0.01\nsamples = 100\nvalue = [1, 145]\nclass = 0", fillcolor="#3a9ee5"] ;
167 -> 169 ;
170 [label="er-cv <= 0.43\ngini = 0.03\nsamples = 37\nvalue = [1, 56]\nclass = 0", fillcolor="#3d9fe5"] ;
169 -> 170 ;
171 [label="blood_group <= 4.5\ngini = 0.09\nsamples = 13\nvalue = [1, 20]\nclass = 0", fillcolor="#43a2e6"] ;
170 -> 171 ;
172 [label="gini = 0.0\nsamples = 9\nvalue = [0, 14]\nclass = 0", fillcolor="#399de5"] ;
171 -> 172 ;
173 [label="er-cv <= 0.38\ngini = 0.24\nsamples = 4\nvalue = [1, 6]\nclass = 0", fillcolor="#5aade9"] ;
171 -> 173 ;
174 [label="gini = 0.0\nsamples = 3\nvalue = [0, 6]\nclass = 0", fillcolor="#399de5"] ;
173 -> 174 ;
175 [label="gini = 0.0\nsamples = 1\nvalue = [1, 0]\nclass = 1", fillcolor="#e58139"] ;
173 -> 175 ;
176 [label="gini = 0.0\nsamples = 24\nvalue = [0, 36]\nclass = 0", fillcolor="#399de5"] ;
170 -> 176 ;
177 [label="gini = 0.0\nsamples = 63\nvalue = [0, 89]\nclass = 0", fillcolor="#399de5"] ;
169 -> 177 ;
178 [label="gini = 0.0\nsamples = 1\nvalue = [1, 0]\nclass = 1", fillcolor="#e58139"] ;
154 -> 178 ;
179 [label="gini = 0.0\nsamples = 1\nvalue = [1, 0]\nclass = 1", fillcolor="#e58139"] ;
107 -> 179 ;
180 [label="hbver <= 0.71\ngini = 0.24\nsamples = 147\nvalue = [33, 198]\nclass = 0", fillcolor="#5aade9"] ;
106 -> 180 ;
181 [label="erytrocyty <= 0.81\ngini = 0.09\nsamples = 115\nvalue = [8, 170]\nclass = 0", fillcolor="#42a2e6"] ;
180 -> 181 ;
182 [label="leukocyty <= 0.29\ngini = 0.11\nsamples = 87\nvalue = [8, 125]\nclass = 0", fillcolor="#46a3e7"] ;
181 -> 182 ;
183 [label="gini = 0.0\nsamples = 1\nvalue = [2, 0]\nclass = 1", fillcolor="#e58139"] ;
182 -> 183 ;
184 [label="leukocyty <= 0.36\ngini = 0.09\nsamples = 86\nvalue = [6, 125]\nclass = 0", fillcolor="#43a2e6"] ;
182 -> 184 ;
185 [label="leukocyty <= 0.3\ngini = 0.05\nsamples = 73\nvalue = [3, 110]\nclass = 0", fillcolor="#3ea0e6"] ;
184 -> 185 ;
186 [label="etytr <= 0.3\ngini = 0.38\nsamples = 4\nvalue = [1, 3]\nclass = 0", fillcolor="#7bbeee"] ;
185 -> 186 ;
187 [label="gini = 0.0\nsamples = 3\nvalue = [0, 3]\nclass = 0", fillcolor="#399de5"] ;
186 -> 187 ;
188 [label="gini = 0.0\nsamples = 1\nvalue = [1, 0]\nclass = 1", fillcolor="#e58139"] ;
186 -> 188 ;
189 [label="hematokrit <= 0.78\ngini = 0.04\nsamples = 69\nvalue = [2, 107]\nclass = 0", fillcolor="#3d9fe5"] ;
185 -> 189 ;
190 [label="blood_group <= 0.5\ngini = 0.02\nsamples = 65\nvalue = [1, 102]\nclass = 0", fillcolor="#3b9ee5"] ;
189 -> 190 ;
191 [label="hbver <= 0.65\ngini = 0.14\nsamples = 8\nvalue = [1, 12]\nclass = 0", fillcolor="#49a5e7"] ;
190 -> 191 ;
192 [label="gini = 0.0\nsamples = 5\nvalue = [0, 10]\nclass = 0", fillcolor="#399de5"] ;
191 -> 192 ;
193 [label="leukocyty <= 0.34\ngini = 0.44\nsamples = 3\nvalue = [1, 2]\nclass = 0", fillcolor="#9ccef2"] ;
191 -> 193 ;
194 [label="gini = 0.0\nsamples = 2\nvalue = [0, 2]\nclass = 0", fillcolor="#399de5"] ;
193 -> 194 ;
195 [label="gini = 0.0\nsamples = 1\nvalue = [1, 0]\nclass = 1", fillcolor="#e58139"] ;
193 -> 195 ;
196 [label="gini = 0.0\nsamples = 57\nvalue = [0, 90]\nclass = 0", fillcolor="#399de5"] ;
190 -> 196 ;
197 [label="hematokrit <= 0.81\ngini = 0.28\nsamples = 4\nvalue = [1, 5]\nclass = 0", fillcolor="#61b1ea"] ;
189 -> 197 ;
198 [label="gini = 0.0\nsamples = 1\nvalue = [1, 0]\nclass = 1", fillcolor="#e58139"] ;
197 -> 198 ;
199 [label="gini = 0.0\nsamples = 3\nvalue = [0, 5]\nclass = 0", fillcolor="#399de5"] ;
197 -> 199 ;
200 [label="hematokrit <= 0.46\ngini = 0.28\nsamples = 13\nvalue = [3, 15]\nclass = 0", fillcolor="#61b1ea"] ;
184 -> 200 ;
201 [label="hbver <= 0.58\ngini = 0.38\nsamples = 3\nvalue = [3, 1]\nclass = 1", fillcolor="#eeab7b"] ;
200 -> 201 ;
202 [label="gini = 0.0\nsamples = 2\nvalue = [3, 0]\nclass = 1", fillcolor="#e58139"] ;
201 -> 202 ;
203 [label="gini = 0.0\nsamples = 1\nvalue = [0, 1]\nclass = 0", fillcolor="#399de5"] ;
201 -> 203 ;
204 [label="gini = 0.0\nsamples = 10\nvalue = [0, 14]\nclass = 0", fillcolor="#399de5"] ;
200 -> 204 ;
205 [label="gini = 0.0\nsamples = 28\nvalue = [0, 45]\nclass = 0", fillcolor="#399de5"] ;
181 -> 205 ;
206 [label="etytr <= 0.31\ngini = 0.5\nsamples = 32\nvalue = [25, 28]\nclass = 0", fillcolor="#eaf4fc"] ;
180 -> 206 ;
207 [label="erytrocyty <= 0.63\ngini = 0.48\nsamples = 28\nvalue = [19, 28]\nclass = 0", fillcolor="#bfe0f7"] ;
206 -> 207 ;
208 [label="gini = 0.0\nsamples = 11\nvalue = [16, 0]\nclass = 1", fillcolor="#e58139"] ;
207 -> 208 ;
209 [label="erytrocyty <= 0.66\ngini = 0.17\nsamples = 17\nvalue = [3, 28]\nclass = 0", fillcolor="#4ea8e8"] ;
207 -> 209 ;
210 [label="hematokrit <= 0.61\ngini = 0.49\nsamples = 3\nvalue = [3, 4]\nclass = 0", fillcolor="#cee6f8"] ;
209 -> 210 ;
211 [label="gini = 0.0\nsamples = 2\nvalue = [0, 4]\nclass = 0", fillcolor="#399de5"] ;
210 -> 211 ;
212 [label="gini = 0.0\nsamples = 1\nvalue = [3, 0]\nclass = 1", fillcolor="#e58139"] ;
210 -> 212 ;
213 [label="gini = 0.0\nsamples = 14\nvalue = [0, 24]\nclass = 0", fillcolor="#399de5"] ;
209 -> 213 ;
214 [label="gini = 0.0\nsamples = 4\nvalue = [6, 0]\nclass = 1", fillcolor="#e58139"] ;
206 -> 214 ;
215 [label="etytr <= 0.28\ngini = 0.44\nsamples = 92\nvalue = [46, 92]\nclass = 0", fillcolor="#9ccef2"] ;
105 -> 215 ;
216 [label="erytrocyty <= 0.7\ngini = 0.31\nsamples = 36\nvalue = [37, 9]\nclass = 1", fillcolor="#eba069"] ;
215 -> 216 ;
217 [label="smoker <= 0.5\ngini = 0.1\nsamples = 30\nvalue = [37, 2]\nclass = 1", fillcolor="#e68844"] ;
216 -> 217 ;
218 [label="gini = 0.0\nsamples = 23\nvalue = [28, 0]\nclass = 1", fillcolor="#e58139"] ;
217 -> 218 ;
219 [label="leukocyty <= 0.43\ngini = 0.3\nsamples = 7\nvalue = [9, 2]\nclass = 1", fillcolor="#eb9d65"] ;
217 -> 219 ;
220 [label="gini = 0.0\nsamples = 5\nvalue = [7, 0]\nclass = 1", fillcolor="#e58139"] ;
219 -> 220 ;
221 [label="etytr <= 0.24\ngini = 0.5\nsamples = 2\nvalue = [2, 2]\nclass = 1", fillcolor="#ffffff"] ;
219 -> 221 ;
222 [label="gini = 0.0\nsamples = 1\nvalue = [2, 0]\nclass = 1", fillcolor="#e58139"] ;
221 -> 222 ;
223 [label="gini = 0.0\nsamples = 1\nvalue = [0, 2]\nclass = 0", fillcolor="#399de5"] ;
221 -> 223 ;
224 [label="gini = 0.0\nsamples = 6\nvalue = [0, 7]\nclass = 0", fillcolor="#399de5"] ;
216 -> 224 ;
225 [label="erytrocyty <= 0.7\ngini = 0.18\nsamples = 56\nvalue = [9, 83]\nclass = 0", fillcolor="#4ea8e8"] ;
215 -> 225 ;
226 [label="er-cv <= 0.43\ngini = 0.49\nsamples = 14\nvalue = [9, 12]\nclass = 0", fillcolor="#cee6f8"] ;
225 -> 226 ;
227 [label="gini = 0.0\nsamples = 4\nvalue = [6, 0]\nclass = 1", fillcolor="#e58139"] ;
226 -> 227 ;
228 [label="blood_group <= 1.5\ngini = 0.32\nsamples = 10\nvalue = [3, 12]\nclass = 0", fillcolor="#6ab6ec"] ;
226 -> 228 ;
229 [label="gini = 0.0\nsamples = 1\nvalue = [2, 0]\nclass = 1", fillcolor="#e58139"] ;
228 -> 229 ;
230 [label="erytrocyty <= 0.52\ngini = 0.14\nsamples = 9\nvalue = [1, 12]\nclass = 0", fillcolor="#49a5e7"] ;
228 -> 230 ;
231 [label="gini = 0.0\nsamples = 1\nvalue = [1, 0]\nclass = 1", fillcolor="#e58139"] ;
230 -> 231 ;
232 [label="gini = 0.0\nsamples = 8\nvalue = [0, 12]\nclass = 0", fillcolor="#399de5"] ;
230 -> 232 ;
233 [label="gini = 0.0\nsamples = 42\nvalue = [0, 71]\nclass = 0", fillcolor="#399de5"] ;
225 -> 233 ;
234 [label="erytrocyty <= 0.65\ngini = 0.36\nsamples = 59\nvalue = [21, 69]\nclass = 0", fillcolor="#75bbed"] ;
104 -> 234 ;
235 [label="hematokrit <= 0.4\ngini = 0.42\nsamples = 10\nvalue = [12, 5]\nclass = 1", fillcolor="#f0b58b"] ;
234 -> 235 ;
236 [label="gini = 0.0\nsamples = 1\nvalue = [0, 3]\nclass = 0", fillcolor="#399de5"] ;
235 -> 236 ;
237 [label="hematokrit <= 0.78\ngini = 0.24\nsamples = 9\nvalue = [12, 2]\nclass = 1", fillcolor="#e9965a"] ;
235 -> 237 ;
238 [label="gini = 0.0\nsamples = 8\nvalue = [12, 0]\nclass = 1", fillcolor="#e58139"] ;
237 -> 238 ;
239 [label="gini = 0.0\nsamples = 1\nvalue = [0, 2]\nclass = 0", fillcolor="#399de5"] ;
237 -> 239 ;
240 [label="etytr <= 0.35\ngini = 0.22\nsamples = 49\nvalue = [9, 64]\nclass = 0", fillcolor="#55abe9"] ;
234 -> 240 ;
241 [label="gini = 0.0\nsamples = 1\nvalue = [2, 0]\nclass = 1", fillcolor="#e58139"] ;
240 -> 241 ;
242 [label="hbver <= 0.41\ngini = 0.18\nsamples = 48\nvalue = [7, 64]\nclass = 0", fillcolor="#4fa8e8"] ;
240 -> 242 ;
243 [label="hbver <= 0.4\ngini = 0.5\nsamples = 7\nvalue = [4, 4]\nclass = 1", fillcolor="#ffffff"] ;
242 -> 243 ;
244 [label="gini = 0.0\nsamples = 4\nvalue = [0, 4]\nclass = 0", fillcolor="#399de5"] ;
243 -> 244 ;
245 [label="gini = 0.0\nsamples = 3\nvalue = [4, 0]\nclass = 1", fillcolor="#e58139"] ;
243 -> 245 ;
246 [label="hbver <= 0.5\ngini = 0.09\nsamples = 41\nvalue = [3, 60]\nclass = 0", fillcolor="#43a2e6"] ;
242 -> 246 ;
247 [label="hbver <= 0.5\ngini = 0.26\nsamples = 13\nvalue = [3, 17]\nclass = 0", fillcolor="#5caeea"] ;
246 -> 247 ;
248 [label="er-cv <= 0.65\ngini = 0.19\nsamples = 12\nvalue = [2, 17]\nclass = 0", fillcolor="#50a9e8"] ;
247 -> 248 ;
249 [label="hematokrit <= 0.63\ngini = 0.1\nsamples = 11\nvalue = [1, 17]\nclass = 0", fillcolor="#45a3e7"] ;
248 -> 249 ;
250 [label="gini = 0.0\nsamples = 9\nvalue = [0, 16]\nclass = 0", fillcolor="#399de5"] ;
249 -> 250 ;
251 [label="hematokrit <= 0.69\ngini = 0.5\nsamples = 2\nvalue = [1, 1]\nclass = 1", fillcolor="#ffffff"] ;
249 -> 251 ;
252 [label="gini = 0.0\nsamples = 1\nvalue = [1, 0]\nclass = 1", fillcolor="#e58139"] ;
251 -> 252 ;
253 [label="gini = 0.0\nsamples = 1\nvalue = [0, 1]\nclass = 0", fillcolor="#399de5"] ;
251 -> 253 ;
254 [label="gini = 0.0\nsamples = 1\nvalue = [1, 0]\nclass = 1", fillcolor="#e58139"] ;
248 -> 254 ;
255 [label="gini = 0.0\nsamples = 1\nvalue = [1, 0]\nclass = 1", fillcolor="#e58139"] ;
247 -> 255 ;
256 [label="gini = 0.0\nsamples = 28\nvalue = [0, 43]\nclass = 0", fillcolor="#399de5"] ;
246 -> 256 ;
257 [label="gini = 0.0\nsamples = 11\nvalue = [18, 0]\nclass = 1", fillcolor="#e58139"] ;
103 -> 257 ;
258 [label="etytr <= 0.32\ngini = 0.25\nsamples = 979\nvalue = [1295, 220]\nclass = 1", fillcolor="#e9965b"] ;
72 -> 258 ;
259 [label="er-cv <= 0.56\ngini = 0.07\nsamples = 612\nvalue = [920, 36]\nclass = 1", fillcolor="#e68641"] ;
258 -> 259 ;
260 [label="hbver <= 0.71\ngini = 0.1\nsamples = 383\nvalue = [556, 30]\nclass = 1", fillcolor="#e68844"] ;
259 -> 260 ;
261 [label="hbver <= 0.39\ngini = 0.09\nsamples = 381\nvalue = [556, 26]\nclass = 1", fillcolor="#e68742"] ;
260 -> 261 ;
262 [label="hbver <= 0.38\ngini = 0.5\nsamples = 5\nvalue = [4, 4]\nclass = 1", fillcolor="#ffffff"] ;
261 -> 262 ;
263 [label="gini = 0.0\nsamples = 4\nvalue = [4, 0]\nclass = 1", fillcolor="#e58139"] ;
262 -> 263 ;
264 [label="gini = 0.0\nsamples = 1\nvalue = [0, 4]\nclass = 0", fillcolor="#399de5"] ;
262 -> 264 ;
265 [label="leukocyty <= 0.45\ngini = 0.07\nsamples = 376\nvalue = [552, 22]\nclass = 1", fillcolor="#e68641"] ;
261 -> 265 ;
266 [label="erytrocyty <= 0.55\ngini = 0.42\nsamples = 10\nvalue = [12, 5]\nclass = 1", fillcolor="#f0b58b"] ;
265 -> 266 ;
267 [label="gini = 0.0\nsamples = 7\nvalue = [12, 0]\nclass = 1", fillcolor="#e58139"] ;
266 -> 267 ;
268 [label="gini = 0.0\nsamples = 3\nvalue = [0, 5]\nclass = 0", fillcolor="#399de5"] ;
266 -> 268 ;
269 [label="er-cv <= 0.53\ngini = 0.06\nsamples = 366\nvalue = [540, 17]\nclass = 1", fillcolor="#e6853f"] ;
265 -> 269 ;
270 [label="etytr <= 0.06\ngini = 0.05\nsamples = 342\nvalue = [507, 12]\nclass = 1", fillcolor="#e6843e"] ;
269 -> 270 ;
271 [label="hematokrit <= 0.38\ngini = 0.48\nsamples = 3\nvalue = [3, 2]\nclass = 1", fillcolor="#f6d5bd"] ;
270 -> 271 ;
272 [label="gini = 0.0\nsamples = 1\nvalue = [0, 2]\nclass = 0", fillcolor="#399de5"] ;
271 -> 272 ;
273 [label="gini = 0.0\nsamples = 2\nvalue = [3, 0]\nclass = 1", fillcolor="#e58139"] ;
271 -> 273 ;
274 [label="etytr <= 0.3\ngini = 0.04\nsamples = 339\nvalue = [504, 10]\nclass = 1", fillcolor="#e6843d"] ;
270 -> 274 ;
275 [label="erytrocyty <= 0.25\ngini = 0.02\nsamples = 299\nvalue = [455, 5]\nclass = 1", fillcolor="#e5823b"] ;
274 -> 275 ;
276 [label="erytrocyty <= 0.25\ngini = 0.2\nsamples = 11\nvalue = [16, 2]\nclass = 1", fillcolor="#e89152"] ;
275 -> 276 ;
277 [label="hbver <= 0.49\ngini = 0.11\nsamples = 10\nvalue = [16, 1]\nclass = 1", fillcolor="#e78945"] ;
276 -> 277 ;
278 [label="hbver <= 0.47\ngini = 0.22\nsamples = 4\nvalue = [7, 1]\nclass = 1", fillcolor="#e99355"] ;
277 -> 278 ;
279 [label="gini = 0.0\nsamples = 3\nvalue = [7, 0]\nclass = 1", fillcolor="#e58139"] ;
278 -> 279 ;
280 [label="gini = 0.0\nsamples = 1\nvalue = [0, 1]\nclass = 0", fillcolor="#399de5"] ;
278 -> 280 ;
281 [label="gini = 0.0\nsamples = 6\nvalue = [9, 0]\nclass = 1", fillcolor="#e58139"] ;
277 -> 281 ;
282 [label="gini = 0.0\nsamples = 1\nvalue = [0, 1]\nclass = 0", fillcolor="#399de5"] ;
276 -> 282 ;
283 [label="erytrocyty <= 0.49\ngini = 0.01\nsamples = 288\nvalue = [439, 3]\nclass = 1", fillcolor="#e5823a"] ;
275 -> 283 ;
284 [label="gini = 0.0\nsamples = 212\nvalue = [321, 0]\nclass = 1", fillcolor="#e58139"] ;
283 -> 284 ;
285 [label="erytrocyty <= 0.49\ngini = 0.05\nsamples = 76\nvalue = [118, 3]\nclass = 1", fillcolor="#e6843e"] ;
283 -> 285 ;
286 [label="gini = 0.0\nsamples = 1\nvalue = [0, 2]\nclass = 0", fillcolor="#399de5"] ;
285 -> 286 ;
287 [label="erytrocyty <= 0.52\ngini = 0.02\nsamples = 75\nvalue = [118, 1]\nclass = 1", fillcolor="#e5823b"] ;
285 -> 287 ;
288 [label="er-cv <= 0.45\ngini = 0.05\nsamples = 22\nvalue = [35, 1]\nclass = 1", fillcolor="#e6853f"] ;
287 -> 288 ;
289 [label="gini = 0.0\nsamples = 15\nvalue = [26, 0]\nclass = 1", fillcolor="#e58139"] ;
288 -> 289 ;
290 [label="er-cv <= 0.47\ngini = 0.18\nsamples = 7\nvalue = [9, 1]\nclass = 1", fillcolor="#e88f4f"] ;
288 -> 290 ;
291 [label="gini = 0.0\nsamples = 1\nvalue = [0, 1]\nclass = 0", fillcolor="#399de5"] ;
290 -> 291 ;
292 [label="gini = 0.0\nsamples = 6\nvalue = [9, 0]\nclass = 1", fillcolor="#e58139"] ;
290 -> 292 ;
293 [label="gini = 0.0\nsamples = 53\nvalue = [83, 0]\nclass = 1", fillcolor="#e58139"] ;
287 -> 293 ;
294 [label="etytr <= 0.3\ngini = 0.17\nsamples = 40\nvalue = [49, 5]\nclass = 1", fillcolor="#e88e4d"] ;
274 -> 294 ;
295 [label="gini = 0.0\nsamples = 1\nvalue = [0, 2]\nclass = 0", fillcolor="#399de5"] ;
294 -> 295 ;
296 [label="hematokrit <= 0.35\ngini = 0.11\nsamples = 39\nvalue = [49, 3]\nclass = 1", fillcolor="#e78945"] ;
294 -> 296 ;
297 [label="blood_group <= 5.5\ngini = 0.44\nsamples = 5\nvalue = [4, 2]\nclass = 1", fillcolor="#f2c09c"] ;
296 -> 297 ;
298 [label="gini = 0.0\nsamples = 3\nvalue = [3, 0]\nclass = 1", fillcolor="#e58139"] ;
297 -> 298 ;
299 [label="blood_group <= 6.5\ngini = 0.44\nsamples = 2\nvalue = [1, 2]\nclass = 0", fillcolor="#9ccef2"] ;
297 -> 299 ;
300 [label="gini = 0.0\nsamples = 1\nvalue = [0, 2]\nclass = 0", fillcolor="#399de5"] ;
299 -> 300 ;
301 [label="gini = 0.0\nsamples = 1\nvalue = [1, 0]\nclass = 1", fillcolor="#e58139"] ;
299 -> 301 ;
302 [label="leukocyty <= 0.49\ngini = 0.04\nsamples = 34\nvalue = [45, 1]\nclass = 1", fillcolor="#e6843d"] ;
296 -> 302 ;
303 [label="blood_group <= 1.5\ngini = 0.24\nsamples = 6\nvalue = [6, 1]\nclass = 1", fillcolor="#e9965a"] ;
302 -> 303 ;
304 [label="hematokrit <= 0.47\ngini = 0.44\nsamples = 2\nvalue = [2, 1]\nclass = 1", fillcolor="#f2c09c"] ;
303 -> 304 ;
305 [label="gini = 0.0\nsamples = 1\nvalue = [2, 0]\nclass = 1", fillcolor="#e58139"] ;
304 -> 305 ;
306 [label="gini = 0.0\nsamples = 1\nvalue = [0, 1]\nclass = 0", fillcolor="#399de5"] ;
304 -> 306 ;
307 [label="gini = 0.0\nsamples = 4\nvalue = [4, 0]\nclass = 1", fillcolor="#e58139"] ;
303 -> 307 ;
308 [label="gini = 0.0\nsamples = 28\nvalue = [39, 0]\nclass = 1", fillcolor="#e58139"] ;
302 -> 308 ;
309 [label="leukocyty <= 0.57\ngini = 0.23\nsamples = 24\nvalue = [33, 5]\nclass = 1", fillcolor="#e99457"] ;
269 -> 309 ;
310 [label="leukocyty <= 0.57\ngini = 0.42\nsamples = 11\nvalue = [12, 5]\nclass = 1", fillcolor="#f0b58b"] ;
309 -> 310 ;
311 [label="er-cv <= 0.53\ngini = 0.24\nsamples = 10\nvalue = [12, 2]\nclass = 1", fillcolor="#e9965a"] ;
310 -> 311 ;
312 [label="gini = 0.0\nsamples = 1\nvalue = [0, 2]\nclass = 0", fillcolor="#399de5"] ;
311 -> 312 ;
313 [label="gini = 0.0\nsamples = 9\nvalue = [12, 0]\nclass = 1", fillcolor="#e58139"] ;
311 -> 313 ;
314 [label="gini = 0.0\nsamples = 1\nvalue = [0, 3]\nclass = 0", fillcolor="#399de5"] ;
310 -> 314 ;
315 [label="gini = 0.0\nsamples = 13\nvalue = [21, 0]\nclass = 1", fillcolor="#e58139"] ;
309 -> 315 ;
316 [label="gini = 0.0\nsamples = 2\nvalue = [0, 4]\nclass = 0", fillcolor="#399de5"] ;
260 -> 316 ;
317 [label="hbver <= 0.74\ngini = 0.03\nsamples = 229\nvalue = [364, 6]\nclass = 1", fillcolor="#e5833c"] ;
259 -> 317 ;
318 [label="leukocyty <= 0.44\ngini = 0.03\nsamples = 228\nvalue = [364, 5]\nclass = 1", fillcolor="#e5833c"] ;
317 -> 318 ;
319 [label="hbver <= 0.69\ngini = 0.44\nsamples = 2\nvalue = [2, 1]\nclass = 1", fillcolor="#f2c09c"] ;
318 -> 319 ;
320 [label="gini = 0.0\nsamples = 1\nvalue = [0, 1]\nclass = 0", fillcolor="#399de5"] ;
319 -> 320 ;
321 [label="gini = 0.0\nsamples = 1\nvalue = [2, 0]\nclass = 1", fillcolor="#e58139"] ;
319 -> 321 ;
322 [label="er-cv <= 0.65\ngini = 0.02\nsamples = 226\nvalue = [362, 4]\nclass = 1", fillcolor="#e5823b"] ;
318 -> 322 ;
323 [label="hbver <= 0.4\ngini = 0.05\nsamples = 106\nvalue = [163, 4]\nclass = 1", fillcolor="#e6843e"] ;
322 -> 323 ;
324 [label="etytr <= 0.27\ngini = 0.44\nsamples = 5\nvalue = [4, 2]\nclass = 1", fillcolor="#f2c09c"] ;
323 -> 324 ;
325 [label="gini = 0.0\nsamples = 1\nvalue = [0, 2]\nclass = 0", fillcolor="#399de5"] ;
324 -> 325 ;
326 [label="gini = 0.0\nsamples = 4\nvalue = [4, 0]\nclass = 1", fillcolor="#e58139"] ;
324 -> 326 ;
327 [label="blood_group <= 1.5\ngini = 0.02\nsamples = 101\nvalue = [159, 2]\nclass = 1", fillcolor="#e5833b"] ;
323 -> 327 ;
328 [label="hematokrit <= 0.57\ngini = 0.09\nsamples = 24\nvalue = [38, 2]\nclass = 1", fillcolor="#e68843"] ;
327 -> 328 ;
329 [label="gini = 0.0\nsamples = 14\nvalue = [28, 0]\nclass = 1", fillcolor="#e58139"] ;
328 -> 329 ;
330 [label="hbver <= 0.64\ngini = 0.28\nsamples = 10\nvalue = [10, 2]\nclass = 1", fillcolor="#ea9a61"] ;
328 -> 330 ;
331 [label="erytrocyty <= 0.43\ngini = 0.17\nsamples = 9\nvalue = [10, 1]\nclass = 1", fillcolor="#e88e4d"] ;
330 -> 331 ;
332 [label="gini = 0.0\nsamples = 5\nvalue = [7, 0]\nclass = 1", fillcolor="#e58139"] ;
331 -> 332 ;
333 [label="leukocyty <= 0.73\ngini = 0.38\nsamples = 4\nvalue = [3, 1]\nclass = 1", fillcolor="#eeab7b"] ;
331 -> 333 ;
334 [label="gini = 0.0\nsamples = 3\nvalue = [3, 0]\nclass = 1", fillcolor="#e58139"] ;
333 -> 334 ;
335 [label="gini = 0.0\nsamples = 1\nvalue = [0, 1]\nclass = 0", fillcolor="#399de5"] ;
333 -> 335 ;
336 [label="gini = 0.0\nsamples = 1\nvalue = [0, 1]\nclass = 0", fillcolor="#399de5"] ;
330 -> 336 ;
337 [label="gini = 0.0\nsamples = 77\nvalue = [121, 0]\nclass = 1", fillcolor="#e58139"] ;
327 -> 337 ;
338 [label="gini = 0.0\nsamples = 120\nvalue = [199, 0]\nclass = 1", fillcolor="#e58139"] ;
322 -> 338 ;
339 [label="gini = 0.0\nsamples = 1\nvalue = [0, 1]\nclass = 0", fillcolor="#399de5"] ;
317 -> 339 ;
340 [label="leukocyty <= 0.61\ngini = 0.44\nsamples = 367\nvalue = [375, 184]\nclass = 1", fillcolor="#f2bf9a"] ;
258 -> 340 ;
341 [label="erytrocyty <= 0.69\ngini = 0.49\nsamples = 203\nvalue = [173, 130]\nclass = 1", fillcolor="#f9e0ce"] ;
340 -> 341 ;
342 [label="er-cv <= 0.71\ngini = 0.31\nsamples = 99\nvalue = [120, 28]\nclass = 1", fillcolor="#eb9e67"] ;
341 -> 342 ;
343 [label="hbver <= 0.43\ngini = 0.23\nsamples = 80\nvalue = [102, 16]\nclass = 1", fillcolor="#e99558"] ;
342 -> 343 ;
344 [label="leukocyty <= 0.53\ngini = 0.5\nsamples = 15\nvalue = [9, 11]\nclass = 0", fillcolor="#dbedfa"] ;
343 -> 344 ;
345 [label="etytr <= 0.41\ngini = 0.24\nsamples = 6\nvalue = [6, 1]\nclass = 1", fillcolor="#e9965a"] ;
344 -> 345 ;
346 [label="gini = 0.0\nsamples = 5\nvalue = [6, 0]\nclass = 1", fillcolor="#e58139"] ;
345 -> 346 ;
347 [label="gini = 0.0\nsamples = 1\nvalue = [0, 1]\nclass = 0", fillcolor="#399de5"] ;
345 -> 347 ;
348 [label="blood_group <= 2.0\ngini = 0.36\nsamples = 9\nvalue = [3, 10]\nclass = 0", fillcolor="#74baed"] ;
344 -> 348 ;
349 [label="erytrocyty <= 0.44\ngini = 0.38\nsamples = 2\nvalue = [3, 1]\nclass = 1", fillcolor="#eeab7b"] ;
348 -> 349 ;
350 [label="gini = 0.0\nsamples = 1\nvalue = [0, 1]\nclass = 0", fillcolor="#399de5"] ;
349 -> 350 ;
351 [label="gini = 0.0\nsamples = 1\nvalue = [3, 0]\nclass = 1", fillcolor="#e58139"] ;
349 -> 351 ;
352 [label="gini = 0.0\nsamples = 7\nvalue = [0, 9]\nclass = 0", fillcolor="#399de5"] ;
348 -> 352 ;
353 [label="erytrocyty <= 0.51\ngini = 0.1\nsamples = 65\nvalue = [93, 5]\nclass = 1", fillcolor="#e68844"] ;
343 -> 353 ;
354 [label="leukocyty <= 0.6\ngini = 0.02\nsamples = 51\nvalue = [79, 1]\nclass = 1", fillcolor="#e5833c"] ;
353 -> 354 ;
355 [label="gini = 0.0\nsamples = 48\nvalue = [77, 0]\nclass = 1", fillcolor="#e58139"] ;
354 -> 355 ;
356 [label="etytr <= 0.37\ngini = 0.44\nsamples = 3\nvalue = [2, 1]\nclass = 1", fillcolor="#f2c09c"] ;
354 -> 356 ;
357 [label="gini = 0.0\nsamples = 2\nvalue = [2, 0]\nclass = 1", fillcolor="#e58139"] ;
356 -> 357 ;
358 [label="gini = 0.0\nsamples = 1\nvalue = [0, 1]\nclass = 0", fillcolor="#399de5"] ;
356 -> 358 ;
359 [label="leukocyty <= 0.59\ngini = 0.35\nsamples = 14\nvalue = [14, 4]\nclass = 1", fillcolor="#eca572"] ;
353 -> 359 ;
360 [label="etytr <= 0.33\ngini = 0.22\nsamples = 13\nvalue = [14, 2]\nclass = 1", fillcolor="#e99355"] ;
359 -> 360 ;
361 [label="gini = 0.0\nsamples = 1\nvalue = [0, 1]\nclass = 0", fillcolor="#399de5"] ;
360 -> 361 ;
362 [label="hematokrit <= 0.31\ngini = 0.12\nsamples = 12\nvalue = [14, 1]\nclass = 1", fillcolor="#e78a47"] ;
360 -> 362 ;
363 [label="gini = 0.0\nsamples = 1\nvalue = [0, 1]\nclass = 0", fillcolor="#399de5"] ;
362 -> 363 ;
364 [label="gini = 0.0\nsamples = 11\nvalue = [14, 0]\nclass = 1", fillcolor="#e58139"] ;
362 -> 364 ;
365 [label="gini = 0.0\nsamples = 1\nvalue = [0, 2]\nclass = 0", fillcolor="#399de5"] ;
359 -> 365 ;
366 [label="erytrocyty <= 0.47\ngini = 0.48\nsamples = 19\nvalue = [18, 12]\nclass = 1", fillcolor="#f6d5bd"] ;
342 -> 366 ;
367 [label="hbver <= 0.5\ngini = 0.33\nsamples = 12\nvalue = [15, 4]\nclass = 1", fillcolor="#eca36e"] ;
366 -> 367 ;
368 [label="erytrocyty <= 0.4\ngini = 0.49\nsamples = 5\nvalue = [3, 4]\nclass = 0", fillcolor="#cee6f8"] ;
367 -> 368 ;
369 [label="gini = 0.0\nsamples = 3\nvalue = [0, 4]\nclass = 0", fillcolor="#399de5"] ;
368 -> 369 ;
370 [label="gini = 0.0\nsamples = 2\nvalue = [3, 0]\nclass = 1", fillcolor="#e58139"] ;
368 -> 370 ;
371 [label="gini = 0.0\nsamples = 7\nvalue = [12, 0]\nclass = 1", fillcolor="#e58139"] ;
367 -> 371 ;
372 [label="erytrocyty <= 0.59\ngini = 0.4\nsamples = 7\nvalue = [3, 8]\nclass = 0", fillcolor="#83c2ef"] ;
366 -> 372 ;
373 [label="gini = 0.0\nsamples = 3\nvalue = [0, 6]\nclass = 0", fillcolor="#399de5"] ;
372 -> 373 ;
374 [label="hematokrit <= 0.68\ngini = 0.48\nsamples = 4\nvalue = [3, 2]\nclass = 1", fillcolor="#f6d5bd"] ;
372 -> 374 ;
375 [label="gini = 0.0\nsamples = 1\nvalue = [0, 2]\nclass = 0", fillcolor="#399de5"] ;
374 -> 375 ;
376 [label="gini = 0.0\nsamples = 3\nvalue = [3, 0]\nclass = 1", fillcolor="#e58139"] ;
374 -> 376 ;
377 [label="hbver <= 0.54\ngini = 0.45\nsamples = 104\nvalue = [53, 102]\nclass = 0", fillcolor="#a0d0f3"] ;
341 -> 377 ;
378 [label="hematokrit <= 0.46\ngini = 0.46\nsamples = 53\nvalue = [47, 27]\nclass = 1", fillcolor="#f4c9ab"] ;
377 -> 378 ;
379 [label="erytrocyty <= 0.85\ngini = 0.32\nsamples = 21\nvalue = [24, 6]\nclass = 1", fillcolor="#eca06a"] ;
378 -> 379 ;
380 [label="smoker <= 0.5\ngini = 0.2\nsamples = 19\nvalue = [24, 3]\nclass = 1", fillcolor="#e89152"] ;
379 -> 380 ;
381 [label="leukocyty <= 0.52\ngini = 0.38\nsamples = 8\nvalue = [9, 3]\nclass = 1", fillcolor="#eeab7b"] ;
380 -> 381 ;
382 [label="erytrocyty <= 0.74\ngini = 0.5\nsamples = 5\nvalue = [3, 3]\nclass = 1", fillcolor="#ffffff"] ;
381 -> 382 ;
383 [label="gini = 0.0\nsamples = 2\nvalue = [2, 0]\nclass = 1", fillcolor="#e58139"] ;
382 -> 383 ;
384 [label="hbver <= 0.42\ngini = 0.38\nsamples = 3\nvalue = [1, 3]\nclass = 0", fillcolor="#7bbeee"] ;
382 -> 384 ;
385 [label="gini = 0.0\nsamples = 2\nvalue = [0, 3]\nclass = 0", fillcolor="#399de5"] ;
384 -> 385 ;
386 [label="gini = 0.0\nsamples = 1\nvalue = [1, 0]\nclass = 1", fillcolor="#e58139"] ;
384 -> 386 ;
387 [label="gini = 0.0\nsamples = 3\nvalue = [6, 0]\nclass = 1", fillcolor="#e58139"] ;
381 -> 387 ;
388 [label="gini = 0.0\nsamples = 11\nvalue = [15, 0]\nclass = 1", fillcolor="#e58139"] ;
380 -> 388 ;
389 [label="gini = 0.0\nsamples = 2\nvalue = [0, 3]\nclass = 0", fillcolor="#399de5"] ;
379 -> 389 ;
390 [label="etytr <= 0.38\ngini = 0.5\nsamples = 32\nvalue = [23, 21]\nclass = 1", fillcolor="#fdf4ee"] ;
378 -> 390 ;
391 [label="hbver <= 0.5\ngini = 0.41\nsamples = 18\nvalue = [7, 17]\nclass = 0", fillcolor="#8bc5f0"] ;
390 -> 391 ;
392 [label="etytr <= 0.33\ngini = 0.33\nsamples = 14\nvalue = [4, 15]\nclass = 0", fillcolor="#6eb7ec"] ;
391 -> 392 ;
393 [label="hbver <= 0.46\ngini = 0.44\nsamples = 3\nvalue = [2, 1]\nclass = 1", fillcolor="#f2c09c"] ;
392 -> 393 ;
394 [label="gini = 0.0\nsamples = 2\nvalue = [2, 0]\nclass = 1", fillcolor="#e58139"] ;
393 -> 394 ;
395 [label="gini = 0.0\nsamples = 1\nvalue = [0, 1]\nclass = 0", fillcolor="#399de5"] ;
393 -> 395 ;
396 [label="erytrocyty <= 0.8\ngini = 0.22\nsamples = 11\nvalue = [2, 14]\nclass = 0", fillcolor="#55abe9"] ;
392 -> 396 ;
397 [label="hbver <= 0.46\ngini = 0.44\nsamples = 5\nvalue = [2, 4]\nclass = 0", fillcolor="#9ccef2"] ;
396 -> 397 ;
398 [label="gini = 0.0\nsamples = 2\nvalue = [2, 0]\nclass = 1", fillcolor="#e58139"] ;
397 -> 398 ;
399 [label="gini = 0.0\nsamples = 3\nvalue = [0, 4]\nclass = 0", fillcolor="#399de5"] ;
397 -> 399 ;
400 [label="gini = 0.0\nsamples = 6\nvalue = [0, 10]\nclass = 0", fillcolor="#399de5"] ;
396 -> 400 ;
401 [label="smoker <= 0.5\ngini = 0.48\nsamples = 4\nvalue = [3, 2]\nclass = 1", fillcolor="#f6d5bd"] ;
391 -> 401 ;
402 [label="gini = 0.0\nsamples = 3\nvalue = [3, 0]\nclass = 1", fillcolor="#e58139"] ;
401 -> 402 ;
403 [label="gini = 0.0\nsamples = 1\nvalue = [0, 2]\nclass = 0", fillcolor="#399de5"] ;
401 -> 403 ;
404 [label="hematokrit <= 0.51\ngini = 0.32\nsamples = 14\nvalue = [16, 4]\nclass = 1", fillcolor="#eca06a"] ;
390 -> 404 ;
405 [label="etytr <= 0.41\ngini = 0.38\nsamples = 4\nvalue = [1, 3]\nclass = 0", fillcolor="#7bbeee"] ;
404 -> 405 ;
406 [label="erytrocyty <= 0.77\ngini = 0.5\nsamples = 2\nvalue = [1, 1]\nclass = 1", fillcolor="#ffffff"] ;
405 -> 406 ;
407 [label="gini = 0.0\nsamples = 1\nvalue = [1, 0]\nclass = 1", fillcolor="#e58139"] ;
406 -> 407 ;
408 [label="gini = 0.0\nsamples = 1\nvalue = [0, 1]\nclass = 0", fillcolor="#399de5"] ;
406 -> 408 ;
409 [label="gini = 0.0\nsamples = 2\nvalue = [0, 2]\nclass = 0", fillcolor="#399de5"] ;
405 -> 409 ;
410 [label="hbver <= 0.38\ngini = 0.12\nsamples = 10\nvalue = [15, 1]\nclass = 1", fillcolor="#e78946"] ;
404 -> 410 ;
411 [label="gini = 0.0\nsamples = 1\nvalue = [0, 1]\nclass = 0", fillcolor="#399de5"] ;
410 -> 411 ;
412 [label="gini = 0.0\nsamples = 9\nvalue = [15, 0]\nclass = 1", fillcolor="#e58139"] ;
410 -> 412 ;
413 [label="hbver <= 0.76\ngini = 0.14\nsamples = 51\nvalue = [6, 75]\nclass = 0", fillcolor="#49a5e7"] ;
377 -> 413 ;
414 [label="etytr <= 0.37\ngini = 0.05\nsamples = 48\nvalue = [2, 73]\nclass = 0", fillcolor="#3ea0e6"] ;
413 -> 414 ;
415 [label="gini = 0.0\nsamples = 28\nvalue = [0, 45]\nclass = 0", fillcolor="#399de5"] ;
414 -> 415 ;
416 [label="hbver <= 0.7\ngini = 0.12\nsamples = 20\nvalue = [2, 28]\nclass = 0", fillcolor="#47a4e7"] ;
414 -> 416 ;
417 [label="gini = 0.0\nsamples = 16\nvalue = [0, 25]\nclass = 0", fillcolor="#399de5"] ;
416 -> 417 ;
418 [label="erytrocyty <= 0.82\ngini = 0.48\nsamples = 4\nvalue = [2, 3]\nclass = 0", fillcolor="#bddef6"] ;
416 -> 418 ;
419 [label="gini = 0.0\nsamples = 2\nvalue = [0, 3]\nclass = 0", fillcolor="#399de5"] ;
418 -> 419 ;
420 [label="gini = 0.0\nsamples = 2\nvalue = [2, 0]\nclass = 1", fillcolor="#e58139"] ;
418 -> 420 ;
421 [label="hbver <= 0.76\ngini = 0.44\nsamples = 3\nvalue = [4, 2]\nclass = 1", fillcolor="#f2c09c"] ;
413 -> 421 ;
422 [label="gini = 0.0\nsamples = 1\nvalue = [4, 0]\nclass = 1", fillcolor="#e58139"] ;
421 -> 422 ;
423 [label="gini = 0.0\nsamples = 2\nvalue = [0, 2]\nclass = 0", fillcolor="#399de5"] ;
421 -> 423 ;
424 [label="er-cv <= 0.78\ngini = 0.33\nsamples = 164\nvalue = [202, 54]\nclass = 1", fillcolor="#eca36e"] ;
340 -> 424 ;
425 [label="etytr <= 0.37\ngini = 0.27\nsamples = 149\nvalue = [191, 37]\nclass = 1", fillcolor="#ea995f"] ;
424 -> 425 ;
426 [label="hematokrit <= 0.17\ngini = 0.1\nsamples = 76\nvalue = [111, 6]\nclass = 1", fillcolor="#e68844"] ;
425 -> 426 ;
427 [label="hematokrit <= 0.11\ngini = 0.5\nsamples = 2\nvalue = [1, 1]\nclass = 1", fillcolor="#ffffff"] ;
426 -> 427 ;
428 [label="gini = 0.0\nsamples = 1\nvalue = [1, 0]\nclass = 1", fillcolor="#e58139"] ;
427 -> 428 ;
429 [label="gini = 0.0\nsamples = 1\nvalue = [0, 1]\nclass = 0", fillcolor="#399de5"] ;
427 -> 429 ;
430 [label="er-cv <= 0.38\ngini = 0.08\nsamples = 74\nvalue = [110, 5]\nclass = 1", fillcolor="#e68742"] ;
426 -> 430 ;
431 [label="gini = 0.0\nsamples = 19\nvalue = [28, 0]\nclass = 1", fillcolor="#e58139"] ;
430 -> 431 ;
432 [label="hematokrit <= 0.43\ngini = 0.11\nsamples = 55\nvalue = [82, 5]\nclass = 1", fillcolor="#e78945"] ;
430 -> 432 ;
433 [label="hematokrit <= 0.42\ngini = 0.27\nsamples = 18\nvalue = [21, 4]\nclass = 1", fillcolor="#ea995f"] ;
432 -> 433 ;
434 [label="erytrocyty <= 0.56\ngini = 0.22\nsamples = 17\nvalue = [21, 3]\nclass = 1", fillcolor="#e99355"] ;
433 -> 434 ;
435 [label="hematokrit <= 0.24\ngini = 0.36\nsamples = 10\nvalue = [10, 3]\nclass = 1", fillcolor="#eda774"] ;
434 -> 435 ;
436 [label="gini = 0.0\nsamples = 5\nvalue = [7, 0]\nclass = 1", fillcolor="#e58139"] ;
435 -> 436 ;
437 [label="hbver <= 0.47\ngini = 0.5\nsamples = 5\nvalue = [3, 3]\nclass = 1", fillcolor="#ffffff"] ;
435 -> 437 ;
438 [label="gini = 0.0\nsamples = 2\nvalue = [0, 2]\nclass = 0", fillcolor="#399de5"] ;
437 -> 438 ;
439 [label="etytr <= 0.35\ngini = 0.38\nsamples = 3\nvalue = [3, 1]\nclass = 1", fillcolor="#eeab7b"] ;
437 -> 439 ;
440 [label="gini = 0.0\nsamples = 2\nvalue = [3, 0]\nclass = 1", fillcolor="#e58139"] ;
439 -> 440 ;
441 [label="gini = 0.0\nsamples = 1\nvalue = [0, 1]\nclass = 0", fillcolor="#399de5"] ;
439 -> 441 ;
442 [label="gini = 0.0\nsamples = 7\nvalue = [11, 0]\nclass = 1", fillcolor="#e58139"] ;
434 -> 442 ;
443 [label="gini = 0.0\nsamples = 1\nvalue = [0, 1]\nclass = 0", fillcolor="#399de5"] ;
433 -> 443 ;
444 [label="er-cv <= 0.42\ngini = 0.03\nsamples = 37\nvalue = [61, 1]\nclass = 1", fillcolor="#e5833c"] ;
432 -> 444 ;
445 [label="er-cv <= 0.42\ngini = 0.22\nsamples = 4\nvalue = [7, 1]\nclass = 1", fillcolor="#e99355"] ;
444 -> 445 ;
446 [label="gini = 0.0\nsamples = 3\nvalue = [7, 0]\nclass = 1", fillcolor="#e58139"] ;
445 -> 446 ;
447 [label="gini = 0.0\nsamples = 1\nvalue = [0, 1]\nclass = 0", fillcolor="#399de5"] ;
445 -> 447 ;
448 [label="gini = 0.0\nsamples = 33\nvalue = [54, 0]\nclass = 1", fillcolor="#e58139"] ;
444 -> 448 ;
449 [label="etytr <= 0.37\ngini = 0.4\nsamples = 73\nvalue = [80, 31]\nclass = 1", fillcolor="#efb286"] ;
425 -> 449 ;
450 [label="hbver <= 0.42\ngini = 0.49\nsamples = 7\nvalue = [6, 8]\nclass = 0", fillcolor="#cee6f8"] ;
449 -> 450 ;
451 [label="gini = 0.0\nsamples = 2\nvalue = [0, 6]\nclass = 0", fillcolor="#399de5"] ;
450 -> 451 ;
452 [label="erytrocyty <= 0.31\ngini = 0.38\nsamples = 5\nvalue = [6, 2]\nclass = 1", fillcolor="#eeab7b"] ;
450 -> 452 ;
453 [label="leukocyty <= 0.75\ngini = 0.44\nsamples = 2\nvalue = [1, 2]\nclass = 0", fillcolor="#9ccef2"] ;
452 -> 453 ;
454 [label="gini = 0.0\nsamples = 1\nvalue = [1, 0]\nclass = 1", fillcolor="#e58139"] ;
453 -> 454 ;
455 [label="gini = 0.0\nsamples = 1\nvalue = [0, 2]\nclass = 0", fillcolor="#399de5"] ;
453 -> 455 ;
456 [label="gini = 0.0\nsamples = 3\nvalue = [5, 0]\nclass = 1", fillcolor="#e58139"] ;
452 -> 456 ;
457 [label="hbver <= 0.6\ngini = 0.36\nsamples = 66\nvalue = [74, 23]\nclass = 1", fillcolor="#eda877"] ;
449 -> 457 ;
458 [label="etytr <= 0.39\ngini = 0.32\nsamples = 62\nvalue = [73, 18]\nclass = 1", fillcolor="#eba06a"] ;
457 -> 458 ;
459 [label="hbver <= 0.43\ngini = 0.08\nsamples = 15\nvalue = [23, 1]\nclass = 1", fillcolor="#e68642"] ;
458 -> 459 ;
460 [label="hbver <= 0.42\ngini = 0.2\nsamples = 7\nvalue = [8, 1]\nclass = 1", fillcolor="#e89152"] ;
459 -> 460 ;
461 [label="gini = 0.0\nsamples = 6\nvalue = [8, 0]\nclass = 1", fillcolor="#e58139"] ;
460 -> 461 ;
462 [label="gini = 0.0\nsamples = 1\nvalue = [0, 1]\nclass = 0", fillcolor="#399de5"] ;
460 -> 462 ;
463 [label="gini = 0.0\nsamples = 8\nvalue = [15, 0]\nclass = 1", fillcolor="#e58139"] ;
459 -> 463 ;
464 [label="hematokrit <= 0.72\ngini = 0.38\nsamples = 47\nvalue = [50, 17]\nclass = 1", fillcolor="#eeac7c"] ;
458 -> 464 ;
465 [label="leukocyty <= 0.65\ngini = 0.32\nsamples = 42\nvalue = [49, 12]\nclass = 1", fillcolor="#eba069"] ;
464 -> 465 ;
466 [label="gini = 0.0\nsamples = 11\nvalue = [16, 0]\nclass = 1", fillcolor="#e58139"] ;
465 -> 466 ;
467 [label="etytr <= 0.42\ngini = 0.39\nsamples = 31\nvalue = [33, 12]\nclass = 1", fillcolor="#eeaf81"] ;
465 -> 467 ;
468 [label="etytr <= 0.42\ngini = 0.47\nsamples = 25\nvalue = [19, 12]\nclass = 1", fillcolor="#f5d1b6"] ;
467 -> 468 ;
469 [label="hbver <= 0.39\ngini = 0.46\nsamples = 24\nvalue = [19, 11]\nclass = 1", fillcolor="#f4caac"] ;
468 -> 469 ;
470 [label="gini = 0.0\nsamples = 3\nvalue = [0, 3]\nclass = 0", fillcolor="#399de5"] ;
469 -> 470 ;
471 [label="leukocyty <= 0.67\ngini = 0.42\nsamples = 21\nvalue = [19, 8]\nclass = 1", fillcolor="#f0b68c"] ;
469 -> 471 ;
472 [label="etytr <= 0.42\ngini = 0.32\nsamples = 4\nvalue = [1, 4]\nclass = 0", fillcolor="#6ab6ec"] ;
471 -> 472 ;
473 [label="gini = 0.0\nsamples = 3\nvalue = [0, 4]\nclass = 0", fillcolor="#399de5"] ;
472 -> 473 ;
474 [label="gini = 0.0\nsamples = 1\nvalue = [1, 0]\nclass = 1", fillcolor="#e58139"] ;
472 -> 474 ;
475 [label="etytr <= 0.42\ngini = 0.3\nsamples = 17\nvalue = [18, 4]\nclass = 1", fillcolor="#eb9d65"] ;
471 -> 475 ;
476 [label="erytrocyty <= 0.68\ngini = 0.24\nsamples = 16\nvalue = [18, 3]\nclass = 1", fillcolor="#e9965a"] ;
475 -> 476 ;
477 [label="er-cv <= 0.18\ngini = 0.18\nsamples = 15\nvalue = [18, 2]\nclass = 1", fillcolor="#e88f4f"] ;
476 -> 477 ;
478 [label="gini = 0.0\nsamples = 1\nvalue = [0, 1]\nclass = 0", fillcolor="#399de5"] ;
477 -> 478 ;
479 [label="gini = 0.1\nsamples = 14\nvalue = [18, 1]\nclass = 1", fillcolor="#e68844"] ;
477 -> 479 ;
480 [label="gini = 0.0\nsamples = 1\nvalue = [0, 1]\nclass = 0", fillcolor="#399de5"] ;
476 -> 480 ;
481 [label="gini = 0.0\nsamples = 1\nvalue = [0, 1]\nclass = 0", fillcolor="#399de5"] ;
475 -> 481 ;
482 [label="gini = 0.0\nsamples = 1\nvalue = [0, 1]\nclass = 0", fillcolor="#399de5"] ;
468 -> 482 ;
483 [label="gini = 0.0\nsamples = 6\nvalue = [14, 0]\nclass = 1", fillcolor="#e58139"] ;
467 -> 483 ;
484 [label="er-cv <= 0.59\ngini = 0.28\nsamples = 5\nvalue = [1, 5]\nclass = 0", fillcolor="#61b1ea"] ;
464 -> 484 ;
485 [label="gini = 0.0\nsamples = 4\nvalue = [0, 5]\nclass = 0", fillcolor="#399de5"] ;
484 -> 485 ;
486 [label="gini = 0.0\nsamples = 1\nvalue = [1, 0]\nclass = 1", fillcolor="#e58139"] ;
484 -> 486 ;
487 [label="leukocyty <= 0.64\ngini = 0.28\nsamples = 4\nvalue = [1, 5]\nclass = 0", fillcolor="#61b1ea"] ;
457 -> 487 ;
488 [label="gini = 0.0\nsamples = 2\nvalue = [0, 3]\nclass = 0", fillcolor="#399de5"] ;
487 -> 488 ;
489 [label="etytr <= 0.4\ngini = 0.44\nsamples = 2\nvalue = [1, 2]\nclass = 0", fillcolor="#9ccef2"] ;
487 -> 489 ;
490 [label="gini = 0.0\nsamples = 1\nvalue = [0, 2]\nclass = 0", fillcolor="#399de5"] ;
489 -> 490 ;
491 [label="gini = 0.0\nsamples = 1\nvalue = [1, 0]\nclass = 1", fillcolor="#e58139"] ;
489 -> 491 ;
492 [label="er-cv <= 0.86\ngini = 0.48\nsamples = 15\nvalue = [11, 17]\nclass = 0", fillcolor="#b9dcf6"] ;
424 -> 492 ;
493 [label="etytr <= 0.33\ngini = 0.32\nsamples = 10\nvalue = [4, 16]\nclass = 0", fillcolor="#6ab6ec"] ;
492 -> 493 ;
494 [label="gini = 0.0\nsamples = 1\nvalue = [2, 0]\nclass = 1", fillcolor="#e58139"] ;
493 -> 494 ;
495 [label="hematokrit <= 0.54\ngini = 0.2\nsamples = 9\nvalue = [2, 16]\nclass = 0", fillcolor="#52a9e8"] ;
493 -> 495 ;
496 [label="hematokrit <= 0.48\ngini = 0.41\nsamples = 5\nvalue = [2, 5]\nclass = 0", fillcolor="#88c4ef"] ;
495 -> 496 ;
497 [label="gini = 0.0\nsamples = 3\nvalue = [0, 5]\nclass = 0", fillcolor="#399de5"] ;
496 -> 497 ;
498 [label="gini = 0.0\nsamples = 2\nvalue = [2, 0]\nclass = 1", fillcolor="#e58139"] ;
496 -> 498 ;
499 [label="gini = 0.0\nsamples = 4\nvalue = [0, 11]\nclass = 0", fillcolor="#399de5"] ;
495 -> 499 ;
500 [label="leukocyty <= 0.67\ngini = 0.22\nsamples = 5\nvalue = [7, 1]\nclass = 1", fillcolor="#e99355"] ;
492 -> 500 ;
501 [label="gini = 0.0\nsamples = 3\nvalue = [6, 0]\nclass = 1", fillcolor="#e58139"] ;
500 -> 501 ;
502 [label="erytrocyty <= 0.38\ngini = 0.5\nsamples = 2\nvalue = [1, 1]\nclass = 1", fillcolor="#ffffff"] ;
500 -> 502 ;
503 [label="gini = 0.0\nsamples = 1\nvalue = [0, 1]\nclass = 0", fillcolor="#399de5"] ;
502 -> 503 ;
504 [label="gini = 0.0\nsamples = 1\nvalue = [1, 0]\nclass = 1", fillcolor="#e58139"] ;
502 -> 504 ;
505 [label="etytr <= 0.33\ngini = 0.1\nsamples = 141\nvalue = [11, 207]\nclass = 0", fillcolor="#44a2e6"] ;
1 -> 505 ;
506 [label="hbver <= 0.8\ngini = 0.07\nsamples = 126\nvalue = [7, 186]\nclass = 0", fillcolor="#40a1e6"] ;
505 -> 506 ;
507 [label="hematokrit <= 0.52\ngini = 0.27\nsamples = 30\nvalue = [7, 36]\nclass = 0", fillcolor="#5fb0ea"] ;
506 -> 507 ;
508 [label="blood_group <= 5.5\ngini = 0.12\nsamples = 19\nvalue = [2, 28]\nclass = 0", fillcolor="#47a4e7"] ;
507 -> 508 ;
509 [label="gini = 0.0\nsamples = 13\nvalue = [0, 21]\nclass = 0", fillcolor="#399de5"] ;
508 -> 509 ;
510 [label="hematokrit <= 0.33\ngini = 0.35\nsamples = 6\nvalue = [2, 7]\nclass = 0", fillcolor="#72b9ec"] ;
508 -> 510 ;
511 [label="gini = 0.0\nsamples = 1\nvalue = [1, 0]\nclass = 1", fillcolor="#e58139"] ;
510 -> 511 ;
512 [label="leukocyty <= 0.24\ngini = 0.22\nsamples = 5\nvalue = [1, 7]\nclass = 0", fillcolor="#55abe9"] ;
510 -> 512 ;
513 [label="gini = 0.0\nsamples = 2\nvalue = [0, 4]\nclass = 0", fillcolor="#399de5"] ;
512 -> 513 ;
514 [label="leukocyty <= 0.33\ngini = 0.38\nsamples = 3\nvalue = [1, 3]\nclass = 0", fillcolor="#7bbeee"] ;
512 -> 514 ;
515 [label="gini = 0.0\nsamples = 1\nvalue = [1, 0]\nclass = 1", fillcolor="#e58139"] ;
514 -> 515 ;
516 [label="gini = 0.0\nsamples = 2\nvalue = [0, 3]\nclass = 0", fillcolor="#399de5"] ;
514 -> 516 ;
517 [label="hematokrit <= 0.55\ngini = 0.47\nsamples = 11\nvalue = [5, 8]\nclass = 0", fillcolor="#b5daf5"] ;
507 -> 517 ;
518 [label="gini = 0.0\nsamples = 2\nvalue = [3, 0]\nclass = 1", fillcolor="#e58139"] ;
517 -> 518 ;
519 [label="blood_group <= 1.5\ngini = 0.32\nsamples = 9\nvalue = [2, 8]\nclass = 0", fillcolor="#6ab6ec"] ;
517 -> 519 ;
520 [label="leukocyty <= 0.3\ngini = 0.5\nsamples = 3\nvalue = [2, 2]\nclass = 1", fillcolor="#ffffff"] ;
519 -> 520 ;
521 [label="gini = 0.0\nsamples = 2\nvalue = [2, 0]\nclass = 1", fillcolor="#e58139"] ;
520 -> 521 ;
522 [label="gini = 0.0\nsamples = 1\nvalue = [0, 2]\nclass = 0", fillcolor="#399de5"] ;
520 -> 522 ;
523 [label="gini = 0.0\nsamples = 6\nvalue = [0, 6]\nclass = 0", fillcolor="#399de5"] ;
519 -> 523 ;
524 [label="gini = 0.0\nsamples = 96\nvalue = [0, 150]\nclass = 0", fillcolor="#399de5"] ;
506 -> 524 ;
525 [label="erytrocyty <= 0.54\ngini = 0.27\nsamples = 15\nvalue = [4, 21]\nclass = 0", fillcolor="#5fb0ea"] ;
505 -> 525 ;
526 [label="gini = 0.0\nsamples = 3\nvalue = [4, 0]\nclass = 1", fillcolor="#e58139"] ;
525 -> 526 ;
527 [label="gini = 0.0\nsamples = 12\nvalue = [0, 21]\nclass = 0", fillcolor="#399de5"] ;
525 -> 527 ;
528 [label="etytr <= 0.68\ngini = 0.41\nsamples = 2122\nvalue = [978, 2361]\nclass = 0", fillcolor="#8bc6f0"] ;
0 -> 528 [labeldistance=2.5, labelangle=-45, headlabel="False"] ;
529 [label="leukocyty <= 0.36\ngini = 0.37\nsamples = 1728\nvalue = [661, 2042]\nclass = 0", fillcolor="#79bded"] ;
528 -> 529 ;
530 [label="hbver <= 0.3\ngini = 0.49\nsamples = 31\nvalue = [28, 21]\nclass = 1", fillcolor="#f8e0ce"] ;
529 -> 530 ;
531 [label="gini = 0.0\nsamples = 14\nvalue = [0, 21]\nclass = 0", fillcolor="#399de5"] ;
530 -> 531 ;
532 [label="gini = 0.0\nsamples = 17\nvalue = [28, 0]\nclass = 1", fillcolor="#e58139"] ;
530 -> 532 ;
533 [label="erytrocyty <= 0.61\ngini = 0.36\nsamples = 1697\nvalue = [633, 2021]\nclass = 0", fillcolor="#77bced"] ;
529 -> 533 ;
534 [label="erytrocyty <= 0.55\ngini = 0.16\nsamples = 1316\nvalue = [178, 1881]\nclass = 0", fillcolor="#4ca6e7"] ;
533 -> 534 ;
535 [label="etytr <= 0.47\ngini = 0.13\nsamples = 1188\nvalue = [129, 1743]\nclass = 0", fillcolor="#48a4e7"] ;
534 -> 535 ;
536 [label="leukocyty <= 0.8\ngini = 0.26\nsamples = 168\nvalue = [45, 249]\nclass = 0", fillcolor="#5dafea"] ;
535 -> 536 ;
537 [label="leukocyty <= 0.56\ngini = 0.24\nsamples = 166\nvalue = [40, 249]\nclass = 0", fillcolor="#59ade9"] ;
536 -> 537 ;
538 [label="hbver <= 0.47\ngini = 0.33\nsamples = 81\nvalue = [27, 105]\nclass = 0", fillcolor="#6cb6ec"] ;
537 -> 538 ;
539 [label="erytrocyty <= 0.55\ngini = 0.04\nsamples = 63\nvalue = [2, 102]\nclass = 0", fillcolor="#3d9fe6"] ;
538 -> 539 ;
540 [label="hematokrit <= 0.87\ngini = 0.02\nsamples = 62\nvalue = [1, 102]\nclass = 0", fillcolor="#3b9ee5"] ;
539 -> 540 ;
541 [label="gini = 0.0\nsamples = 59\nvalue = [0, 100]\nclass = 0", fillcolor="#399de5"] ;
540 -> 541 ;
542 [label="leukocyty <= 0.49\ngini = 0.44\nsamples = 3\nvalue = [1, 2]\nclass = 0", fillcolor="#9ccef2"] ;
540 -> 542 ;
543 [label="gini = 0.0\nsamples = 2\nvalue = [0, 2]\nclass = 0", fillcolor="#399de5"] ;
542 -> 543 ;
544 [label="gini = 0.0\nsamples = 1\nvalue = [1, 0]\nclass = 1", fillcolor="#e58139"] ;
542 -> 544 ;
545 [label="gini = 0.0\nsamples = 1\nvalue = [1, 0]\nclass = 1", fillcolor="#e58139"] ;
539 -> 545 ;
546 [label="hbver <= 0.7\ngini = 0.19\nsamples = 18\nvalue = [25, 3]\nclass = 1", fillcolor="#e89051"] ;
538 -> 546 ;
547 [label="gini = 0.0\nsamples = 16\nvalue = [25, 0]\nclass = 1", fillcolor="#e58139"] ;
546 -> 547 ;
548 [label="gini = 0.0\nsamples = 2\nvalue = [0, 3]\nclass = 0", fillcolor="#399de5"] ;
546 -> 548 ;
549 [label="erytrocyty <= 0.12\ngini = 0.15\nsamples = 85\nvalue = [13, 144]\nclass = 0", fillcolor="#4ba6e7"] ;
537 -> 549 ;
550 [label="gini = 0.0\nsamples = 1\nvalue = [2, 0]\nclass = 1", fillcolor="#e58139"] ;
549 -> 550 ;
551 [label="hbver <= 0.48\ngini = 0.13\nsamples = 84\nvalue = [11, 144]\nclass = 0", fillcolor="#48a4e7"] ;
549 -> 551 ;
552 [label="gini = 0.0\nsamples = 59\nvalue = [0, 108]\nclass = 0", fillcolor="#399de5"] ;
551 -> 552 ;
553 [label="leukocyty <= 0.63\ngini = 0.36\nsamples = 25\nvalue = [11, 36]\nclass = 0", fillcolor="#76bbed"] ;
551 -> 553 ;
554 [label="gini = 0.0\nsamples = 4\nvalue = [7, 0]\nclass = 1", fillcolor="#e58139"] ;
553 -> 554 ;
555 [label="hbver <= 0.48\ngini = 0.18\nsamples = 21\nvalue = [4, 36]\nclass = 0", fillcolor="#4fa8e8"] ;
553 -> 555 ;
556 [label="gini = 0.0\nsamples = 2\nvalue = [4, 0]\nclass = 1", fillcolor="#e58139"] ;
555 -> 556 ;
557 [label="gini = 0.0\nsamples = 19\nvalue = [0, 36]\nclass = 0", fillcolor="#399de5"] ;
555 -> 557 ;
558 [label="gini = 0.0\nsamples = 2\nvalue = [5, 0]\nclass = 1", fillcolor="#e58139"] ;
536 -> 558 ;
559 [label="erytrocyty <= 0.06\ngini = 0.1\nsamples = 1020\nvalue = [84, 1494]\nclass = 0", fillcolor="#44a3e6"] ;
535 -> 559 ;
560 [label="hematokrit <= 0.24\ngini = 0.48\nsamples = 2\nvalue = [3, 2]\nclass = 1", fillcolor="#f6d5bd"] ;
559 -> 560 ;
561 [label="gini = 0.0\nsamples = 1\nvalue = [3, 0]\nclass = 1", fillcolor="#e58139"] ;
560 -> 561 ;
562 [label="gini = 0.0\nsamples = 1\nvalue = [0, 2]\nclass = 0", fillcolor="#399de5"] ;
560 -> 562 ;
563 [label="hbver <= 0.47\ngini = 0.1\nsamples = 1018\nvalue = [81, 1492]\nclass = 0", fillcolor="#44a2e6"] ;
559 -> 563 ;
564 [label="etytr <= 0.54\ngini = 0.06\nsamples = 891\nvalue = [40, 1334]\nclass = 0", fillcolor="#3fa0e6"] ;
563 -> 564 ;
565 [label="leukocyty <= 0.86\ngini = 0.02\nsamples = 295\nvalue = [5, 452]\nclass = 0", fillcolor="#3b9ee5"] ;
564 -> 565 ;
566 [label="leukocyty <= 0.72\ngini = 0.02\nsamples = 294\nvalue = [4, 452]\nclass = 0", fillcolor="#3b9ee5"] ;
565 -> 566 ;
567 [label="hbver <= 0.1\ngini = 0.01\nsamples = 289\nvalue = [3, 444]\nclass = 0", fillcolor="#3a9ee5"] ;
566 -> 567 ;
568 [label="etytr <= 0.51\ngini = 0.5\nsamples = 2\nvalue = [1, 1]\nclass = 1", fillcolor="#ffffff"] ;
567 -> 568 ;
569 [label="gini = 0.0\nsamples = 1\nvalue = [0, 1]\nclass = 0", fillcolor="#399de5"] ;
568 -> 569 ;
570 [label="gini = 0.0\nsamples = 1\nvalue = [1, 0]\nclass = 1", fillcolor="#e58139"] ;
568 -> 570 ;
571 [label="erytrocyty <= 0.37\ngini = 0.01\nsamples = 287\nvalue = [2, 443]\nclass = 0", fillcolor="#3a9de5"] ;
567 -> 571 ;
572 [label="hematokrit <= 0.26\ngini = 0.02\nsamples = 114\nvalue = [2, 175]\nclass = 0", fillcolor="#3b9ee5"] ;
571 -> 572 ;
573 [label="erytrocyty <= 0.36\ngini = 0.3\nsamples = 8\nvalue = [2, 9]\nclass = 0", fillcolor="#65b3eb"] ;
572 -> 573 ;
574 [label="hematokrit <= 0.24\ngini = 0.18\nsamples = 7\nvalue = [1, 9]\nclass = 0", fillcolor="#4fa8e8"] ;
573 -> 574 ;
575 [label="gini = 0.0\nsamples = 6\nvalue = [0, 9]\nclass = 0", fillcolor="#399de5"] ;
574 -> 575 ;
576 [label="gini = 0.0\nsamples = 1\nvalue = [1, 0]\nclass = 1", fillcolor="#e58139"] ;
574 -> 576 ;
577 [label="gini = 0.0\nsamples = 1\nvalue = [1, 0]\nclass = 1", fillcolor="#e58139"] ;
573 -> 577 ;
578 [label="gini = 0.0\nsamples = 106\nvalue = [0, 166]\nclass = 0", fillcolor="#399de5"] ;
572 -> 578 ;
579 [label="gini = 0.0\nsamples = 173\nvalue = [0, 268]\nclass = 0", fillcolor="#399de5"] ;
571 -> 579 ;
580 [label="blood_group <= 6.5\ngini = 0.2\nsamples = 5\nvalue = [1, 8]\nclass = 0", fillcolor="#52a9e8"] ;
566 -> 580 ;
581 [label="gini = 0.0\nsamples = 4\nvalue = [0, 8]\nclass = 0", fillcolor="#399de5"] ;
580 -> 581 ;
582 [label="gini = 0.0\nsamples = 1\nvalue = [1, 0]\nclass = 1", fillcolor="#e58139"] ;
580 -> 582 ;
583 [label="gini = 0.0\nsamples = 1\nvalue = [1, 0]\nclass = 1", fillcolor="#e58139"] ;
565 -> 583 ;
584 [label="hbver <= 0.24\ngini = 0.07\nsamples = 596\nvalue = [35, 882]\nclass = 0", fillcolor="#41a1e6"] ;
564 -> 584 ;
585 [label="er-cv <= 0.34\ngini = 0.01\nsamples = 136\nvalue = [1, 204]\nclass = 0", fillcolor="#3a9de5"] ;
584 -> 585 ;
586 [label="er-cv <= 0.33\ngini = 0.06\nsamples = 23\nvalue = [1, 32]\nclass = 0", fillcolor="#3fa0e6"] ;
585 -> 586 ;
587 [label="gini = 0.0\nsamples = 22\nvalue = [0, 32]\nclass = 0", fillcolor="#399de5"] ;
586 -> 587 ;
588 [label="gini = 0.0\nsamples = 1\nvalue = [1, 0]\nclass = 1", fillcolor="#e58139"] ;
586 -> 588 ;
589 [label="gini = 0.0\nsamples = 113\nvalue = [0, 172]\nclass = 0", fillcolor="#399de5"] ;
585 -> 589 ;
590 [label="hbver <= 0.24\ngini = 0.09\nsamples = 460\nvalue = [34, 678]\nclass = 0", fillcolor="#43a2e6"] ;
584 -> 590 ;
591 [label="gini = 0.0\nsamples = 2\nvalue = [4, 0]\nclass = 1", fillcolor="#e58139"] ;
590 -> 591 ;
592 [label="hematokrit <= 0.41\ngini = 0.08\nsamples = 458\nvalue = [30, 678]\nclass = 0", fillcolor="#42a1e6"] ;
590 -> 592 ;
593 [label="hematokrit <= 0.41\ngini = 0.15\nsamples = 158\nvalue = [20, 231]\nclass = 0", fillcolor="#4aa5e7"] ;
592 -> 593 ;
594 [label="hematokrit <= 0.37\ngini = 0.13\nsamples = 157\nvalue = [17, 231]\nclass = 0", fillcolor="#48a4e7"] ;
593 -> 594 ;
595 [label="leukocyty <= 0.77\ngini = 0.08\nsamples = 119\nvalue = [8, 184]\nclass = 0", fillcolor="#42a1e6"] ;
594 -> 595 ;
596 [label="etytr <= 0.66\ngini = 0.07\nsamples = 118\nvalue = [7, 184]\nclass = 0", fillcolor="#41a1e6"] ;
595 -> 596 ;
597 [label="etytr <= 0.54\ngini = 0.05\nsamples = 112\nvalue = [5, 175]\nclass = 0", fillcolor="#3fa0e6"] ;
596 -> 597 ;
598 [label="hbver <= 0.33\ngini = 0.28\nsamples = 5\nvalue = [1, 5]\nclass = 0", fillcolor="#61b1ea"] ;
597 -> 598 ;
599 [label="hematokrit <= 0.24\ngini = 0.5\nsamples = 2\nvalue = [1, 1]\nclass = 1", fillcolor="#ffffff"] ;
598 -> 599 ;
600 [label="gini = 0.0\nsamples = 1\nvalue = [0, 1]\nclass = 0", fillcolor="#399de5"] ;
599 -> 600 ;
601 [label="gini = 0.0\nsamples = 1\nvalue = [1, 0]\nclass = 1", fillcolor="#e58139"] ;
599 -> 601 ;
602 [label="gini = 0.0\nsamples = 3\nvalue = [0, 4]\nclass = 0", fillcolor="#399de5"] ;
598 -> 602 ;
603 [label="hematokrit <= 0.16\ngini = 0.04\nsamples = 107\nvalue = [4, 170]\nclass = 0", fillcolor="#3e9fe6"] ;
597 -> 603 ;
604 [label="hematokrit <= 0.15\ngini = 0.19\nsamples = 12\nvalue = [2, 17]\nclass = 0", fillcolor="#50a9e8"] ;
603 -> 604 ;
605 [label="leukocyty <= 0.49\ngini = 0.1\nsamples = 11\nvalue = [1, 17]\nclass = 0", fillcolor="#45a3e7"] ;
604 -> 605 ;
606 [label="gini = 0.0\nsamples = 1\nvalue = [1, 0]\nclass = 1", fillcolor="#e58139"] ;
605 -> 606 ;
607 [label="gini = 0.0\nsamples = 10\nvalue = [0, 17]\nclass = 0", fillcolor="#399de5"] ;
605 -> 607 ;
608 [label="gini = 0.0\nsamples = 1\nvalue = [1, 0]\nclass = 1", fillcolor="#e58139"] ;
604 -> 608 ;
609 [label="er-cv <= 0.14\ngini = 0.03\nsamples = 95\nvalue = [2, 153]\nclass = 0", fillcolor="#3c9ee5"] ;
603 -> 609 ;
610 [label="leukocyty <= 0.5\ngini = 0.44\nsamples = 2\nvalue = [1, 2]\nclass = 0", fillcolor="#9ccef2"] ;
609 -> 610 ;
611 [label="gini = 0.0\nsamples = 1\nvalue = [1, 0]\nclass = 1", fillcolor="#e58139"] ;
610 -> 611 ;
612 [label="gini = 0.0\nsamples = 1\nvalue = [0, 2]\nclass = 0", fillcolor="#399de5"] ;
610 -> 612 ;
613 [label="er-cv <= 0.24\ngini = 0.01\nsamples = 93\nvalue = [1, 151]\nclass = 0", fillcolor="#3a9ee5"] ;
609 -> 613 ;
614 [label="gini = 0.14\nsamples = 9\nvalue = [1, 12]\nclass = 0", fillcolor="#49a5e7"] ;
613 -> 614 ;
615 [label="gini = 0.0\nsamples = 84\nvalue = [0, 139]\nclass = 0", fillcolor="#399de5"] ;
613 -> 615 ;
616 [label="blood_group <= 5.5\ngini = 0.3\nsamples = 6\nvalue = [2, 9]\nclass = 0", fillcolor="#65b3eb"] ;
596 -> 616 ;
617 [label="gini = 0.0\nsamples = 5\nvalue = [0, 9]\nclass = 0", fillcolor="#399de5"] ;
616 -> 617 ;
618 [label="gini = 0.0\nsamples = 1\nvalue = [2, 0]\nclass = 1", fillcolor="#e58139"] ;
616 -> 618 ;
619 [label="gini = 0.0\nsamples = 1\nvalue = [1, 0]\nclass = 1", fillcolor="#e58139"] ;
595 -> 619 ;
620 [label="hbver <= 0.26\ngini = 0.27\nsamples = 38\nvalue = [9, 47]\nclass = 0", fillcolor="#5fb0ea"] ;
594 -> 620 ;
621 [label="gini = 0.0\nsamples = 1\nvalue = [2, 0]\nclass = 1", fillcolor="#e58139"] ;
620 -> 621 ;
622 [label="hematokrit <= 0.37\ngini = 0.23\nsamples = 37\nvalue = [7, 47]\nclass = 0", fillcolor="#56ace9"] ;
620 -> 622 ;
623 [label="gini = 0.0\nsamples = 1\nvalue = [4, 0]\nclass = 1", fillcolor="#e58139"] ;
622 -> 623 ;
624 [label="etytr <= 0.55\ngini = 0.11\nsamples = 36\nvalue = [3, 47]\nclass = 0", fillcolor="#46a3e7"] ;
622 -> 624 ;
625 [label="leukocyty <= 0.65\ngini = 0.38\nsamples = 7\nvalue = [3, 9]\nclass = 0", fillcolor="#7bbeee"] ;
624 -> 625 ;
626 [label="gini = 0.0\nsamples = 6\nvalue = [0, 9]\nclass = 0", fillcolor="#399de5"] ;
625 -> 626 ;
627 [label="gini = 0.0\nsamples = 1\nvalue = [3, 0]\nclass = 1", fillcolor="#e58139"] ;
625 -> 627 ;
628 [label="gini = 0.0\nsamples = 29\nvalue = [0, 38]\nclass = 0", fillcolor="#399de5"] ;
624 -> 628 ;
629 [label="gini = 0.0\nsamples = 1\nvalue = [3, 0]\nclass = 1", fillcolor="#e58139"] ;
593 -> 629 ;
630 [label="etytr <= 0.54\ngini = 0.04\nsamples = 300\nvalue = [10, 447]\nclass = 0", fillcolor="#3d9fe6"] ;
592 -> 630 ;
631 [label="gini = 0.0\nsamples = 1\nvalue = [1, 0]\nclass = 1", fillcolor="#e58139"] ;
630 -> 631 ;
632 [label="er-cv <= 0.45\ngini = 0.04\nsamples = 299\nvalue = [9, 447]\nclass = 0", fillcolor="#3d9fe6"] ;
630 -> 632 ;
633 [label="gini = 0.0\nsamples = 122\nvalue = [0, 191]\nclass = 0", fillcolor="#399de5"] ;
632 -> 633 ;
634 [label="er-cv <= 0.45\ngini = 0.07\nsamples = 177\nvalue = [9, 256]\nclass = 0", fillcolor="#40a0e6"] ;
632 -> 634 ;
635 [label="gini = 0.0\nsamples = 1\nvalue = [2, 0]\nclass = 1", fillcolor="#e58139"] ;
634 -> 635 ;
636 [label="etytr <= 0.54\ngini = 0.05\nsamples = 176\nvalue = [7, 256]\nclass = 0", fillcolor="#3ea0e6"] ;
634 -> 636 ;
637 [label="blood_group <= 2.5\ngini = 0.35\nsamples = 5\nvalue = [2, 7]\nclass = 0", fillcolor="#72b9ec"] ;
636 -> 637 ;
638 [label="gini = 0.0\nsamples = 1\nvalue = [2, 0]\nclass = 1", fillcolor="#e58139"] ;
637 -> 638 ;
639 [label="gini = 0.0\nsamples = 4\nvalue = [0, 7]\nclass = 0", fillcolor="#399de5"] ;
637 -> 639 ;
640 [label="er-cv <= 0.46\ngini = 0.04\nsamples = 171\nvalue = [5, 249]\nclass = 0", fillcolor="#3d9fe6"] ;
636 -> 640 ;
641 [label="er-cv <= 0.46\ngini = 0.32\nsamples = 7\nvalue = [2, 8]\nclass = 0", fillcolor="#6ab6ec"] ;
640 -> 641 ;
642 [label="gini = 0.0\nsamples = 6\nvalue = [0, 8]\nclass = 0", fillcolor="#399de5"] ;
641 -> 642 ;
643 [label="gini = 0.0\nsamples = 1\nvalue = [2, 0]\nclass = 1", fillcolor="#e58139"] ;
641 -> 643 ;
644 [label="smoker <= 0.5\ngini = 0.02\nsamples = 164\nvalue = [3, 241]\nclass = 0", fillcolor="#3b9ee5"] ;
640 -> 644 ;
645 [label="gini = 0.0\nsamples = 96\nvalue = [0, 141]\nclass = 0", fillcolor="#399de5"] ;
644 -> 645 ;
646 [label="erytrocyty <= 0.13\ngini = 0.06\nsamples = 68\nvalue = [3, 100]\nclass = 0", fillcolor="#3fa0e6"] ;
644 -> 646 ;
647 [label="gini = 0.0\nsamples = 1\nvalue = [2, 0]\nclass = 1", fillcolor="#e58139"] ;
646 -> 647 ;
648 [label="etytr <= 0.65\ngini = 0.02\nsamples = 67\nvalue = [1, 100]\nclass = 0", fillcolor="#3b9ee5"] ;
646 -> 648 ;
649 [label="gini = 0.0\nsamples = 58\nvalue = [0, 84]\nclass = 0", fillcolor="#399de5"] ;
648 -> 649 ;
650 [label="gini = 0.11\nsamples = 9\nvalue = [1, 16]\nclass = 0", fillcolor="#45a3e7"] ;
648 -> 650 ;
651 [label="leukocyty <= 0.64\ngini = 0.33\nsamples = 127\nvalue = [41, 158]\nclass = 0", fillcolor="#6cb6ec"] ;
563 -> 651 ;
652 [label="hbver <= 0.48\ngini = 0.34\nsamples = 18\nvalue = [18, 5]\nclass = 1", fillcolor="#eca470"] ;
651 -> 652 ;
653 [label="leukocyty <= 0.59\ngini = 0.32\nsamples = 3\nvalue = [1, 4]\nclass = 0", fillcolor="#6ab6ec"] ;
652 -> 653 ;
654 [label="gini = 0.0\nsamples = 2\nvalue = [0, 4]\nclass = 0", fillcolor="#399de5"] ;
653 -> 654 ;
655 [label="gini = 0.0\nsamples = 1\nvalue = [1, 0]\nclass = 1", fillcolor="#e58139"] ;
653 -> 655 ;
656 [label="etytr <= 0.55\ngini = 0.1\nsamples = 15\nvalue = [17, 1]\nclass = 1", fillcolor="#e78845"] ;
652 -> 656 ;
657 [label="leukocyty <= 0.59\ngini = 0.28\nsamples = 6\nvalue = [5, 1]\nclass = 1", fillcolor="#ea9a61"] ;
656 -> 657 ;
658 [label="gini = 0.0\nsamples = 5\nvalue = [5, 0]\nclass = 1", fillcolor="#e58139"] ;
657 -> 658 ;
659 [label="gini = 0.0\nsamples = 1\nvalue = [0, 1]\nclass = 0", fillcolor="#399de5"] ;
657 -> 659 ;
660 [label="gini = 0.0\nsamples = 9\nvalue = [12, 0]\nclass = 1", fillcolor="#e58139"] ;
656 -> 660 ;
661 [label="er-cv <= 0.89\ngini = 0.23\nsamples = 109\nvalue = [23, 153]\nclass = 0", fillcolor="#57ace9"] ;
651 -> 661 ;
662 [label="blood_group <= 0.5\ngini = 0.2\nsamples = 107\nvalue = [19, 151]\nclass = 0", fillcolor="#52a9e8"] ;
661 -> 662 ;
663 [label="hematokrit <= 0.51\ngini = 0.5\nsamples = 15\nvalue = [11, 13]\nclass = 0", fillcolor="#e1f0fb"] ;
662 -> 663 ;
664 [label="erytrocyty <= 0.51\ngini = 0.2\nsamples = 5\nvalue = [8, 1]\nclass = 1", fillcolor="#e89152"] ;
663 -> 664 ;
665 [label="gini = 0.0\nsamples = 4\nvalue = [8, 0]\nclass = 1", fillcolor="#e58139"] ;
664 -> 665 ;
666 [label="gini = 0.0\nsamples = 1\nvalue = [0, 1]\nclass = 0", fillcolor="#399de5"] ;
664 -> 666 ;
667 [label="hematokrit <= 0.7\ngini = 0.32\nsamples = 10\nvalue = [3, 12]\nclass = 0", fillcolor="#6ab6ec"] ;
663 -> 667 ;
668 [label="hematokrit <= 0.68\ngini = 0.42\nsamples = 7\nvalue = [3, 7]\nclass = 0", fillcolor="#8ec7f0"] ;
667 -> 668 ;
669 [label="etytr <= 0.49\ngini = 0.22\nsamples = 6\nvalue = [1, 7]\nclass = 0", fillcolor="#55abe9"] ;
668 -> 669 ;
670 [label="gini = 0.0\nsamples = 1\nvalue = [1, 0]\nclass = 1", fillcolor="#e58139"] ;
669 -> 670 ;
671 [label="gini = 0.0\nsamples = 5\nvalue = [0, 7]\nclass = 0", fillcolor="#399de5"] ;
669 -> 671 ;
672 [label="gini = 0.0\nsamples = 1\nvalue = [2, 0]\nclass = 1", fillcolor="#e58139"] ;
668 -> 672 ;
673 [label="gini = 0.0\nsamples = 3\nvalue = [0, 5]\nclass = 0", fillcolor="#399de5"] ;
667 -> 673 ;
674 [label="hematokrit <= 0.1\ngini = 0.1\nsamples = 92\nvalue = [8, 138]\nclass = 0", fillcolor="#44a3e7"] ;
662 -> 674 ;
675 [label="gini = 0.0\nsamples = 1\nvalue = [2, 0]\nclass = 1", fillcolor="#e58139"] ;
674 -> 675 ;
676 [label="leukocyty <= 0.71\ngini = 0.08\nsamples = 91\nvalue = [6, 138]\nclass = 0", fillcolor="#42a1e6"] ;
674 -> 676 ;
677 [label="hematokrit <= 0.33\ngini = 0.19\nsamples = 27\nvalue = [4, 34]\nclass = 0", fillcolor="#50a9e8"] ;
676 -> 677 ;
678 [label="er-cv <= 0.21\ngini = 0.48\nsamples = 4\nvalue = [2, 3]\nclass = 0", fillcolor="#bddef6"] ;
677 -> 678 ;
679 [label="gini = 0.0\nsamples = 1\nvalue = [0, 2]\nclass = 0", fillcolor="#399de5"] ;
678 -> 679 ;
680 [label="hbver <= 0.52\ngini = 0.44\nsamples = 3\nvalue = [2, 1]\nclass = 1", fillcolor="#f2c09c"] ;
678 -> 680 ;
681 [label="gini = 0.0\nsamples = 1\nvalue = [0, 1]\nclass = 0", fillcolor="#399de5"] ;
680 -> 681 ;
682 [label="gini = 0.0\nsamples = 2\nvalue = [2, 0]\nclass = 1", fillcolor="#e58139"] ;
680 -> 682 ;
683 [label="er-cv <= 0.62\ngini = 0.11\nsamples = 23\nvalue = [2, 31]\nclass = 0", fillcolor="#46a3e7"] ;
677 -> 683 ;
684 [label="etytr <= 0.48\ngini = 0.06\nsamples = 22\nvalue = [1, 31]\nclass = 0", fillcolor="#3fa0e6"] ;
683 -> 684 ;
685 [label="erytrocyty <= 0.52\ngini = 0.38\nsamples = 3\nvalue = [1, 3]\nclass = 0", fillcolor="#7bbeee"] ;
684 -> 685 ;
686 [label="gini = 0.0\nsamples = 2\nvalue = [0, 3]\nclass = 0", fillcolor="#399de5"] ;
685 -> 686 ;
687 [label="gini = 0.0\nsamples = 1\nvalue = [1, 0]\nclass = 1", fillcolor="#e58139"] ;
685 -> 687 ;
688 [label="gini = 0.0\nsamples = 19\nvalue = [0, 28]\nclass = 0", fillcolor="#399de5"] ;
684 -> 688 ;
689 [label="gini = 0.0\nsamples = 1\nvalue = [1, 0]\nclass = 1", fillcolor="#e58139"] ;
683 -> 689 ;
690 [label="erytrocyty <= 0.49\ngini = 0.04\nsamples = 64\nvalue = [2, 104]\nclass = 0", fillcolor="#3d9fe6"] ;
676 -> 690 ;
691 [label="gini = 0.0\nsamples = 47\nvalue = [0, 75]\nclass = 0", fillcolor="#399de5"] ;
690 -> 691 ;
692 [label="erytrocyty <= 0.5\ngini = 0.12\nsamples = 17\nvalue = [2, 29]\nclass = 0", fillcolor="#47a4e7"] ;
690 -> 692 ;
693 [label="gini = 0.0\nsamples = 1\nvalue = [1, 0]\nclass = 1", fillcolor="#e58139"] ;
692 -> 693 ;
694 [label="erytrocyty <= 0.52\ngini = 0.06\nsamples = 16\nvalue = [1, 29]\nclass = 0", fillcolor="#40a0e6"] ;
692 -> 694 ;
695 [label="leukocyty <= 0.74\ngini = 0.28\nsamples = 5\nvalue = [1, 5]\nclass = 0", fillcolor="#61b1ea"] ;
694 -> 695 ;
696 [label="gini = 0.0\nsamples = 1\nvalue = [1, 0]\nclass = 1", fillcolor="#e58139"] ;
695 -> 696 ;
697 [label="gini = 0.0\nsamples = 4\nvalue = [0, 5]\nclass = 0", fillcolor="#399de5"] ;
695 -> 697 ;
698 [label="gini = 0.0\nsamples = 11\nvalue = [0, 24]\nclass = 0", fillcolor="#399de5"] ;
694 -> 698 ;
699 [label="blood_group <= 3.5\ngini = 0.44\nsamples = 2\nvalue = [4, 2]\nclass = 1", fillcolor="#f2c09c"] ;
661 -> 699 ;
700 [label="gini = 0.0\nsamples = 1\nvalue = [4, 0]\nclass = 1", fillcolor="#e58139"] ;
699 -> 700 ;
701 [label="gini = 0.0\nsamples = 1\nvalue = [0, 2]\nclass = 0", fillcolor="#399de5"] ;
699 -> 701 ;
702 [label="blood_group <= 5.5\ngini = 0.39\nsamples = 128\nvalue = [49, 138]\nclass = 0", fillcolor="#7fc0ee"] ;
534 -> 702 ;
703 [label="etytr <= 0.49\ngini = 0.32\nsamples = 90\nvalue = [28, 112]\nclass = 0", fillcolor="#6ab6ec"] ;
702 -> 703 ;
704 [label="hbver <= 0.44\ngini = 0.45\nsamples = 18\nvalue = [11, 21]\nclass = 0", fillcolor="#a1d0f3"] ;
703 -> 704 ;
705 [label="gini = 0.0\nsamples = 14\nvalue = [0, 21]\nclass = 0", fillcolor="#399de5"] ;
704 -> 705 ;
706 [label="gini = 0.0\nsamples = 4\nvalue = [11, 0]\nclass = 1", fillcolor="#e58139"] ;
704 -> 706 ;
707 [label="leukocyty <= 0.48\ngini = 0.27\nsamples = 72\nvalue = [17, 91]\nclass = 0", fillcolor="#5eafea"] ;
703 -> 707 ;
708 [label="hbver <= 0.31\ngini = 0.4\nsamples = 8\nvalue = [8, 3]\nclass = 1", fillcolor="#efb083"] ;
707 -> 708 ;
709 [label="gini = 0.0\nsamples = 1\nvalue = [0, 3]\nclass = 0", fillcolor="#399de5"] ;
708 -> 709 ;
710 [label="gini = 0.0\nsamples = 7\nvalue = [8, 0]\nclass = 1", fillcolor="#e58139"] ;
708 -> 710 ;
711 [label="hbver <= 0.47\ngini = 0.17\nsamples = 64\nvalue = [9, 88]\nclass = 0", fillcolor="#4da7e8"] ;
707 -> 711 ;
712 [label="leukocyty <= 0.75\ngini = 0.02\nsamples = 49\nvalue = [1, 78]\nclass = 0", fillcolor="#3c9ee5"] ;
711 -> 712 ;
713 [label="gini = 0.0\nsamples = 48\nvalue = [0, 78]\nclass = 0", fillcolor="#399de5"] ;
712 -> 713 ;
714 [label="gini = 0.0\nsamples = 1\nvalue = [1, 0]\nclass = 1", fillcolor="#e58139"] ;
712 -> 714 ;
715 [label="blood_group <= 3.5\ngini = 0.49\nsamples = 15\nvalue = [8, 10]\nclass = 0", fillcolor="#d7ebfa"] ;
711 -> 715 ;
716 [label="etytr <= 0.52\ngini = 0.36\nsamples = 11\nvalue = [3, 10]\nclass = 0", fillcolor="#74baed"] ;
715 -> 716 ;
717 [label="gini = 0.0\nsamples = 2\nvalue = [2, 0]\nclass = 1", fillcolor="#e58139"] ;
716 -> 717 ;
718 [label="hematokrit <= 0.42\ngini = 0.17\nsamples = 9\nvalue = [1, 10]\nclass = 0", fillcolor="#4da7e8"] ;
716 -> 718 ;
719 [label="gini = 0.0\nsamples = 1\nvalue = [1, 0]\nclass = 1", fillcolor="#e58139"] ;
718 -> 719 ;
720 [label="gini = 0.0\nsamples = 8\nvalue = [0, 10]\nclass = 0", fillcolor="#399de5"] ;
718 -> 720 ;
721 [label="gini = 0.0\nsamples = 4\nvalue = [5, 0]\nclass = 1", fillcolor="#e58139"] ;
715 -> 721 ;
722 [label="er-cv <= 0.61\ngini = 0.49\nsamples = 38\nvalue = [21, 26]\nclass = 0", fillcolor="#d9ecfa"] ;
702 -> 722 ;
723 [label="hematokrit <= 0.23\ngini = 0.5\nsamples = 28\nvalue = [19, 17]\nclass = 1", fillcolor="#fcf2ea"] ;
722 -> 723 ;
724 [label="gini = 0.0\nsamples = 2\nvalue = [0, 3]\nclass = 0", fillcolor="#399de5"] ;
723 -> 724 ;
725 [label="hbver <= 0.46\ngini = 0.49\nsamples = 26\nvalue = [19, 14]\nclass = 1", fillcolor="#f8decb"] ;
723 -> 725 ;
726 [label="erytrocyty <= 0.58\ngini = 0.3\nsamples = 13\nvalue = [3, 13]\nclass = 0", fillcolor="#67b4eb"] ;
725 -> 726 ;
727 [label="hematokrit <= 0.41\ngini = 0.15\nsamples = 9\nvalue = [1, 11]\nclass = 0", fillcolor="#4ba6e7"] ;
726 -> 727 ;
728 [label="gini = 0.0\nsamples = 1\nvalue = [1, 0]\nclass = 1", fillcolor="#e58139"] ;
727 -> 728 ;
729 [label="gini = 0.0\nsamples = 8\nvalue = [0, 11]\nclass = 0", fillcolor="#399de5"] ;
727 -> 729 ;
730 [label="hbver <= 0.25\ngini = 0.5\nsamples = 4\nvalue = [2, 2]\nclass = 1", fillcolor="#ffffff"] ;
726 -> 730 ;
731 [label="gini = 0.0\nsamples = 2\nvalue = [0, 2]\nclass = 0", fillcolor="#399de5"] ;
730 -> 731 ;
732 [label="gini = 0.0\nsamples = 2\nvalue = [2, 0]\nclass = 1", fillcolor="#e58139"] ;
730 -> 732 ;
733 [label="er-cv <= 0.24\ngini = 0.11\nsamples = 13\nvalue = [16, 1]\nclass = 1", fillcolor="#e78945"] ;
725 -> 733 ;
734 [label="gini = 0.0\nsamples = 1\nvalue = [0, 1]\nclass = 0", fillcolor="#399de5"] ;
733 -> 734 ;
735 [label="gini = 0.0\nsamples = 12\nvalue = [16, 0]\nclass = 1", fillcolor="#e58139"] ;
733 -> 735 ;
736 [label="leukocyty <= 0.51\ngini = 0.3\nsamples = 10\nvalue = [2, 9]\nclass = 0", fillcolor="#65b3eb"] ;
722 -> 736 ;
737 [label="gini = 0.0\nsamples = 4\nvalue = [0, 5]\nclass = 0", fillcolor="#399de5"] ;
736 -> 737 ;
738 [label="blood_group <= 6.5\ngini = 0.44\nsamples = 6\nvalue = [2, 4]\nclass = 0", fillcolor="#9ccef2"] ;
736 -> 738 ;
739 [label="gini = 0.0\nsamples = 3\nvalue = [0, 3]\nclass = 0", fillcolor="#399de5"] ;
738 -> 739 ;
740 [label="er-cv <= 0.63\ngini = 0.44\nsamples = 3\nvalue = [2, 1]\nclass = 1", fillcolor="#f2c09c"] ;
738 -> 740 ;
741 [label="gini = 0.0\nsamples = 1\nvalue = [0, 1]\nclass = 0", fillcolor="#399de5"] ;
740 -> 741 ;
742 [label="gini = 0.0\nsamples = 2\nvalue = [2, 0]\nclass = 1", fillcolor="#e58139"] ;
740 -> 742 ;
743 [label="etytr <= 0.65\ngini = 0.36\nsamples = 381\nvalue = [455, 140]\nclass = 1", fillcolor="#eda876"] ;
533 -> 743 ;
744 [label="leukocyty <= 0.54\ngini = 0.38\nsamples = 347\nvalue = [398, 134]\nclass = 1", fillcolor="#eeab7c"] ;
743 -> 744 ;
745 [label="hbver <= 0.37\ngini = 0.27\nsamples = 123\nvalue = [155, 29]\nclass = 1", fillcolor="#ea995e"] ;
744 -> 745 ;
746 [label="hbver <= 0.13\ngini = 0.19\nsamples = 20\nvalue = [3, 25]\nclass = 0", fillcolor="#51a9e8"] ;
745 -> 746 ;
747 [label="gini = 0.0\nsamples = 1\nvalue = [2, 0]\nclass = 1", fillcolor="#e58139"] ;
746 -> 747 ;
748 [label="hematokrit <= 0.4\ngini = 0.07\nsamples = 19\nvalue = [1, 25]\nclass = 0", fillcolor="#41a1e6"] ;
746 -> 748 ;
749 [label="hematokrit <= 0.38\ngini = 0.24\nsamples = 5\nvalue = [1, 6]\nclass = 0", fillcolor="#5aade9"] ;
748 -> 749 ;
750 [label="gini = 0.0\nsamples = 4\nvalue = [0, 6]\nclass = 0", fillcolor="#399de5"] ;
749 -> 750 ;
751 [label="gini = 0.0\nsamples = 1\nvalue = [1, 0]\nclass = 1", fillcolor="#e58139"] ;
749 -> 751 ;
752 [label="gini = 0.0\nsamples = 14\nvalue = [0, 19]\nclass = 0", fillcolor="#399de5"] ;
748 -> 752 ;
753 [label="erytrocyty <= 0.67\ngini = 0.05\nsamples = 103\nvalue = [152, 4]\nclass = 1", fillcolor="#e6843e"] ;
745 -> 753 ;
754 [label="er-cv <= 0.45\ngini = 0.1\nsamples = 32\nvalue = [51, 3]\nclass = 1", fillcolor="#e78845"] ;
753 -> 754 ;
755 [label="gini = 0.0\nsamples = 16\nvalue = [26, 0]\nclass = 1", fillcolor="#e58139"] ;
754 -> 755 ;
756 [label="er-cv <= 0.5\ngini = 0.19\nsamples = 16\nvalue = [25, 3]\nclass = 1", fillcolor="#e89051"] ;
754 -> 756 ;
757 [label="gini = 0.0\nsamples = 1\nvalue = [0, 2]\nclass = 0", fillcolor="#399de5"] ;
756 -> 757 ;
758 [label="er-cv <= 0.76\ngini = 0.07\nsamples = 15\nvalue = [25, 1]\nclass = 1", fillcolor="#e68641"] ;
756 -> 758 ;
759 [label="gini = 0.0\nsamples = 12\nvalue = [20, 0]\nclass = 1", fillcolor="#e58139"] ;
758 -> 759 ;
760 [label="hbver <= 0.55\ngini = 0.28\nsamples = 3\nvalue = [5, 1]\nclass = 1", fillcolor="#ea9a61"] ;
758 -> 760 ;
761 [label="gini = 0.0\nsamples = 2\nvalue = [5, 0]\nclass = 1", fillcolor="#e58139"] ;
760 -> 761 ;
762 [label="gini = 0.0\nsamples = 1\nvalue = [0, 1]\nclass = 0", fillcolor="#399de5"] ;
760 -> 762 ;
763 [label="hematokrit <= 0.27\ngini = 0.02\nsamples = 71\nvalue = [101, 1]\nclass = 1", fillcolor="#e5823b"] ;
753 -> 763 ;
764 [label="hematokrit <= 0.26\ngini = 0.24\nsamples = 5\nvalue = [6, 1]\nclass = 1", fillcolor="#e9965a"] ;
763 -> 764 ;
765 [label="gini = 0.0\nsamples = 4\nvalue = [6, 0]\nclass = 1", fillcolor="#e58139"] ;
764 -> 765 ;
766 [label="gini = 0.0\nsamples = 1\nvalue = [0, 1]\nclass = 0", fillcolor="#399de5"] ;
764 -> 766 ;
767 [label="gini = 0.0\nsamples = 66\nvalue = [95, 0]\nclass = 1", fillcolor="#e58139"] ;
763 -> 767 ;
768 [label="hbver <= 0.42\ngini = 0.42\nsamples = 224\nvalue = [243, 105]\nclass = 1", fillcolor="#f0b78f"] ;
744 -> 768 ;
769 [label="hematokrit <= 0.65\ngini = 0.17\nsamples = 34\nvalue = [5, 47]\nclass = 0", fillcolor="#4ea7e8"] ;
768 -> 769 ;
770 [label="gini = 0.0\nsamples = 27\nvalue = [0, 42]\nclass = 0", fillcolor="#399de5"] ;
769 -> 770 ;
771 [label="erytrocyty <= 0.62\ngini = 0.5\nsamples = 7\nvalue = [5, 5]\nclass = 1", fillcolor="#ffffff"] ;
769 -> 771 ;
772 [label="gini = 0.0\nsamples = 2\nvalue = [0, 4]\nclass = 0", fillcolor="#399de5"] ;
771 -> 772 ;
773 [label="etytr <= 0.57\ngini = 0.28\nsamples = 5\nvalue = [5, 1]\nclass = 1", fillcolor="#ea9a61"] ;
771 -> 773 ;
774 [label="gini = 0.0\nsamples = 4\nvalue = [5, 0]\nclass = 1", fillcolor="#e58139"] ;
773 -> 774 ;
775 [label="gini = 0.0\nsamples = 1\nvalue = [0, 1]\nclass = 0", fillcolor="#399de5"] ;
773 -> 775 ;
776 [label="erytrocyty <= 0.85\ngini = 0.32\nsamples = 190\nvalue = [238, 58]\nclass = 1", fillcolor="#eba069"] ;
768 -> 776 ;
777 [label="leukocyty <= 0.72\ngini = 0.27\nsamples = 182\nvalue = [235, 46]\nclass = 1", fillcolor="#ea9a60"] ;
776 -> 777 ;
778 [label="hbver <= 0.5\ngini = 0.22\nsamples = 140\nvalue = [187, 27]\nclass = 1", fillcolor="#e99356"] ;
777 -> 778 ;
779 [label="hbver <= 0.49\ngini = 0.44\nsamples = 24\nvalue = [28, 14]\nclass = 1", fillcolor="#f2c09c"] ;
778 -> 779 ;
780 [label="er-cv <= 0.56\ngini = 0.32\nsamples = 21\nvalue = [28, 7]\nclass = 1", fillcolor="#eca06a"] ;
779 -> 780 ;
781 [label="hematokrit <= 0.46\ngini = 0.46\nsamples = 10\nvalue = [11, 6]\nclass = 1", fillcolor="#f3c6a5"] ;
780 -> 781 ;
782 [label="er-cv <= 0.17\ngini = 0.34\nsamples = 7\nvalue = [11, 3]\nclass = 1", fillcolor="#eca36f"] ;
781 -> 782 ;
783 [label="gini = 0.0\nsamples = 1\nvalue = [0, 1]\nclass = 0", fillcolor="#399de5"] ;
782 -> 783 ;
784 [label="etytr <= 0.56\ngini = 0.26\nsamples = 6\nvalue = [11, 2]\nclass = 1", fillcolor="#ea985d"] ;
782 -> 784 ;
785 [label="gini = 0.0\nsamples = 5\nvalue = [11, 0]\nclass = 1", fillcolor="#e58139"] ;
784 -> 785 ;
786 [label="gini = 0.0\nsamples = 1\nvalue = [0, 2]\nclass = 0", fillcolor="#399de5"] ;
784 -> 786 ;
787 [label="gini = 0.0\nsamples = 3\nvalue = [0, 3]\nclass = 0", fillcolor="#399de5"] ;
781 -> 787 ;
788 [label="er-cv <= 0.66\ngini = 0.1\nsamples = 11\nvalue = [17, 1]\nclass = 1", fillcolor="#e78845"] ;
780 -> 788 ;
789 [label="leukocyty <= 0.65\ngini = 0.28\nsamples = 5\nvalue = [5, 1]\nclass = 1", fillcolor="#ea9a61"] ;
788 -> 789 ;
790 [label="gini = 0.0\nsamples = 4\nvalue = [5, 0]\nclass = 1", fillcolor="#e58139"] ;
789 -> 790 ;
791 [label="gini = 0.0\nsamples = 1\nvalue = [0, 1]\nclass = 0", fillcolor="#399de5"] ;
789 -> 791 ;
792 [label="gini = 0.0\nsamples = 6\nvalue = [12, 0]\nclass = 1", fillcolor="#e58139"] ;
788 -> 792 ;
793 [label="gini = 0.0\nsamples = 3\nvalue = [0, 7]\nclass = 0", fillcolor="#399de5"] ;
779 -> 793 ;
794 [label="etytr <= 0.45\ngini = 0.14\nsamples = 116\nvalue = [159, 13]\nclass = 1", fillcolor="#e78b49"] ;
778 -> 794 ;
795 [label="erytrocyty <= 0.68\ngini = 0.41\nsamples = 5\nvalue = [2, 5]\nclass = 0", fillcolor="#88c4ef"] ;
794 -> 795 ;
796 [label="gini = 0.0\nsamples = 1\nvalue = [2, 0]\nclass = 1", fillcolor="#e58139"] ;
795 -> 796 ;
797 [label="gini = 0.0\nsamples = 4\nvalue = [0, 5]\nclass = 0", fillcolor="#399de5"] ;
795 -> 797 ;
798 [label="etytr <= 0.58\ngini = 0.09\nsamples = 111\nvalue = [157, 8]\nclass = 1", fillcolor="#e68743"] ;
794 -> 798 ;
799 [label="er-cv <= 0.27\ngini = 0.02\nsamples = 73\nvalue = [112, 1]\nclass = 1", fillcolor="#e5823b"] ;
798 -> 799 ;
800 [label="er-cv <= 0.27\ngini = 0.1\nsamples = 11\nvalue = [17, 1]\nclass = 1", fillcolor="#e78845"] ;
799 -> 800 ;
801 [label="gini = 0.0\nsamples = 10\nvalue = [17, 0]\nclass = 1", fillcolor="#e58139"] ;
800 -> 801 ;
802 [label="gini = 0.0\nsamples = 1\nvalue = [0, 1]\nclass = 0", fillcolor="#399de5"] ;
800 -> 802 ;
803 [label="gini = 0.0\nsamples = 62\nvalue = [95, 0]\nclass = 1", fillcolor="#e58139"] ;
799 -> 803 ;
804 [label="er-cv <= 0.65\ngini = 0.23\nsamples = 38\nvalue = [45, 7]\nclass = 1", fillcolor="#e99558"] ;
798 -> 804 ;
805 [label="er-cv <= 0.45\ngini = 0.12\nsamples = 34\nvalue = [43, 3]\nclass = 1", fillcolor="#e78a47"] ;
804 -> 805 ;
806 [label="erytrocyty <= 0.8\ngini = 0.28\nsamples = 15\nvalue = [15, 3]\nclass = 1", fillcolor="#ea9a61"] ;
805 -> 806 ;
807 [label="smoker <= 0.5\ngini = 0.12\nsamples = 12\nvalue = [14, 1]\nclass = 1", fillcolor="#e78a47"] ;
806 -> 807 ;
808 [label="gini = 0.0\nsamples = 10\nvalue = [13, 0]\nclass = 1", fillcolor="#e58139"] ;
807 -> 808 ;
809 [label="etytr <= 0.59\ngini = 0.5\nsamples = 2\nvalue = [1, 1]\nclass = 1", fillcolor="#ffffff"] ;
807 -> 809 ;
810 [label="gini = 0.0\nsamples = 1\nvalue = [1, 0]\nclass = 1", fillcolor="#e58139"] ;
809 -> 810 ;
811 [label="gini = 0.0\nsamples = 1\nvalue = [0, 1]\nclass = 0", fillcolor="#399de5"] ;
809 -> 811 ;
812 [label="hematokrit <= 0.49\ngini = 0.44\nsamples = 3\nvalue = [1, 2]\nclass = 0", fillcolor="#9ccef2"] ;
806 -> 812 ;
813 [label="gini = 0.0\nsamples = 1\nvalue = [1, 0]\nclass = 1", fillcolor="#e58139"] ;
812 -> 813 ;
814 [label="gini = 0.0\nsamples = 2\nvalue = [0, 2]\nclass = 0", fillcolor="#399de5"] ;
812 -> 814 ;
815 [label="gini = 0.0\nsamples = 19\nvalue = [28, 0]\nclass = 1", fillcolor="#e58139"] ;
805 -> 815 ;
816 [label="hbver <= 0.7\ngini = 0.44\nsamples = 4\nvalue = [2, 4]\nclass = 0", fillcolor="#9ccef2"] ;
804 -> 816 ;
817 [label="erytrocyty <= 0.71\ngini = 0.32\nsamples = 3\nvalue = [1, 4]\nclass = 0", fillcolor="#6ab6ec"] ;
816 -> 817 ;
818 [label="gini = 0.0\nsamples = 1\nvalue = [1, 0]\nclass = 1", fillcolor="#e58139"] ;
817 -> 818 ;
819 [label="gini = 0.0\nsamples = 2\nvalue = [0, 4]\nclass = 0", fillcolor="#399de5"] ;
817 -> 819 ;
820 [label="gini = 0.0\nsamples = 1\nvalue = [1, 0]\nclass = 1", fillcolor="#e58139"] ;
816 -> 820 ;
821 [label="smoker <= 0.5\ngini = 0.41\nsamples = 42\nvalue = [48, 19]\nclass = 1", fillcolor="#efb387"] ;
777 -> 821 ;
822 [label="erytrocyty <= 0.7\ngini = 0.49\nsamples = 23\nvalue = [20, 15]\nclass = 1", fillcolor="#f8e0ce"] ;
821 -> 822 ;
823 [label="leukocyty <= 0.75\ngini = 0.44\nsamples = 14\nvalue = [7, 14]\nclass = 0", fillcolor="#9ccef2"] ;
822 -> 823 ;
824 [label="gini = 0.0\nsamples = 5\nvalue = [0, 7]\nclass = 0", fillcolor="#399de5"] ;
823 -> 824 ;
825 [label="erytrocyty <= 0.65\ngini = 0.5\nsamples = 9\nvalue = [7, 7]\nclass = 1", fillcolor="#ffffff"] ;
823 -> 825 ;
826 [label="gini = 0.0\nsamples = 5\nvalue = [7, 0]\nclass = 1", fillcolor="#e58139"] ;
825 -> 826 ;
827 [label="gini = 0.0\nsamples = 4\nvalue = [0, 7]\nclass = 0", fillcolor="#399de5"] ;
825 -> 827 ;
828 [label="blood_group <= 5.5\ngini = 0.13\nsamples = 9\nvalue = [13, 1]\nclass = 1", fillcolor="#e78b48"] ;
822 -> 828 ;
829 [label="gini = 0.0\nsamples = 7\nvalue = [12, 0]\nclass = 1", fillcolor="#e58139"] ;
828 -> 829 ;
830 [label="erytrocyty <= 0.79\ngini = 0.5\nsamples = 2\nvalue = [1, 1]\nclass = 1", fillcolor="#ffffff"] ;
828 -> 830 ;
831 [label="gini = 0.0\nsamples = 1\nvalue = [0, 1]\nclass = 0", fillcolor="#399de5"] ;
830 -> 831 ;
832 [label="gini = 0.0\nsamples = 1\nvalue = [1, 0]\nclass = 1", fillcolor="#e58139"] ;
830 -> 832 ;
833 [label="hbver <= 0.47\ngini = 0.22\nsamples = 19\nvalue = [28, 4]\nclass = 1", fillcolor="#e99355"] ;
821 -> 833 ;
834 [label="gini = 0.0\nsamples = 2\nvalue = [0, 3]\nclass = 0", fillcolor="#399de5"] ;
833 -> 834 ;
835 [label="blood_group <= 1.5\ngini = 0.07\nsamples = 17\nvalue = [28, 1]\nclass = 1", fillcolor="#e68640"] ;
833 -> 835 ;
836 [label="erytrocyty <= 0.82\ngini = 0.5\nsamples = 2\nvalue = [1, 1]\nclass = 1", fillcolor="#ffffff"] ;
835 -> 836 ;
837 [label="gini = 0.0\nsamples = 1\nvalue = [1, 0]\nclass = 1", fillcolor="#e58139"] ;
836 -> 837 ;
838 [label="gini = 0.0\nsamples = 1\nvalue = [0, 1]\nclass = 0", fillcolor="#399de5"] ;
836 -> 838 ;
839 [label="gini = 0.0\nsamples = 15\nvalue = [27, 0]\nclass = 1", fillcolor="#e58139"] ;
835 -> 839 ;
840 [label="hematokrit <= 0.26\ngini = 0.32\nsamples = 8\nvalue = [3, 12]\nclass = 0", fillcolor="#6ab6ec"] ;
776 -> 840 ;
841 [label="gini = 0.0\nsamples = 2\nvalue = [2, 0]\nclass = 1", fillcolor="#e58139"] ;
840 -> 841 ;
842 [label="er-cv <= 0.67\ngini = 0.14\nsamples = 6\nvalue = [1, 12]\nclass = 0", fillcolor="#49a5e7"] ;
840 -> 842 ;
843 [label="gini = 0.0\nsamples = 5\nvalue = [0, 12]\nclass = 0", fillcolor="#399de5"] ;
842 -> 843 ;
844 [label="gini = 0.0\nsamples = 1\nvalue = [1, 0]\nclass = 1", fillcolor="#e58139"] ;
842 -> 844 ;
845 [label="er-cv <= 0.86\ngini = 0.17\nsamples = 34\nvalue = [57, 6]\nclass = 1", fillcolor="#e88e4e"] ;
743 -> 845 ;
846 [label="leukocyty <= 0.65\ngini = 0.09\nsamples = 33\nvalue = [57, 3]\nclass = 1", fillcolor="#e68843"] ;
845 -> 846 ;
847 [label="gini = 0.0\nsamples = 22\nvalue = [41, 0]\nclass = 1", fillcolor="#e58139"] ;
846 -> 847 ;
848 [label="er-cv <= 0.56\ngini = 0.27\nsamples = 11\nvalue = [16, 3]\nclass = 1", fillcolor="#ea995e"] ;
846 -> 848 ;
849 [label="gini = 0.0\nsamples = 1\nvalue = [0, 2]\nclass = 0", fillcolor="#399de5"] ;
848 -> 849 ;
850 [label="leukocyty <= 0.66\ngini = 0.11\nsamples = 10\nvalue = [16, 1]\nclass = 1", fillcolor="#e78945"] ;
848 -> 850 ;
851 [label="gini = 0.0\nsamples = 1\nvalue = [0, 1]\nclass = 0", fillcolor="#399de5"] ;
850 -> 851 ;
852 [label="gini = 0.0\nsamples = 9\nvalue = [16, 0]\nclass = 1", fillcolor="#e58139"] ;
850 -> 852 ;
853 [label="gini = 0.0\nsamples = 1\nvalue = [0, 3]\nclass = 0", fillcolor="#399de5"] ;
845 -> 853 ;
854 [label="hbver <= 0.55\ngini = 0.5\nsamples = 394\nvalue = [317, 319]\nclass = 0", fillcolor="#fefeff"] ;
528 -> 854 ;
855 [label="leukocyty <= 0.89\ngini = 0.06\nsamples = 198\nvalue = [10, 303]\nclass = 0", fillcolor="#40a0e6"] ;
854 -> 855 ;
856 [label="blood_group <= 1.5\ngini = 0.06\nsamples = 197\nvalue = [9, 303]\nclass = 0", fillcolor="#3fa0e6"] ;
855 -> 856 ;
857 [label="leukocyty <= 0.75\ngini = 0.16\nsamples = 36\nvalue = [5, 54]\nclass = 0", fillcolor="#4ba6e7"] ;
856 -> 857 ;
858 [label="etytr <= 0.68\ngini = 0.07\nsamples = 34\nvalue = [2, 53]\nclass = 0", fillcolor="#40a1e6"] ;
857 -> 858 ;
859 [label="gini = 0.0\nsamples = 1\nvalue = [2, 0]\nclass = 1", fillcolor="#e58139"] ;
858 -> 859 ;
860 [label="gini = 0.0\nsamples = 33\nvalue = [0, 53]\nclass = 0", fillcolor="#399de5"] ;
858 -> 860 ;
861 [label="leukocyty <= 0.79\ngini = 0.38\nsamples = 2\nvalue = [3, 1]\nclass = 1", fillcolor="#eeab7b"] ;
857 -> 861 ;
862 [label="gini = 0.0\nsamples = 1\nvalue = [3, 0]\nclass = 1", fillcolor="#e58139"] ;
861 -> 862 ;
863 [label="gini = 0.0\nsamples = 1\nvalue = [0, 1]\nclass = 0", fillcolor="#399de5"] ;
861 -> 863 ;
864 [label="etytr <= 0.69\ngini = 0.03\nsamples = 161\nvalue = [4, 249]\nclass = 0", fillcolor="#3c9fe5"] ;
856 -> 864 ;
865 [label="erytrocyty <= 0.62\ngini = 0.17\nsamples = 19\nvalue = [3, 29]\nclass = 0", fillcolor="#4da7e8"] ;
864 -> 865 ;
866 [label="etytr <= 0.69\ngini = 0.12\nsamples = 18\nvalue = [2, 29]\nclass = 0", fillcolor="#47a4e7"] ;
865 -> 866 ;
867 [label="gini = 0.0\nsamples = 17\nvalue = [0, 29]\nclass = 0", fillcolor="#399de5"] ;
866 -> 867 ;
868 [label="gini = 0.0\nsamples = 1\nvalue = [2, 0]\nclass = 1", fillcolor="#e58139"] ;
866 -> 868 ;
869 [label="gini = 0.0\nsamples = 1\nvalue = [1, 0]\nclass = 1", fillcolor="#e58139"] ;
865 -> 869 ;
870 [label="hematokrit <= 0.37\ngini = 0.01\nsamples = 142\nvalue = [1, 220]\nclass = 0", fillcolor="#3a9de5"] ;
864 -> 870 ;
871 [label="hematokrit <= 0.37\ngini = 0.05\nsamples = 30\nvalue = [1, 41]\nclass = 0", fillcolor="#3e9fe6"] ;
870 -> 871 ;
872 [label="gini = 0.0\nsamples = 29\nvalue = [0, 41]\nclass = 0", fillcolor="#399de5"] ;
871 -> 872 ;
873 [label="gini = 0.0\nsamples = 1\nvalue = [1, 0]\nclass = 1", fillcolor="#e58139"] ;
871 -> 873 ;
874 [label="gini = 0.0\nsamples = 112\nvalue = [0, 179]\nclass = 0", fillcolor="#399de5"] ;
870 -> 874 ;
875 [label="gini = 0.0\nsamples = 1\nvalue = [1, 0]\nclass = 1", fillcolor="#e58139"] ;
855 -> 875 ;
876 [label="er-cv <= 0.8\ngini = 0.09\nsamples = 196\nvalue = [307, 16]\nclass = 1", fillcolor="#e68843"] ;
854 -> 876 ;
877 [label="leukocyty <= 0.77\ngini = 0.08\nsamples = 188\nvalue = [295, 13]\nclass = 1", fillcolor="#e68742"] ;
876 -> 877 ;
878 [label="blood_group <= 1.5\ngini = 0.03\nsamples = 162\nvalue = [265, 4]\nclass = 1", fillcolor="#e5833c"] ;
877 -> 878 ;
879 [label="blood_group <= 0.5\ngini = 0.1\nsamples = 48\nvalue = [72, 4]\nclass = 1", fillcolor="#e68844"] ;
878 -> 879 ;
880 [label="gini = 0.0\nsamples = 26\nvalue = [40, 0]\nclass = 1", fillcolor="#e58139"] ;
879 -> 880 ;
881 [label="etytr <= 0.72\ngini = 0.2\nsamples = 22\nvalue = [32, 4]\nclass = 1", fillcolor="#e89152"] ;
879 -> 881 ;
882 [label="gini = 0.0\nsamples = 9\nvalue = [18, 0]\nclass = 1", fillcolor="#e58139"] ;
881 -> 882 ;
883 [label="erytrocyty <= 0.74\ngini = 0.35\nsamples = 13\nvalue = [14, 4]\nclass = 1", fillcolor="#eca572"] ;
881 -> 883 ;
884 [label="erytrocyty <= 0.54\ngini = 0.15\nsamples = 8\nvalue = [11, 1]\nclass = 1", fillcolor="#e78c4b"] ;
883 -> 884 ;
885 [label="gini = 0.0\nsamples = 1\nvalue = [0, 1]\nclass = 0", fillcolor="#399de5"] ;
884 -> 885 ;
886 [label="gini = 0.0\nsamples = 7\nvalue = [11, 0]\nclass = 1", fillcolor="#e58139"] ;
884 -> 886 ;
887 [label="erytrocyty <= 0.82\ngini = 0.5\nsamples = 5\nvalue = [3, 3]\nclass = 1", fillcolor="#ffffff"] ;
883 -> 887 ;
888 [label="gini = 0.0\nsamples = 2\nvalue = [0, 3]\nclass = 0", fillcolor="#399de5"] ;
887 -> 888 ;
889 [label="gini = 0.0\nsamples = 3\nvalue = [3, 0]\nclass = 1", fillcolor="#e58139"] ;
887 -> 889 ;
890 [label="gini = 0.0\nsamples = 114\nvalue = [193, 0]\nclass = 1", fillcolor="#e58139"] ;
878 -> 890 ;
891 [label="hematokrit <= 0.42\ngini = 0.36\nsamples = 26\nvalue = [30, 9]\nclass = 1", fillcolor="#eda774"] ;
877 -> 891 ;
892 [label="gini = 0.0\nsamples = 6\nvalue = [13, 0]\nclass = 1", fillcolor="#e58139"] ;
891 -> 892 ;
893 [label="leukocyty <= 0.79\ngini = 0.45\nsamples = 20\nvalue = [17, 9]\nclass = 1", fillcolor="#f3c4a2"] ;
891 -> 893 ;
894 [label="leukocyty <= 0.79\ngini = 0.38\nsamples = 7\nvalue = [2, 6]\nclass = 0", fillcolor="#7bbeee"] ;
893 -> 894 ;
895 [label="gini = 0.0\nsamples = 3\nvalue = [0, 3]\nclass = 0", fillcolor="#399de5"] ;
894 -> 895 ;
896 [label="etytr <= 0.75\ngini = 0.48\nsamples = 4\nvalue = [2, 3]\nclass = 0", fillcolor="#bddef6"] ;
894 -> 896 ;
