digraph Tree {
node [shape=box, style="filled, rounded", color="black", fontname="helvetica"] ;
edge [fontname="helvetica"] ;
0 [label="hbver <= 0.44\ngini = 0.47\nsamples = 7058\nvalue = [2629, 4429]\nclass = 1", fillcolor="#afd7f4"] ;
1 [label="leukocyty <= 0.75\ngini = 0.22\nsamples = 2822\nvalue = [362, 2460]\nclass = 1", fillcolor="#56abe9"] ;
0 -> 1 [labeldistance=2.5, labelangle=45, headlabel="True"] ;
2 [label="erytrocyty <= 0.59\ngini = 0.18\nsamples = 2715\nvalue = [267, 2448]\nclass = 1", fillcolor="#4fa8e8"] ;
1 -> 2 ;
3 [label="erytrocyty <= 0.49\ngini = 0.1\nsamples = 2160\nvalue = [119, 2041]\nclass = 1", fillcolor="#45a3e7"] ;
2 -> 3 ;
4 [label="leukocyty <= 0.65\ngini = 0.08\nsamples = 1699\nvalue = [68, 1631]\nclass = 1", fillcolor="#41a1e6"] ;
3 -> 4 ;
5 [label="etytr <= 0.3\ngini = 0.06\nsamples = 1492\nvalue = [48, 1444]\nclass = 1", fillcolor="#40a0e6"] ;
4 -> 5 ;
6 [label="etytr <= 0.29\ngini = 0.38\nsamples = 36\nvalue = [9, 27]\nclass = 1", fillcolor="#7bbeee"] ;
5 -> 6 ;
7 [label="erytrocyty <= 0.32\ngini = 0.22\nsamples = 31\nvalue = [4, 27]\nclass = 1", fillcolor="#56ace9"] ;
6 -> 7 ;
8 [label="leukocyty <= 0.54\ngini = 0.42\nsamples = 10\nvalue = [3, 7]\nclass = 1", fillcolor="#8ec7f0"] ;
7 -> 8 ;
9 [label="gini = 0.5\nsamples = 4\nvalue = [2, 2]\nclass = 0", fillcolor="#ffffff"] ;
8 -> 9 ;
10 [label="gini = 0.28\nsamples = 6\nvalue = [1, 5]\nclass = 1", fillcolor="#61b1ea"] ;
8 -> 10 ;
11 [label="etytr <= 0.26\ngini = 0.09\nsamples = 21\nvalue = [1, 20]\nclass = 1", fillcolor="#43a2e6"] ;
7 -> 11 ;
12 [label="gini = 0.0\nsamples = 15\nvalue = [0, 15]\nclass = 1", fillcolor="#399de5"] ;
11 -> 12 ;
13 [label="gini = 0.28\nsamples = 6\nvalue = [1, 5]\nclass = 1", fillcolor="#61b1ea"] ;
11 -> 13 ;
14 [label="gini = 0.0\nsamples = 5\nvalue = [5, 0]\nclass = 0", fillcolor="#e58139"] ;
6 -> 14 ;
15 [label="etytr <= 0.4\ngini = 0.05\nsamples = 1456\nvalue = [39, 1417]\nclass = 1", fillcolor="#3ea0e6"] ;
5 -> 15 ;
16 [label="erytrocyty <= 0.39\ngini = 0.14\nsamples = 129\nvalue = [10, 119]\nclass = 1", fillcolor="#4aa5e7"] ;
15 -> 16 ;
17 [label="etytr <= 0.38\ngini = 0.05\nsamples = 84\nvalue = [2, 82]\nclass = 1", fillcolor="#3e9fe6"] ;
16 -> 17 ;
18 [label="gini = 0.0\nsamples = 54\nvalue = [0, 54]\nclass = 1", fillcolor="#399de5"] ;
17 -> 18 ;
19 [label="smoker <= 0.5\ngini = 0.12\nsamples = 30\nvalue = [2, 28]\nclass = 1", fillcolor="#47a4e7"] ;
17 -> 19 ;
20 [label="etytr <= 0.39\ngini = 0.32\nsamples = 10\nvalue = [2, 8]\nclass = 1", fillcolor="#6ab6ec"] ;
19 -> 20 ;
21 [label="gini = 0.48\nsamples = 5\nvalue = [2, 3]\nclass = 1", fillcolor="#bddef6"] ;
20 -> 21 ;
22 [label="gini = 0.0\nsamples = 5\nvalue = [0, 5]\nclass = 1", fillcolor="#399de5"] ;
20 -> 22 ;
23 [label="gini = 0.0\nsamples = 20\nvalue = [0, 20]\nclass = 1", fillcolor="#399de5"] ;
19 -> 23 ;
24 [label="er-cv <= 0.79\ngini = 0.29\nsamples = 45\nvalue = [8, 37]\nclass = 1", fillcolor="#64b2eb"] ;
16 -> 24 ;
25 [label="erytrocyty <= 0.41\ngini = 0.21\nsamples = 41\nvalue = [5, 36]\nclass = 1", fillcolor="#54abe9"] ;
24 -> 25 ;
26 [label="gini = 0.5\nsamples = 6\nvalue = [3, 3]\nclass = 0", fillcolor="#ffffff"] ;
25 -> 26 ;
27 [label="etytr <= 0.4\ngini = 0.11\nsamples = 35\nvalue = [2, 33]\nclass = 1", fillcolor="#45a3e7"] ;
25 -> 27 ;
28 [label="blood_group <= 1.5\ngini = 0.06\nsamples = 30\nvalue = [1, 29]\nclass = 1", fillcolor="#40a0e6"] ;
27 -> 28 ;
29 [label="gini = 0.28\nsamples = 6\nvalue = [1, 5]\nclass = 1", fillcolor="#61b1ea"] ;
28 -> 29 ;
30 [label="gini = 0.0\nsamples = 24\nvalue = [0, 24]\nclass = 1", fillcolor="#399de5"] ;
28 -> 30 ;
31 [label="gini = 0.32\nsamples = 5\nvalue = [1, 4]\nclass = 1", fillcolor="#6ab6ec"] ;
27 -> 31 ;
32 [label="gini = 0.38\nsamples = 4\nvalue = [3, 1]\nclass = 0", fillcolor="#eeab7b"] ;
24 -> 32 ;
33 [label="leukocyty <= 0.29\ngini = 0.04\nsamples = 1327\nvalue = [29, 1298]\nclass = 1", fillcolor="#3d9fe6"] ;
15 -> 33 ;
34 [label="gini = 0.38\nsamples = 4\nvalue = [1, 3]\nclass = 1", fillcolor="#7bbeee"] ;
33 -> 34 ;
35 [label="hbver <= 0.42\ngini = 0.04\nsamples = 1323\nvalue = [28, 1295]\nclass = 1", fillcolor="#3d9fe6"] ;
33 -> 35 ;
36 [label="etytr <= 0.5\ngini = 0.04\nsamples = 1284\nvalue = [24, 1260]\nclass = 1", fillcolor="#3d9fe5"] ;
35 -> 36 ;
37 [label="erytrocyty <= 0.26\ngini = 0.01\nsamples = 325\nvalue = [1, 324]\nclass = 1", fillcolor="#3a9de5"] ;
36 -> 37 ;
38 [label="hbver <= 0.18\ngini = 0.04\nsamples = 54\nvalue = [1, 53]\nclass = 1", fillcolor="#3d9fe5"] ;
37 -> 38 ;
39 [label="er-cv <= 0.39\ngini = 0.22\nsamples = 8\nvalue = [1, 7]\nclass = 1", fillcolor="#55abe9"] ;
38 -> 39 ;
40 [label="gini = 0.0\nsamples = 4\nvalue = [0, 4]\nclass = 1", fillcolor="#399de5"] ;
39 -> 40 ;
41 [label="gini = 0.38\nsamples = 4\nvalue = [1, 3]\nclass = 1", fillcolor="#7bbeee"] ;
39 -> 41 ;
42 [label="gini = 0.0\nsamples = 46\nvalue = [0, 46]\nclass = 1", fillcolor="#399de5"] ;
38 -> 42 ;
43 [label="gini = 0.0\nsamples = 271\nvalue = [0, 271]\nclass = 1", fillcolor="#399de5"] ;
37 -> 43 ;
44 [label="hematokrit <= 0.07\ngini = 0.05\nsamples = 959\nvalue = [23, 936]\nclass = 1", fillcolor="#3e9fe6"] ;
36 -> 44 ;
45 [label="gini = 0.32\nsamples = 5\nvalue = [1, 4]\nclass = 1", fillcolor="#6ab6ec"] ;
44 -> 45 ;
46 [label="er-cv <= 0.42\ngini = 0.05\nsamples = 954\nvalue = [22, 932]\nclass = 1", fillcolor="#3e9fe6"] ;
44 -> 46 ;
47 [label="smoker <= 0.5\ngini = 0.07\nsamples = 336\nvalue = [13, 323]\nclass = 1", fillcolor="#41a1e6"] ;
46 -> 47 ;
48 [label="blood_group <= 4.5\ngini = 0.03\nsamples = 189\nvalue = [3, 186]\nclass = 1", fillcolor="#3c9fe5"] ;
47 -> 48 ;
49 [label="hbver <= 0.26\ngini = 0.05\nsamples = 113\nvalue = [3, 110]\nclass = 1", fillcolor="#3ea0e6"] ;
48 -> 49 ;
50 [label="hbver <= 0.22\ngini = 0.15\nsamples = 37\nvalue = [3, 34]\nclass = 1", fillcolor="#4aa6e7"] ;
49 -> 50 ;
51 [label="gini = 0.0\nsamples = 21\nvalue = [0, 21]\nclass = 1", fillcolor="#399de5"] ;
50 -> 51 ;
52 [label="erytrocyty <= 0.34\ngini = 0.3\nsamples = 16\nvalue = [3, 13]\nclass = 1", fillcolor="#67b4eb"] ;
50 -> 52 ;
53 [label="gini = 0.0\nsamples = 6\nvalue = [0, 6]\nclass = 1", fillcolor="#399de5"] ;
52 -> 53 ;
54 [label="erytrocyty <= 0.41\ngini = 0.42\nsamples = 10\nvalue = [3, 7]\nclass = 1", fillcolor="#8ec7f0"] ;
52 -> 54 ;
55 [label="gini = 0.48\nsamples = 5\nvalue = [3, 2]\nclass = 0", fillcolor="#f6d5bd"] ;
54 -> 55 ;
56 [label="gini = 0.0\nsamples = 5\nvalue = [0, 5]\nclass = 1", fillcolor="#399de5"] ;
54 -> 56 ;
57 [label="gini = 0.0\nsamples = 76\nvalue = [0, 76]\nclass = 1", fillcolor="#399de5"] ;
49 -> 57 ;
58 [label="gini = 0.0\nsamples = 76\nvalue = [0, 76]\nclass = 1", fillcolor="#399de5"] ;
48 -> 58 ;
59 [label="etytr <= 0.5\ngini = 0.13\nsamples = 147\nvalue = [10, 137]\nclass = 1", fillcolor="#47a4e7"] ;
47 -> 59 ;
60 [label="gini = 0.5\nsamples = 4\nvalue = [2, 2]\nclass = 0", fillcolor="#ffffff"] ;
59 -> 60 ;
61 [label="hbver <= 0.18\ngini = 0.11\nsamples = 143\nvalue = [8, 135]\nclass = 1", fillcolor="#45a3e7"] ;
59 -> 61 ;
62 [label="hbver <= 0.17\ngini = 0.28\nsamples = 18\nvalue = [3, 15]\nclass = 1", fillcolor="#61b1ea"] ;
61 -> 62 ;
63 [label="gini = 0.0\nsamples = 14\nvalue = [0, 14]\nclass = 1", fillcolor="#399de5"] ;
62 -> 63 ;
64 [label="gini = 0.38\nsamples = 4\nvalue = [3, 1]\nclass = 0", fillcolor="#eeab7b"] ;
62 -> 64 ;
65 [label="hbver <= 0.4\ngini = 0.08\nsamples = 125\nvalue = [5, 120]\nclass = 1", fillcolor="#41a1e6"] ;
61 -> 65 ;
66 [label="hematokrit <= 0.54\ngini = 0.06\nsamples = 121\nvalue = [4, 117]\nclass = 1", fillcolor="#40a0e6"] ;
65 -> 66 ;
67 [label="er-cv <= 0.36\ngini = 0.03\nsamples = 75\nvalue = [1, 74]\nclass = 1", fillcolor="#3c9ee5"] ;
66 -> 67 ;
68 [label="gini = 0.0\nsamples = 51\nvalue = [0, 51]\nclass = 1", fillcolor="#399de5"] ;
67 -> 68 ;
69 [label="er-cv <= 0.37\ngini = 0.08\nsamples = 24\nvalue = [1, 23]\nclass = 1", fillcolor="#42a1e6"] ;
67 -> 69 ;
70 [label="gini = 0.38\nsamples = 4\nvalue = [1, 3]\nclass = 1", fillcolor="#7bbeee"] ;
69 -> 70 ;
71 [label="gini = 0.0\nsamples = 20\nvalue = [0, 20]\nclass = 1", fillcolor="#399de5"] ;
69 -> 71 ;
72 [label="hematokrit <= 0.57\ngini = 0.12\nsamples = 46\nvalue = [3, 43]\nclass = 1", fillcolor="#47a4e7"] ;
66 -> 72 ;
73 [label="etytr <= 0.55\ngini = 0.35\nsamples = 9\nvalue = [2, 7]\nclass = 1", fillcolor="#72b9ec"] ;
72 -> 73 ;
74 [label="gini = 0.5\nsamples = 4\nvalue = [2, 2]\nclass = 0", fillcolor="#ffffff"] ;
73 -> 74 ;
75 [label="gini = 0.0\nsamples = 5\nvalue = [0, 5]\nclass = 1", fillcolor="#399de5"] ;
73 -> 75 ;
76 [label="er-cv <= 0.21\ngini = 0.05\nsamples = 37\nvalue = [1, 36]\nclass = 1", fillcolor="#3ea0e6"] ;
72 -> 76 ;
77 [label="gini = 0.24\nsamples = 7\nvalue = [1, 6]\nclass = 1", fillcolor="#5aade9"] ;
76 -> 77 ;
78 [label="gini = 0.0\nsamples = 30\nvalue = [0, 30]\nclass = 1", fillcolor="#399de5"] ;
76 -> 78 ;
79 [label="gini = 0.38\nsamples = 4\nvalue = [1, 3]\nclass = 1", fillcolor="#7bbeee"] ;
65 -> 79 ;
80 [label="etytr <= 0.51\ngini = 0.03\nsamples = 618\nvalue = [9, 609]\nclass = 1", fillcolor="#3c9ee5"] ;
46 -> 80 ;
81 [label="hematokrit <= 0.44\ngini = 0.11\nsamples = 53\nvalue = [3, 50]\nclass = 1", fillcolor="#45a3e7"] ;
80 -> 81 ;
82 [label="blood_group <= 4.5\ngini = 0.24\nsamples = 22\nvalue = [3, 19]\nclass = 1", fillcolor="#58ace9"] ;
81 -> 82 ;
83 [label="erytrocyty <= 0.45\ngini = 0.1\nsamples = 18\nvalue = [1, 17]\nclass = 1", fillcolor="#45a3e7"] ;
82 -> 83 ;
84 [label="gini = 0.0\nsamples = 14\nvalue = [0, 14]\nclass = 1", fillcolor="#399de5"] ;
83 -> 84 ;
85 [label="gini = 0.38\nsamples = 4\nvalue = [1, 3]\nclass = 1", fillcolor="#7bbeee"] ;
83 -> 85 ;
86 [label="gini = 0.5\nsamples = 4\nvalue = [2, 2]\nclass = 0", fillcolor="#ffffff"] ;
82 -> 86 ;
87 [label="gini = 0.0\nsamples = 31\nvalue = [0, 31]\nclass = 1", fillcolor="#399de5"] ;
81 -> 87 ;
88 [label="hbver <= 0.26\ngini = 0.02\nsamples = 565\nvalue = [6, 559]\nclass = 1", fillcolor="#3b9ee5"] ;
80 -> 88 ;
89 [label="gini = 0.0\nsamples = 212\nvalue = [0, 212]\nclass = 1", fillcolor="#399de5"] ;
88 -> 89 ;
90 [label="hematokrit <= 0.37\ngini = 0.03\nsamples = 353\nvalue = [6, 347]\nclass = 1", fillcolor="#3c9fe5"] ;
88 -> 90 ;
91 [label="hematokrit <= 0.34\ngini = 0.07\nsamples = 80\nvalue = [3, 77]\nclass = 1", fillcolor="#41a1e6"] ;
90 -> 91 ;
92 [label="erytrocyty <= 0.41\ngini = 0.03\nsamples = 67\nvalue = [1, 66]\nclass = 1", fillcolor="#3c9ee5"] ;
91 -> 92 ;
93 [label="gini = 0.0\nsamples = 47\nvalue = [0, 47]\nclass = 1", fillcolor="#399de5"] ;
92 -> 93 ;
94 [label="erytrocyty <= 0.44\ngini = 0.09\nsamples = 20\nvalue = [1, 19]\nclass = 1", fillcolor="#43a2e6"] ;
92 -> 94 ;
95 [label="gini = 0.38\nsamples = 4\nvalue = [1, 3]\nclass = 1", fillcolor="#7bbeee"] ;
94 -> 95 ;
96 [label="gini = 0.0\nsamples = 16\nvalue = [0, 16]\nclass = 1", fillcolor="#399de5"] ;
94 -> 96 ;
97 [label="smoker <= 0.5\ngini = 0.26\nsamples = 13\nvalue = [2, 11]\nclass = 1", fillcolor="#5dafea"] ;
91 -> 97 ;
98 [label="gini = 0.44\nsamples = 6\nvalue = [2, 4]\nclass = 1", fillcolor="#9ccef2"] ;
97 -> 98 ;
99 [label="gini = 0.0\nsamples = 7\nvalue = [0, 7]\nclass = 1", fillcolor="#399de5"] ;
97 -> 99 ;
100 [label="erytrocyty <= 0.36\ngini = 0.02\nsamples = 273\nvalue = [3, 270]\nclass = 1", fillcolor="#3b9ee5"] ;
90 -> 100 ;
101 [label="gini = 0.0\nsamples = 114\nvalue = [0, 114]\nclass = 1", fillcolor="#399de5"] ;
100 -> 101 ;
102 [label="hbver <= 0.29\ngini = 0.04\nsamples = 159\nvalue = [3, 156]\nclass = 1", fillcolor="#3d9fe6"] ;
100 -> 102 ;
103 [label="etytr <= 0.63\ngini = 0.09\nsamples = 40\nvalue = [2, 38]\nclass = 1", fillcolor="#43a2e6"] ;
102 -> 103 ;
104 [label="gini = 0.0\nsamples = 23\nvalue = [0, 23]\nclass = 1", fillcolor="#399de5"] ;
103 -> 104 ;
105 [label="hbver <= 0.27\ngini = 0.21\nsamples = 17\nvalue = [2, 15]\nclass = 1", fillcolor="#53aae8"] ;
103 -> 105 ;
106 [label="gini = 0.0\nsamples = 10\nvalue = [0, 10]\nclass = 1", fillcolor="#399de5"] ;
105 -> 106 ;
107 [label="gini = 0.41\nsamples = 7\nvalue = [2, 5]\nclass = 1", fillcolor="#88c4ef"] ;
105 -> 107 ;
108 [label="er-cv <= 0.69\ngini = 0.02\nsamples = 119\nvalue = [1, 118]\nclass = 1", fillcolor="#3b9ee5"] ;
102 -> 108 ;
109 [label="gini = 0.0\nsamples = 91\nvalue = [0, 91]\nclass = 1", fillcolor="#399de5"] ;
108 -> 109 ;
110 [label="erytrocyty <= 0.38\ngini = 0.07\nsamples = 28\nvalue = [1, 27]\nclass = 1", fillcolor="#40a1e6"] ;
108 -> 110 ;
111 [label="gini = 0.38\nsamples = 4\nvalue = [1, 3]\nclass = 1", fillcolor="#7bbeee"] ;
110 -> 111 ;
112 [label="gini = 0.0\nsamples = 24\nvalue = [0, 24]\nclass = 1", fillcolor="#399de5"] ;
110 -> 112 ;
113 [label="leukocyty <= 0.6\ngini = 0.18\nsamples = 39\nvalue = [4, 35]\nclass = 1", fillcolor="#50a8e8"] ;
35 -> 113 ;
114 [label="hematokrit <= 0.47\ngini = 0.47\nsamples = 8\nvalue = [3, 5]\nclass = 1", fillcolor="#b0d8f5"] ;
113 -> 114 ;
115 [label="gini = 0.5\nsamples = 4\nvalue = [2, 2]\nclass = 0", fillcolor="#ffffff"] ;
114 -> 115 ;
116 [label="gini = 0.38\nsamples = 4\nvalue = [1, 3]\nclass = 1", fillcolor="#7bbeee"] ;
114 -> 116 ;
117 [label="etytr <= 0.45\ngini = 0.06\nsamples = 31\nvalue = [1, 30]\nclass = 1", fillcolor="#40a0e6"] ;
113 -> 117 ;
118 [label="gini = 0.38\nsamples = 4\nvalue = [1, 3]\nclass = 1", fillcolor="#7bbeee"] ;
117 -> 118 ;
119 [label="gini = 0.0\nsamples = 27\nvalue = [0, 27]\nclass = 1", fillcolor="#399de5"] ;
117 -> 119 ;
120 [label="leukocyty <= 0.69\ngini = 0.17\nsamples = 207\nvalue = [20, 187]\nclass = 1", fillcolor="#4ea7e8"] ;
4 -> 120 ;
121 [label="etytr <= 0.4\ngini = 0.24\nsamples = 115\nvalue = [16, 99]\nclass = 1", fillcolor="#59ade9"] ;
120 -> 121 ;
122 [label="etytr <= 0.38\ngini = 0.38\nsamples = 12\nvalue = [9, 3]\nclass = 0", fillcolor="#eeab7b"] ;
121 -> 122 ;
123 [label="etytr <= 0.34\ngini = 0.47\nsamples = 8\nvalue = [5, 3]\nclass = 0", fillcolor="#f5cdb0"] ;
122 -> 123 ;
124 [label="gini = 0.38\nsamples = 4\nvalue = [3, 1]\nclass = 0", fillcolor="#eeab7b"] ;
123 -> 124 ;
125 [label="gini = 0.5\nsamples = 4\nvalue = [2, 2]\nclass = 0", fillcolor="#ffffff"] ;
123 -> 125 ;
126 [label="gini = 0.0\nsamples = 4\nvalue = [4, 0]\nclass = 0", fillcolor="#e58139"] ;
122 -> 126 ;
127 [label="hematokrit <= 0.39\ngini = 0.13\nsamples = 103\nvalue = [7, 96]\nclass = 1", fillcolor="#47a4e7"] ;
121 -> 127 ;
128 [label="leukocyty <= 0.68\ngini = 0.24\nsamples = 29\nvalue = [4, 25]\nclass = 1", fillcolor="#59ade9"] ;
127 -> 128 ;
129 [label="leukocyty <= 0.66\ngini = 0.15\nsamples = 25\nvalue = [2, 23]\nclass = 1", fillcolor="#4aa6e7"] ;
128 -> 129 ;
130 [label="gini = 0.41\nsamples = 7\nvalue = [2, 5]\nclass = 1", fillcolor="#88c4ef"] ;
129 -> 130 ;
131 [label="gini = 0.0\nsamples = 18\nvalue = [0, 18]\nclass = 1", fillcolor="#399de5"] ;
129 -> 131 ;
132 [label="gini = 0.5\nsamples = 4\nvalue = [2, 2]\nclass = 0", fillcolor="#ffffff"] ;
128 -> 132 ;
133 [label="er-cv <= 0.69\ngini = 0.08\nsamples = 74\nvalue = [3, 71]\nclass = 1", fillcolor="#41a1e6"] ;
127 -> 133 ;
134 [label="gini = 0.0\nsamples = 60\nvalue = [0, 60]\nclass = 1", fillcolor="#399de5"] ;
133 -> 134 ;
135 [label="etytr <= 0.6\ngini = 0.34\nsamples = 14\nvalue = [3, 11]\nclass = 1", fillcolor="#6fb8ec"] ;
133 -> 135 ;
136 [label="gini = 0.49\nsamples = 7\nvalue = [3, 4]\nclass = 1", fillcolor="#cee6f8"] ;
135 -> 136 ;
137 [label="gini = 0.0\nsamples = 7\nvalue = [0, 7]\nclass = 1", fillcolor="#399de5"] ;
135 -> 137 ;
138 [label="hbver <= 0.43\ngini = 0.08\nsamples = 92\nvalue = [4, 88]\nclass = 1", fillcolor="#42a1e6"] ;
120 -> 138 ;
139 [label="etytr <= 0.41\ngini = 0.05\nsamples = 81\nvalue = [2, 79]\nclass = 1", fillcolor="#3e9fe6"] ;
138 -> 139 ;
140 [label="gini = 0.41\nsamples = 7\nvalue = [2, 5]\nclass = 1", fillcolor="#88c4ef"] ;
139 -> 140 ;
141 [label="gini = 0.0\nsamples = 74\nvalue = [0, 74]\nclass = 1", fillcolor="#399de5"] ;
139 -> 141 ;
142 [label="leukocyty <= 0.73\ngini = 0.3\nsamples = 11\nvalue = [2, 9]\nclass = 1", fillcolor="#65b3eb"] ;
138 -> 142 ;
143 [label="gini = 0.0\nsamples = 7\nvalue = [0, 7]\nclass = 1", fillcolor="#399de5"] ;
142 -> 143 ;
144 [label="gini = 0.5\nsamples = 4\nvalue = [2, 2]\nclass = 0", fillcolor="#ffffff"] ;
142 -> 144 ;
145 [label="hematokrit <= 0.08\ngini = 0.2\nsamples = 461\nvalue = [51, 410]\nclass = 1", fillcolor="#52a9e8"] ;
3 -> 145 ;
146 [label="gini = 0.44\nsamples = 6\nvalue = [4, 2]\nclass = 0", fillcolor="#f2c09c"] ;
145 -> 146 ;
147 [label="etytr <= 0.41\ngini = 0.19\nsamples = 455\nvalue = [47, 408]\nclass = 1", fillcolor="#50a8e8"] ;
145 -> 147 ;
148 [label="leukocyty <= 0.5\ngini = 0.44\nsamples = 99\nvalue = [33, 66]\nclass = 1", fillcolor="#9ccef2"] ;
147 -> 148 ;
149 [label="hbver <= 0.38\ngini = 0.22\nsamples = 63\nvalue = [8, 55]\nclass = 1", fillcolor="#56abe9"] ;
148 -> 149 ;
150 [label="er-cv <= 0.44\ngini = 0.31\nsamples = 42\nvalue = [8, 34]\nclass = 1", fillcolor="#68b4eb"] ;
149 -> 150 ;
151 [label="leukocyty <= 0.19\ngini = 0.44\nsamples = 24\nvalue = [8, 16]\nclass = 1", fillcolor="#9ccef2"] ;
150 -> 151 ;
152 [label="gini = 0.0\nsamples = 8\nvalue = [0, 8]\nclass = 1", fillcolor="#399de5"] ;
151 -> 152 ;
153 [label="hbver <= 0.34\ngini = 0.5\nsamples = 16\nvalue = [8, 8]\nclass = 0", fillcolor="#ffffff"] ;
151 -> 153 ;
154 [label="etytr <= 0.3\ngini = 0.44\nsamples = 12\nvalue = [4, 8]\nclass = 1", fillcolor="#9ccef2"] ;
153 -> 154 ;
155 [label="gini = 0.0\nsamples = 4\nvalue = [4, 0]\nclass = 0", fillcolor="#e58139"] ;
154 -> 155 ;
156 [label="gini = 0.0\nsamples = 8\nvalue = [0, 8]\nclass = 1", fillcolor="#399de5"] ;
154 -> 156 ;
157 [label="gini = 0.0\nsamples = 4\nvalue = [4, 0]\nclass = 0", fillcolor="#e58139"] ;
153 -> 157 ;
158 [label="gini = 0.0\nsamples = 18\nvalue = [0, 18]\nclass = 1", fillcolor="#399de5"] ;
150 -> 158 ;
159 [label="gini = 0.0\nsamples = 21\nvalue = [0, 21]\nclass = 1", fillcolor="#399de5"] ;
149 -> 159 ;
160 [label="blood_group <= 1.5\ngini = 0.42\nsamples = 36\nvalue = [25, 11]\nclass = 0", fillcolor="#f0b890"] ;
148 -> 160 ;
161 [label="gini = 0.0\nsamples = 8\nvalue = [8, 0]\nclass = 0", fillcolor="#e58139"] ;
160 -> 161 ;
162 [label="leukocyty <= 0.61\ngini = 0.48\nsamples = 28\nvalue = [17, 11]\nclass = 0", fillcolor="#f6d3b9"] ;
160 -> 162 ;
163 [label="hematokrit <= 0.46\ngini = 0.5\nsamples = 17\nvalue = [8, 9]\nclass = 1", fillcolor="#e9f4fc"] ;
162 -> 163 ;
164 [label="gini = 0.0\nsamples = 5\nvalue = [0, 5]\nclass = 1", fillcolor="#399de5"] ;
163 -> 164 ;
165 [label="erytrocyty <= 0.55\ngini = 0.44\nsamples = 12\nvalue = [8, 4]\nclass = 0", fillcolor="#f2c09c"] ;
163 -> 165 ;
166 [label="smoker <= 0.5\ngini = 0.5\nsamples = 8\nvalue = [4, 4]\nclass = 0", fillcolor="#ffffff"] ;
165 -> 166 ;
167 [label="gini = 0.38\nsamples = 4\nvalue = [3, 1]\nclass = 0", fillcolor="#eeab7b"] ;
166 -> 167 ;
168 [label="gini = 0.38\nsamples = 4\nvalue = [1, 3]\nclass = 1", fillcolor="#7bbeee"] ;
166 -> 168 ;
169 [label="gini = 0.0\nsamples = 4\nvalue = [4, 0]\nclass = 0", fillcolor="#e58139"] ;
165 -> 169 ;
170 [label="hbver <= 0.36\ngini = 0.3\nsamples = 11\nvalue = [9, 2]\nclass = 0", fillcolor="#eb9d65"] ;
162 -> 170 ;
171 [label="gini = 0.0\nsamples = 7\nvalue = [7, 0]\nclass = 0", fillcolor="#e58139"] ;
170 -> 171 ;
172 [label="gini = 0.5\nsamples = 4\nvalue = [2, 2]\nclass = 0", fillcolor="#ffffff"] ;
170 -> 172 ;
173 [label="hematokrit <= 0.91\ngini = 0.08\nsamples = 356\nvalue = [14, 342]\nclass = 1", fillcolor="#41a1e6"] ;
147 -> 173 ;
174 [label="etytr <= 0.46\ngini = 0.07\nsamples = 350\nvalue = [12, 338]\nclass = 1", fillcolor="#40a0e6"] ;
173 -> 174 ;
175 [label="etytr <= 0.45\ngini = 0.2\nsamples = 35\nvalue = [4, 31]\nclass = 1", fillcolor="#53aae8"] ;
174 -> 175 ;
176 [label="hbver <= 0.35\ngini = 0.12\nsamples = 31\nvalue = [2, 29]\nclass = 1", fillcolor="#47a4e7"] ;
175 -> 176 ;
177 [label="gini = 0.0\nsamples = 24\nvalue = [0, 24]\nclass = 1", fillcolor="#399de5"] ;
176 -> 177 ;
178 [label="gini = 0.41\nsamples = 7\nvalue = [2, 5]\nclass = 1", fillcolor="#88c4ef"] ;
176 -> 178 ;
179 [label="gini = 0.5\nsamples = 4\nvalue = [2, 2]\nclass = 0", fillcolor="#ffffff"] ;
175 -> 179 ;
180 [label="leukocyty <= 0.44\ngini = 0.05\nsamples = 315\nvalue = [8, 307]\nclass = 1", fillcolor="#3ea0e6"] ;
174 -> 180 ;
181 [label="erytrocyty <= 0.51\ngini = 0.22\nsamples = 16\nvalue = [2, 14]\nclass = 1", fillcolor="#55abe9"] ;
180 -> 181 ;
182 [label="gini = 0.38\nsamples = 4\nvalue = [1, 3]\nclass = 1", fillcolor="#7bbeee"] ;
181 -> 182 ;
183 [label="er-cv <= 0.58\ngini = 0.15\nsamples = 12\nvalue = [1, 11]\nclass = 1", fillcolor="#4ba6e7"] ;
181 -> 183 ;
184 [label="gini = 0.0\nsamples = 8\nvalue = [0, 8]\nclass = 1", fillcolor="#399de5"] ;
183 -> 184 ;
185 [label="gini = 0.38\nsamples = 4\nvalue = [1, 3]\nclass = 1", fillcolor="#7bbeee"] ;
183 -> 185 ;
186 [label="erytrocyty <= 0.5\ngini = 0.04\nsamples = 299\nvalue = [6, 293]\nclass = 1", fillcolor="#3d9fe6"] ;
180 -> 186 ;
187 [label="er-cv <= 0.47\ngini = 0.19\nsamples = 46\nvalue = [5, 41]\nclass = 1", fillcolor="#51a9e8"] ;
186 -> 187 ;
188 [label="etytr <= 0.51\ngini = 0.32\nsamples = 15\nvalue = [3, 12]\nclass = 1", fillcolor="#6ab6ec"] ;
187 -> 188 ;
189 [label="gini = 0.0\nsamples = 5\nvalue = [0, 5]\nclass = 1", fillcolor="#399de5"] ;
188 -> 189 ;
190 [label="erytrocyty <= 0.49\ngini = 0.42\nsamples = 10\nvalue = [3, 7]\nclass = 1", fillcolor="#8ec7f0"] ;
188 -> 190 ;
191 [label="gini = 0.0\nsamples = 4\nvalue = [0, 4]\nclass = 1", fillcolor="#399de5"] ;
190 -> 191 ;
192 [label="gini = 0.5\nsamples = 6\nvalue = [3, 3]\nclass = 0", fillcolor="#ffffff"] ;
190 -> 192 ;
193 [label="hematokrit <= 0.51\ngini = 0.12\nsamples = 31\nvalue = [2, 29]\nclass = 1", fillcolor="#47a4e7"] ;
187 -> 193 ;
194 [label="gini = 0.0\nsamples = 21\nvalue = [0, 21]\nclass = 1", fillcolor="#399de5"] ;
193 -> 194 ;
195 [label="hbver <= 0.37\ngini = 0.32\nsamples = 10\nvalue = [2, 8]\nclass = 1", fillcolor="#6ab6ec"] ;
193 -> 195 ;
196 [label="gini = 0.44\nsamples = 6\nvalue = [2, 4]\nclass = 1", fillcolor="#9ccef2"] ;
195 -> 196 ;
197 [label="gini = 0.0\nsamples = 4\nvalue = [0, 4]\nclass = 1", fillcolor="#399de5"] ;
195 -> 197 ;
198 [label="hbver <= 0.24\ngini = 0.01\nsamples = 253\nvalue = [1, 252]\nclass = 1", fillcolor="#3a9de5"] ;
186 -> 198 ;
199 [label="erytrocyty <= 0.51\ngini = 0.05\nsamples = 40\nvalue = [1, 39]\nclass = 1", fillcolor="#3ea0e6"] ;
198 -> 199 ;
200 [label="gini = 0.38\nsamples = 4\nvalue = [1, 3]\nclass = 1", fillcolor="#7bbeee"] ;
199 -> 200 ;
201 [label="gini = 0.0\nsamples = 36\nvalue = [0, 36]\nclass = 1", fillcolor="#399de5"] ;
199 -> 201 ;
202 [label="gini = 0.0\nsamples = 213\nvalue = [0, 213]\nclass = 1", fillcolor="#399de5"] ;
198 -> 202 ;
203 [label="gini = 0.44\nsamples = 6\nvalue = [2, 4]\nclass = 1", fillcolor="#9ccef2"] ;
173 -> 203 ;
204 [label="etytr <= 0.55\ngini = 0.39\nsamples = 555\nvalue = [148, 407]\nclass = 1", fillcolor="#81c1ee"] ;
2 -> 204 ;
205 [label="leukocyty <= 0.39\ngini = 0.44\nsamples = 457\nvalue = [148, 309]\nclass = 1", fillcolor="#98ccf1"] ;
204 -> 205 ;
206 [label="hematokrit <= 0.64\ngini = 0.14\nsamples = 248\nvalue = [19, 229]\nclass = 1", fillcolor="#49a5e7"] ;
205 -> 206 ;
207 [label="hbver <= 0.39\ngini = 0.1\nsamples = 194\nvalue = [10, 184]\nclass = 1", fillcolor="#44a2e6"] ;
206 -> 207 ;
208 [label="etytr <= 0.17\ngini = 0.03\nsamples = 119\nvalue = [2, 117]\nclass = 1", fillcolor="#3c9fe5"] ;
207 -> 208 ;
209 [label="leukocyty <= 0.17\ngini = 0.28\nsamples = 12\nvalue = [2, 10]\nclass = 1", fillcolor="#61b1ea"] ;
208 -> 209 ;
210 [label="gini = 0.0\nsamples = 8\nvalue = [0, 8]\nclass = 1", fillcolor="#399de5"] ;
209 -> 210 ;
211 [label="gini = 0.5\nsamples = 4\nvalue = [2, 2]\nclass = 0", fillcolor="#ffffff"] ;
209 -> 211 ;
212 [label="gini = 0.0\nsamples = 107\nvalue = [0, 107]\nclass = 1", fillcolor="#399de5"] ;
208 -> 212 ;
213 [label="erytrocyty <= 0.73\ngini = 0.19\nsamples = 75\nvalue = [8, 67]\nclass = 1", fillcolor="#51a9e8"] ;
207 -> 213 ;
214 [label="leukocyty <= 0.33\ngini = 0.33\nsamples = 33\nvalue = [7, 26]\nclass = 1", fillcolor="#6eb7ec"] ;
213 -> 214 ;
215 [label="hbver <= 0.4\ngini = 0.07\nsamples = 26\nvalue = [1, 25]\nclass = 1", fillcolor="#41a1e6"] ;
214 -> 215 ;
216 [label="gini = 0.38\nsamples = 4\nvalue = [1, 3]\nclass = 1", fillcolor="#7bbeee"] ;
215 -> 216 ;
217 [label="gini = 0.0\nsamples = 22\nvalue = [0, 22]\nclass = 1", fillcolor="#399de5"] ;
215 -> 217 ;
218 [label="gini = 0.24\nsamples = 7\nvalue = [6, 1]\nclass = 0", fillcolor="#e9965a"] ;
214 -> 218 ;
219 [label="hbver <= 0.43\ngini = 0.05\nsamples = 42\nvalue = [1, 41]\nclass = 1", fillcolor="#3e9fe6"] ;
213 -> 219 ;
220 [label="gini = 0.0\nsamples = 35\nvalue = [0, 35]\nclass = 1", fillcolor="#399de5"] ;
219 -> 220 ;
221 [label="gini = 0.24\nsamples = 7\nvalue = [1, 6]\nclass = 1", fillcolor="#5aade9"] ;
219 -> 221 ;
222 [label="blood_group <= 2.5\ngini = 0.28\nsamples = 54\nvalue = [9, 45]\nclass = 1", fillcolor="#61b1ea"] ;
206 -> 222 ;
223 [label="gini = 0.0\nsamples = 21\nvalue = [0, 21]\nclass = 1", fillcolor="#399de5"] ;
222 -> 223 ;
224 [label="etytr <= 0.35\ngini = 0.4\nsamples = 33\nvalue = [9, 24]\nclass = 1", fillcolor="#83c2ef"] ;
222 -> 224 ;
225 [label="etytr <= 0.27\ngini = 0.29\nsamples = 28\nvalue = [5, 23]\nclass = 1", fillcolor="#64b2eb"] ;
224 -> 225 ;
226 [label="smoker <= 0.5\ngini = 0.46\nsamples = 14\nvalue = [5, 9]\nclass = 1", fillcolor="#a7d3f3"] ;
225 -> 226 ;
227 [label="gini = 0.32\nsamples = 5\nvalue = [1, 4]\nclass = 1", fillcolor="#6ab6ec"] ;
226 -> 227 ;
228 [label="leukocyty <= 0.24\ngini = 0.49\nsamples = 9\nvalue = [4, 5]\nclass = 1", fillcolor="#d7ebfa"] ;
226 -> 228 ;
229 [label="gini = 0.32\nsamples = 5\nvalue = [1, 4]\nclass = 1", fillcolor="#6ab6ec"] ;
228 -> 229 ;
230 [label="gini = 0.38\nsamples = 4\nvalue = [3, 1]\nclass = 0", fillcolor="#eeab7b"] ;
228 -> 230 ;
231 [label="gini = 0.0\nsamples = 14\nvalue = [0, 14]\nclass = 1", fillcolor="#399de5"] ;
225 -> 231 ;
232 [label="gini = 0.32\nsamples = 5\nvalue = [4, 1]\nclass = 0", fillcolor="#eca06a"] ;
224 -> 232 ;
233 [label="er-cv <= 0.27\ngini = 0.47\nsamples = 209\nvalue = [129, 80]\nclass = 0", fillcolor="#f5cfb4"] ;
205 -> 233 ;
234 [label="hematokrit <= 0.43\ngini = 0.47\nsamples = 27\nvalue = [10, 17]\nclass = 1", fillcolor="#add7f4"] ;
233 -> 234 ;
235 [label="etytr <= 0.43\ngini = 0.15\nsamples = 12\nvalue = [1, 11]\nclass = 1", fillcolor="#4ba6e7"] ;
234 -> 235 ;
236 [label="gini = 0.0\nsamples = 8\nvalue = [0, 8]\nclass = 1", fillcolor="#399de5"] ;
235 -> 236 ;
237 [label="gini = 0.38\nsamples = 4\nvalue = [1, 3]\nclass = 1", fillcolor="#7bbeee"] ;
235 -> 237 ;
238 [label="etytr <= 0.31\ngini = 0.48\nsamples = 15\nvalue = [9, 6]\nclass = 0", fillcolor="#f6d5bd"] ;
234 -> 238 ;
239 [label="gini = 0.0\nsamples = 5\nvalue = [5, 0]\nclass = 0", fillcolor="#e58139"] ;
238 -> 239 ;
240 [label="hbver <= 0.34\ngini = 0.48\nsamples = 10\nvalue = [4, 6]\nclass = 1", fillcolor="#bddef6"] ;
238 -> 240 ;
241 [label="gini = 0.0\nsamples = 5\nvalue = [0, 5]\nclass = 1", fillcolor="#399de5"] ;
240 -> 241 ;
242 [label="gini = 0.32\nsamples = 5\nvalue = [4, 1]\nclass = 0", fillcolor="#eca06a"] ;
240 -> 242 ;
243 [label="erytrocyty <= 0.63\ngini = 0.45\nsamples = 182\nvalue = [119, 63]\nclass = 0", fillcolor="#f3c4a2"] ;
233 -> 243 ;
244 [label="leukocyty <= 0.41\ngini = 0.5\nsamples = 37\nvalue = [17, 20]\nclass = 1", fillcolor="#e1f0fb"] ;
243 -> 244 ;
245 [label="gini = 0.0\nsamples = 4\nvalue = [4, 0]\nclass = 0", fillcolor="#e58139"] ;
244 -> 245 ;
246 [label="hbver <= 0.39\ngini = 0.48\nsamples = 33\nvalue = [13, 20]\nclass = 1", fillcolor="#baddf6"] ;
244 -> 246 ;
247 [label="etytr <= 0.3\ngini = 0.44\nsamples = 28\nvalue = [9, 19]\nclass = 1", fillcolor="#97cbf1"] ;
246 -> 247 ;
248 [label="gini = 0.0\nsamples = 7\nvalue = [7, 0]\nclass = 0", fillcolor="#e58139"] ;
247 -> 248 ;
249 [label="hematokrit <= 0.54\ngini = 0.17\nsamples = 21\nvalue = [2, 19]\nclass = 1", fillcolor="#4ea7e8"] ;
247 -> 249 ;
250 [label="gini = 0.0\nsamples = 12\nvalue = [0, 12]\nclass = 1", fillcolor="#399de5"] ;
249 -> 250 ;
251 [label="hematokrit <= 0.59\ngini = 0.35\nsamples = 9\nvalue = [2, 7]\nclass = 1", fillcolor="#72b9ec"] ;
249 -> 251 ;
252 [label="gini = 0.38\nsamples = 4\nvalue = [1, 3]\nclass = 1", fillcolor="#7bbeee"] ;
251 -> 252 ;
253 [label="gini = 0.32\nsamples = 5\nvalue = [1, 4]\nclass = 1", fillcolor="#6ab6ec"] ;
251 -> 253 ;
254 [label="gini = 0.32\nsamples = 5\nvalue = [4, 1]\nclass = 0", fillcolor="#eca06a"] ;
246 -> 254 ;
255 [label="er-cv <= 0.54\ngini = 0.42\nsamples = 145\nvalue = [102, 43]\nclass = 0", fillcolor="#f0b68c"] ;
243 -> 255 ;
256 [label="leukocyty <= 0.47\ngini = 0.47\nsamples = 69\nvalue = [43, 26]\nclass = 0", fillcolor="#f5cdb1"] ;
255 -> 256 ;
257 [label="leukocyty <= 0.45\ngini = 0.45\nsamples = 26\nvalue = [9, 17]\nclass = 1", fillcolor="#a2d1f3"] ;
256 -> 257 ;
258 [label="etytr <= 0.3\ngini = 0.5\nsamples = 19\nvalue = [9, 10]\nclass = 1", fillcolor="#ebf5fc"] ;
257 -> 258 ;
259 [label="gini = 0.0\nsamples = 7\nvalue = [7, 0]\nclass = 0", fillcolor="#e58139"] ;
258 -> 259 ;
260 [label="erytrocyty <= 0.84\ngini = 0.28\nsamples = 12\nvalue = [2, 10]\nclass = 1", fillcolor="#61b1ea"] ;
258 -> 260 ;
261 [label="smoker <= 0.5\ngini = 0.38\nsamples = 8\nvalue = [2, 6]\nclass = 1", fillcolor="#7bbeee"] ;
260 -> 261 ;
262 [label="gini = 0.38\nsamples = 4\nvalue = [1, 3]\nclass = 1", fillcolor="#7bbeee"] ;
261 -> 262 ;
263 [label="gini = 0.38\nsamples = 4\nvalue = [1, 3]\nclass = 1", fillcolor="#7bbeee"] ;
261 -> 263 ;
264 [label="gini = 0.0\nsamples = 4\nvalue = [0, 4]\nclass = 1", fillcolor="#399de5"] ;
260 -> 264 ;
265 [label="gini = 0.0\nsamples = 7\nvalue = [0, 7]\nclass = 1", fillcolor="#399de5"] ;
257 -> 265 ;
266 [label="hbver <= 0.39\ngini = 0.33\nsamples = 43\nvalue = [34, 9]\nclass = 0", fillcolor="#eca26d"] ;
256 -> 266 ;
267 [label="etytr <= 0.4\ngini = 0.44\nsamples = 25\nvalue = [17, 8]\nclass = 0", fillcolor="#f1bc96"] ;
266 -> 267 ;
268 [label="erytrocyty <= 0.65\ngini = 0.12\nsamples = 16\nvalue = [15, 1]\nclass = 0", fillcolor="#e78946"] ;
267 -> 268 ;
269 [label="gini = 0.38\nsamples = 4\nvalue = [3, 1]\nclass = 0", fillcolor="#eeab7b"] ;
268 -> 269 ;
270 [label="gini = 0.0\nsamples = 12\nvalue = [12, 0]\nclass = 0", fillcolor="#e58139"] ;
268 -> 270 ;
271 [label="leukocyty <= 0.57\ngini = 0.35\nsamples = 9\nvalue = [2, 7]\nclass = 1", fillcolor="#72b9ec"] ;
267 -> 271 ;
272 [label="gini = 0.38\nsamples = 4\nvalue = [1, 3]\nclass = 1", fillcolor="#7bbeee"] ;
271 -> 272 ;
273 [label="gini = 0.32\nsamples = 5\nvalue = [1, 4]\nclass = 1", fillcolor="#6ab6ec"] ;
271 -> 273 ;
274 [label="leukocyty <= 0.63\ngini = 0.1\nsamples = 18\nvalue = [17, 1]\nclass = 0", fillcolor="#e78845"] ;
266 -> 274 ;
275 [label="gini = 0.0\nsamples = 11\nvalue = [11, 0]\nclass = 0", fillcolor="#e58139"] ;
274 -> 275 ;
276 [label="gini = 0.24\nsamples = 7\nvalue = [6, 1]\nclass = 0", fillcolor="#e9965a"] ;
274 -> 276 ;
277 [label="blood_group <= 1.5\ngini = 0.35\nsamples = 76\nvalue = [59, 17]\nclass = 0", fillcolor="#eca572"] ;
255 -> 277 ;
278 [label="er-cv <= 0.77\ngini = 0.47\nsamples = 26\nvalue = [16, 10]\nclass = 0", fillcolor="#f5d0b5"] ;
277 -> 278 ;
279 [label="smoker <= 0.5\ngini = 0.5\nsamples = 21\nvalue = [11, 10]\nclass = 0", fillcolor="#fdf4ed"] ;
278 -> 279 ;
280 [label="erytrocyty <= 0.71\ngini = 0.44\nsamples = 9\nvalue = [3, 6]\nclass = 1", fillcolor="#9ccef2"] ;
279 -> 280 ;
281 [label="gini = 0.5\nsamples = 4\nvalue = [2, 2]\nclass = 0", fillcolor="#ffffff"] ;
280 -> 281 ;
282 [label="gini = 0.32\nsamples = 5\nvalue = [1, 4]\nclass = 1", fillcolor="#6ab6ec"] ;
280 -> 282 ;
283 [label="hematokrit <= 0.38\ngini = 0.44\nsamples = 12\nvalue = [8, 4]\nclass = 0", fillcolor="#f2c09c"] ;
279 -> 283 ;
284 [label="gini = 0.0\nsamples = 5\nvalue = [5, 0]\nclass = 0", fillcolor="#e58139"] ;
283 -> 284 ;
285 [label="gini = 0.49\nsamples = 7\nvalue = [3, 4]\nclass = 1", fillcolor="#cee6f8"] ;
283 -> 285 ;
286 [label="gini = 0.0\nsamples = 5\nvalue = [5, 0]\nclass = 0", fillcolor="#e58139"] ;
278 -> 286 ;
287 [label="etytr <= 0.33\ngini = 0.24\nsamples = 50\nvalue = [43, 7]\nclass = 0", fillcolor="#e99659"] ;
277 -> 287 ;
288 [label="gini = 0.0\nsamples = 22\nvalue = [22, 0]\nclass = 0", fillcolor="#e58139"] ;
287 -> 288 ;
289 [label="leukocyty <= 0.5\ngini = 0.38\nsamples = 28\nvalue = [21, 7]\nclass = 0", fillcolor="#eeab7b"] ;
287 -> 289 ;
290 [label="gini = 0.44\nsamples = 6\nvalue = [2, 4]\nclass = 1", fillcolor="#9ccef2"] ;
289 -> 290 ;
291 [label="hematokrit <= 0.57\ngini = 0.24\nsamples = 22\nvalue = [19, 3]\nclass = 0", fillcolor="#e99558"] ;
289 -> 291 ;
292 [label="etytr <= 0.38\ngini = 0.13\nsamples = 14\nvalue = [13, 1]\nclass = 0", fillcolor="#e78b48"] ;
291 -> 292 ;
293 [label="gini = 0.0\nsamples = 10\nvalue = [10, 0]\nclass = 0", fillcolor="#e58139"] ;
292 -> 293 ;
294 [label="gini = 0.38\nsamples = 4\nvalue = [3, 1]\nclass = 0", fillcolor="#eeab7b"] ;
292 -> 294 ;
295 [label="erytrocyty <= 0.68\ngini = 0.38\nsamples = 8\nvalue = [6, 2]\nclass = 0", fillcolor="#eeab7b"] ;
291 -> 295 ;
296 [label="gini = 0.5\nsamples = 4\nvalue = [2, 2]\nclass = 0", fillcolor="#ffffff"] ;
295 -> 296 ;
297 [label="gini = 0.0\nsamples = 4\nvalue = [4, 0]\nclass = 0", fillcolor="#e58139"] ;
295 -> 297 ;
298 [label="gini = 0.0\nsamples = 98\nvalue = [0, 98]\nclass = 1", fillcolor="#399de5"] ;
204 -> 298 ;
299 [label="leukocyty <= 0.77\ngini = 0.2\nsamples = 107\nvalue = [95, 12]\nclass = 0", fillcolor="#e89152"] ;
1 -> 299 ;
300 [label="hbver <= 0.34\ngini = 0.5\nsamples = 21\nvalue = [11, 10]\nclass = 0", fillcolor="#fdf4ed"] ;
299 -> 300 ;
301 [label="gini = 0.0\nsamples = 5\nvalue = [5, 0]\nclass = 0", fillcolor="#e58139"] ;
300 -> 301 ;
302 [label="erytrocyty <= 0.37\ngini = 0.47\nsamples = 16\nvalue = [6, 10]\nclass = 1", fillcolor="#b0d8f5"] ;
300 -> 302 ;
303 [label="gini = 0.38\nsamples = 4\nvalue = [3, 1]\nclass = 0", fillcolor="#eeab7b"] ;
302 -> 303 ;
304 [label="erytrocyty <= 0.43\ngini = 0.38\nsamples = 12\nvalue = [3, 9]\nclass = 1", fillcolor="#7bbeee"] ;
302 -> 304 ;
305 [label="gini = 0.0\nsamples = 4\nvalue = [0, 4]\nclass = 1", fillcolor="#399de5"] ;
304 -> 305 ;
306 [label="er-cv <= 0.53\ngini = 0.47\nsamples = 8\nvalue = [3, 5]\nclass = 1", fillcolor="#b0d8f5"] ;
304 -> 306 ;
307 [label="gini = 0.38\nsamples = 4\nvalue = [1, 3]\nclass = 1", fillcolor="#7bbeee"] ;
306 -> 307 ;
308 [label="gini = 0.5\nsamples = 4\nvalue = [2, 2]\nclass = 0", fillcolor="#ffffff"] ;
306 -> 308 ;
309 [label="hematokrit <= 0.18\ngini = 0.05\nsamples = 86\nvalue = [84, 2]\nclass = 0", fillcolor="#e6843e"] ;
299 -> 309 ;
310 [label="gini = 0.5\nsamples = 4\nvalue = [2, 2]\nclass = 0", fillcolor="#ffffff"] ;
309 -> 310 ;
311 [label="gini = 0.0\nsamples = 82\nvalue = [82, 0]\nclass = 0", fillcolor="#e58139"] ;
309 -> 311 ;
312 [label="leukocyty <= 0.36\ngini = 0.5\nsamples = 4236\nvalue = [2267, 1969]\nclass = 0", fillcolor="#fceee5"] ;
0 -> 312 [labeldistance=2.5, labelangle=-45, headlabel="False"] ;
313 [label="leukocyty <= 0.26\ngini = 0.2\nsamples = 1247\nvalue = [137, 1110]\nclass = 1", fillcolor="#51a9e8"] ;
312 -> 313 ;
314 [label="er-cv <= 0.65\ngini = 0.08\nsamples = 812\nvalue = [35, 777]\nclass = 1", fillcolor="#42a1e6"] ;
313 -> 314 ;
315 [label="er-cv <= 0.24\ngini = 0.07\nsamples = 638\nvalue = [22, 616]\nclass = 1", fillcolor="#40a0e6"] ;
314 -> 315 ;
316 [label="er-cv <= 0.23\ngini = 0.17\nsamples = 64\nvalue = [6, 58]\nclass = 1", fillcolor="#4da7e8"] ;
315 -> 316 ;
317 [label="erytrocyty <= 0.57\ngini = 0.1\nsamples = 56\nvalue = [3, 53]\nclass = 1", fillcolor="#44a3e6"] ;
316 -> 317 ;
318 [label="hematokrit <= 0.34\ngini = 0.23\nsamples = 23\nvalue = [3, 20]\nclass = 1", fillcolor="#57ace9"] ;
317 -> 318 ;
319 [label="gini = 0.44\nsamples = 6\nvalue = [2, 4]\nclass = 1", fillcolor="#9ccef2"] ;
318 -> 319 ;
320 [label="erytrocyty <= 0.55\ngini = 0.11\nsamples = 17\nvalue = [1, 16]\nclass = 1", fillcolor="#45a3e7"] ;
318 -> 320 ;
321 [label="gini = 0.0\nsamples = 13\nvalue = [0, 13]\nclass = 1", fillcolor="#399de5"] ;
320 -> 321 ;
322 [label="gini = 0.38\nsamples = 4\nvalue = [1, 3]\nclass = 1", fillcolor="#7bbeee"] ;
320 -> 322 ;
323 [label="gini = 0.0\nsamples = 33\nvalue = [0, 33]\nclass = 1", fillcolor="#399de5"] ;
317 -> 323 ;
324 [label="er-cv <= 0.23\ngini = 0.47\nsamples = 8\nvalue = [3, 5]\nclass = 1", fillcolor="#b0d8f5"] ;
316 -> 324 ;
325 [label="gini = 0.5\nsamples = 4\nvalue = [2, 2]\nclass = 0", fillcolor="#ffffff"] ;
324 -> 325 ;
326 [label="gini = 0.38\nsamples = 4\nvalue = [1, 3]\nclass = 1", fillcolor="#7bbeee"] ;
324 -> 326 ;
327 [label="etytr <= 0.32\ngini = 0.05\nsamples = 574\nvalue = [16, 558]\nclass = 1", fillcolor="#3fa0e6"] ;
315 -> 327 ;
328 [label="hematokrit <= 0.89\ngini = 0.04\nsamples = 562\nvalue = [12, 550]\nclass = 1", fillcolor="#3d9fe6"] ;
327 -> 328 ;
329 [label="etytr <= 0.1\ngini = 0.04\nsamples = 553\nvalue = [10, 543]\nclass = 1", fillcolor="#3d9fe5"] ;
328 -> 329 ;
330 [label="gini = 0.38\nsamples = 4\nvalue = [1, 3]\nclass = 1", fillcolor="#7bbeee"] ;
329 -> 330 ;
331 [label="erytrocyty <= 0.45\ngini = 0.03\nsamples = 549\nvalue = [9, 540]\nclass = 1", fillcolor="#3c9fe5"] ;
329 -> 331 ;
332 [label="hbver <= 0.73\ngini = 0.13\nsamples = 29\nvalue = [2, 27]\nclass = 1", fillcolor="#48a4e7"] ;
331 -> 332 ;
333 [label="gini = 0.0\nsamples = 20\nvalue = [0, 20]\nclass = 1", fillcolor="#399de5"] ;
332 -> 333 ;
334 [label="hematokrit <= 0.43\ngini = 0.35\nsamples = 9\nvalue = [2, 7]\nclass = 1", fillcolor="#72b9ec"] ;
332 -> 334 ;
335 [label="gini = 0.5\nsamples = 4\nvalue = [2, 2]\nclass = 0", fillcolor="#ffffff"] ;
334 -> 335 ;
336 [label="gini = 0.0\nsamples = 5\nvalue = [0, 5]\nclass = 1", fillcolor="#399de5"] ;
334 -> 336 ;
337 [label="hbver <= 0.78\ngini = 0.03\nsamples = 520\nvalue = [7, 513]\nclass = 1", fillcolor="#3c9ee5"] ;
331 -> 337 ;
338 [label="er-cv <= 0.63\ngini = 0.02\nsamples = 455\nvalue = [4, 451]\nclass = 1", fillcolor="#3b9ee5"] ;
337 -> 338 ;
339 [label="er-cv <= 0.29\ngini = 0.01\nsamples = 423\nvalue = [2, 421]\nclass = 1", fillcolor="#3a9de5"] ;
338 -> 339 ;
340 [label="er-cv <= 0.28\ngini = 0.07\nsamples = 27\nvalue = [1, 26]\nclass = 1", fillcolor="#41a1e6"] ;
339 -> 340 ;
341 [label="gini = 0.0\nsamples = 23\nvalue = [0, 23]\nclass = 1", fillcolor="#399de5"] ;
340 -> 341 ;
342 [label="gini = 0.38\nsamples = 4\nvalue = [1, 3]\nclass = 1", fillcolor="#7bbeee"] ;
340 -> 342 ;
343 [label="hematokrit <= 0.62\ngini = 0.01\nsamples = 396\nvalue = [1, 395]\nclass = 1", fillcolor="#3a9de5"] ;
339 -> 343 ;
344 [label="gini = 0.0\nsamples = 300\nvalue = [0, 300]\nclass = 1", fillcolor="#399de5"] ;
343 -> 344 ;
345 [label="erytrocyty <= 0.6\ngini = 0.02\nsamples = 96\nvalue = [1, 95]\nclass = 1", fillcolor="#3b9ee5"] ;
343 -> 345 ;
346 [label="etytr <= 0.22\ngini = 0.06\nsamples = 35\nvalue = [1, 34]\nclass = 1", fillcolor="#3fa0e6"] ;
345 -> 346 ;
347 [label="gini = 0.0\nsamples = 24\nvalue = [0, 24]\nclass = 1", fillcolor="#399de5"] ;
346 -> 347 ;
348 [label="erytrocyty <= 0.6\ngini = 0.17\nsamples = 11\nvalue = [1, 10]\nclass = 1", fillcolor="#4da7e8"] ;
346 -> 348 ;
349 [label="gini = 0.0\nsamples = 7\nvalue = [0, 7]\nclass = 1", fillcolor="#399de5"] ;
348 -> 349 ;
350 [label="gini = 0.38\nsamples = 4\nvalue = [1, 3]\nclass = 1", fillcolor="#7bbeee"] ;
348 -> 350 ;
351 [label="gini = 0.0\nsamples = 61\nvalue = [0, 61]\nclass = 1", fillcolor="#399de5"] ;
345 -> 351 ;
352 [label="er-cv <= 0.63\ngini = 0.12\nsamples = 32\nvalue = [2, 30]\nclass = 1", fillcolor="#46a4e7"] ;
338 -> 352 ;
353 [label="gini = 0.5\nsamples = 4\nvalue = [2, 2]\nclass = 0", fillcolor="#ffffff"] ;
352 -> 353 ;
354 [label="gini = 0.0\nsamples = 28\nvalue = [0, 28]\nclass = 1", fillcolor="#399de5"] ;
352 -> 354 ;
355 [label="hbver <= 0.79\ngini = 0.09\nsamples = 65\nvalue = [3, 62]\nclass = 1", fillcolor="#43a2e6"] ;
337 -> 355 ;
356 [label="leukocyty <= 0.17\ngini = 0.42\nsamples = 10\nvalue = [3, 7]\nclass = 1", fillcolor="#8ec7f0"] ;
355 -> 356 ;
357 [label="gini = 0.28\nsamples = 6\nvalue = [1, 5]\nclass = 1", fillcolor="#61b1ea"] ;
356 -> 357 ;
358 [label="gini = 0.5\nsamples = 4\nvalue = [2, 2]\nclass = 0", fillcolor="#ffffff"] ;
356 -> 358 ;
359 [label="gini = 0.0\nsamples = 55\nvalue = [0, 55]\nclass = 1", fillcolor="#399de5"] ;
355 -> 359 ;
360 [label="erytrocyty <= 0.7\ngini = 0.35\nsamples = 9\nvalue = [2, 7]\nclass = 1", fillcolor="#72b9ec"] ;
328 -> 360 ;
361 [label="gini = 0.0\nsamples = 5\nvalue = [0, 5]\nclass = 1", fillcolor="#399de5"] ;
360 -> 361 ;
362 [label="gini = 0.5\nsamples = 4\nvalue = [2, 2]\nclass = 0", fillcolor="#ffffff"] ;
360 -> 362 ;
363 [label="leukocyty <= 0.18\ngini = 0.44\nsamples = 12\nvalue = [4, 8]\nclass = 1", fillcolor="#9ccef2"] ;
327 -> 363 ;
364 [label="gini = 0.5\nsamples = 4\nvalue = [2, 2]\nclass = 0", fillcolor="#ffffff"] ;
363 -> 364 ;
365 [label="erytrocyty <= 0.71\ngini = 0.38\nsamples = 8\nvalue = [2, 6]\nclass = 1", fillcolor="#7bbeee"] ;
363 -> 365 ;
366 [label="gini = 0.5\nsamples = 4\nvalue = [2, 2]\nclass = 0", fillcolor="#ffffff"] ;
365 -> 366 ;
367 [label="gini = 0.0\nsamples = 4\nvalue = [0, 4]\nclass = 1", fillcolor="#399de5"] ;
365 -> 367 ;
368 [label="er-cv <= 0.66\ngini = 0.14\nsamples = 174\nvalue = [13, 161]\nclass = 1", fillcolor="#49a5e7"] ;
314 -> 368 ;
369 [label="erytrocyty <= 0.62\ngini = 0.42\nsamples = 10\nvalue = [3, 7]\nclass = 1", fillcolor="#8ec7f0"] ;
368 -> 369 ;
370 [label="gini = 0.48\nsamples = 5\nvalue = [3, 2]\nclass = 0", fillcolor="#f6d5bd"] ;
369 -> 370 ;
371 [label="gini = 0.0\nsamples = 5\nvalue = [0, 5]\nclass = 1", fillcolor="#399de5"] ;
369 -> 371 ;
372 [label="hematokrit <= 0.79\ngini = 0.11\nsamples = 164\nvalue = [10, 154]\nclass = 1", fillcolor="#46a3e7"] ;
368 -> 372 ;
373 [label="etytr <= 0.31\ngini = 0.09\nsamples = 160\nvalue = [8, 152]\nclass = 1", fillcolor="#43a2e6"] ;
372 -> 373 ;
374 [label="blood_group <= 0.5\ngini = 0.09\nsamples = 156\nvalue = [7, 149]\nclass = 1", fillcolor="#42a2e6"] ;
373 -> 374 ;
375 [label="etytr <= 0.2\ngini = 0.23\nsamples = 15\nvalue = [2, 13]\nclass = 1", fillcolor="#57ace9"] ;
374 -> 375 ;
376 [label="gini = 0.5\nsamples = 4\nvalue = [2, 2]\nclass = 0", fillcolor="#ffffff"] ;
375 -> 376 ;
377 [label="gini = 0.0\nsamples = 11\nvalue = [0, 11]\nclass = 1", fillcolor="#399de5"] ;
375 -> 377 ;
378 [label="hbver <= 0.54\ngini = 0.07\nsamples = 141\nvalue = [5, 136]\nclass = 1", fillcolor="#40a1e6"] ;
374 -> 378 ;
379 [label="blood_group <= 2.5\ngini = 0.18\nsamples = 41\nvalue = [4, 37]\nclass = 1", fillcolor="#4ea8e8"] ;
378 -> 379 ;
380 [label="gini = 0.0\nsamples = 12\nvalue = [0, 12]\nclass = 1", fillcolor="#399de5"] ;
379 -> 380 ;
381 [label="hbver <= 0.53\ngini = 0.24\nsamples = 29\nvalue = [4, 25]\nclass = 1", fillcolor="#59ade9"] ;
379 -> 381 ;
382 [label="erytrocyty <= 0.55\ngini = 0.08\nsamples = 25\nvalue = [1, 24]\nclass = 1", fillcolor="#41a1e6"] ;
381 -> 382 ;
383 [label="gini = 0.38\nsamples = 4\nvalue = [1, 3]\nclass = 1", fillcolor="#7bbeee"] ;
382 -> 383 ;
384 [label="gini = 0.0\nsamples = 21\nvalue = [0, 21]\nclass = 1", fillcolor="#399de5"] ;
382 -> 384 ;
385 [label="gini = 0.38\nsamples = 4\nvalue = [3, 1]\nclass = 0", fillcolor="#eeab7b"] ;
381 -> 385 ;
386 [label="hbver <= 0.86\ngini = 0.02\nsamples = 100\nvalue = [1, 99]\nclass = 1", fillcolor="#3b9ee5"] ;
378 -> 386 ;
387 [label="gini = 0.0\nsamples = 89\nvalue = [0, 89]\nclass = 1", fillcolor="#399de5"] ;
386 -> 387 ;
388 [label="hematokrit <= 0.4\ngini = 0.17\nsamples = 11\nvalue = [1, 10]\nclass = 1", fillcolor="#4da7e8"] ;
386 -> 388 ;
389 [label="gini = 0.38\nsamples = 4\nvalue = [1, 3]\nclass = 1", fillcolor="#7bbeee"] ;
388 -> 389 ;
390 [label="gini = 0.0\nsamples = 7\nvalue = [0, 7]\nclass = 1", fillcolor="#399de5"] ;
388 -> 390 ;
391 [label="gini = 0.38\nsamples = 4\nvalue = [1, 3]\nclass = 1", fillcolor="#7bbeee"] ;
373 -> 391 ;
392 [label="gini = 0.5\nsamples = 4\nvalue = [2, 2]\nclass = 0", fillcolor="#ffffff"] ;
372 -> 392 ;
393 [label="hbver <= 0.69\ngini = 0.36\nsamples = 435\nvalue = [102, 333]\nclass = 1", fillcolor="#76bbed"] ;
313 -> 393 ;
394 [label="erytrocyty <= 0.49\ngini = 0.22\nsamples = 252\nvalue = [31, 221]\nclass = 1", fillcolor="#55abe9"] ;
393 -> 394 ;
395 [label="gini = 0.49\nsamples = 7\nvalue = [4, 3]\nclass = 0", fillcolor="#f8e0ce"] ;
394 -> 395 ;
396 [label="hbver <= 0.45\ngini = 0.2\nsamples = 245\nvalue = [27, 218]\nclass = 1", fillcolor="#52a9e8"] ;
394 -> 396 ;
397 [label="leukocyty <= 0.28\ngini = 0.5\nsamples = 10\nvalue = [5, 5]\nclass = 0", fillcolor="#ffffff"] ;
396 -> 397 ;
398 [label="gini = 0.38\nsamples = 4\nvalue = [3, 1]\nclass = 0", fillcolor="#eeab7b"] ;
397 -> 398 ;
399 [label="gini = 0.44\nsamples = 6\nvalue = [2, 4]\nclass = 1", fillcolor="#9ccef2"] ;
397 -> 399 ;
400 [label="er-cv <= 0.33\ngini = 0.17\nsamples = 235\nvalue = [22, 213]\nclass = 1", fillcolor="#4da7e8"] ;
396 -> 400 ;
401 [label="gini = 0.0\nsamples = 39\nvalue = [0, 39]\nclass = 1", fillcolor="#399de5"] ;
400 -> 401 ;
402 [label="hbver <= 0.54\ngini = 0.2\nsamples = 196\nvalue = [22, 174]\nclass = 1", fillcolor="#52a9e8"] ;
400 -> 402 ;
403 [label="leukocyty <= 0.34\ngini = 0.28\nsamples = 85\nvalue = [14, 71]\nclass = 1", fillcolor="#60b0ea"] ;
402 -> 403 ;
404 [label="etytr <= 0.4\ngini = 0.2\nsamples = 70\nvalue = [8, 62]\nclass = 1", fillcolor="#53aae8"] ;
403 -> 404 ;
405 [label="er-cv <= 0.79\ngini = 0.06\nsamples = 64\nvalue = [2, 62]\nclass = 1", fillcolor="#3fa0e6"] ;
404 -> 405 ;
406 [label="leukocyty <= 0.27\ngini = 0.03\nsamples = 60\nvalue = [1, 59]\nclass = 1", fillcolor="#3c9fe5"] ;
405 -> 406 ;
407 [label="gini = 0.38\nsamples = 4\nvalue = [1, 3]\nclass = 1", fillcolor="#7bbeee"] ;
406 -> 407 ;
408 [label="gini = 0.0\nsamples = 56\nvalue = [0, 56]\nclass = 1", fillcolor="#399de5"] ;
406 -> 408 ;
409 [label="gini = 0.38\nsamples = 4\nvalue = [1, 3]\nclass = 1", fillcolor="#7bbeee"] ;
405 -> 409 ;
410 [label="gini = 0.0\nsamples = 6\nvalue = [6, 0]\nclass = 0", fillcolor="#e58139"] ;
404 -> 410 ;
411 [label="leukocyty <= 0.36\ngini = 0.48\nsamples = 15\nvalue = [6, 9]\nclass = 1", fillcolor="#bddef6"] ;
403 -> 411 ;
412 [label="etytr <= 0.36\ngini = 0.48\nsamples = 10\nvalue = [6, 4]\nclass = 0", fillcolor="#f6d5bd"] ;
411 -> 412 ;
413 [label="gini = 0.0\nsamples = 4\nvalue = [0, 4]\nclass = 1", fillcolor="#399de5"] ;
412 -> 413 ;
414 [label="gini = 0.0\nsamples = 6\nvalue = [6, 0]\nclass = 0", fillcolor="#e58139"] ;
412 -> 414 ;
415 [label="gini = 0.0\nsamples = 5\nvalue = [0, 5]\nclass = 1", fillcolor="#399de5"] ;
411 -> 415 ;
416 [label="leukocyty <= 0.32\ngini = 0.13\nsamples = 111\nvalue = [8, 103]\nclass = 1", fillcolor="#48a5e7"] ;
402 -> 416 ;
417 [label="hematokrit <= 0.53\ngini = 0.05\nsamples = 79\nvalue = [2, 77]\nclass = 1", fillcolor="#3ea0e6"] ;
416 -> 417 ;
418 [label="gini = 0.0\nsamples = 54\nvalue = [0, 54]\nclass = 1", fillcolor="#399de5"] ;
417 -> 418 ;
419 [label="blood_group <= 4.5\ngini = 0.15\nsamples = 25\nvalue = [2, 23]\nclass = 1", fillcolor="#4aa6e7"] ;
417 -> 419 ;
420 [label="gini = 0.0\nsamples = 15\nvalue = [0, 15]\nclass = 1", fillcolor="#399de5"] ;
419 -> 420 ;
421 [label="hematokrit <= 0.6\ngini = 0.32\nsamples = 10\nvalue = [2, 8]\nclass = 1", fillcolor="#6ab6ec"] ;
419 -> 421 ;
422 [label="gini = 0.5\nsamples = 4\nvalue = [2, 2]\nclass = 0", fillcolor="#ffffff"] ;
421 -> 422 ;
423 [label="gini = 0.0\nsamples = 6\nvalue = [0, 6]\nclass = 1", fillcolor="#399de5"] ;
421 -> 423 ;
424 [label="hematokrit <= 0.57\ngini = 0.3\nsamples = 32\nvalue = [6, 26]\nclass = 1", fillcolor="#67b4eb"] ;
416 -> 424 ;
425 [label="leukocyty <= 0.35\ngini = 0.22\nsamples = 24\nvalue = [3, 21]\nclass = 1", fillcolor="#55abe9"] ;
424 -> 425 ;
426 [label="gini = 0.0\nsamples = 13\nvalue = [0, 13]\nclass = 1", fillcolor="#399de5"] ;
425 -> 426 ;
427 [label="blood_group <= 2.5\ngini = 0.4\nsamples = 11\nvalue = [3, 8]\nclass = 1", fillcolor="#83c2ef"] ;
425 -> 427 ;
428 [label="gini = 0.48\nsamples = 5\nvalue = [2, 3]\nclass = 1", fillcolor="#bddef6"] ;
427 -> 428 ;
429 [label="gini = 0.28\nsamples = 6\nvalue = [1, 5]\nclass = 1", fillcolor="#61b1ea"] ;
427 -> 429 ;
430 [label="leukocyty <= 0.34\ngini = 0.47\nsamples = 8\nvalue = [3, 5]\nclass = 1", fillcolor="#b0d8f5"] ;
424 -> 430 ;
431 [label="gini = 0.38\nsamples = 4\nvalue = [3, 1]\nclass = 0", fillcolor="#eeab7b"] ;
430 -> 431 ;
432 [label="gini = 0.0\nsamples = 4\nvalue = [0, 4]\nclass = 1", fillcolor="#399de5"] ;
430 -> 432 ;
433 [label="etytr <= 0.34\ngini = 0.47\nsamples = 183\nvalue = [71, 112]\nclass = 1", fillcolor="#b7dbf5"] ;
393 -> 433 ;
434 [label="erytrocyty <= 0.56\ngini = 0.42\nsamples = 160\nvalue = [49, 111]\nclass = 1", fillcolor="#90c8f0"] ;
433 -> 434 ;
435 [label="hbver <= 0.79\ngini = 0.27\nsamples = 43\nvalue = [36, 7]\nclass = 0", fillcolor="#ea9a5f"] ;
434 -> 435 ;
436 [label="hematokrit <= 0.37\ngini = 0.18\nsamples = 39\nvalue = [35, 4]\nclass = 0", fillcolor="#e88f50"] ;
435 -> 436 ;
437 [label="er-cv <= 0.46\ngini = 0.44\nsamples = 9\nvalue = [6, 3]\nclass = 0", fillcolor="#f2c09c"] ;
436 -> 437 ;
438 [label="gini = 0.32\nsamples = 5\nvalue = [4, 1]\nclass = 0", fillcolor="#eca06a"] ;
437 -> 438 ;
439 [label="gini = 0.5\nsamples = 4\nvalue = [2, 2]\nclass = 0", fillcolor="#ffffff"] ;
437 -> 439 ;
440 [label="etytr <= 0.31\ngini = 0.06\nsamples = 30\nvalue = [29, 1]\nclass = 0", fillcolor="#e68540"] ;
436 -> 440 ;
441 [label="gini = 0.0\nsamples = 24\nvalue = [24, 0]\nclass = 0", fillcolor="#e58139"] ;
440 -> 441 ;
442 [label="gini = 0.28\nsamples = 6\nvalue = [5, 1]\nclass = 0", fillcolor="#ea9a61"] ;
440 -> 442 ;
443 [label="gini = 0.38\nsamples = 4\nvalue = [1, 3]\nclass = 1", fillcolor="#7bbeee"] ;
435 -> 443 ;
444 [label="etytr <= 0.34\ngini = 0.2\nsamples = 117\nvalue = [13, 104]\nclass = 1", fillcolor="#52a9e8"] ;
434 -> 444 ;
445 [label="etytr <= 0.23\ngini = 0.16\nsamples = 111\nvalue = [10, 101]\nclass = 1", fillcolor="#4da7e8"] ;
444 -> 445 ;
446 [label="leukocyty <= 0.34\ngini = 0.4\nsamples = 22\nvalue = [6, 16]\nclass = 1", fillcolor="#83c2ef"] ;
445 -> 446 ;
447 [label="etytr <= 0.2\ngini = 0.28\nsamples = 18\nvalue = [3, 15]\nclass = 1", fillcolor="#61b1ea"] ;
446 -> 447 ;
448 [label="gini = 0.0\nsamples = 9\nvalue = [0, 9]\nclass = 1", fillcolor="#399de5"] ;
447 -> 448 ;
449 [label="hbver <= 0.78\ngini = 0.44\nsamples = 9\nvalue = [3, 6]\nclass = 1", fillcolor="#9ccef2"] ;
447 -> 449 ;
450 [label="gini = 0.48\nsamples = 5\nvalue = [3, 2]\nclass = 0", fillcolor="#f6d5bd"] ;
449 -> 450 ;
451 [label="gini = 0.0\nsamples = 4\nvalue = [0, 4]\nclass = 1", fillcolor="#399de5"] ;
449 -> 451 ;
452 [label="gini = 0.38\nsamples = 4\nvalue = [3, 1]\nclass = 0", fillcolor="#eeab7b"] ;
446 -> 452 ;
453 [label="er-cv <= 0.48\ngini = 0.09\nsamples = 89\nvalue = [4, 85]\nclass = 1", fillcolor="#42a2e6"] ;
445 -> 453 ;
454 [label="gini = 0.0\nsamples = 41\nvalue = [0, 41]\nclass = 1", fillcolor="#399de5"] ;
453 -> 454 ;
455 [label="er-cv <= 0.54\ngini = 0.15\nsamples = 48\nvalue = [4, 44]\nclass = 1", fillcolor="#4ba6e7"] ;
453 -> 455 ;
456 [label="er-cv <= 0.53\ngini = 0.44\nsamples = 9\nvalue = [3, 6]\nclass = 1", fillcolor="#9ccef2"] ;
455 -> 456 ;
457 [label="gini = 0.32\nsamples = 5\nvalue = [1, 4]\nclass = 1", fillcolor="#6ab6ec"] ;
456 -> 457 ;
458 [label="gini = 0.5\nsamples = 4\nvalue = [2, 2]\nclass = 0", fillcolor="#ffffff"] ;
456 -> 458 ;
459 [label="hbver <= 0.71\ngini = 0.05\nsamples = 39\nvalue = [1, 38]\nclass = 1", fillcolor="#3ea0e6"] ;
455 -> 459 ;
460 [label="gini = 0.24\nsamples = 7\nvalue = [1, 6]\nclass = 1", fillcolor="#5aade9"] ;
459 -> 460 ;
461 [label="gini = 0.0\nsamples = 32\nvalue = [0, 32]\nclass = 1", fillcolor="#399de5"] ;
459 -> 461 ;
462 [label="gini = 0.5\nsamples = 6\nvalue = [3, 3]\nclass = 0", fillcolor="#ffffff"] ;
444 -> 462 ;
463 [label="blood_group <= 0.5\ngini = 0.08\nsamples = 23\nvalue = [22, 1]\nclass = 0", fillcolor="#e68742"] ;
433 -> 463 ;
464 [label="gini = 0.24\nsamples = 7\nvalue = [6, 1]\nclass = 0", fillcolor="#e9965a"] ;
463 -> 464 ;
465 [label="gini = 0.0\nsamples = 16\nvalue = [16, 0]\nclass = 0", fillcolor="#e58139"] ;
463 -> 465 ;
466 [label="etytr <= 0.28\ngini = 0.41\nsamples = 2989\nvalue = [2130, 859]\nclass = 0", fillcolor="#efb489"] ;
312 -> 466 ;
467 [label="erytrocyty <= 0.67\ngini = 0.12\nsamples = 798\nvalue = [747, 51]\nclass = 0", fillcolor="#e78a47"] ;
466 -> 467 ;
468 [label="leukocyty <= 0.47\ngini = 0.06\nsamples = 768\nvalue = [744, 24]\nclass = 0", fillcolor="#e6853f"] ;
467 -> 468 ;
469 [label="etytr <= 0.28\ngini = 0.15\nsamples = 130\nvalue = [119, 11]\nclass = 0", fillcolor="#e78d4b"] ;
468 -> 469 ;
470 [label="er-cv <= 0.53\ngini = 0.13\nsamples = 126\nvalue = [117, 9]\nclass = 0", fillcolor="#e78b48"] ;
469 -> 470 ;
471 [label="gini = 0.0\nsamples = 63\nvalue = [63, 0]\nclass = 0", fillcolor="#e58139"] ;
470 -> 471 ;
472 [label="er-cv <= 0.54\ngini = 0.24\nsamples = 63\nvalue = [54, 9]\nclass = 0", fillcolor="#e9965a"] ;
470 -> 472 ;
473 [label="gini = 0.48\nsamples = 5\nvalue = [2, 3]\nclass = 1", fillcolor="#bddef6"] ;
472 -> 473 ;
474 [label="etytr <= 0.12\ngini = 0.19\nsamples = 58\nvalue = [52, 6]\nclass = 0", fillcolor="#e89050"] ;
472 -> 474 ;
475 [label="gini = 0.5\nsamples = 4\nvalue = [2, 2]\nclass = 0", fillcolor="#ffffff"] ;
474 -> 475 ;
476 [label="hbver <= 0.63\ngini = 0.14\nsamples = 54\nvalue = [50, 4]\nclass = 0", fillcolor="#e78b49"] ;
474 -> 476 ;
477 [label="gini = 0.5\nsamples = 4\nvalue = [2, 2]\nclass = 0", fillcolor="#ffffff"] ;
476 -> 477 ;
478 [label="er-cv <= 0.55\ngini = 0.08\nsamples = 50\nvalue = [48, 2]\nclass = 0", fillcolor="#e68641"] ;
476 -> 478 ;
479 [label="gini = 0.38\nsamples = 4\nvalue = [3, 1]\nclass = 0", fillcolor="#eeab7b"] ;
478 -> 479 ;
480 [label="erytrocyty <= 0.52\ngini = 0.04\nsamples = 46\nvalue = [45, 1]\nclass = 0", fillcolor="#e6843d"] ;
478 -> 480 ;
481 [label="gini = 0.0\nsamples = 36\nvalue = [36, 0]\nclass = 0", fillcolor="#e58139"] ;
480 -> 481 ;
482 [label="leukocyty <= 0.44\ngini = 0.18\nsamples = 10\nvalue = [9, 1]\nclass = 0", fillcolor="#e88f4f"] ;
480 -> 482 ;
483 [label="gini = 0.0\nsamples = 6\nvalue = [6, 0]\nclass = 0", fillcolor="#e58139"] ;
482 -> 483 ;
484 [label="gini = 0.38\nsamples = 4\nvalue = [3, 1]\nclass = 0", fillcolor="#eeab7b"] ;
482 -> 484 ;
485 [label="gini = 0.5\nsamples = 4\nvalue = [2, 2]\nclass = 0", fillcolor="#ffffff"] ;
469 -> 485 ;
486 [label="erytrocyty <= 0.25\ngini = 0.04\nsamples = 638\nvalue = [625, 13]\nclass = 0", fillcolor="#e6843d"] ;
468 -> 486 ;
487 [label="erytrocyty <= 0.25\ngini = 0.2\nsamples = 18\nvalue = [16, 2]\nclass = 0", fillcolor="#e89152"] ;
486 -> 487 ;
488 [label="gini = 0.0\nsamples = 14\nvalue = [14, 0]\nclass = 0", fillcolor="#e58139"] ;
487 -> 488 ;
489 [label="gini = 0.5\nsamples = 4\nvalue = [2, 2]\nclass = 0", fillcolor="#ffffff"] ;
487 -> 489 ;
490 [label="hematokrit <= 0.33\ngini = 0.03\nsamples = 620\nvalue = [609, 11]\nclass = 0", fillcolor="#e5833d"] ;
486 -> 490 ;
491 [label="er-cv <= 0.78\ngini = 0.1\nsamples = 98\nvalue = [93, 5]\nclass = 0", fillcolor="#e68844"] ;
490 -> 491 ;
492 [label="etytr <= 0.18\ngini = 0.08\nsamples = 94\nvalue = [90, 4]\nclass = 0", fillcolor="#e68742"] ;
491 -> 492 ;
493 [label="hbver <= 0.52\ngini = 0.2\nsamples = 26\nvalue = [23, 3]\nclass = 0", fillcolor="#e89153"] ;
492 -> 493 ;
494 [label="gini = 0.41\nsamples = 7\nvalue = [5, 2]\nclass = 0", fillcolor="#efb388"] ;
493 -> 494 ;
495 [label="hematokrit <= 0.31\ngini = 0.1\nsamples = 19\nvalue = [18, 1]\nclass = 0", fillcolor="#e68844"] ;
493 -> 495 ;
496 [label="gini = 0.0\nsamples = 15\nvalue = [15, 0]\nclass = 0", fillcolor="#e58139"] ;
495 -> 496 ;
497 [label="gini = 0.38\nsamples = 4\nvalue = [3, 1]\nclass = 0", fillcolor="#eeab7b"] ;
495 -> 497 ;
498 [label="erytrocyty <= 0.33\ngini = 0.03\nsamples = 68\nvalue = [67, 1]\nclass = 0", fillcolor="#e5833c"] ;
492 -> 498 ;
499 [label="etytr <= 0.24\ngini = 0.22\nsamples = 8\nvalue = [7, 1]\nclass = 0", fillcolor="#e99355"] ;
498 -> 499 ;
500 [label="gini = 0.38\nsamples = 4\nvalue = [3, 1]\nclass = 0", fillcolor="#eeab7b"] ;
499 -> 500 ;
501 [label="gini = 0.0\nsamples = 4\nvalue = [4, 0]\nclass = 0", fillcolor="#e58139"] ;
499 -> 501 ;
502 [label="gini = 0.0\nsamples = 60\nvalue = [60, 0]\nclass = 0", fillcolor="#e58139"] ;
498 -> 502 ;
503 [label="gini = 0.38\nsamples = 4\nvalue = [3, 1]\nclass = 0", fillcolor="#eeab7b"] ;
491 -> 503 ;
504 [label="etytr <= 0.27\ngini = 0.02\nsamples = 522\nvalue = [516, 6]\nclass = 0", fillcolor="#e5823b"] ;
490 -> 504 ;
505 [label="hematokrit <= 0.59\ngini = 0.01\nsamples = 453\nvalue = [451, 2]\nclass = 0", fillcolor="#e5823a"] ;
504 -> 505 ;
506 [label="gini = 0.0\nsamples = 286\nvalue = [286, 0]\nclass = 0", fillcolor="#e58139"] ;
505 -> 506 ;
507 [label="hematokrit <= 0.59\ngini = 0.02\nsamples = 167\nvalue = [165, 2]\nclass = 0", fillcolor="#e5833b"] ;
505 -> 507 ;
508 [label="gini = 0.38\nsamples = 4\nvalue = [3, 1]\nclass = 0", fillcolor="#eeab7b"] ;
507 -> 508 ;
509 [label="leukocyty <= 0.58\ngini = 0.01\nsamples = 163\nvalue = [162, 1]\nclass = 0", fillcolor="#e5823a"] ;
507 -> 509 ;
510 [label="hbver <= 0.58\ngini = 0.04\nsamples = 51\nvalue = [50, 1]\nclass = 0", fillcolor="#e6843d"] ;
509 -> 510 ;
511 [label="gini = 0.38\nsamples = 4\nvalue = [3, 1]\nclass = 0", fillcolor="#eeab7b"] ;
510 -> 511 ;
512 [label="gini = 0.0\nsamples = 47\nvalue = [47, 0]\nclass = 0", fillcolor="#e58139"] ;
510 -> 512 ;
513 [label="gini = 0.0\nsamples = 112\nvalue = [112, 0]\nclass = 0", fillcolor="#e58139"] ;
509 -> 513 ;
514 [label="leukocyty <= 0.64\ngini = 0.11\nsamples = 69\nvalue = [65, 4]\nclass = 0", fillcolor="#e78945"] ;
504 -> 514 ;
515 [label="gini = 0.0\nsamples = 44\nvalue = [44, 0]\nclass = 0", fillcolor="#e58139"] ;
514 -> 515 ;
516 [label="hematokrit <= 0.56\ngini = 0.27\nsamples = 25\nvalue = [21, 4]\nclass = 0", fillcolor="#ea995f"] ;
514 -> 516 ;
517 [label="gini = 0.0\nsamples = 13\nvalue = [13, 0]\nclass = 0", fillcolor="#e58139"] ;
516 -> 517 ;
518 [label="etytr <= 0.27\ngini = 0.44\nsamples = 12\nvalue = [8, 4]\nclass = 0", fillcolor="#f2c09c"] ;
516 -> 518 ;
519 [label="gini = 0.44\nsamples = 6\nvalue = [2, 4]\nclass = 1", fillcolor="#9ccef2"] ;
518 -> 519 ;
520 [label="gini = 0.0\nsamples = 6\nvalue = [6, 0]\nclass = 0", fillcolor="#e58139"] ;
518 -> 520 ;
521 [label="hbver <= 0.46\ngini = 0.18\nsamples = 30\nvalue = [3, 27]\nclass = 1", fillcolor="#4fa8e8"] ;
467 -> 521 ;
522 [label="gini = 0.5\nsamples = 4\nvalue = [2, 2]\nclass = 0", fillcolor="#ffffff"] ;
521 -> 522 ;
523 [label="er-cv <= 0.56\ngini = 0.07\nsamples = 26\nvalue = [1, 25]\nclass = 1", fillcolor="#41a1e6"] ;
521 -> 523 ;
524 [label="leukocyty <= 0.38\ngini = 0.18\nsamples = 10\nvalue = [1, 9]\nclass = 1", fillcolor="#4fa8e8"] ;
523 -> 524 ;
525 [label="gini = 0.0\nsamples = 6\nvalue = [0, 6]\nclass = 1", fillcolor="#399de5"] ;
524 -> 525 ;
526 [label="gini = 0.38\nsamples = 4\nvalue = [1, 3]\nclass = 1", fillcolor="#7bbeee"] ;
524 -> 526 ;
527 [label="gini = 0.0\nsamples = 16\nvalue = [0, 16]\nclass = 1", fillcolor="#399de5"] ;
523 -> 527 ;
528 [label="er-cv <= 0.14\ngini = 0.47\nsamples = 2191\nvalue = [1383, 808]\nclass = 0", fillcolor="#f4cbad"] ;
466 -> 528 ;
529 [label="leukocyty <= 0.44\ngini = 0.5\nsamples = 51\nvalue = [23, 28]\nclass = 1", fillcolor="#dceefa"] ;
528 -> 529 ;
530 [label="gini = 0.0\nsamples = 9\nvalue = [0, 9]\nclass = 1", fillcolor="#399de5"] ;
529 -> 530 ;
531 [label="erytrocyty <= 0.64\ngini = 0.5\nsamples = 42\nvalue = [23, 19]\nclass = 0", fillcolor="#fae9dd"] ;
529 -> 531 ;
532 [label="hbver <= 0.59\ngini = 0.44\nsamples = 24\nvalue = [8, 16]\nclass = 1", fillcolor="#9ccef2"] ;
531 -> 532 ;
533 [label="erytrocyty <= 0.44\ngini = 0.21\nsamples = 17\nvalue = [2, 15]\nclass = 1", fillcolor="#53aae8"] ;
532 -> 533 ;
534 [label="etytr <= 0.59\ngini = 0.38\nsamples = 8\nvalue = [2, 6]\nclass = 1", fillcolor="#7bbeee"] ;
533 -> 534 ;
535 [label="gini = 0.5\nsamples = 4\nvalue = [2, 2]\nclass = 0", fillcolor="#ffffff"] ;
534 -> 535 ;
536 [label="gini = 0.0\nsamples = 4\nvalue = [0, 4]\nclass = 1", fillcolor="#399de5"] ;
534 -> 536 ;
537 [label="gini = 0.0\nsamples = 9\nvalue = [0, 9]\nclass = 1", fillcolor="#399de5"] ;
533 -> 537 ;
538 [label="gini = 0.24\nsamples = 7\nvalue = [6, 1]\nclass = 0", fillcolor="#e9965a"] ;
532 -> 538 ;
539 [label="hematokrit <= 0.45\ngini = 0.28\nsamples = 18\nvalue = [15, 3]\nclass = 0", fillcolor="#ea9a61"] ;
531 -> 539 ;
540 [label="hematokrit <= 0.3\ngini = 0.47\nsamples = 8\nvalue = [5, 3]\nclass = 0", fillcolor="#f5cdb0"] ;
539 -> 540 ;
541 [label="gini = 0.38\nsamples = 4\nvalue = [3, 1]\nclass = 0", fillcolor="#eeab7b"] ;
540 -> 541 ;
542 [label="gini = 0.5\nsamples = 4\nvalue = [2, 2]\nclass = 0", fillcolor="#ffffff"] ;
540 -> 542 ;
543 [label="gini = 0.0\nsamples = 10\nvalue = [10, 0]\nclass = 0", fillcolor="#e58139"] ;
539 -> 543 ;
544 [label="etytr <= 0.75\ngini = 0.46\nsamples = 2140\nvalue = [1360, 780]\nclass = 0", fillcolor="#f4c9ab"] ;
528 -> 544 ;
545 [label="leukocyty <= 0.65\ngini = 0.47\nsamples = 1999\nvalue = [1233, 766]\nclass = 0", fillcolor="#f5cfb4"] ;
544 -> 545 ;
546 [label="erytrocyty <= 0.69\ngini = 0.42\nsamples = 1282\nvalue = [894, 388]\nclass = 0", fillcolor="#f0b88f"] ;
545 -> 546 ;
547 [label="leukocyty <= 0.38\ngini = 0.27\nsamples = 685\nvalue = [574, 111]\nclass = 0", fillcolor="#ea995f"] ;
546 -> 547 ;
548 [label="hbver <= 0.71\ngini = 0.5\nsamples = 31\nvalue = [16, 15]\nclass = 0", fillcolor="#fdf7f3"] ;
547 -> 548 ;
549 [label="erytrocyty <= 0.57\ngini = 0.48\nsamples = 23\nvalue = [9, 14]\nclass = 1", fillcolor="#b8dcf6"] ;
548 -> 549 ;
550 [label="leukocyty <= 0.36\ngini = 0.44\nsamples = 9\nvalue = [6, 3]\nclass = 0", fillcolor="#f2c09c"] ;
549 -> 550 ;
551 [label="gini = 0.0\nsamples = 4\nvalue = [4, 0]\nclass = 0", fillcolor="#e58139"] ;
550 -> 551 ;
552 [label="gini = 0.48\nsamples = 5\nvalue = [2, 3]\nclass = 1", fillcolor="#bddef6"] ;
550 -> 552 ;
553 [label="hbver <= 0.55\ngini = 0.34\nsamples = 14\nvalue = [3, 11]\nclass = 1", fillcolor="#6fb8ec"] ;
549 -> 553 ;
554 [label="gini = 0.38\nsamples = 4\nvalue = [3, 1]\nclass = 0", fillcolor="#eeab7b"] ;
553 -> 554 ;
555 [label="gini = 0.0\nsamples = 10\nvalue = [0, 10]\nclass = 1", fillcolor="#399de5"] ;
553 -> 555 ;
556 [label="etytr <= 0.35\ngini = 0.22\nsamples = 8\nvalue = [7, 1]\nclass = 0", fillcolor="#e99355"] ;
548 -> 556 ;
557 [label="gini = 0.38\nsamples = 4\nvalue = [3, 1]\nclass = 0", fillcolor="#eeab7b"] ;
556 -> 557 ;
558 [label="gini = 0.0\nsamples = 4\nvalue = [4, 0]\nclass = 0", fillcolor="#e58139"] ;
556 -> 558 ;
559 [label="etytr <= 0.38\ngini = 0.25\nsamples = 654\nvalue = [558, 96]\nclass = 0", fillcolor="#e9975b"] ;
547 -> 559 ;
560 [label="erytrocyty <= 0.53\ngini = 0.16\nsamples = 306\nvalue = [280, 26]\nclass = 0", fillcolor="#e78d4b"] ;
559 -> 560 ;
561 [label="blood_group <= 1.5\ngini = 0.02\nsamples = 259\nvalue = [256, 3]\nclass = 0", fillcolor="#e5823b"] ;
560 -> 561 ;
562 [label="erytrocyty <= 0.5\ngini = 0.07\nsamples = 53\nvalue = [51, 2]\nclass = 0", fillcolor="#e68641"] ;
561 -> 562 ;
563 [label="gini = 0.0\nsamples = 49\nvalue = [49, 0]\nclass = 0", fillcolor="#e58139"] ;
562 -> 563 ;
564 [label="gini = 0.5\nsamples = 4\nvalue = [2, 2]\nclass = 0", fillcolor="#ffffff"] ;
562 -> 564 ;
565 [label="er-cv <= 0.69\ngini = 0.01\nsamples = 206\nvalue = [205, 1]\nclass = 0", fillcolor="#e5823a"] ;
561 -> 565 ;
566 [label="gini = 0.0\nsamples = 170\nvalue = [170, 0]\nclass = 0", fillcolor="#e58139"] ;
565 -> 566 ;
567 [label="smoker <= 0.5\ngini = 0.05\nsamples = 36\nvalue = [35, 1]\nclass = 0", fillcolor="#e6853f"] ;
565 -> 567 ;
568 [label="gini = 0.0\nsamples = 22\nvalue = [22, 0]\nclass = 0", fillcolor="#e58139"] ;
567 -> 568 ;
569 [label="hematokrit <= 0.45\ngini = 0.13\nsamples = 14\nvalue = [13, 1]\nclass = 0", fillcolor="#e78b48"] ;
567 -> 569 ;
570 [label="gini = 0.38\nsamples = 4\nvalue = [3, 1]\nclass = 0", fillcolor="#eeab7b"] ;
569 -> 570 ;
571 [label="gini = 0.0\nsamples = 10\nvalue = [10, 0]\nclass = 0", fillcolor="#e58139"] ;
569 -> 571 ;
572 [label="er-cv <= 0.5\ngini = 0.5\nsamples = 47\nvalue = [24, 23]\nclass = 0", fillcolor="#fefaf7"] ;
560 -> 572 ;
573 [label="er-cv <= 0.41\ngini = 0.44\nsamples = 24\nvalue = [16, 8]\nclass = 0", fillcolor="#f2c09c"] ;
572 -> 573 ;
574 [label="etytr <= 0.33\ngini = 0.49\nsamples = 14\nvalue = [6, 8]\nclass = 1", fillcolor="#cee6f8"] ;
573 -> 574 ;
575 [label="hbver <= 0.62\ngini = 0.35\nsamples = 9\nvalue = [2, 7]\nclass = 1", fillcolor="#72b9ec"] ;
574 -> 575 ;
576 [label="gini = 0.48\nsamples = 5\nvalue = [2, 3]\nclass = 1", fillcolor="#bddef6"] ;
575 -> 576 ;
577 [label="gini = 0.0\nsamples = 4\nvalue = [0, 4]\nclass = 1", fillcolor="#399de5"] ;
575 -> 577 ;
578 [label="gini = 0.32\nsamples = 5\nvalue = [4, 1]\nclass = 0", fillcolor="#eca06a"] ;
574 -> 578 ;
579 [label="gini = 0.0\nsamples = 10\nvalue = [10, 0]\nclass = 0", fillcolor="#e58139"] ;
573 -> 579 ;
580 [label="leukocyty <= 0.42\ngini = 0.45\nsamples = 23\nvalue = [8, 15]\nclass = 1", fillcolor="#a3d1f3"] ;
572 -> 580 ;
581 [label="hbver <= 0.71\ngini = 0.24\nsamples = 14\nvalue = [2, 12]\nclass = 1", fillcolor="#5aade9"] ;
580 -> 581 ;
582 [label="gini = 0.41\nsamples = 7\nvalue = [2, 5]\nclass = 1", fillcolor="#88c4ef"] ;
581 -> 582 ;
583 [label="gini = 0.0\nsamples = 7\nvalue = [0, 7]\nclass = 1", fillcolor="#399de5"] ;
581 -> 583 ;
584 [label="erytrocyty <= 0.6\ngini = 0.44\nsamples = 9\nvalue = [6, 3]\nclass = 0", fillcolor="#f2c09c"] ;
580 -> 584 ;
585 [label="gini = 0.32\nsamples = 5\nvalue = [4, 1]\nclass = 0", fillcolor="#eca06a"] ;
584 -> 585 ;
586 [label="gini = 0.5\nsamples = 4\nvalue = [2, 2]\nclass = 0", fillcolor="#ffffff"] ;
584 -> 586 ;
587 [label="leukocyty <= 0.59\ngini = 0.32\nsamples = 348\nvalue = [278, 70]\nclass = 0", fillcolor="#eca16b"] ;
559 -> 587 ;
588 [label="etytr <= 0.4\ngini = 0.2\nsamples = 224\nvalue = [199, 25]\nclass = 0", fillcolor="#e89152"] ;
587 -> 588 ;
589 [label="hbver <= 0.73\ngini = 0.4\nsamples = 36\nvalue = [26, 10]\nclass = 0", fillcolor="#efb185"] ;
588 -> 589 ;
590 [label="leukocyty <= 0.56\ngini = 0.3\nsamples = 32\nvalue = [26, 6]\nclass = 0", fillcolor="#eb9e67"] ;
589 -> 590 ;
591 [label="hematokrit <= 0.55\ngini = 0.2\nsamples = 27\nvalue = [24, 3]\nclass = 0", fillcolor="#e89152"] ;
590 -> 591 ;
592 [label="er-cv <= 0.43\ngini = 0.32\nsamples = 15\nvalue = [12, 3]\nclass = 0", fillcolor="#eca06a"] ;
591 -> 592 ;
593 [label="gini = 0.49\nsamples = 7\nvalue = [4, 3]\nclass = 0", fillcolor="#f8e0ce"] ;
592 -> 593 ;
594 [label="gini = 0.0\nsamples = 8\nvalue = [8, 0]\nclass = 0", fillcolor="#e58139"] ;
592 -> 594 ;
595 [label="gini = 0.0\nsamples = 12\nvalue = [12, 0]\nclass = 0", fillcolor="#e58139"] ;
591 -> 595 ;
596 [label="gini = 0.48\nsamples = 5\nvalue = [2, 3]\nclass = 1", fillcolor="#bddef6"] ;
590 -> 596 ;
597 [label="gini = 0.0\nsamples = 4\nvalue = [0, 4]\nclass = 1", fillcolor="#399de5"] ;
589 -> 597 ;
598 [label="etytr <= 0.65\ngini = 0.15\nsamples = 188\nvalue = [173, 15]\nclass = 0", fillcolor="#e78c4a"] ;
588 -> 598 ;
599 [label="erytrocyty <= 0.54\ngini = 0.18\nsamples = 151\nvalue = [136, 15]\nclass = 0", fillcolor="#e88f4f"] ;
598 -> 599 ;
600 [label="hematokrit <= 0.4\ngini = 0.28\nsamples = 70\nvalue = [58, 12]\nclass = 0", fillcolor="#ea9b62"] ;
599 -> 600 ;
601 [label="smoker <= 0.5\ngini = 0.49\nsamples = 16\nvalue = [9, 7]\nclass = 0", fillcolor="#f9e3d3"] ;
600 -> 601 ;
602 [label="blood_group <= 3.5\ngini = 0.4\nsamples = 11\nvalue = [8, 3]\nclass = 0", fillcolor="#efb083"] ;
601 -> 602 ;
603 [label="gini = 0.5\nsamples = 6\nvalue = [3, 3]\nclass = 0", fillcolor="#ffffff"] ;
602 -> 603 ;
604 [label="gini = 0.0\nsamples = 5\nvalue = [5, 0]\nclass = 0", fillcolor="#e58139"] ;
602 -> 604 ;
605 [label="gini = 0.32\nsamples = 5\nvalue = [1, 4]\nclass = 1", fillcolor="#6ab6ec"] ;
601 -> 605 ;
606 [label="hbver <= 0.46\ngini = 0.17\nsamples = 54\nvalue = [49, 5]\nclass = 0", fillcolor="#e88e4d"] ;
600 -> 606 ;
607 [label="gini = 0.38\nsamples = 4\nvalue = [1, 3]\nclass = 1", fillcolor="#7bbeee"] ;
606 -> 607 ;
608 [label="hbver <= 0.48\ngini = 0.08\nsamples = 50\nvalue = [48, 2]\nclass = 0", fillcolor="#e68641"] ;
606 -> 608 ;
609 [label="gini = 0.38\nsamples = 4\nvalue = [3, 1]\nclass = 0", fillcolor="#eeab7b"] ;
608 -> 609 ;
610 [label="er-cv <= 0.29\ngini = 0.04\nsamples = 46\nvalue = [45, 1]\nclass = 0", fillcolor="#e6843d"] ;
608 -> 610 ;
611 [label="gini = 0.38\nsamples = 4\nvalue = [3, 1]\nclass = 0", fillcolor="#eeab7b"] ;
610 -> 611 ;
612 [label="gini = 0.0\nsamples = 42\nvalue = [42, 0]\nclass = 0", fillcolor="#e58139"] ;
610 -> 612 ;
613 [label="er-cv <= 0.76\ngini = 0.07\nsamples = 81\nvalue = [78, 3]\nclass = 0", fillcolor="#e68641"] ;
599 -> 613 ;
614 [label="hbver <= 0.54\ngini = 0.05\nsamples = 77\nvalue = [75, 2]\nclass = 0", fillcolor="#e6843e"] ;
613 -> 614 ;
615 [label="etytr <= 0.44\ngini = 0.09\nsamples = 41\nvalue = [39, 2]\nclass = 0", fillcolor="#e68743"] ;
614 -> 615 ;
616 [label="gini = 0.38\nsamples = 4\nvalue = [3, 1]\nclass = 0", fillcolor="#eeab7b"] ;
615 -> 616 ;
617 [label="leukocyty <= 0.48\ngini = 0.05\nsamples = 37\nvalue = [36, 1]\nclass = 0", fillcolor="#e6843e"] ;
615 -> 617 ;
618 [label="etytr <= 0.56\ngini = 0.13\nsamples = 14\nvalue = [13, 1]\nclass = 0", fillcolor="#e78b48"] ;
617 -> 618 ;
619 [label="gini = 0.0\nsamples = 10\nvalue = [10, 0]\nclass = 0", fillcolor="#e58139"] ;
618 -> 619 ;
620 [label="gini = 0.38\nsamples = 4\nvalue = [3, 1]\nclass = 0", fillcolor="#eeab7b"] ;
618 -> 620 ;
621 [label="gini = 0.0\nsamples = 23\nvalue = [23, 0]\nclass = 0", fillcolor="#e58139"] ;
617 -> 621 ;
622 [label="gini = 0.0\nsamples = 36\nvalue = [36, 0]\nclass = 0", fillcolor="#e58139"] ;
614 -> 622 ;
623 [label="gini = 0.38\nsamples = 4\nvalue = [3, 1]\nclass = 0", fillcolor="#eeab7b"] ;
613 -> 623 ;
624 [label="gini = 0.0\nsamples = 37\nvalue = [37, 0]\nclass = 0", fillcolor="#e58139"] ;
598 -> 624 ;
625 [label="hbver <= 0.48\ngini = 0.46\nsamples = 124\nvalue = [79, 45]\nclass = 0", fillcolor="#f4c9aa"] ;
587 -> 625 ;
626 [label="etytr <= 0.54\ngini = 0.36\nsamples = 47\nvalue = [11, 36]\nclass = 1", fillcolor="#76bbed"] ;
625 -> 626 ;
627 [label="hbver <= 0.44\ngini = 0.49\nsamples = 25\nvalue = [11, 14]\nclass = 1", fillcolor="#d5eaf9"] ;
626 -> 627 ;
628 [label="gini = 0.0\nsamples = 4\nvalue = [4, 0]\nclass = 0", fillcolor="#e58139"] ;
627 -> 628 ;
629 [label="er-cv <= 0.4\ngini = 0.44\nsamples = 21\nvalue = [7, 14]\nclass = 1", fillcolor="#9ccef2"] ;
627 -> 629 ;
630 [label="gini = 0.0\nsamples = 5\nvalue = [0, 5]\nclass = 1", fillcolor="#399de5"] ;
629 -> 630 ;
631 [label="leukocyty <= 0.62\ngini = 0.49\nsamples = 16\nvalue = [7, 9]\nclass = 1", fillcolor="#d3e9f9"] ;
629 -> 631 ;
632 [label="er-cv <= 0.58\ngini = 0.2\nsamples = 9\nvalue = [1, 8]\nclass = 1", fillcolor="#52a9e8"] ;
631 -> 632 ;
633 [label="gini = 0.38\nsamples = 4\nvalue = [1, 3]\nclass = 1", fillcolor="#7bbeee"] ;
632 -> 633 ;
634 [label="gini = 0.0\nsamples = 5\nvalue = [0, 5]\nclass = 1", fillcolor="#399de5"] ;
632 -> 634 ;
635 [label="gini = 0.24\nsamples = 7\nvalue = [6, 1]\nclass = 0", fillcolor="#e9965a"] ;
631 -> 635 ;
636 [label="gini = 0.0\nsamples = 22\nvalue = [0, 22]\nclass = 1", fillcolor="#399de5"] ;
626 -> 636 ;
637 [label="hematokrit <= 0.49\ngini = 0.21\nsamples = 77\nvalue = [68, 9]\nclass = 0", fillcolor="#e89253"] ;
625 -> 637 ;
638 [label="etytr <= 0.46\ngini = 0.35\nsamples = 36\nvalue = [28, 8]\nclass = 0", fillcolor="#eca572"] ;
637 -> 638 ;
639 [label="gini = 0.0\nsamples = 13\nvalue = [13, 0]\nclass = 0", fillcolor="#e58139"] ;
638 -> 639 ;
640 [label="hbver <= 0.55\ngini = 0.45\nsamples = 23\nvalue = [15, 8]\nclass = 0", fillcolor="#f3c4a3"] ;
638 -> 640 ;
641 [label="leukocyty <= 0.64\ngini = 0.49\nsamples = 12\nvalue = [5, 7]\nclass = 1", fillcolor="#c6e3f8"] ;
640 -> 641 ;
642 [label="hematokrit <= 0.44\ngini = 0.38\nsamples = 8\nvalue = [2, 6]\nclass = 1", fillcolor="#7bbeee"] ;
641 -> 642 ;
643 [label="gini = 0.5\nsamples = 4\nvalue = [2, 2]\nclass = 0", fillcolor="#ffffff"] ;
642 -> 643 ;
644 [label="gini = 0.0\nsamples = 4\nvalue = [0, 4]\nclass = 1", fillcolor="#399de5"] ;
642 -> 644 ;
645 [label="gini = 0.38\nsamples = 4\nvalue = [3, 1]\nclass = 0", fillcolor="#eeab7b"] ;
641 -> 645 ;
646 [label="hbver <= 0.66\ngini = 0.17\nsamples = 11\nvalue = [10, 1]\nclass = 0", fillcolor="#e88e4d"] ;
640 -> 646 ;
647 [label="gini = 0.0\nsamples = 7\nvalue = [7, 0]\nclass = 0", fillcolor="#e58139"] ;
646 -> 647 ;
648 [label="gini = 0.38\nsamples = 4\nvalue = [3, 1]\nclass = 0", fillcolor="#eeab7b"] ;
646 -> 648 ;
649 [label="erytrocyty <= 0.34\ngini = 0.05\nsamples = 41\nvalue = [40, 1]\nclass = 0", fillcolor="#e6843e"] ;
637 -> 649 ;
650 [label="gini = 0.28\nsamples = 6\nvalue = [5, 1]\nclass = 0", fillcolor="#ea9a61"] ;
649 -> 650 ;
651 [label="gini = 0.0\nsamples = 35\nvalue = [35, 0]\nclass = 0", fillcolor="#e58139"] ;
649 -> 651 ;
652 [label="leukocyty <= 0.49\ngini = 0.5\nsamples = 597\nvalue = [320, 277]\nclass = 0", fillcolor="#fceee4"] ;
546 -> 652 ;
653 [label="etytr <= 0.41\ngini = 0.44\nsamples = 303\nvalue = [98, 205]\nclass = 1", fillcolor="#98ccf1"] ;
652 -> 653 ;
654 [label="hbver <= 0.54\ngini = 0.17\nsamples = 223\nvalue = [21, 202]\nclass = 1", fillcolor="#4ea7e8"] ;
653 -> 654 ;
655 [label="leukocyty <= 0.46\ngini = 0.42\nsamples = 61\nvalue = [18, 43]\nclass = 1", fillcolor="#8cc6f0"] ;
654 -> 655 ;
656 [label="blood_group <= 1.5\ngini = 0.24\nsamples = 42\nvalue = [6, 36]\nclass = 1", fillcolor="#5aade9"] ;
655 -> 656 ;
657 [label="hbver <= 0.47\ngini = 0.42\nsamples = 10\nvalue = [3, 7]\nclass = 1", fillcolor="#8ec7f0"] ;
656 -> 657 ;
658 [label="gini = 0.5\nsamples = 4\nvalue = [2, 2]\nclass = 0", fillcolor="#ffffff"] ;
657 -> 658 ;
659 [label="gini = 0.28\nsamples = 6\nvalue = [1, 5]\nclass = 1", fillcolor="#61b1ea"] ;
657 -> 659 ;
660 [label="leukocyty <= 0.43\ngini = 0.17\nsamples = 32\nvalue = [3, 29]\nclass = 1", fillcolor="#4da7e8"] ;
656 -> 660 ;
661 [label="erytrocyty <= 0.74\ngini = 0.09\nsamples = 22\nvalue = [1, 21]\nclass = 1", fillcolor="#42a2e6"] ;
660 -> 661 ;
662 [label="gini = 0.28\nsamples = 6\nvalue = [1, 5]\nclass = 1", fillcolor="#61b1ea"] ;
661 -> 662 ;
663 [label="gini = 0.0\nsamples = 16\nvalue = [0, 16]\nclass = 1", fillcolor="#399de5"] ;
661 -> 663 ;
664 [label="hbver <= 0.5\ngini = 0.32\nsamples = 10\nvalue = [2, 8]\nclass = 1", fillcolor="#6ab6ec"] ;
660 -> 664 ;
665 [label="gini = 0.0\nsamples = 6\nvalue = [0, 6]\nclass = 1", fillcolor="#399de5"] ;
664 -> 665 ;
666 [label="gini = 0.5\nsamples = 4\nvalue = [2, 2]\nclass = 0", fillcolor="#ffffff"] ;
664 -> 666 ;
667 [label="erytrocyty <= 0.81\ngini = 0.47\nsamples = 19\nvalue = [12, 7]\nclass = 0", fillcolor="#f4caac"] ;
655 -> 667 ;
668 [label="erytrocyty <= 0.77\ngini = 0.17\nsamples = 11\nvalue = [10, 1]\nclass = 0", fillcolor="#e88e4d"] ;
667 -> 668 ;
669 [label="gini = 0.38\nsamples = 4\nvalue = [3, 1]\nclass = 0", fillcolor="#eeab7b"] ;
668 -> 669 ;
670 [label="gini = 0.0\nsamples = 7\nvalue = [7, 0]\nclass = 0", fillcolor="#e58139"] ;
668 -> 670 ;
671 [label="er-cv <= 0.61\ngini = 0.38\nsamples = 8\nvalue = [2, 6]\nclass = 1", fillcolor="#7bbeee"] ;
667 -> 671 ;
672 [label="gini = 0.38\nsamples = 4\nvalue = [1, 3]\nclass = 1", fillcolor="#7bbeee"] ;
671 -> 672 ;
673 [label="gini = 0.38\nsamples = 4\nvalue = [1, 3]\nclass = 1", fillcolor="#7bbeee"] ;
671 -> 673 ;
674 [label="erytrocyty <= 0.7\ngini = 0.04\nsamples = 162\nvalue = [3, 159]\nclass = 1", fillcolor="#3d9fe5"] ;
654 -> 674 ;
675 [label="leukocyty <= 0.45\ngini = 0.38\nsamples = 8\nvalue = [2, 6]\nclass = 1", fillcolor="#7bbeee"] ;
674 -> 675 ;
676 [label="gini = 0.5\nsamples = 4\nvalue = [2, 2]\nclass = 0", fillcolor="#ffffff"] ;
675 -> 676 ;
677 [label="gini = 0.0\nsamples = 4\nvalue = [0, 4]\nclass = 1", fillcolor="#399de5"] ;
675 -> 677 ;
678 [label="erytrocyty <= 0.86\ngini = 0.01\nsamples = 154\nvalue = [1, 153]\nclass = 1", fillcolor="#3a9ee5"] ;
674 -> 678 ;
679 [label="gini = 0.0\nsamples = 147\nvalue = [0, 147]\nclass = 1", fillcolor="#399de5"] ;
678 -> 679 ;
680 [label="gini = 0.24\nsamples = 7\nvalue = [1, 6]\nclass = 1", fillcolor="#5aade9"] ;
678 -> 680 ;
681 [label="etytr <= 0.46\ngini = 0.07\nsamples = 80\nvalue = [77, 3]\nclass = 0", fillcolor="#e68641"] ;
653 -> 681 ;
682 [label="hbver <= 0.53\ngini = 0.22\nsamples = 16\nvalue = [14, 2]\nclass = 0", fillcolor="#e99355"] ;
681 -> 682 ;
683 [label="gini = 0.0\nsamples = 12\nvalue = [12, 0]\nclass = 0", fillcolor="#e58139"] ;
682 -> 683 ;
684 [label="gini = 0.5\nsamples = 4\nvalue = [2, 2]\nclass = 0", fillcolor="#ffffff"] ;
682 -> 684 ;
685 [label="etytr <= 0.66\ngini = 0.03\nsamples = 64\nvalue = [63, 1]\nclass = 0", fillcolor="#e5833c"] ;
681 -> 685 ;
686 [label="gini = 0.0\nsamples = 46\nvalue = [46, 0]\nclass = 0", fillcolor="#e58139"] ;
685 -> 686 ;
687 [label="erytrocyty <= 0.84\ngini = 0.1\nsamples = 18\nvalue = [17, 1]\nclass = 0", fillcolor="#e78845"] ;
685 -> 687 ;
688 [label="gini = 0.0\nsamples = 13\nvalue = [13, 0]\nclass = 0", fillcolor="#e58139"] ;
687 -> 688 ;
689 [label="gini = 0.32\nsamples = 5\nvalue = [4, 1]\nclass = 0", fillcolor="#eca06a"] ;
687 -> 689 ;
690 [label="hbver <= 0.81\ngini = 0.37\nsamples = 294\nvalue = [222, 72]\nclass = 0", fillcolor="#edaa79"] ;
652 -> 690 ;
691 [label="hematokrit <= 0.5\ngini = 0.34\nsamples = 283\nvalue = [221, 62]\nclass = 0", fillcolor="#eca471"] ;
690 -> 691 ;
692 [label="etytr <= 0.42\ngini = 0.21\nsamples = 124\nvalue = [109, 15]\nclass = 0", fillcolor="#e99254"] ;
691 -> 692 ;
693 [label="erytrocyty <= 0.77\ngini = 0.5\nsamples = 30\nvalue = [16, 14]\nclass = 0", fillcolor="#fcefe6"] ;
692 -> 693 ;
694 [label="blood_group <= 3.5\ngini = 0.28\nsamples = 12\nvalue = [10, 2]\nclass = 0", fillcolor="#ea9a61"] ;
693 -> 694 ;
695 [label="leukocyty <= 0.53\ngini = 0.22\nsamples = 8\nvalue = [7, 1]\nclass = 0", fillcolor="#e99355"] ;
694 -> 695 ;
696 [label="gini = 0.38\nsamples = 4\nvalue = [3, 1]\nclass = 0", fillcolor="#eeab7b"] ;
695 -> 696 ;
697 [label="gini = 0.0\nsamples = 4\nvalue = [4, 0]\nclass = 0", fillcolor="#e58139"] ;
695 -> 697 ;
698 [label="gini = 0.38\nsamples = 4\nvalue = [3, 1]\nclass = 0", fillcolor="#eeab7b"] ;
694 -> 698 ;
699 [label="er-cv <= 0.36\ngini = 0.44\nsamples = 18\nvalue = [6, 12]\nclass = 1", fillcolor="#9ccef2"] ;
693 -> 699 ;
700 [label="gini = 0.0\nsamples = 4\nvalue = [4, 0]\nclass = 0", fillcolor="#e58139"] ;
699 -> 700 ;
701 [label="hbver <= 0.58\ngini = 0.24\nsamples = 14\nvalue = [2, 12]\nclass = 1", fillcolor="#5aade9"] ;
699 -> 701 ;
702 [label="gini = 0.5\nsamples = 4\nvalue = [2, 2]\nclass = 0", fillcolor="#ffffff"] ;
701 -> 702 ;
703 [label="gini = 0.0\nsamples = 10\nvalue = [0, 10]\nclass = 1", fillcolor="#399de5"] ;
701 -> 703 ;
704 [label="etytr <= 0.46\ngini = 0.02\nsamples = 94\nvalue = [93, 1]\nclass = 0", fillcolor="#e5823b"] ;
692 -> 704 ;
705 [label="hbver <= 0.54\ngini = 0.17\nsamples = 11\nvalue = [10, 1]\nclass = 0", fillcolor="#e88e4d"] ;
704 -> 705 ;
706 [label="gini = 0.0\nsamples = 7\nvalue = [7, 0]\nclass = 0", fillcolor="#e58139"] ;
705 -> 706 ;
707 [label="gini = 0.38\nsamples = 4\nvalue = [3, 1]\nclass = 0", fillcolor="#eeab7b"] ;
705 -> 707 ;
708 [label="gini = 0.0\nsamples = 83\nvalue = [83, 0]\nclass = 0", fillcolor="#e58139"] ;
704 -> 708 ;
709 [label="hematokrit <= 0.5\ngini = 0.42\nsamples = 159\nvalue = [112, 47]\nclass = 0", fillcolor="#f0b68c"] ;
691 -> 709 ;
710 [label="hematokrit <= 0.5\ngini = 0.32\nsamples = 10\nvalue = [2, 8]\nclass = 1", fillcolor="#6ab6ec"] ;
709 -> 710 ;
711 [label="gini = 0.0\nsamples = 5\nvalue = [0, 5]\nclass = 1", fillcolor="#399de5"] ;
710 -> 711 ;
712 [label="gini = 0.48\nsamples = 5\nvalue = [2, 3]\nclass = 1", fillcolor="#bddef6"] ;
710 -> 712 ;
713 [label="leukocyty <= 0.53\ngini = 0.39\nsamples = 149\nvalue = [110, 39]\nclass = 0", fillcolor="#eeae7f"] ;
709 -> 713 ;
714 [label="etytr <= 0.42\ngini = 0.5\nsamples = 40\nvalue = [21, 19]\nclass = 0", fillcolor="#fdf3ec"] ;
713 -> 714 ;
715 [label="leukocyty <= 0.5\ngini = 0.24\nsamples = 21\nvalue = [3, 18]\nclass = 1", fillcolor="#5aade9"] ;
714 -> 715 ;
716 [label="gini = 0.48\nsamples = 5\nvalue = [3, 2]\nclass = 0", fillcolor="#f6d5bd"] ;
715 -> 716 ;
717 [label="gini = 0.0\nsamples = 16\nvalue = [0, 16]\nclass = 1", fillcolor="#399de5"] ;
715 -> 717 ;
718 [label="hematokrit <= 0.55\ngini = 0.1\nsamples = 19\nvalue = [18, 1]\nclass = 0", fillcolor="#e68844"] ;
714 -> 718 ;
719 [label="gini = 0.38\nsamples = 4\nvalue = [3, 1]\nclass = 0", fillcolor="#eeab7b"] ;
718 -> 719 ;
720 [label="gini = 0.0\nsamples = 15\nvalue = [15, 0]\nclass = 0", fillcolor="#e58139"] ;
718 -> 720 ;
721 [label="blood_group <= 5.5\ngini = 0.3\nsamples = 109\nvalue = [89, 20]\nclass = 0", fillcolor="#eb9d65"] ;
713 -> 721 ;
722 [label="hbver <= 0.68\ngini = 0.23\nsamples = 90\nvalue = [78, 12]\nclass = 0", fillcolor="#e99457"] ;
721 -> 722 ;
723 [label="leukocyty <= 0.56\ngini = 0.17\nsamples = 74\nvalue = [67, 7]\nclass = 0", fillcolor="#e88e4e"] ;
722 -> 723 ;
724 [label="hbver <= 0.58\ngini = 0.33\nsamples = 24\nvalue = [19, 5]\nclass = 0", fillcolor="#eca26d"] ;
723 -> 724 ;
725 [label="gini = 0.0\nsamples = 12\nvalue = [12, 0]\nclass = 0", fillcolor="#e58139"] ;
724 -> 725 ;
726 [label="leukocyty <= 0.54\ngini = 0.49\nsamples = 12\nvalue = [7, 5]\nclass = 0", fillcolor="#f8dbc6"] ;
724 -> 726 ;
727 [label="gini = 0.0\nsamples = 4\nvalue = [4, 0]\nclass = 0", fillcolor="#e58139"] ;
726 -> 727 ;
728 [label="etytr <= 0.49\ngini = 0.47\nsamples = 8\nvalue = [3, 5]\nclass = 1", fillcolor="#b0d8f5"] ;
726 -> 728 ;
729 [label="gini = 0.0\nsamples = 4\nvalue = [0, 4]\nclass = 1", fillcolor="#399de5"] ;
728 -> 729 ;
730 [label="gini = 0.38\nsamples = 4\nvalue = [3, 1]\nclass = 0", fillcolor="#eeab7b"] ;
728 -> 730 ;
731 [label="er-cv <= 0.82\ngini = 0.08\nsamples = 50\nvalue = [48, 2]\nclass = 0", fillcolor="#e68641"] ;
723 -> 731 ;
732 [label="leukocyty <= 0.63\ngini = 0.04\nsamples = 46\nvalue = [45, 1]\nclass = 0", fillcolor="#e6843d"] ;
731 -> 732 ;
733 [label="gini = 0.0\nsamples = 32\nvalue = [32, 0]\nclass = 0", fillcolor="#e58139"] ;
732 -> 733 ;
734 [label="er-cv <= 0.44\ngini = 0.13\nsamples = 14\nvalue = [13, 1]\nclass = 0", fillcolor="#e78b48"] ;
732 -> 734 ;
735 [label="gini = 0.38\nsamples = 4\nvalue = [3, 1]\nclass = 0", fillcolor="#eeab7b"] ;
734 -> 735 ;
736 [label="gini = 0.0\nsamples = 10\nvalue = [10, 0]\nclass = 0", fillcolor="#e58139"] ;
734 -> 736 ;
737 [label="gini = 0.38\nsamples = 4\nvalue = [3, 1]\nclass = 0", fillcolor="#eeab7b"] ;
731 -> 737 ;
738 [label="etytr <= 0.48\ngini = 0.43\nsamples = 16\nvalue = [11, 5]\nclass = 0", fillcolor="#f1ba93"] ;
722 -> 738 ;
739 [label="gini = 0.0\nsamples = 4\nvalue = [0, 4]\nclass = 1", fillcolor="#399de5"] ;
738 -> 739 ;
740 [label="er-cv <= 0.53\ngini = 0.15\nsamples = 12\nvalue = [11, 1]\nclass = 0", fillcolor="#e78c4b"] ;
738 -> 740 ;
741 [label="gini = 0.0\nsamples = 8\nvalue = [8, 0]\nclass = 0", fillcolor="#e58139"] ;
740 -> 741 ;
742 [label="gini = 0.38\nsamples = 4\nvalue = [3, 1]\nclass = 0", fillcolor="#eeab7b"] ;
740 -> 742 ;
743 [label="etytr <= 0.41\ngini = 0.49\nsamples = 19\nvalue = [11, 8]\nclass = 0", fillcolor="#f8ddc9"] ;
721 -> 743 ;
744 [label="gini = 0.0\nsamples = 4\nvalue = [0, 4]\nclass = 1", fillcolor="#399de5"] ;
743 -> 744 ;
745 [label="smoker <= 0.5\ngini = 0.39\nsamples = 15\nvalue = [11, 4]\nclass = 0", fillcolor="#eeaf81"] ;
743 -> 745 ;
746 [label="gini = 0.0\nsamples = 5\nvalue = [5, 0]\nclass = 0", fillcolor="#e58139"] ;
745 -> 746 ;
747 [label="hematokrit <= 0.65\ngini = 0.48\nsamples = 10\nvalue = [6, 4]\nclass = 0", fillcolor="#f6d5bd"] ;
745 -> 747 ;
748 [label="gini = 0.44\nsamples = 6\nvalue = [2, 4]\nclass = 1", fillcolor="#9ccef2"] ;
747 -> 748 ;
749 [label="gini = 0.0\nsamples = 4\nvalue = [4, 0]\nclass = 0", fillcolor="#e58139"] ;
747 -> 749 ;
750 [label="etytr <= 0.42\ngini = 0.17\nsamples = 11\nvalue = [1, 10]\nclass = 1", fillcolor="#4da7e8"] ;
690 -> 750 ;
751 [label="gini = 0.0\nsamples = 7\nvalue = [0, 7]\nclass = 1", fillcolor="#399de5"] ;
750 -> 751 ;
752 [label="gini = 0.38\nsamples = 4\nvalue = [1, 3]\nclass = 1", fillcolor="#7bbeee"] ;
750 -> 752 ;
753 [label="erytrocyty <= 0.59\ngini = 0.5\nsamples = 717\nvalue = [339, 378]\nclass = 1", fillcolor="#ebf5fc"] ;
545 -> 753 ;
754 [label="leukocyty <= 0.68\ngini = 0.43\nsamples = 488\nvalue = [155, 333]\nclass = 1", fillcolor="#95cbf1"] ;
753 -> 754 ;
755 [label="hbver <= 0.5\ngini = 0.49\nsamples = 100\nvalue = [42, 58]\nclass = 1", fillcolor="#c8e4f8"] ;
754 -> 755 ;
756 [label="leukocyty <= 0.68\ngini = 0.2\nsamples = 53\nvalue = [6, 47]\nclass = 1", fillcolor="#52aae8"] ;
755 -> 756 ;
757 [label="etytr <= 0.5\ngini = 0.15\nsamples = 49\nvalue = [4, 45]\nclass = 1", fillcolor="#4ba6e7"] ;
756 -> 757 ;
758 [label="leukocyty <= 0.66\ngini = 0.28\nsamples = 24\nvalue = [4, 20]\nclass = 1", fillcolor="#61b1ea"] ;
757 -> 758 ;
759 [label="etytr <= 0.44\ngini = 0.47\nsamples = 8\nvalue = [3, 5]\nclass = 1", fillcolor="#b0d8f5"] ;
758 -> 759 ;
760 [label="gini = 0.38\nsamples = 4\nvalue = [1, 3]\nclass = 1", fillcolor="#7bbeee"] ;
759 -> 760 ;
761 [label="gini = 0.5\nsamples = 4\nvalue = [2, 2]\nclass = 0", fillcolor="#ffffff"] ;
759 -> 761 ;
762 [label="erytrocyty <= 0.47\ngini = 0.12\nsamples = 16\nvalue = [1, 15]\nclass = 1", fillcolor="#46a4e7"] ;
758 -> 762 ;
763 [label="gini = 0.0\nsamples = 11\nvalue = [0, 11]\nclass = 1", fillcolor="#399de5"] ;
762 -> 763 ;
764 [label="gini = 0.32\nsamples = 5\nvalue = [1, 4]\nclass = 1", fillcolor="#6ab6ec"] ;
762 -> 764 ;
765 [label="gini = 0.0\nsamples = 25\nvalue = [0, 25]\nclass = 1", fillcolor="#399de5"] ;
757 -> 765 ;
766 [label="gini = 0.5\nsamples = 4\nvalue = [2, 2]\nclass = 0", fillcolor="#ffffff"] ;
756 -> 766 ;
767 [label="erytrocyty <= 0.43\ngini = 0.36\nsamples = 47\nvalue = [36, 11]\nclass = 0", fillcolor="#eda876"] ;
755 -> 767 ;
768 [label="etytr <= 0.44\ngini = 0.22\nsamples = 31\nvalue = [27, 4]\nclass = 0", fillcolor="#e99456"] ;
767 -> 768 ;
769 [label="gini = 0.0\nsamples = 23\nvalue = [23, 0]\nclass = 0", fillcolor="#e58139"] ;
768 -> 769 ;
770 [label="blood_group <= 2.0\ngini = 0.5\nsamples = 8\nvalue = [4, 4]\nclass = 0", fillcolor="#ffffff"] ;
768 -> 770 ;
771 [label="gini = 0.38\nsamples = 4\nvalue = [3, 1]\nclass = 0", fillcolor="#eeab7b"] ;
770 -> 771 ;
772 [label="gini = 0.38\nsamples = 4\nvalue = [1, 3]\nclass = 1", fillcolor="#7bbeee"] ;
770 -> 772 ;
773 [label="hbver <= 0.53\ngini = 0.49\nsamples = 16\nvalue = [9, 7]\nclass = 0", fillcolor="#f9e3d3"] ;
767 -> 773 ;
774 [label="erytrocyty <= 0.48\ngini = 0.48\nsamples = 10\nvalue = [4, 6]\nclass = 1", fillcolor="#bddef6"] ;
773 -> 774 ;
775 [label="gini = 0.0\nsamples = 6\nvalue = [0, 6]\nclass = 1", fillcolor="#399de5"] ;
774 -> 775 ;
776 [label="gini = 0.0\nsamples = 4\nvalue = [4, 0]\nclass = 0", fillcolor="#e58139"] ;
774 -> 776 ;
777 [label="gini = 0.28\nsamples = 6\nvalue = [5, 1]\nclass = 0", fillcolor="#ea9a61"] ;
773 -> 777 ;
778 [label="etytr <= 0.4\ngini = 0.41\nsamples = 388\nvalue = [113, 275]\nclass = 1", fillcolor="#8ac5f0"] ;
754 -> 778 ;
779 [label="er-cv <= 0.61\ngini = 0.17\nsamples = 77\nvalue = [70, 7]\nclass = 0", fillcolor="#e88e4d"] ;
778 -> 779 ;
780 [label="erytrocyty <= 0.43\ngini = 0.07\nsamples = 58\nvalue = [56, 2]\nclass = 0", fillcolor="#e68640"] ;
779 -> 780 ;
781 [label="gini = 0.0\nsamples = 51\nvalue = [51, 0]\nclass = 0", fillcolor="#e58139"] ;
780 -> 781 ;
782 [label="gini = 0.41\nsamples = 7\nvalue = [5, 2]\nclass = 0", fillcolor="#efb388"] ;
780 -> 782 ;
783 [label="blood_group <= 5.5\ngini = 0.39\nsamples = 19\nvalue = [14, 5]\nclass = 0", fillcolor="#eeae80"] ;
779 -> 783 ;
784 [label="hbver <= 0.48\ngini = 0.26\nsamples = 13\nvalue = [11, 2]\nclass = 0", fillcolor="#ea985d"] ;
783 -> 784 ;
785 [label="erytrocyty <= 0.36\ngini = 0.38\nsamples = 8\nvalue = [6, 2]\nclass = 0", fillcolor="#eeab7b"] ;
784 -> 785 ;
786 [label="gini = 0.38\nsamples = 4\nvalue = [3, 1]\nclass = 0", fillcolor="#eeab7b"] ;
785 -> 786 ;
787 [label="gini = 0.38\nsamples = 4\nvalue = [3, 1]\nclass = 0", fillcolor="#eeab7b"] ;
785 -> 787 ;
788 [label="gini = 0.0\nsamples = 5\nvalue = [5, 0]\nclass = 0", fillcolor="#e58139"] ;
784 -> 788 ;
789 [label="gini = 0.5\nsamples = 6\nvalue = [3, 3]\nclass = 0", fillcolor="#ffffff"] ;
783 -> 789 ;
790 [label="etytr <= 0.52\ngini = 0.24\nsamples = 311\nvalue = [43, 268]\nclass = 1", fillcolor="#59ade9"] ;
778 -> 790 ;
791 [label="er-cv <= 0.48\ngini = 0.36\nsamples = 92\nvalue = [22, 70]\nclass = 1", fillcolor="#77bced"] ;
790 -> 791 ;
792 [label="erytrocyty <= 0.55\ngini = 0.49\nsamples = 41\nvalue = [17, 24]\nclass = 1", fillcolor="#c5e2f7"] ;
791 -> 792 ;
793 [label="hbver <= 0.49\ngini = 0.43\nsamples = 35\nvalue = [11, 24]\nclass = 1", fillcolor="#94caf1"] ;
792 -> 793 ;
794 [label="hbver <= 0.48\ngini = 0.49\nsamples = 14\nvalue = [8, 6]\nclass = 0", fillcolor="#f8e0ce"] ;
793 -> 794 ;
795 [label="hematokrit <= 0.36\ngini = 0.38\nsamples = 8\nvalue = [2, 6]\nclass = 1", fillcolor="#7bbeee"] ;
794 -> 795 ;
796 [label="gini = 0.0\nsamples = 4\nvalue = [0, 4]\nclass = 1", fillcolor="#399de5"] ;
795 -> 796 ;
797 [label="gini = 0.5\nsamples = 4\nvalue = [2, 2]\nclass = 0", fillcolor="#ffffff"] ;
795 -> 797 ;
798 [label="gini = 0.0\nsamples = 6\nvalue = [6, 0]\nclass = 0", fillcolor="#e58139"] ;
794 -> 798 ;
799 [label="blood_group <= 3.0\ngini = 0.24\nsamples = 21\nvalue = [3, 18]\nclass = 1", fillcolor="#5aade9"] ;
793 -> 799 ;
800 [label="gini = 0.49\nsamples = 7\nvalue = [3, 4]\nclass = 1", fillcolor="#cee6f8"] ;
799 -> 800 ;
801 [label="gini = 0.0\nsamples = 14\nvalue = [0, 14]\nclass = 1", fillcolor="#399de5"] ;
799 -> 801 ;
802 [label="gini = 0.0\nsamples = 6\nvalue = [6, 0]\nclass = 0", fillcolor="#e58139"] ;
792 -> 802 ;
803 [label="etytr <= 0.44\ngini = 0.18\nsamples = 51\nvalue = [5, 46]\nclass = 1", fillcolor="#4fa8e8"] ;
791 -> 803 ;
804 [label="hematokrit <= 0.51\ngini = 0.4\nsamples = 11\nvalue = [3, 8]\nclass = 1", fillcolor="#83c2ef"] ;
803 -> 804 ;
805 [label="gini = 0.24\nsamples = 7\nvalue = [1, 6]\nclass = 1", fillcolor="#5aade9"] ;
804 -> 805 ;
806 [label="gini = 0.5\nsamples = 4\nvalue = [2, 2]\nclass = 0", fillcolor="#ffffff"] ;
804 -> 806 ;
807 [label="erytrocyty <= 0.44\ngini = 0.09\nsamples = 40\nvalue = [2, 38]\nclass = 1", fillcolor="#43a2e6"] ;
803 -> 807 ;
808 [label="gini = 0.0\nsamples = 20\nvalue = [0, 20]\nclass = 1", fillcolor="#399de5"] ;
807 -> 808 ;
809 [label="er-cv <= 0.58\ngini = 0.18\nsamples = 20\nvalue = [2, 18]\nclass = 1", fillcolor="#4fa8e8"] ;
807 -> 809 ;
810 [label="gini = 0.44\nsamples = 6\nvalue = [2, 4]\nclass = 1", fillcolor="#9ccef2"] ;
809 -> 810 ;
811 [label="gini = 0.0\nsamples = 14\nvalue = [0, 14]\nclass = 1", fillcolor="#399de5"] ;
809 -> 811 ;
812 [label="erytrocyty <= 0.57\ngini = 0.17\nsamples = 219\nvalue = [21, 198]\nclass = 1", fillcolor="#4ea7e8"] ;
790 -> 812 ;
813 [label="hbver <= 0.6\ngini = 0.13\nsamples = 207\nvalue = [15, 192]\nclass = 1", fillcolor="#48a5e7"] ;
812 -> 813 ;
814 [label="erytrocyty <= 0.41\ngini = 0.08\nsamples = 181\nvalue = [8, 173]\nclass = 1", fillcolor="#42a2e6"] ;
813 -> 814 ;
815 [label="gini = 0.0\nsamples = 69\nvalue = [0, 69]\nclass = 1", fillcolor="#399de5"] ;
814 -> 815 ;
816 [label="etytr <= 0.6\ngini = 0.13\nsamples = 112\nvalue = [8, 104]\nclass = 1", fillcolor="#48a5e7"] ;
814 -> 816 ;
817 [label="etytr <= 0.57\ngini = 0.21\nsamples = 50\nvalue = [6, 44]\nclass = 1", fillcolor="#54aae9"] ;
816 -> 817 ;
818 [label="hbver <= 0.47\ngini = 0.07\nsamples = 26\nvalue = [1, 25]\nclass = 1", fillcolor="#41a1e6"] ;
817 -> 818 ;
819 [label="gini = 0.32\nsamples = 5\nvalue = [1, 4]\nclass = 1", fillcolor="#6ab6ec"] ;
818 -> 819 ;
820 [label="gini = 0.0\nsamples = 21\nvalue = [0, 21]\nclass = 1", fillcolor="#399de5"] ;
818 -> 820 ;
821 [label="hematokrit <= 0.63\ngini = 0.33\nsamples = 24\nvalue = [5, 19]\nclass = 1", fillcolor="#6db7ec"] ;
817 -> 821 ;
822 [label="hbver <= 0.47\ngini = 0.44\nsamples = 15\nvalue = [5, 10]\nclass = 1", fillcolor="#9ccef2"] ;
821 -> 822 ;
823 [label="gini = 0.0\nsamples = 4\nvalue = [0, 4]\nclass = 1", fillcolor="#399de5"] ;
822 -> 823 ;
824 [label="blood_group <= 5.5\ngini = 0.5\nsamples = 11\nvalue = [5, 6]\nclass = 1", fillcolor="#deeffb"] ;
822 -> 824 ;
825 [label="gini = 0.49\nsamples = 7\nvalue = [4, 3]\nclass = 0", fillcolor="#f8e0ce"] ;
824 -> 825 ;
826 [label="gini = 0.38\nsamples = 4\nvalue = [1, 3]\nclass = 1", fillcolor="#7bbeee"] ;
824 -> 826 ;
827 [label="gini = 0.0\nsamples = 9\nvalue = [0, 9]\nclass = 1", fillcolor="#399de5"] ;
821 -> 827 ;
828 [label="hematokrit <= 0.56\ngini = 0.06\nsamples = 62\nvalue = [2, 60]\nclass = 1", fillcolor="#40a0e6"] ;
816 -> 828 ;
829 [label="gini = 0.0\nsamples = 36\nvalue = [0, 36]\nclass = 1", fillcolor="#399de5"] ;
828 -> 829 ;
830 [label="erytrocyty <= 0.49\ngini = 0.14\nsamples = 26\nvalue = [2, 24]\nclass = 1", fillcolor="#49a5e7"] ;
828 -> 830 ;
831 [label="gini = 0.0\nsamples = 14\nvalue = [0, 14]\nclass = 1", fillcolor="#399de5"] ;
830 -> 831 ;
832 [label="leukocyty <= 0.75\ngini = 0.28\nsamples = 12\nvalue = [2, 10]\nclass = 1", fillcolor="#61b1ea"] ;
830 -> 832 ;
833 [label="gini = 0.0\nsamples = 7\nvalue = [0, 7]\nclass = 1", fillcolor="#399de5"] ;
832 -> 833 ;
834 [label="gini = 0.48\nsamples = 5\nvalue = [2, 3]\nclass = 1", fillcolor="#bddef6"] ;
832 -> 834 ;
835 [label="leukocyty <= 0.76\ngini = 0.39\nsamples = 26\nvalue = [7, 19]\nclass = 1", fillcolor="#82c1ef"] ;
813 -> 835 ;
836 [label="gini = 0.28\nsamples = 6\nvalue = [5, 1]\nclass = 0", fillcolor="#ea9a61"] ;
835 -> 836 ;
837 [label="leukocyty <= 0.84\ngini = 0.18\nsamples = 20\nvalue = [2, 18]\nclass = 1", fillcolor="#4fa8e8"] ;
835 -> 837 ;
838 [label="gini = 0.0\nsamples = 10\nvalue = [0, 10]\nclass = 1", fillcolor="#399de5"] ;
837 -> 838 ;
839 [label="smoker <= 0.5\ngini = 0.32\nsamples = 10\nvalue = [2, 8]\nclass = 1", fillcolor="#6ab6ec"] ;
837 -> 839 ;
840 [label="gini = 0.44\nsamples = 6\nvalue = [2, 4]\nclass = 1", fillcolor="#9ccef2"] ;
839 -> 840 ;
841 [label="gini = 0.0\nsamples = 4\nvalue = [0, 4]\nclass = 1", fillcolor="#399de5"] ;
839 -> 841 ;
842 [label="erytrocyty <= 0.58\ngini = 0.5\nsamples = 12\nvalue = [6, 6]\nclass = 0", fillcolor="#ffffff"] ;
812 -> 842 ;
843 [label="gini = 0.32\nsamples = 5\nvalue = [4, 1]\nclass = 0", fillcolor="#eca06a"] ;
842 -> 843 ;
844 [label="gini = 0.41\nsamples = 7\nvalue = [2, 5]\nclass = 1", fillcolor="#88c4ef"] ;
842 -> 844 ;
845 [label="erytrocyty <= 0.64\ngini = 0.32\nsamples = 229\nvalue = [184, 45]\nclass = 0", fillcolor="#eba069"] ;
753 -> 845 ;
846 [label="hbver <= 0.55\ngini = 0.46\nsamples = 56\nvalue = [36, 20]\nclass = 0", fillcolor="#f3c7a7"] ;
845 -> 846 ;
847 [label="hematokrit <= 0.67\ngini = 0.5\nsamples = 34\nvalue = [17, 17]\nclass = 0", fillcolor="#ffffff"] ;
846 -> 847 ;
848 [label="erytrocyty <= 0.62\ngini = 0.48\nsamples = 28\nvalue = [11, 17]\nclass = 1", fillcolor="#b9dcf6"] ;
847 -> 848 ;
849 [label="blood_group <= 4.5\ngini = 0.49\nsamples = 18\nvalue = [10, 8]\nclass = 0", fillcolor="#fae6d7"] ;
848 -> 849 ;
850 [label="etytr <= 0.49\ngini = 0.28\nsamples = 12\nvalue = [10, 2]\nclass = 0", fillcolor="#ea9a61"] ;
849 -> 850 ;
851 [label="gini = 0.0\nsamples = 8\nvalue = [8, 0]\nclass = 0", fillcolor="#e58139"] ;
850 -> 851 ;
852 [label="gini = 0.5\nsamples = 4\nvalue = [2, 2]\nclass = 0", fillcolor="#ffffff"] ;
850 -> 852 ;
853 [label="gini = 0.0\nsamples = 6\nvalue = [0, 6]\nclass = 1", fillcolor="#399de5"] ;
849 -> 853 ;
854 [label="er-cv <= 0.56\ngini = 0.18\nsamples = 10\nvalue = [1, 9]\nclass = 1", fillcolor="#4fa8e8"] ;
848 -> 854 ;
855 [label="gini = 0.0\nsamples = 6\nvalue = [0, 6]\nclass = 1", fillcolor="#399de5"] ;
854 -> 855 ;
856 [label="gini = 0.38\nsamples = 4\nvalue = [1, 3]\nclass = 1", fillcolor="#7bbeee"] ;
854 -> 856 ;
857 [label="gini = 0.0\nsamples = 6\nvalue = [6, 0]\nclass = 0", fillcolor="#e58139"] ;
847 -> 857 ;
858 [label="etytr <= 0.72\ngini = 0.24\nsamples = 22\nvalue = [19, 3]\nclass = 0", fillcolor="#e99558"] ;
846 -> 858 ;
859 [label="er-cv <= 0.41\ngini = 0.11\nsamples = 17\nvalue = [16, 1]\nclass = 0", fillcolor="#e78945"] ;
858 -> 859 ;
860 [label="gini = 0.38\nsamples = 4\nvalue = [3, 1]\nclass = 0", fillcolor="#eeab7b"] ;
859 -> 860 ;
861 [label="gini = 0.0\nsamples = 13\nvalue = [13, 0]\nclass = 0", fillcolor="#e58139"] ;
859 -> 861 ;
862 [label="gini = 0.48\nsamples = 5\nvalue = [3, 2]\nclass = 0", fillcolor="#f6d5bd"] ;
858 -> 862 ;
863 [label="etytr <= 0.62\ngini = 0.25\nsamples = 173\nvalue = [148, 25]\nclass = 0", fillcolor="#e9965a"] ;
845 -> 863 ;
864 [label="er-cv <= 0.48\ngini = 0.33\nsamples = 120\nvalue = [95, 25]\nclass = 0", fillcolor="#eca26d"] ;
863 -> 864 ;
865 [label="hbver <= 0.49\ngini = 0.41\nsamples = 55\nvalue = [39, 16]\nclass = 0", fillcolor="#f0b58a"] ;
864 -> 865 ;
866 [label="er-cv <= 0.31\ngini = 0.48\nsamples = 10\nvalue = [4, 6]\nclass = 1", fillcolor="#bddef6"] ;
865 -> 866 ;
867 [label="gini = 0.38\nsamples = 4\nvalue = [3, 1]\nclass = 0", fillcolor="#eeab7b"] ;
866 -> 867 ;
868 [label="gini = 0.28\nsamples = 6\nvalue = [1, 5]\nclass = 1", fillcolor="#61b1ea"] ;
866 -> 868 ;
869 [label="hbver <= 0.59\ngini = 0.35\nsamples = 45\nvalue = [35, 10]\nclass = 0", fillcolor="#eca572"] ;
865 -> 869 ;
870 [label="hbver <= 0.52\ngini = 0.24\nsamples = 29\nvalue = [25, 4]\nclass = 0", fillcolor="#e99559"] ;
869 -> 870 ;
871 [label="erytrocyty <= 0.72\ngini = 0.42\nsamples = 10\nvalue = [7, 3]\nclass = 0", fillcolor="#f0b78e"] ;
870 -> 871 ;
872 [label="gini = 0.28\nsamples = 6\nvalue = [5, 1]\nclass = 0", fillcolor="#ea9a61"] ;
871 -> 872 ;
873 [label="gini = 0.5\nsamples = 4\nvalue = [2, 2]\nclass = 0", fillcolor="#ffffff"] ;
871 -> 873 ;
874 [label="hematokrit <= 0.29\ngini = 0.1\nsamples = 19\nvalue = [18, 1]\nclass = 0", fillcolor="#e68844"] ;
870 -> 874 ;
875 [label="gini = 0.38\nsamples = 4\nvalue = [3, 1]\nclass = 0", fillcolor="#eeab7b"] ;
874 -> 875 ;
876 [label="gini = 0.0\nsamples = 15\nvalue = [15, 0]\nclass = 0", fillcolor="#e58139"] ;
874 -> 876 ;
877 [label="hbver <= 0.62\ngini = 0.47\nsamples = 16\nvalue = [10, 6]\nclass = 0", fillcolor="#f5cdb0"] ;
869 -> 877 ;
878 [label="gini = 0.49\nsamples = 7\nvalue = [3, 4]\nclass = 1", fillcolor="#cee6f8"] ;
877 -> 878 ;
879 [label="blood_group <= 3.5\ngini = 0.35\nsamples = 9\nvalue = [7, 2]\nclass = 0", fillcolor="#eca572"] ;
877 -> 879 ;
880 [label="gini = 0.5\nsamples = 4\nvalue = [2, 2]\nclass = 0", fillcolor="#ffffff"] ;
879 -> 880 ;
881 [label="gini = 0.0\nsamples = 5\nvalue = [5, 0]\nclass = 0", fillcolor="#e58139"] ;
879 -> 881 ;
882 [label="er-cv <= 0.54\ngini = 0.24\nsamples = 65\nvalue = [56, 9]\nclass = 0", fillcolor="#e99559"] ;
864 -> 882 ;
883 [label="gini = 0.0\nsamples = 14\nvalue = [14, 0]\nclass = 0", fillcolor="#e58139"] ;
882 -> 883 ;
884 [label="hematokrit <= 0.73\ngini = 0.29\nsamples = 51\nvalue = [42, 9]\nclass = 0", fillcolor="#eb9c63"] ;
882 -> 884 ;
885 [label="erytrocyty <= 0.83\ngini = 0.21\nsamples = 41\nvalue = [36, 5]\nclass = 0", fillcolor="#e99254"] ;
884 -> 885 ;
886 [label="hbver <= 0.51\ngini = 0.16\nsamples = 35\nvalue = [32, 3]\nclass = 0", fillcolor="#e78d4c"] ;
885 -> 886 ;
887 [label="er-cv <= 0.65\ngini = 0.36\nsamples = 13\nvalue = [10, 3]\nclass = 0", fillcolor="#eda774"] ;
886 -> 887 ;
888 [label="gini = 0.49\nsamples = 7\nvalue = [4, 3]\nclass = 0", fillcolor="#f8e0ce"] ;
887 -> 888 ;
889 [label="gini = 0.0\nsamples = 6\nvalue = [6, 0]\nclass = 0", fillcolor="#e58139"] ;
887 -> 889 ;
890 [label="gini = 0.0\nsamples = 22\nvalue = [22, 0]\nclass = 0", fillcolor="#e58139"] ;
886 -> 890 ;
891 [label="gini = 0.44\nsamples = 6\nvalue = [4, 2]\nclass = 0", fillcolor="#f2c09c"] ;
885 -> 891 ;
892 [label="leukocyty <= 0.68\ngini = 0.48\nsamples = 10\nvalue = [6, 4]\nclass = 0", fillcolor="#f6d5bd"] ;
884 -> 892 ;
893 [label="gini = 0.38\nsamples = 4\nvalue = [1, 3]\nclass = 1", fillcolor="#7bbeee"] ;
892 -> 893 ;
894 [label="gini = 0.28\nsamples = 6\nvalue = [5, 1]\nclass = 0", fillcolor="#ea9a61"] ;
892 -> 894 ;
