digraph Tree {
node [shape=box, style="filled, rounded", color="black", fontname="helvetica"] ;
edge [fontname="helvetica"] ;
0 [label="hbver <= 0.42\ngini = 0.47\nsamples = 4440\nvalue = [2653, 4405]\nclass = 0", fillcolor="#b0d8f5"] ;
1 [label="hematokrit <= 0.07\ngini = 0.21\nsamples = 1693\nvalue = [319, 2407]\nclass = 0", fillcolor="#53aae8"] ;
0 -> 1 [labeldistance=2.5, labelangle=45, headlabel="True"] ;
2 [label="erytrocyty <= 0.55\ngini = 0.49\nsamples = 14\nvalue = [10, 14]\nclass = 0", fillcolor="#c6e3f8"] ;
1 -> 2 ;
3 [label="etytr <= 0.62\ngini = 0.42\nsamples = 11\nvalue = [5, 12]\nclass = 0", fillcolor="#8bc6f0"] ;
2 -> 3 ;
4 [label="etytr <= 0.44\ngini = 0.24\nsamples = 10\nvalue = [2, 12]\nclass = 0", fillcolor="#5aade9"] ;
3 -> 4 ;
5 [label="gini = 0.0\nsamples = 2\nvalue = [2, 0]\nclass = 1", fillcolor="#e58139"] ;
4 -> 5 ;
6 [label="gini = 0.0\nsamples = 8\nvalue = [0, 12]\nclass = 0", fillcolor="#399de5"] ;
4 -> 6 ;
7 [label="gini = 0.0\nsamples = 1\nvalue = [3, 0]\nclass = 1", fillcolor="#e58139"] ;
3 -> 7 ;
8 [label="hematokrit <= 0.04\ngini = 0.41\nsamples = 3\nvalue = [5, 2]\nclass = 1", fillcolor="#efb388"] ;
2 -> 8 ;
9 [label="gini = 0.0\nsamples = 1\nvalue = [0, 2]\nclass = 0", fillcolor="#399de5"] ;
8 -> 9 ;
10 [label="gini = 0.0\nsamples = 2\nvalue = [5, 0]\nclass = 1", fillcolor="#e58139"] ;
8 -> 10 ;
11 [label="etytr <= 0.4\ngini = 0.2\nsamples = 1679\nvalue = [309, 2393]\nclass = 0", fillcolor="#53aae8"] ;
1 -> 11 ;
12 [label="etytr <= 0.16\ngini = 0.46\nsamples = 423\nvalue = [234, 429]\nclass = 0", fillcolor="#a5d2f3"] ;
11 -> 12 ;
13 [label="leukocyty <= 0.25\ngini = 0.45\nsamples = 21\nvalue = [21, 11]\nclass = 1", fillcolor="#f3c3a1"] ;
12 -> 13 ;
14 [label="gini = 0.0\nsamples = 6\nvalue = [0, 8]\nclass = 0", fillcolor="#399de5"] ;
13 -> 14 ;
15 [label="etytr <= 0.15\ngini = 0.22\nsamples = 15\nvalue = [21, 3]\nclass = 1", fillcolor="#e99355"] ;
13 -> 15 ;
16 [label="gini = 0.0\nsamples = 11\nvalue = [16, 0]\nclass = 1", fillcolor="#e58139"] ;
15 -> 16 ;
17 [label="hbver <= 0.32\ngini = 0.47\nsamples = 4\nvalue = [5, 3]\nclass = 1", fillcolor="#f5cdb0"] ;
15 -> 17 ;
18 [label="gini = 0.0\nsamples = 3\nvalue = [5, 0]\nclass = 1", fillcolor="#e58139"] ;
17 -> 18 ;
19 [label="gini = 0.0\nsamples = 1\nvalue = [0, 3]\nclass = 0", fillcolor="#399de5"] ;
17 -> 19 ;
20 [label="hbver <= 0.31\ngini = 0.45\nsamples = 402\nvalue = [213, 418]\nclass = 0", fillcolor="#9ecff2"] ;
12 -> 20 ;
21 [label="hbver <= 0.24\ngini = 0.28\nsamples = 139\nvalue = [36, 181]\nclass = 0", fillcolor="#60b0ea"] ;
20 -> 21 ;
22 [label="leukocyty <= 0.65\ngini = 0.16\nsamples = 65\nvalue = [10, 101]\nclass = 0", fillcolor="#4da7e8"] ;
21 -> 22 ;
23 [label="hematokrit <= 0.38\ngini = 0.09\nsamples = 62\nvalue = [5, 101]\nclass = 0", fillcolor="#43a2e6"] ;
22 -> 23 ;
24 [label="hbver <= 0.2\ngini = 0.21\nsamples = 16\nvalue = [3, 22]\nclass = 0", fillcolor="#54aae9"] ;
23 -> 24 ;
25 [label="erytrocyty <= 0.29\ngini = 0.49\nsamples = 5\nvalue = [3, 4]\nclass = 0", fillcolor="#cee6f8"] ;
24 -> 25 ;
26 [label="gini = 0.0\nsamples = 2\nvalue = [3, 0]\nclass = 1", fillcolor="#e58139"] ;
25 -> 26 ;
27 [label="gini = 0.0\nsamples = 3\nvalue = [0, 4]\nclass = 0", fillcolor="#399de5"] ;
25 -> 27 ;
28 [label="gini = 0.0\nsamples = 11\nvalue = [0, 18]\nclass = 0", fillcolor="#399de5"] ;
24 -> 28 ;
29 [label="etytr <= 0.17\ngini = 0.05\nsamples = 46\nvalue = [2, 79]\nclass = 0", fillcolor="#3e9fe6"] ;
23 -> 29 ;
30 [label="etytr <= 0.16\ngini = 0.5\nsamples = 2\nvalue = [2, 2]\nclass = 1", fillcolor="#ffffff"] ;
29 -> 30 ;
31 [label="gini = 0.0\nsamples = 1\nvalue = [0, 2]\nclass = 0", fillcolor="#399de5"] ;
30 -> 31 ;
32 [label="gini = 0.0\nsamples = 1\nvalue = [2, 0]\nclass = 1", fillcolor="#e58139"] ;
30 -> 32 ;
33 [label="gini = 0.0\nsamples = 44\nvalue = [0, 77]\nclass = 0", fillcolor="#399de5"] ;
29 -> 33 ;
34 [label="gini = 0.0\nsamples = 3\nvalue = [5, 0]\nclass = 1", fillcolor="#e58139"] ;
22 -> 34 ;
35 [label="er-cv <= 0.46\ngini = 0.37\nsamples = 74\nvalue = [26, 80]\nclass = 0", fillcolor="#79bded"] ;
21 -> 35 ;
36 [label="etytr <= 0.18\ngini = 0.2\nsamples = 32\nvalue = [5, 39]\nclass = 0", fillcolor="#52aae8"] ;
35 -> 36 ;
37 [label="gini = 0.0\nsamples = 1\nvalue = [1, 0]\nclass = 1", fillcolor="#e58139"] ;
36 -> 37 ;
38 [label="erytrocyty <= 0.82\ngini = 0.17\nsamples = 31\nvalue = [4, 39]\nclass = 0", fillcolor="#4da7e8"] ;
36 -> 38 ;
39 [label="leukocyty <= 0.61\ngini = 0.13\nsamples = 30\nvalue = [3, 39]\nclass = 0", fillcolor="#48a5e7"] ;
38 -> 39 ;
40 [label="etytr <= 0.25\ngini = 0.05\nsamples = 27\nvalue = [1, 38]\nclass = 0", fillcolor="#3ea0e6"] ;
39 -> 40 ;
41 [label="leukocyty <= 0.27\ngini = 0.22\nsamples = 5\nvalue = [1, 7]\nclass = 0", fillcolor="#55abe9"] ;
40 -> 41 ;
42 [label="gini = 0.0\nsamples = 4\nvalue = [0, 7]\nclass = 0", fillcolor="#399de5"] ;
41 -> 42 ;
43 [label="gini = 0.0\nsamples = 1\nvalue = [1, 0]\nclass = 1", fillcolor="#e58139"] ;
41 -> 43 ;
44 [label="gini = 0.0\nsamples = 22\nvalue = [0, 31]\nclass = 0", fillcolor="#399de5"] ;
40 -> 44 ;
45 [label="smoker <= 0.5\ngini = 0.44\nsamples = 3\nvalue = [2, 1]\nclass = 1", fillcolor="#f2c09c"] ;
39 -> 45 ;
46 [label="gini = 0.0\nsamples = 1\nvalue = [0, 1]\nclass = 0", fillcolor="#399de5"] ;
45 -> 46 ;
47 [label="gini = 0.0\nsamples = 2\nvalue = [2, 0]\nclass = 1", fillcolor="#e58139"] ;
45 -> 47 ;
48 [label="gini = 0.0\nsamples = 1\nvalue = [1, 0]\nclass = 1", fillcolor="#e58139"] ;
38 -> 48 ;
49 [label="hematokrit <= 0.5\ngini = 0.45\nsamples = 42\nvalue = [21, 41]\nclass = 0", fillcolor="#9ecff2"] ;
35 -> 49 ;
50 [label="erytrocyty <= 0.59\ngini = 0.5\nsamples = 24\nvalue = [18, 17]\nclass = 1", fillcolor="#fef8f4"] ;
49 -> 50 ;
51 [label="erytrocyty <= 0.42\ngini = 0.42\nsamples = 11\nvalue = [5, 12]\nclass = 0", fillcolor="#8bc6f0"] ;
50 -> 51 ;
52 [label="leukocyty <= 0.46\ngini = 0.32\nsamples = 4\nvalue = [4, 1]\nclass = 1", fillcolor="#eca06a"] ;
51 -> 52 ;
53 [label="gini = 0.0\nsamples = 1\nvalue = [0, 1]\nclass = 0", fillcolor="#399de5"] ;
52 -> 53 ;
54 [label="gini = 0.0\nsamples = 3\nvalue = [4, 0]\nclass = 1", fillcolor="#e58139"] ;
52 -> 54 ;
55 [label="smoker <= 0.5\ngini = 0.15\nsamples = 7\nvalue = [1, 11]\nclass = 0", fillcolor="#4ba6e7"] ;
51 -> 55 ;
56 [label="gini = 0.0\nsamples = 5\nvalue = [0, 9]\nclass = 0", fillcolor="#399de5"] ;
55 -> 56 ;
57 [label="erytrocyty <= 0.48\ngini = 0.44\nsamples = 2\nvalue = [1, 2]\nclass = 0", fillcolor="#9ccef2"] ;
55 -> 57 ;
58 [label="gini = 0.0\nsamples = 1\nvalue = [0, 2]\nclass = 0", fillcolor="#399de5"] ;
57 -> 58 ;
59 [label="gini = 0.0\nsamples = 1\nvalue = [1, 0]\nclass = 1", fillcolor="#e58139"] ;
57 -> 59 ;
60 [label="er-cv <= 0.67\ngini = 0.4\nsamples = 13\nvalue = [13, 5]\nclass = 1", fillcolor="#efb185"] ;
50 -> 60 ;
61 [label="blood_group <= 1.0\ngini = 0.3\nsamples = 11\nvalue = [13, 3]\nclass = 1", fillcolor="#eb9e67"] ;
60 -> 61 ;
62 [label="hematokrit <= 0.37\ngini = 0.44\nsamples = 2\nvalue = [1, 2]\nclass = 0", fillcolor="#9ccef2"] ;
61 -> 62 ;
63 [label="gini = 0.0\nsamples = 1\nvalue = [1, 0]\nclass = 1", fillcolor="#e58139"] ;
62 -> 63 ;
64 [label="gini = 0.0\nsamples = 1\nvalue = [0, 2]\nclass = 0", fillcolor="#399de5"] ;
62 -> 64 ;
65 [label="hematokrit <= 0.39\ngini = 0.14\nsamples = 9\nvalue = [12, 1]\nclass = 1", fillcolor="#e78c49"] ;
61 -> 65 ;
66 [label="hematokrit <= 0.38\ngini = 0.32\nsamples = 4\nvalue = [4, 1]\nclass = 1", fillcolor="#eca06a"] ;
65 -> 66 ;
67 [label="gini = 0.0\nsamples = 3\nvalue = [4, 0]\nclass = 1", fillcolor="#e58139"] ;
66 -> 67 ;
68 [label="gini = 0.0\nsamples = 1\nvalue = [0, 1]\nclass = 0", fillcolor="#399de5"] ;
66 -> 68 ;
69 [label="gini = 0.0\nsamples = 5\nvalue = [8, 0]\nclass = 1", fillcolor="#e58139"] ;
65 -> 69 ;
70 [label="gini = 0.0\nsamples = 2\nvalue = [0, 2]\nclass = 0", fillcolor="#399de5"] ;
60 -> 70 ;
71 [label="hematokrit <= 0.61\ngini = 0.2\nsamples = 18\nvalue = [3, 24]\nclass = 0", fillcolor="#52a9e8"] ;
49 -> 71 ;
72 [label="hbver <= 0.27\ngini = 0.1\nsamples = 11\nvalue = [1, 17]\nclass = 0", fillcolor="#45a3e7"] ;
71 -> 72 ;
73 [label="hematokrit <= 0.56\ngini = 0.38\nsamples = 3\nvalue = [1, 3]\nclass = 0", fillcolor="#7bbeee"] ;
72 -> 73 ;
74 [label="gini = 0.0\nsamples = 1\nvalue = [1, 0]\nclass = 1", fillcolor="#e58139"] ;
73 -> 74 ;
75 [label="gini = 0.0\nsamples = 2\nvalue = [0, 3]\nclass = 0", fillcolor="#399de5"] ;
73 -> 75 ;
76 [label="gini = 0.0\nsamples = 8\nvalue = [0, 14]\nclass = 0", fillcolor="#399de5"] ;
72 -> 76 ;
77 [label="leukocyty <= 0.33\ngini = 0.35\nsamples = 7\nvalue = [2, 7]\nclass = 0", fillcolor="#72b9ec"] ;
71 -> 77 ;
78 [label="gini = 0.0\nsamples = 4\nvalue = [0, 6]\nclass = 0", fillcolor="#399de5"] ;
77 -> 78 ;
79 [label="hematokrit <= 0.81\ngini = 0.44\nsamples = 3\nvalue = [2, 1]\nclass = 1", fillcolor="#f2c09c"] ;
77 -> 79 ;
80 [label="gini = 0.0\nsamples = 2\nvalue = [2, 0]\nclass = 1", fillcolor="#e58139"] ;
79 -> 80 ;
81 [label="gini = 0.0\nsamples = 1\nvalue = [0, 1]\nclass = 0", fillcolor="#399de5"] ;
79 -> 81 ;
82 [label="etytr <= 0.23\ngini = 0.49\nsamples = 263\nvalue = [177, 237]\nclass = 0", fillcolor="#cde6f8"] ;
20 -> 82 ;
83 [label="hbver <= 0.36\ngini = 0.34\nsamples = 67\nvalue = [22, 81]\nclass = 0", fillcolor="#6fb8ec"] ;
82 -> 83 ;
84 [label="leukocyty <= 0.19\ngini = 0.48\nsamples = 21\nvalue = [13, 19]\nclass = 0", fillcolor="#c0e0f7"] ;
83 -> 84 ;
85 [label="gini = 0.0\nsamples = 12\nvalue = [0, 17]\nclass = 0", fillcolor="#399de5"] ;
84 -> 85 ;
86 [label="etytr <= 0.23\ngini = 0.23\nsamples = 9\nvalue = [13, 2]\nclass = 1", fillcolor="#e99457"] ;
84 -> 86 ;
87 [label="gini = 0.0\nsamples = 8\nvalue = [13, 0]\nclass = 1", fillcolor="#e58139"] ;
86 -> 87 ;
88 [label="gini = 0.0\nsamples = 1\nvalue = [0, 2]\nclass = 0", fillcolor="#399de5"] ;
86 -> 88 ;
89 [label="leukocyty <= 0.38\ngini = 0.22\nsamples = 46\nvalue = [9, 62]\nclass = 0", fillcolor="#56abe9"] ;
83 -> 89 ;
90 [label="hbver <= 0.41\ngini = 0.06\nsamples = 40\nvalue = [2, 62]\nclass = 0", fillcolor="#3fa0e6"] ;
89 -> 90 ;
91 [label="gini = 0.0\nsamples = 30\nvalue = [0, 49]\nclass = 0", fillcolor="#399de5"] ;
90 -> 91 ;
92 [label="hematokrit <= 0.65\ngini = 0.23\nsamples = 10\nvalue = [2, 13]\nclass = 0", fillcolor="#57ace9"] ;
90 -> 92 ;
93 [label="gini = 0.0\nsamples = 9\nvalue = [0, 13]\nclass = 0", fillcolor="#399de5"] ;
92 -> 93 ;
94 [label="gini = 0.0\nsamples = 1\nvalue = [2, 0]\nclass = 1", fillcolor="#e58139"] ;
92 -> 94 ;
95 [label="gini = 0.0\nsamples = 6\nvalue = [7, 0]\nclass = 1", fillcolor="#e58139"] ;
89 -> 95 ;
96 [label="etytr <= 0.34\ngini = 0.5\nsamples = 196\nvalue = [155, 156]\nclass = 0", fillcolor="#fefeff"] ;
82 -> 96 ;
97 [label="leukocyty <= 0.42\ngini = 0.49\nsamples = 125\nvalue = [88, 112]\nclass = 0", fillcolor="#d5eaf9"] ;
96 -> 97 ;
98 [label="er-cv <= 0.29\ngini = 0.05\nsamples = 53\nvalue = [2, 80]\nclass = 0", fillcolor="#3e9fe6"] ;
97 -> 98 ;
99 [label="er-cv <= 0.27\ngini = 0.18\nsamples = 8\nvalue = [1, 9]\nclass = 0", fillcolor="#4fa8e8"] ;
98 -> 99 ;
100 [label="gini = 0.0\nsamples = 7\nvalue = [0, 9]\nclass = 0", fillcolor="#399de5"] ;
99 -> 100 ;
101 [label="gini = 0.0\nsamples = 1\nvalue = [1, 0]\nclass = 1", fillcolor="#e58139"] ;
99 -> 101 ;
102 [label="hematokrit <= 0.17\ngini = 0.03\nsamples = 45\nvalue = [1, 71]\nclass = 0", fillcolor="#3c9ee5"] ;
98 -> 102 ;
103 [label="er-cv <= 0.55\ngini = 0.44\nsamples = 2\nvalue = [1, 2]\nclass = 0", fillcolor="#9ccef2"] ;
102 -> 103 ;
104 [label="gini = 0.0\nsamples = 1\nvalue = [0, 2]\nclass = 0", fillcolor="#399de5"] ;
103 -> 104 ;
105 [label="gini = 0.0\nsamples = 1\nvalue = [1, 0]\nclass = 1", fillcolor="#e58139"] ;
103 -> 105 ;
106 [label="gini = 0.0\nsamples = 43\nvalue = [0, 69]\nclass = 0", fillcolor="#399de5"] ;
102 -> 106 ;
107 [label="leukocyty <= 0.61\ngini = 0.4\nsamples = 72\nvalue = [86, 32]\nclass = 1", fillcolor="#efb083"] ;
97 -> 107 ;
108 [label="erytrocyty <= 0.45\ngini = 0.5\nsamples = 36\nvalue = [28, 28]\nclass = 1", fillcolor="#ffffff"] ;
107 -> 108 ;
109 [label="gini = 0.0\nsamples = 10\nvalue = [0, 15]\nclass = 0", fillcolor="#399de5"] ;
108 -> 109 ;
110 [label="hbver <= 0.38\ngini = 0.43\nsamples = 26\nvalue = [28, 13]\nclass = 1", fillcolor="#f1bc95"] ;
108 -> 110 ;
111 [label="erytrocyty <= 0.82\ngini = 0.16\nsamples = 15\nvalue = [21, 2]\nclass = 1", fillcolor="#e78d4c"] ;
110 -> 111 ;
112 [label="gini = 0.0\nsamples = 13\nvalue = [20, 0]\nclass = 1", fillcolor="#e58139"] ;
111 -> 112 ;
113 [label="er-cv <= 0.62\ngini = 0.44\nsamples = 2\nvalue = [1, 2]\nclass = 0", fillcolor="#9ccef2"] ;
111 -> 113 ;
114 [label="gini = 0.0\nsamples = 1\nvalue = [1, 0]\nclass = 1", fillcolor="#e58139"] ;
113 -> 114 ;
115 [label="gini = 0.0\nsamples = 1\nvalue = [0, 2]\nclass = 0", fillcolor="#399de5"] ;
113 -> 115 ;
116 [label="etytr <= 0.3\ngini = 0.48\nsamples = 11\nvalue = [7, 11]\nclass = 0", fillcolor="#b7dbf6"] ;
110 -> 116 ;
117 [label="hbver <= 0.4\ngini = 0.41\nsamples = 4\nvalue = [5, 2]\nclass = 1", fillcolor="#efb388"] ;
116 -> 117 ;
118 [label="gini = 0.0\nsamples = 2\nvalue = [4, 0]\nclass = 1", fillcolor="#e58139"] ;
117 -> 118 ;
119 [label="smoker <= 0.5\ngini = 0.44\nsamples = 2\nvalue = [1, 2]\nclass = 0", fillcolor="#9ccef2"] ;
117 -> 119 ;
120 [label="gini = 0.0\nsamples = 1\nvalue = [1, 0]\nclass = 1", fillcolor="#e58139"] ;
119 -> 120 ;
121 [label="gini = 0.0\nsamples = 1\nvalue = [0, 2]\nclass = 0", fillcolor="#399de5"] ;
119 -> 121 ;
122 [label="hematokrit <= 0.56\ngini = 0.3\nsamples = 7\nvalue = [2, 9]\nclass = 0", fillcolor="#65b3eb"] ;
116 -> 122 ;
123 [label="leukocyty <= 0.46\ngini = 0.18\nsamples = 6\nvalue = [1, 9]\nclass = 0", fillcolor="#4fa8e8"] ;
122 -> 123 ;
124 [label="gini = 0.0\nsamples = 3\nvalue = [0, 6]\nclass = 0", fillcolor="#399de5"] ;
123 -> 124 ;
125 [label="leukocyty <= 0.48\ngini = 0.38\nsamples = 3\nvalue = [1, 3]\nclass = 0", fillcolor="#7bbeee"] ;
123 -> 125 ;
126 [label="gini = 0.0\nsamples = 1\nvalue = [1, 0]\nclass = 1", fillcolor="#e58139"] ;
125 -> 126 ;
127 [label="gini = 0.0\nsamples = 2\nvalue = [0, 3]\nclass = 0", fillcolor="#399de5"] ;
125 -> 127 ;
128 [label="gini = 0.0\nsamples = 1\nvalue = [1, 0]\nclass = 1", fillcolor="#e58139"] ;
122 -> 128 ;
129 [label="hbver <= 0.41\ngini = 0.12\nsamples = 36\nvalue = [58, 4]\nclass = 1", fillcolor="#e78a47"] ;
107 -> 129 ;
130 [label="erytrocyty <= 0.35\ngini = 0.07\nsamples = 33\nvalue = [55, 2]\nclass = 1", fillcolor="#e68640"] ;
129 -> 130 ;
131 [label="gini = 0.0\nsamples = 12\nvalue = [24, 0]\nclass = 1", fillcolor="#e58139"] ;
130 -> 131 ;
132 [label="leukocyty <= 0.67\ngini = 0.11\nsamples = 21\nvalue = [31, 2]\nclass = 1", fillcolor="#e78946"] ;
130 -> 132 ;
133 [label="erytrocyty <= 0.61\ngini = 0.38\nsamples = 5\nvalue = [6, 2]\nclass = 1", fillcolor="#eeab7b"] ;
132 -> 133 ;
134 [label="hbver <= 0.33\ngini = 0.44\nsamples = 3\nvalue = [1, 2]\nclass = 0", fillcolor="#9ccef2"] ;
133 -> 134 ;
135 [label="gini = 0.0\nsamples = 1\nvalue = [1, 0]\nclass = 1", fillcolor="#e58139"] ;
134 -> 135 ;
136 [label="gini = 0.0\nsamples = 2\nvalue = [0, 2]\nclass = 0", fillcolor="#399de5"] ;
134 -> 136 ;
137 [label="gini = 0.0\nsamples = 2\nvalue = [5, 0]\nclass = 1", fillcolor="#e58139"] ;
133 -> 137 ;
138 [label="gini = 0.0\nsamples = 16\nvalue = [25, 0]\nclass = 1", fillcolor="#e58139"] ;
132 -> 138 ;
139 [label="smoker <= 0.5\ngini = 0.48\nsamples = 3\nvalue = [3, 2]\nclass = 1", fillcolor="#f6d5bd"] ;
129 -> 139 ;
140 [label="gini = 0.0\nsamples = 2\nvalue = [3, 0]\nclass = 1", fillcolor="#e58139"] ;
139 -> 140 ;
141 [label="gini = 0.0\nsamples = 1\nvalue = [0, 2]\nclass = 0", fillcolor="#399de5"] ;
139 -> 141 ;
142 [label="hematokrit <= 0.68\ngini = 0.48\nsamples = 71\nvalue = [67, 44]\nclass = 1", fillcolor="#f6d4bb"] ;
96 -> 142 ;
143 [label="er-cv <= 0.52\ngini = 0.43\nsamples = 63\nvalue = [66, 31]\nclass = 1", fillcolor="#f1bc96"] ;
142 -> 143 ;
144 [label="erytrocyty <= 0.71\ngini = 0.34\nsamples = 34\nvalue = [44, 12]\nclass = 1", fillcolor="#eca36f"] ;
143 -> 144 ;
145 [label="erytrocyty <= 0.4\ngini = 0.26\nsamples = 25\nvalue = [38, 7]\nclass = 1", fillcolor="#ea985d"] ;
144 -> 145 ;
146 [label="etytr <= 0.39\ngini = 0.43\nsamples = 9\nvalue = [13, 6]\nclass = 1", fillcolor="#f1bb94"] ;
145 -> 146 ;
147 [label="hbver <= 0.34\ngini = 0.3\nsamples = 8\nvalue = [13, 3]\nclass = 1", fillcolor="#eb9e67"] ;
146 -> 147 ;
148 [label="gini = 0.0\nsamples = 1\nvalue = [0, 1]\nclass = 0", fillcolor="#399de5"] ;
147 -> 148 ;
149 [label="etytr <= 0.38\ngini = 0.23\nsamples = 7\nvalue = [13, 2]\nclass = 1", fillcolor="#e99457"] ;
147 -> 149 ;
150 [label="er-cv <= 0.28\ngini = 0.44\nsamples = 2\nvalue = [1, 2]\nclass = 0", fillcolor="#9ccef2"] ;
149 -> 150 ;
151 [label="gini = 0.0\nsamples = 1\nvalue = [0, 2]\nclass = 0", fillcolor="#399de5"] ;
150 -> 151 ;
152 [label="gini = 0.0\nsamples = 1\nvalue = [1, 0]\nclass = 1", fillcolor="#e58139"] ;
150 -> 152 ;
153 [label="gini = 0.0\nsamples = 5\nvalue = [12, 0]\nclass = 1", fillcolor="#e58139"] ;
149 -> 153 ;
154 [label="gini = 0.0\nsamples = 1\nvalue = [0, 3]\nclass = 0", fillcolor="#399de5"] ;
146 -> 154 ;
155 [label="blood_group <= 3.5\ngini = 0.07\nsamples = 16\nvalue = [25, 1]\nclass = 1", fillcolor="#e68641"] ;
145 -> 155 ;
156 [label="leukocyty <= 0.53\ngini = 0.18\nsamples = 6\nvalue = [9, 1]\nclass = 1", fillcolor="#e88f4f"] ;
155 -> 156 ;
157 [label="gini = 0.0\nsamples = 1\nvalue = [0, 1]\nclass = 0", fillcolor="#399de5"] ;
156 -> 157 ;
158 [label="gini = 0.0\nsamples = 5\nvalue = [9, 0]\nclass = 1", fillcolor="#e58139"] ;
156 -> 158 ;
159 [label="gini = 0.0\nsamples = 10\nvalue = [16, 0]\nclass = 1", fillcolor="#e58139"] ;
155 -> 159 ;
160 [label="hbver <= 0.38\ngini = 0.5\nsamples = 9\nvalue = [6, 5]\nclass = 1", fillcolor="#fbeade"] ;
144 -> 160 ;
161 [label="gini = 0.0\nsamples = 3\nvalue = [0, 3]\nclass = 0", fillcolor="#399de5"] ;
160 -> 161 ;
162 [label="leukocyty <= 0.33\ngini = 0.38\nsamples = 6\nvalue = [6, 2]\nclass = 1", fillcolor="#eeab7b"] ;
160 -> 162 ;
163 [label="gini = 0.0\nsamples = 1\nvalue = [0, 1]\nclass = 0", fillcolor="#399de5"] ;
162 -> 163 ;
164 [label="blood_group <= 2.0\ngini = 0.24\nsamples = 5\nvalue = [6, 1]\nclass = 1", fillcolor="#e9965a"] ;
162 -> 164 ;
165 [label="er-cv <= 0.39\ngini = 0.5\nsamples = 2\nvalue = [1, 1]\nclass = 1", fillcolor="#ffffff"] ;
164 -> 165 ;
166 [label="gini = 0.0\nsamples = 1\nvalue = [0, 1]\nclass = 0", fillcolor="#399de5"] ;
165 -> 166 ;
167 [label="gini = 0.0\nsamples = 1\nvalue = [1, 0]\nclass = 1", fillcolor="#e58139"] ;
165 -> 167 ;
168 [label="gini = 0.0\nsamples = 3\nvalue = [5, 0]\nclass = 1", fillcolor="#e58139"] ;
164 -> 168 ;
169 [label="leukocyty <= 0.64\ngini = 0.5\nsamples = 29\nvalue = [22, 19]\nclass = 1", fillcolor="#fbeee4"] ;
143 -> 169 ;
170 [label="erytrocyty <= 0.4\ngini = 0.49\nsamples = 22\nvalue = [13, 18]\nclass = 0", fillcolor="#c8e4f8"] ;
169 -> 170 ;
171 [label="gini = 0.0\nsamples = 6\nvalue = [0, 7]\nclass = 0", fillcolor="#399de5"] ;
170 -> 171 ;
172 [label="leukocyty <= 0.43\ngini = 0.5\nsamples = 16\nvalue = [13, 11]\nclass = 1", fillcolor="#fbece1"] ;
170 -> 172 ;
173 [label="blood_group <= 6.0\ngini = 0.38\nsamples = 7\nvalue = [3, 9]\nclass = 0", fillcolor="#7bbeee"] ;
172 -> 173 ;
174 [label="gini = 0.0\nsamples = 6\nvalue = [0, 9]\nclass = 0", fillcolor="#399de5"] ;
173 -> 174 ;
175 [label="gini = 0.0\nsamples = 1\nvalue = [3, 0]\nclass = 1", fillcolor="#e58139"] ;
173 -> 175 ;
176 [label="er-cv <= 0.54\ngini = 0.28\nsamples = 9\nvalue = [10, 2]\nclass = 1", fillcolor="#ea9a61"] ;
172 -> 176 ;
177 [label="gini = 0.0\nsamples = 1\nvalue = [0, 2]\nclass = 0", fillcolor="#399de5"] ;
176 -> 177 ;
178 [label="gini = 0.0\nsamples = 8\nvalue = [10, 0]\nclass = 1", fillcolor="#e58139"] ;
176 -> 178 ;
179 [label="er-cv <= 0.58\ngini = 0.18\nsamples = 7\nvalue = [9, 1]\nclass = 1", fillcolor="#e88f4f"] ;
169 -> 179 ;
180 [label="hbver <= 0.4\ngini = 0.44\nsamples = 2\nvalue = [2, 1]\nclass = 1", fillcolor="#f2c09c"] ;
179 -> 180 ;
181 [label="gini = 0.0\nsamples = 1\nvalue = [0, 1]\nclass = 0", fillcolor="#399de5"] ;
180 -> 181 ;
182 [label="gini = 0.0\nsamples = 1\nvalue = [2, 0]\nclass = 1", fillcolor="#e58139"] ;
180 -> 182 ;
183 [label="gini = 0.0\nsamples = 5\nvalue = [7, 0]\nclass = 1", fillcolor="#e58139"] ;
179 -> 183 ;
184 [label="blood_group <= 1.0\ngini = 0.13\nsamples = 8\nvalue = [1, 13]\nclass = 0", fillcolor="#48a5e7"] ;
142 -> 184 ;
185 [label="gini = 0.0\nsamples = 1\nvalue = [1, 0]\nclass = 1", fillcolor="#e58139"] ;
184 -> 185 ;
186 [label="gini = 0.0\nsamples = 7\nvalue = [0, 13]\nclass = 0", fillcolor="#399de5"] ;
184 -> 186 ;
187 [label="hematokrit <= 0.82\ngini = 0.07\nsamples = 1256\nvalue = [75, 1964]\nclass = 0", fillcolor="#41a1e6"] ;
11 -> 187 ;
188 [label="erytrocyty <= 0.74\ngini = 0.06\nsamples = 1206\nvalue = [65, 1898]\nclass = 0", fillcolor="#40a0e6"] ;
187 -> 188 ;
189 [label="etytr <= 0.43\ngini = 0.06\nsamples = 1197\nvalue = [58, 1892]\nclass = 0", fillcolor="#3fa0e6"] ;
188 -> 189 ;
190 [label="etytr <= 0.43\ngini = 0.18\nsamples = 74\nvalue = [13, 114]\nclass = 0", fillcolor="#50a8e8"] ;
189 -> 190 ;
191 [label="hbver <= 0.39\ngini = 0.12\nsamples = 73\nvalue = [8, 114]\nclass = 0", fillcolor="#47a4e7"] ;
190 -> 191 ;
192 [label="er-cv <= 0.2\ngini = 0.09\nsamples = 66\nvalue = [5, 106]\nclass = 0", fillcolor="#42a2e6"] ;
191 -> 192 ;
193 [label="leukocyty <= 0.58\ngini = 0.32\nsamples = 3\nvalue = [4, 1]\nclass = 1", fillcolor="#eca06a"] ;
192 -> 193 ;
194 [label="gini = 0.0\nsamples = 2\nvalue = [4, 0]\nclass = 1", fillcolor="#e58139"] ;
193 -> 194 ;
195 [label="gini = 0.0\nsamples = 1\nvalue = [0, 1]\nclass = 0", fillcolor="#399de5"] ;
193 -> 195 ;
196 [label="erytrocyty <= 0.57\ngini = 0.02\nsamples = 63\nvalue = [1, 105]\nclass = 0", fillcolor="#3b9ee5"] ;
192 -> 196 ;
197 [label="gini = 0.0\nsamples = 61\nvalue = [0, 103]\nclass = 0", fillcolor="#399de5"] ;
196 -> 197 ;
198 [label="erytrocyty <= 0.58\ngini = 0.44\nsamples = 2\nvalue = [1, 2]\nclass = 0", fillcolor="#9ccef2"] ;
196 -> 198 ;
199 [label="gini = 0.0\nsamples = 1\nvalue = [1, 0]\nclass = 1", fillcolor="#e58139"] ;
198 -> 199 ;
200 [label="gini = 0.0\nsamples = 1\nvalue = [0, 2]\nclass = 0", fillcolor="#399de5"] ;
198 -> 200 ;
201 [label="leukocyty <= 0.71\ngini = 0.4\nsamples = 7\nvalue = [3, 8]\nclass = 0", fillcolor="#83c2ef"] ;
191 -> 201 ;
202 [label="hbver <= 0.4\ngini = 0.2\nsamples = 6\nvalue = [1, 8]\nclass = 0", fillcolor="#52a9e8"] ;
201 -> 202 ;
203 [label="gini = 0.0\nsamples = 1\nvalue = [1, 0]\nclass = 1", fillcolor="#e58139"] ;
202 -> 203 ;
204 [label="gini = 0.0\nsamples = 5\nvalue = [0, 8]\nclass = 0", fillcolor="#399de5"] ;
202 -> 204 ;
205 [label="gini = 0.0\nsamples = 1\nvalue = [2, 0]\nclass = 1", fillcolor="#e58139"] ;
201 -> 205 ;
206 [label="gini = 0.0\nsamples = 1\nvalue = [5, 0]\nclass = 1", fillcolor="#e58139"] ;
190 -> 206 ;
207 [label="etytr <= 0.58\ngini = 0.05\nsamples = 1123\nvalue = [45, 1778]\nclass = 0", fillcolor="#3e9fe6"] ;
189 -> 207 ;
208 [label="smoker <= 0.5\ngini = 0.07\nsamples = 641\nvalue = [39, 1002]\nclass = 0", fillcolor="#41a1e6"] ;
207 -> 208 ;
209 [label="er-cv <= 0.78\ngini = 0.06\nsamples = 385\nvalue = [18, 604]\nclass = 0", fillcolor="#3fa0e6"] ;
208 -> 209 ;
210 [label="etytr <= 0.47\ngini = 0.05\nsamples = 367\nvalue = [14, 584]\nclass = 0", fillcolor="#3e9fe6"] ;
209 -> 210 ;
211 [label="hematokrit <= 0.68\ngini = 0.08\nsamples = 75\nvalue = [6, 133]\nclass = 0", fillcolor="#42a1e6"] ;
210 -> 211 ;
212 [label="er-cv <= 0.57\ngini = 0.05\nsamples = 66\nvalue = [3, 122]\nclass = 0", fillcolor="#3e9fe6"] ;
211 -> 212 ;
213 [label="gini = 0.0\nsamples = 48\nvalue = [0, 90]\nclass = 0", fillcolor="#399de5"] ;
212 -> 213 ;
214 [label="leukocyty <= 0.38\ngini = 0.16\nsamples = 18\nvalue = [3, 32]\nclass = 0", fillcolor="#4ca6e7"] ;
212 -> 214 ;
215 [label="gini = 0.0\nsamples = 1\nvalue = [2, 0]\nclass = 1", fillcolor="#e58139"] ;
214 -> 215 ;
216 [label="blood_group <= 3.5\ngini = 0.06\nsamples = 17\nvalue = [1, 32]\nclass = 0", fillcolor="#3fa0e6"] ;
214 -> 216 ;
217 [label="gini = 0.0\nsamples = 10\nvalue = [0, 19]\nclass = 0", fillcolor="#399de5"] ;
216 -> 217 ;
218 [label="etytr <= 0.45\ngini = 0.13\nsamples = 7\nvalue = [1, 13]\nclass = 0", fillcolor="#48a5e7"] ;
216 -> 218 ;
219 [label="er-cv <= 0.64\ngini = 0.38\nsamples = 2\nvalue = [1, 3]\nclass = 0", fillcolor="#7bbeee"] ;
218 -> 219 ;
220 [label="gini = 0.0\nsamples = 1\nvalue = [0, 3]\nclass = 0", fillcolor="#399de5"] ;
219 -> 220 ;
221 [label="gini = 0.0\nsamples = 1\nvalue = [1, 0]\nclass = 1", fillcolor="#e58139"] ;
219 -> 221 ;
222 [label="gini = 0.0\nsamples = 5\nvalue = [0, 10]\nclass = 0", fillcolor="#399de5"] ;
218 -> 222 ;
223 [label="hbver <= 0.42\ngini = 0.34\nsamples = 9\nvalue = [3, 11]\nclass = 0", fillcolor="#6fb8ec"] ;
211 -> 223 ;
224 [label="gini = 0.0\nsamples = 8\nvalue = [0, 11]\nclass = 0", fillcolor="#399de5"] ;
223 -> 224 ;
225 [label="gini = 0.0\nsamples = 1\nvalue = [3, 0]\nclass = 1", fillcolor="#e58139"] ;
223 -> 225 ;
226 [label="blood_group <= 4.5\ngini = 0.03\nsamples = 292\nvalue = [8, 451]\nclass = 0", fillcolor="#3d9fe5"] ;
210 -> 226 ;
227 [label="etytr <= 0.51\ngini = 0.05\nsamples = 178\nvalue = [8, 276]\nclass = 0", fillcolor="#3fa0e6"] ;
226 -> 227 ;
228 [label="gini = 0.0\nsamples = 54\nvalue = [0, 86]\nclass = 0", fillcolor="#399de5"] ;
227 -> 228 ;
229 [label="erytrocyty <= 0.42\ngini = 0.08\nsamples = 124\nvalue = [8, 190]\nclass = 0", fillcolor="#41a1e6"] ;
227 -> 229 ;
230 [label="hbver <= 0.35\ngini = 0.13\nsamples = 63\nvalue = [7, 90]\nclass = 0", fillcolor="#48a5e7"] ;
229 -> 230 ;
231 [label="leukocyty <= 0.52\ngini = 0.18\nsamples = 45\nvalue = [7, 64]\nclass = 0", fillcolor="#4fa8e8"] ;
230 -> 231 ;
232 [label="gini = 0.0\nsamples = 24\nvalue = [0, 41]\nclass = 0", fillcolor="#399de5"] ;
231 -> 232 ;
233 [label="hbver <= 0.32\ngini = 0.36\nsamples = 21\nvalue = [7, 23]\nclass = 0", fillcolor="#75bbed"] ;
231 -> 233 ;
234 [label="leukocyty <= 0.53\ngini = 0.27\nsamples = 17\nvalue = [4, 21]\nclass = 0", fillcolor="#5fb0ea"] ;
233 -> 234 ;
235 [label="gini = 0.0\nsamples = 1\nvalue = [2, 0]\nclass = 1", fillcolor="#e58139"] ;
234 -> 235 ;
236 [label="hbver <= 0.31\ngini = 0.16\nsamples = 16\nvalue = [2, 21]\nclass = 0", fillcolor="#4ca6e7"] ;
234 -> 236 ;
237 [label="hematokrit <= 0.41\ngini = 0.1\nsamples = 13\nvalue = [1, 18]\nclass = 0", fillcolor="#44a2e6"] ;
236 -> 237 ;
238 [label="erytrocyty <= 0.34\ngini = 0.38\nsamples = 4\nvalue = [1, 3]\nclass = 0", fillcolor="#7bbeee"] ;
237 -> 238 ;
239 [label="gini = 0.0\nsamples = 2\nvalue = [0, 2]\nclass = 0", fillcolor="#399de5"] ;
238 -> 239 ;
240 [label="blood_group <= 2.0\ngini = 0.5\nsamples = 2\nvalue = [1, 1]\nclass = 1", fillcolor="#ffffff"] ;
238 -> 240 ;
241 [label="gini = 0.0\nsamples = 1\nvalue = [0, 1]\nclass = 0", fillcolor="#399de5"] ;
240 -> 241 ;
242 [label="gini = 0.0\nsamples = 1\nvalue = [1, 0]\nclass = 1", fillcolor="#e58139"] ;
240 -> 242 ;
243 [label="gini = 0.0\nsamples = 9\nvalue = [0, 15]\nclass = 0", fillcolor="#399de5"] ;
237 -> 243 ;
244 [label="hbver <= 0.31\ngini = 0.38\nsamples = 3\nvalue = [1, 3]\nclass = 0", fillcolor="#7bbeee"] ;
236 -> 244 ;
245 [label="gini = 0.0\nsamples = 1\nvalue = [1, 0]\nclass = 1", fillcolor="#e58139"] ;
244 -> 245 ;
246 [label="gini = 0.0\nsamples = 2\nvalue = [0, 3]\nclass = 0", fillcolor="#399de5"] ;
244 -> 246 ;
247 [label="er-cv <= 0.34\ngini = 0.48\nsamples = 4\nvalue = [3, 2]\nclass = 1", fillcolor="#f6d5bd"] ;
233 -> 247 ;
248 [label="gini = 0.0\nsamples = 1\nvalue = [2, 0]\nclass = 1", fillcolor="#e58139"] ;
247 -> 248 ;
249 [label="erytrocyty <= 0.29\ngini = 0.44\nsamples = 3\nvalue = [1, 2]\nclass = 0", fillcolor="#9ccef2"] ;
247 -> 249 ;
250 [label="gini = 0.0\nsamples = 2\nvalue = [0, 2]\nclass = 0", fillcolor="#399de5"] ;
249 -> 250 ;
251 [label="gini = 0.0\nsamples = 1\nvalue = [1, 0]\nclass = 1", fillcolor="#e58139"] ;
249 -> 251 ;
252 [label="gini = 0.0\nsamples = 18\nvalue = [0, 26]\nclass = 0", fillcolor="#399de5"] ;
230 -> 252 ;
253 [label="hbver <= 0.39\ngini = 0.02\nsamples = 61\nvalue = [1, 100]\nclass = 0", fillcolor="#3b9ee5"] ;
229 -> 253 ;
254 [label="gini = 0.0\nsamples = 50\nvalue = [0, 79]\nclass = 0", fillcolor="#399de5"] ;
253 -> 254 ;
255 [label="etytr <= 0.51\ngini = 0.09\nsamples = 11\nvalue = [1, 21]\nclass = 0", fillcolor="#42a2e6"] ;
253 -> 255 ;
256 [label="gini = 0.0\nsamples = 1\nvalue = [1, 0]\nclass = 1", fillcolor="#e58139"] ;
255 -> 256 ;
257 [label="gini = 0.0\nsamples = 10\nvalue = [0, 21]\nclass = 0", fillcolor="#399de5"] ;
255 -> 257 ;
258 [label="gini = 0.0\nsamples = 114\nvalue = [0, 175]\nclass = 0", fillcolor="#399de5"] ;
226 -> 258 ;
259 [label="hbver <= 0.3\ngini = 0.28\nsamples = 18\nvalue = [4, 20]\nclass = 0", fillcolor="#61b1ea"] ;
209 -> 259 ;
260 [label="gini = 0.0\nsamples = 7\nvalue = [0, 11]\nclass = 0", fillcolor="#399de5"] ;
259 -> 260 ;
261 [label="erytrocyty <= 0.19\ngini = 0.43\nsamples = 11\nvalue = [4, 9]\nclass = 0", fillcolor="#91c9f1"] ;
259 -> 261 ;
262 [label="gini = 0.0\nsamples = 1\nvalue = [2, 0]\nclass = 1", fillcolor="#e58139"] ;
261 -> 262 ;
263 [label="blood_group <= 4.5\ngini = 0.3\nsamples = 10\nvalue = [2, 9]\nclass = 0", fillcolor="#65b3eb"] ;
261 -> 263 ;
264 [label="gini = 0.0\nsamples = 6\nvalue = [0, 7]\nclass = 0", fillcolor="#399de5"] ;
263 -> 264 ;
265 [label="er-cv <= 0.82\ngini = 0.5\nsamples = 4\nvalue = [2, 2]\nclass = 1", fillcolor="#ffffff"] ;
263 -> 265 ;
266 [label="gini = 0.0\nsamples = 2\nvalue = [0, 2]\nclass = 0", fillcolor="#399de5"] ;
265 -> 266 ;
267 [label="gini = 0.0\nsamples = 2\nvalue = [2, 0]\nclass = 1", fillcolor="#e58139"] ;
265 -> 267 ;
268 [label="hbver <= 0.42\ngini = 0.1\nsamples = 256\nvalue = [21, 398]\nclass = 0", fillcolor="#43a2e6"] ;
208 -> 268 ;
269 [label="leukocyty <= 0.54\ngini = 0.09\nsamples = 255\nvalue = [20, 398]\nclass = 0", fillcolor="#43a2e6"] ;
268 -> 269 ;
270 [label="etytr <= 0.57\ngini = 0.15\nsamples = 113\nvalue = [15, 164]\nclass = 0", fillcolor="#4ba6e7"] ;
269 -> 270 ;
271 [label="erytrocyty <= 0.61\ngini = 0.13\nsamples = 110\nvalue = [12, 163]\nclass = 0", fillcolor="#48a4e7"] ;
270 -> 271 ;
272 [label="blood_group <= 6.5\ngini = 0.09\nsamples = 107\nvalue = [8, 162]\nclass = 0", fillcolor="#43a2e6"] ;
271 -> 272 ;
273 [label="etytr <= 0.53\ngini = 0.07\nsamples = 96\nvalue = [6, 151]\nclass = 0", fillcolor="#41a1e6"] ;
272 -> 273 ;
274 [label="erytrocyty <= 0.31\ngini = 0.03\nsamples = 71\nvalue = [2, 113]\nclass = 0", fillcolor="#3d9fe5"] ;
273 -> 274 ;
275 [label="blood_group <= 1.5\ngini = 0.13\nsamples = 20\nvalue = [2, 26]\nclass = 0", fillcolor="#48a5e7"] ;
274 -> 275 ;
276 [label="er-cv <= 0.37\ngini = 0.3\nsamples = 8\nvalue = [2, 9]\nclass = 0", fillcolor="#65b3eb"] ;
275 -> 276 ;
277 [label="gini = 0.0\nsamples = 1\nvalue = [2, 0]\nclass = 1", fillcolor="#e58139"] ;
276 -> 277 ;
278 [label="gini = 0.0\nsamples = 7\nvalue = [0, 9]\nclass = 0", fillcolor="#399de5"] ;
276 -> 278 ;
279 [label="gini = 0.0\nsamples = 12\nvalue = [0, 17]\nclass = 0", fillcolor="#399de5"] ;
275 -> 279 ;
280 [label="gini = 0.0\nsamples = 51\nvalue = [0, 87]\nclass = 0", fillcolor="#399de5"] ;
274 -> 280 ;
281 [label="hematokrit <= 0.55\ngini = 0.17\nsamples = 25\nvalue = [4, 38]\nclass = 0", fillcolor="#4ea7e8"] ;
273 -> 281 ;
282 [label="er-cv <= 0.34\ngini = 0.3\nsamples = 15\nvalue = [4, 18]\nclass = 0", fillcolor="#65b3eb"] ;
281 -> 282 ;
283 [label="etytr <= 0.55\ngini = 0.48\nsamples = 3\nvalue = [3, 2]\nclass = 1", fillcolor="#f6d5bd"] ;
282 -> 283 ;
284 [label="leukocyty <= 0.45\ngini = 0.44\nsamples = 2\nvalue = [1, 2]\nclass = 0", fillcolor="#9ccef2"] ;
283 -> 284 ;
285 [label="gini = 0.0\nsamples = 1\nvalue = [1, 0]\nclass = 1", fillcolor="#e58139"] ;
284 -> 285 ;
286 [label="gini = 0.0\nsamples = 1\nvalue = [0, 2]\nclass = 0", fillcolor="#399de5"] ;
284 -> 286 ;
287 [label="gini = 0.0\nsamples = 1\nvalue = [2, 0]\nclass = 1", fillcolor="#e58139"] ;
283 -> 287 ;
288 [label="hbver <= 0.31\ngini = 0.11\nsamples = 12\nvalue = [1, 16]\nclass = 0", fillcolor="#45a3e7"] ;
282 -> 288 ;
289 [label="gini = 0.0\nsamples = 10\nvalue = [0, 14]\nclass = 0", fillcolor="#399de5"] ;
288 -> 289 ;
290 [label="etytr <= 0.55\ngini = 0.44\nsamples = 2\nvalue = [1, 2]\nclass = 0", fillcolor="#9ccef2"] ;
288 -> 290 ;
291 [label="gini = 0.0\nsamples = 1\nvalue = [1, 0]\nclass = 1", fillcolor="#e58139"] ;
290 -> 291 ;
292 [label="gini = 0.0\nsamples = 1\nvalue = [0, 2]\nclass = 0", fillcolor="#399de5"] ;
290 -> 292 ;
293 [label="gini = 0.0\nsamples = 10\nvalue = [0, 20]\nclass = 0", fillcolor="#399de5"] ;
281 -> 293 ;
294 [label="hbver <= 0.16\ngini = 0.26\nsamples = 11\nvalue = [2, 11]\nclass = 0", fillcolor="#5dafea"] ;
272 -> 294 ;
295 [label="etytr <= 0.5\ngini = 0.44\nsamples = 2\nvalue = [2, 1]\nclass = 1", fillcolor="#f2c09c"] ;
294 -> 295 ;
296 [label="gini = 0.0\nsamples = 1\nvalue = [0, 1]\nclass = 0", fillcolor="#399de5"] ;
295 -> 296 ;
297 [label="gini = 0.0\nsamples = 1\nvalue = [2, 0]\nclass = 1", fillcolor="#e58139"] ;
295 -> 297 ;
298 [label="gini = 0.0\nsamples = 9\nvalue = [0, 10]\nclass = 0", fillcolor="#399de5"] ;
294 -> 298 ;
299 [label="er-cv <= 0.64\ngini = 0.32\nsamples = 3\nvalue = [4, 1]\nclass = 1", fillcolor="#eca06a"] ;
271 -> 299 ;
300 [label="er-cv <= 0.49\ngini = 0.5\nsamples = 2\nvalue = [1, 1]\nclass = 1", fillcolor="#ffffff"] ;
299 -> 300 ;
301 [label="gini = 0.0\nsamples = 1\nvalue = [1, 0]\nclass = 1", fillcolor="#e58139"] ;
300 -> 301 ;
302 [label="gini = 0.0\nsamples = 1\nvalue = [0, 1]\nclass = 0", fillcolor="#399de5"] ;
300 -> 302 ;
303 [label="gini = 0.0\nsamples = 1\nvalue = [3, 0]\nclass = 1", fillcolor="#e58139"] ;
299 -> 303 ;
304 [label="er-cv <= 0.3\ngini = 0.38\nsamples = 3\nvalue = [3, 1]\nclass = 1", fillcolor="#eeab7b"] ;
270 -> 304 ;
305 [label="blood_group <= 5.0\ngini = 0.5\nsamples = 2\nvalue = [1, 1]\nclass = 1", fillcolor="#ffffff"] ;
304 -> 305 ;
306 [label="gini = 0.0\nsamples = 1\nvalue = [0, 1]\nclass = 0", fillcolor="#399de5"] ;
305 -> 306 ;
307 [label="gini = 0.0\nsamples = 1\nvalue = [1, 0]\nclass = 1", fillcolor="#e58139"] ;
305 -> 307 ;
308 [label="gini = 0.0\nsamples = 1\nvalue = [2, 0]\nclass = 1", fillcolor="#e58139"] ;
304 -> 308 ;
309 [label="etytr <= 0.51\ngini = 0.04\nsamples = 142\nvalue = [5, 234]\nclass = 0", fillcolor="#3d9fe6"] ;
269 -> 309 ;
310 [label="hbver <= 0.41\ngini = 0.02\nsamples = 75\nvalue = [1, 113]\nclass = 0", fillcolor="#3b9ee5"] ;
309 -> 310 ;
311 [label="gini = 0.0\nsamples = 69\nvalue = [0, 107]\nclass = 0", fillcolor="#399de5"] ;
310 -> 311 ;
312 [label="hbver <= 0.41\ngini = 0.24\nsamples = 6\nvalue = [1, 6]\nclass = 0", fillcolor="#5aade9"] ;
310 -> 312 ;
313 [label="gini = 0.0\nsamples = 1\nvalue = [1, 0]\nclass = 1", fillcolor="#e58139"] ;
312 -> 313 ;
314 [label="gini = 0.0\nsamples = 5\nvalue = [0, 6]\nclass = 0", fillcolor="#399de5"] ;
312 -> 314 ;
315 [label="hbver <= 0.21\ngini = 0.06\nsamples = 67\nvalue = [4, 121]\nclass = 0", fillcolor="#40a0e6"] ;
309 -> 315 ;
316 [label="gini = 0.0\nsamples = 1\nvalue = [1, 0]\nclass = 1", fillcolor="#e58139"] ;
315 -> 316 ;
317 [label="erytrocyty <= 0.39\ngini = 0.05\nsamples = 66\nvalue = [3, 121]\nclass = 0", fillcolor="#3e9fe6"] ;
315 -> 317 ;
318 [label="leukocyty <= 0.6\ngini = 0.11\nsamples = 28\nvalue = [3, 47]\nclass = 0", fillcolor="#46a3e7"] ;
317 -> 318 ;
319 [label="gini = 0.0\nsamples = 12\nvalue = [0, 24]\nclass = 0", fillcolor="#399de5"] ;
318 -> 319 ;
320 [label="etytr <= 0.51\ngini = 0.2\nsamples = 16\nvalue = [3, 23]\nclass = 0", fillcolor="#53aae8"] ;
318 -> 320 ;
321 [label="gini = 0.0\nsamples = 1\nvalue = [1, 0]\nclass = 1", fillcolor="#e58139"] ;
320 -> 321 ;
322 [label="etytr <= 0.55\ngini = 0.15\nsamples = 15\nvalue = [2, 23]\nclass = 0", fillcolor="#4aa6e7"] ;
320 -> 322 ;
323 [label="gini = 0.0\nsamples = 8\nvalue = [0, 16]\nclass = 0", fillcolor="#399de5"] ;
322 -> 323 ;
324 [label="erytrocyty <= 0.37\ngini = 0.35\nsamples = 7\nvalue = [2, 7]\nclass = 0", fillcolor="#72b9ec"] ;
322 -> 324 ;
325 [label="leukocyty <= 0.65\ngini = 0.22\nsamples = 6\nvalue = [1, 7]\nclass = 0", fillcolor="#55abe9"] ;
324 -> 325 ;
326 [label="gini = 0.0\nsamples = 3\nvalue = [0, 4]\nclass = 0", fillcolor="#399de5"] ;
325 -> 326 ;
327 [label="erytrocyty <= 0.3\ngini = 0.38\nsamples = 3\nvalue = [1, 3]\nclass = 0", fillcolor="#7bbeee"] ;
325 -> 327 ;
328 [label="gini = 0.0\nsamples = 2\nvalue = [0, 3]\nclass = 0", fillcolor="#399de5"] ;
327 -> 328 ;
329 [label="gini = 0.0\nsamples = 1\nvalue = [1, 0]\nclass = 1", fillcolor="#e58139"] ;
327 -> 329 ;
330 [label="gini = 0.0\nsamples = 1\nvalue = [1, 0]\nclass = 1", fillcolor="#e58139"] ;
324 -> 330 ;
331 [label="gini = 0.0\nsamples = 38\nvalue = [0, 74]\nclass = 0", fillcolor="#399de5"] ;
317 -> 331 ;
332 [label="gini = 0.0\nsamples = 1\nvalue = [1, 0]\nclass = 1", fillcolor="#e58139"] ;
268 -> 332 ;
333 [label="leukocyty <= 0.5\ngini = 0.02\nsamples = 482\nvalue = [6, 776]\nclass = 0", fillcolor="#3b9ee5"] ;
207 -> 333 ;
334 [label="etytr <= 0.63\ngini = 0.05\nsamples = 93\nvalue = [4, 138]\nclass = 0", fillcolor="#3fa0e6"] ;
333 -> 334 ;
335 [label="leukocyty <= 0.5\ngini = 0.1\nsamples = 48\nvalue = [4, 73]\nclass = 0", fillcolor="#44a2e6"] ;
334 -> 335 ;
336 [label="er-cv <= 0.46\ngini = 0.08\nsamples = 47\nvalue = [3, 73]\nclass = 0", fillcolor="#41a1e6"] ;
335 -> 336 ;
337 [label="hematokrit <= 0.5\ngini = 0.16\nsamples = 21\nvalue = [3, 31]\nclass = 0", fillcolor="#4ca6e8"] ;
336 -> 337 ;
338 [label="gini = 0.0\nsamples = 12\nvalue = [0, 22]\nclass = 0", fillcolor="#399de5"] ;
337 -> 338 ;
339 [label="blood_group <= 4.5\ngini = 0.38\nsamples = 9\nvalue = [3, 9]\nclass = 0", fillcolor="#7bbeee"] ;
337 -> 339 ;
340 [label="hematokrit <= 0.55\ngini = 0.49\nsamples = 5\nvalue = [3, 4]\nclass = 0", fillcolor="#cee6f8"] ;
339 -> 340 ;
341 [label="gini = 0.0\nsamples = 1\nvalue = [2, 0]\nclass = 1", fillcolor="#e58139"] ;
340 -> 341 ;
342 [label="hbver <= 0.23\ngini = 0.32\nsamples = 4\nvalue = [1, 4]\nclass = 0", fillcolor="#6ab6ec"] ;
340 -> 342 ;
343 [label="gini = 0.0\nsamples = 3\nvalue = [0, 4]\nclass = 0", fillcolor="#399de5"] ;
342 -> 343 ;
344 [label="gini = 0.0\nsamples = 1\nvalue = [1, 0]\nclass = 1", fillcolor="#e58139"] ;
342 -> 344 ;
345 [label="gini = 0.0\nsamples = 4\nvalue = [0, 5]\nclass = 0", fillcolor="#399de5"] ;
339 -> 345 ;
346 [label="gini = 0.0\nsamples = 26\nvalue = [0, 42]\nclass = 0", fillcolor="#399de5"] ;
336 -> 346 ;
347 [label="gini = 0.0\nsamples = 1\nvalue = [1, 0]\nclass = 1", fillcolor="#e58139"] ;
335 -> 347 ;
348 [label="gini = 0.0\nsamples = 45\nvalue = [0, 65]\nclass = 0", fillcolor="#399de5"] ;
334 -> 348 ;
349 [label="blood_group <= 3.5\ngini = 0.01\nsamples = 389\nvalue = [2, 638]\nclass = 0", fillcolor="#3a9de5"] ;
333 -> 349 ;
350 [label="erytrocyty <= 0.11\ngini = 0.01\nsamples = 177\nvalue = [2, 289]\nclass = 0", fillcolor="#3a9ee5"] ;
349 -> 350 ;
351 [label="hbver <= 0.37\ngini = 0.5\nsamples = 2\nvalue = [1, 1]\nclass = 1", fillcolor="#ffffff"] ;
350 -> 351 ;
352 [label="gini = 0.0\nsamples = 1\nvalue = [0, 1]\nclass = 0", fillcolor="#399de5"] ;
351 -> 352 ;
353 [label="gini = 0.0\nsamples = 1\nvalue = [1, 0]\nclass = 1", fillcolor="#e58139"] ;
351 -> 353 ;
354 [label="hematokrit <= 0.55\ngini = 0.01\nsamples = 175\nvalue = [1, 288]\nclass = 0", fillcolor="#3a9de5"] ;
350 -> 354 ;
355 [label="gini = 0.0\nsamples = 106\nvalue = [0, 169]\nclass = 0", fillcolor="#399de5"] ;
354 -> 355 ;
356 [label="er-cv <= 0.55\ngini = 0.02\nsamples = 69\nvalue = [1, 119]\nclass = 0", fillcolor="#3b9ee5"] ;
354 -> 356 ;
357 [label="gini = 0.0\nsamples = 48\nvalue = [0, 88]\nclass = 0", fillcolor="#399de5"] ;
356 -> 357 ;
358 [label="leukocyty <= 0.55\ngini = 0.06\nsamples = 21\nvalue = [1, 31]\nclass = 0", fillcolor="#3fa0e6"] ;
356 -> 358 ;
359 [label="er-cv <= 0.56\ngini = 0.32\nsamples = 4\nvalue = [1, 4]\nclass = 0", fillcolor="#6ab6ec"] ;
358 -> 359 ;
360 [label="gini = 0.0\nsamples = 1\nvalue = [1, 0]\nclass = 1", fillcolor="#e58139"] ;
359 -> 360 ;
361 [label="gini = 0.0\nsamples = 3\nvalue = [0, 4]\nclass = 0", fillcolor="#399de5"] ;
359 -> 361 ;
362 [label="gini = 0.0\nsamples = 17\nvalue = [0, 27]\nclass = 0", fillcolor="#399de5"] ;
358 -> 362 ;
363 [label="gini = 0.0\nsamples = 212\nvalue = [0, 349]\nclass = 0", fillcolor="#399de5"] ;
349 -> 363 ;
364 [label="erytrocyty <= 0.77\ngini = 0.5\nsamples = 9\nvalue = [7, 6]\nclass = 1", fillcolor="#fbede3"] ;
188 -> 364 ;
365 [label="gini = 0.0\nsamples = 4\nvalue = [6, 0]\nclass = 1", fillcolor="#e58139"] ;
364 -> 365 ;
366 [label="hematokrit <= 0.39\ngini = 0.24\nsamples = 5\nvalue = [1, 6]\nclass = 0", fillcolor="#5aade9"] ;
364 -> 366 ;
367 [label="gini = 0.0\nsamples = 3\nvalue = [0, 5]\nclass = 0", fillcolor="#399de5"] ;
366 -> 367 ;
368 [label="leukocyty <= 0.62\ngini = 0.5\nsamples = 2\nvalue = [1, 1]\nclass = 1", fillcolor="#ffffff"] ;
366 -> 368 ;
369 [label="gini = 0.0\nsamples = 1\nvalue = [0, 1]\nclass = 0", fillcolor="#399de5"] ;
368 -> 369 ;
370 [label="gini = 0.0\nsamples = 1\nvalue = [1, 0]\nclass = 1", fillcolor="#e58139"] ;
368 -> 370 ;
371 [label="erytrocyty <= 0.54\ngini = 0.23\nsamples = 50\nvalue = [10, 66]\nclass = 0", fillcolor="#57ace9"] ;
187 -> 371 ;
372 [label="hematokrit <= 0.83\ngini = 0.12\nsamples = 37\nvalue = [4, 56]\nclass = 0", fillcolor="#47a4e7"] ;
371 -> 372 ;
373 [label="gini = 0.0\nsamples = 1\nvalue = [4, 0]\nclass = 1", fillcolor="#e58139"] ;
372 -> 373 ;
374 [label="gini = 0.0\nsamples = 36\nvalue = [0, 56]\nclass = 0", fillcolor="#399de5"] ;
372 -> 374 ;
375 [label="hbver <= 0.26\ngini = 0.47\nsamples = 13\nvalue = [6, 10]\nclass = 0", fillcolor="#b0d8f5"] ;
371 -> 375 ;
376 [label="hbver <= 0.22\ngini = 0.38\nsamples = 2\nvalue = [3, 1]\nclass = 1", fillcolor="#eeab7b"] ;
375 -> 376 ;
377 [label="gini = 0.0\nsamples = 1\nvalue = [0, 1]\nclass = 0", fillcolor="#399de5"] ;
376 -> 377 ;
378 [label="gini = 0.0\nsamples = 1\nvalue = [3, 0]\nclass = 1", fillcolor="#e58139"] ;
376 -> 378 ;
379 [label="hematokrit <= 0.83\ngini = 0.38\nsamples = 11\nvalue = [3, 9]\nclass = 0", fillcolor="#7bbeee"] ;
375 -> 379 ;
380 [label="gini = 0.0\nsamples = 1\nvalue = [2, 0]\nclass = 1", fillcolor="#e58139"] ;
379 -> 380 ;
381 [label="leukocyty <= 0.53\ngini = 0.18\nsamples = 10\nvalue = [1, 9]\nclass = 0", fillcolor="#4fa8e8"] ;
379 -> 381 ;
382 [label="hbver <= 0.34\ngini = 0.44\nsamples = 3\nvalue = [1, 2]\nclass = 0", fillcolor="#9ccef2"] ;
381 -> 382 ;
383 [label="gini = 0.0\nsamples = 2\nvalue = [0, 2]\nclass = 0", fillcolor="#399de5"] ;
382 -> 383 ;
384 [label="gini = 0.0\nsamples = 1\nvalue = [1, 0]\nclass = 1", fillcolor="#e58139"] ;
382 -> 384 ;
385 [label="gini = 0.0\nsamples = 7\nvalue = [0, 7]\nclass = 0", fillcolor="#399de5"] ;
381 -> 385 ;
386 [label="erytrocyty <= 0.53\ngini = 0.5\nsamples = 2747\nvalue = [2334, 1998]\nclass = 1", fillcolor="#fbede2"] ;
0 -> 386 [labeldistance=2.5, labelangle=-45, headlabel="False"] ;
387 [label="hbver <= 0.54\ngini = 0.42\nsamples = 1119\nvalue = [1237, 525]\nclass = 1", fillcolor="#f0b68d"] ;
386 -> 387 ;
388 [label="er-cv <= 0.15\ngini = 0.49\nsamples = 523\nvalue = [457, 372]\nclass = 1", fillcolor="#fae8da"] ;
387 -> 388 ;
389 [label="etytr <= 0.39\ngini = 0.36\nsamples = 14\nvalue = [4, 13]\nclass = 0", fillcolor="#76bbed"] ;
388 -> 389 ;
390 [label="gini = 0.0\nsamples = 3\nvalue = [4, 0]\nclass = 1", fillcolor="#e58139"] ;
389 -> 390 ;
391 [label="gini = 0.0\nsamples = 11\nvalue = [0, 13]\nclass = 0", fillcolor="#399de5"] ;
389 -> 391 ;
392 [label="hematokrit <= 0.14\ngini = 0.49\nsamples = 509\nvalue = [453, 359]\nclass = 1", fillcolor="#fae5d6"] ;
388 -> 392 ;
393 [label="erytrocyty <= 0.41\ngini = 0.38\nsamples = 14\nvalue = [24, 8]\nclass = 1", fillcolor="#eeab7b"] ;
392 -> 393 ;
394 [label="hematokrit <= 0.05\ngini = 0.09\nsamples = 9\nvalue = [21, 1]\nclass = 1", fillcolor="#e68742"] ;
393 -> 394 ;
395 [label="etytr <= 0.38\ngini = 0.28\nsamples = 3\nvalue = [5, 1]\nclass = 1", fillcolor="#ea9a61"] ;
394 -> 395 ;
396 [label="gini = 0.0\nsamples = 2\nvalue = [5, 0]\nclass = 1", fillcolor="#e58139"] ;
395 -> 396 ;
397 [label="gini = 0.0\nsamples = 1\nvalue = [0, 1]\nclass = 0", fillcolor="#399de5"] ;
395 -> 397 ;
398 [label="gini = 0.0\nsamples = 6\nvalue = [16, 0]\nclass = 1", fillcolor="#e58139"] ;
394 -> 398 ;
399 [label="leukocyty <= 0.64\ngini = 0.42\nsamples = 5\nvalue = [3, 7]\nclass = 0", fillcolor="#8ec7f0"] ;
393 -> 399 ;
400 [label="gini = 0.0\nsamples = 2\nvalue = [3, 0]\nclass = 1", fillcolor="#e58139"] ;
399 -> 400 ;
401 [label="gini = 0.0\nsamples = 3\nvalue = [0, 7]\nclass = 0", fillcolor="#399de5"] ;
399 -> 401 ;
402 [label="hematokrit <= 0.17\ngini = 0.5\nsamples = 495\nvalue = [429, 351]\nclass = 1", fillcolor="#fae8db"] ;
392 -> 402 ;
403 [label="gini = 0.0\nsamples = 3\nvalue = [0, 4]\nclass = 0", fillcolor="#399de5"] ;
402 -> 403 ;
404 [label="hbver <= 0.48\ngini = 0.49\nsamples = 492\nvalue = [429, 347]\nclass = 1", fillcolor="#fae7d9"] ;
402 -> 404 ;
405 [label="er-cv <= 0.56\ngini = 0.49\nsamples = 213\nvalue = [145, 187]\nclass = 0", fillcolor="#d3e9f9"] ;
404 -> 405 ;
406 [label="er-cv <= 0.5\ngini = 0.47\nsamples = 128\nvalue = [70, 118]\nclass = 0", fillcolor="#aed7f4"] ;
405 -> 406 ;
407 [label="hematokrit <= 0.21\ngini = 0.5\nsamples = 95\nvalue = [64, 77]\nclass = 0", fillcolor="#deeefb"] ;
406 -> 407 ;
408 [label="etytr <= 0.44\ngini = 0.22\nsamples = 4\nvalue = [7, 1]\nclass = 1", fillcolor="#e99355"] ;
407 -> 408 ;
409 [label="gini = 0.0\nsamples = 3\nvalue = [7, 0]\nclass = 1", fillcolor="#e58139"] ;
408 -> 409 ;
410 [label="gini = 0.0\nsamples = 1\nvalue = [0, 1]\nclass = 0", fillcolor="#399de5"] ;
408 -> 410 ;
411 [label="etytr <= 0.42\ngini = 0.49\nsamples = 91\nvalue = [57, 76]\nclass = 0", fillcolor="#cee6f8"] ;
407 -> 411 ;
412 [label="erytrocyty <= 0.45\ngini = 0.13\nsamples = 43\nvalue = [55, 4]\nclass = 1", fillcolor="#e78a47"] ;
411 -> 412 ;
413 [label="gini = 0.0\nsamples = 34\nvalue = [45, 0]\nclass = 1", fillcolor="#e58139"] ;
412 -> 413 ;
414 [label="hematokrit <= 0.57\ngini = 0.41\nsamples = 9\nvalue = [10, 4]\nclass = 1", fillcolor="#efb388"] ;
412 -> 414 ;
415 [label="leukocyty <= 0.72\ngini = 0.28\nsamples = 8\nvalue = [10, 2]\nclass = 1", fillcolor="#ea9a61"] ;
414 -> 415 ;
416 [label="hbver <= 0.46\ngini = 0.44\nsamples = 3\nvalue = [1, 2]\nclass = 0", fillcolor="#9ccef2"] ;
415 -> 416 ;
417 [label="gini = 0.0\nsamples = 1\nvalue = [1, 0]\nclass = 1", fillcolor="#e58139"] ;
416 -> 417 ;
418 [label="gini = 0.0\nsamples = 2\nvalue = [0, 2]\nclass = 0", fillcolor="#399de5"] ;
416 -> 418 ;
419 [label="gini = 0.0\nsamples = 5\nvalue = [9, 0]\nclass = 1", fillcolor="#e58139"] ;
415 -> 419 ;
420 [label="gini = 0.0\nsamples = 1\nvalue = [0, 2]\nclass = 0", fillcolor="#399de5"] ;
414 -> 420 ;
421 [label="blood_group <= 0.5\ngini = 0.05\nsamples = 48\nvalue = [2, 72]\nclass = 0", fillcolor="#3ea0e6"] ;
411 -> 421 ;
422 [label="er-cv <= 0.45\ngini = 0.18\nsamples = 7\nvalue = [1, 9]\nclass = 0", fillcolor="#4fa8e8"] ;
421 -> 422 ;
423 [label="gini = 0.0\nsamples = 6\nvalue = [0, 9]\nclass = 0", fillcolor="#399de5"] ;
422 -> 423 ;
424 [label="gini = 0.0\nsamples = 1\nvalue = [1, 0]\nclass = 1", fillcolor="#e58139"] ;
422 -> 424 ;
425 [label="blood_group <= 4.5\ngini = 0.03\nsamples = 41\nvalue = [1, 63]\nclass = 0", fillcolor="#3c9fe5"] ;
421 -> 425 ;
426 [label="gini = 0.0\nsamples = 26\nvalue = [0, 39]\nclass = 0", fillcolor="#399de5"] ;
425 -> 426 ;
427 [label="etytr <= 0.5\ngini = 0.08\nsamples = 15\nvalue = [1, 24]\nclass = 0", fillcolor="#41a1e6"] ;
425 -> 427 ;
428 [label="etytr <= 0.5\ngini = 0.28\nsamples = 4\nvalue = [1, 5]\nclass = 0", fillcolor="#61b1ea"] ;
427 -> 428 ;
429 [label="gini = 0.0\nsamples = 3\nvalue = [0, 5]\nclass = 0", fillcolor="#399de5"] ;
428 -> 429 ;
430 [label="gini = 0.0\nsamples = 1\nvalue = [1, 0]\nclass = 1", fillcolor="#e58139"] ;
428 -> 430 ;
431 [label="gini = 0.0\nsamples = 11\nvalue = [0, 19]\nclass = 0", fillcolor="#399de5"] ;
427 -> 431 ;
432 [label="er-cv <= 0.54\ngini = 0.22\nsamples = 33\nvalue = [6, 41]\nclass = 0", fillcolor="#56abe9"] ;
406 -> 432 ;
433 [label="etytr <= 0.36\ngini = 0.3\nsamples = 24\nvalue = [6, 27]\nclass = 0", fillcolor="#65b3eb"] ;
432 -> 433 ;
434 [label="hbver <= 0.46\ngini = 0.49\nsamples = 7\nvalue = [5, 4]\nclass = 1", fillcolor="#fae6d7"] ;
433 -> 434 ;
435 [label="hbver <= 0.45\ngini = 0.44\nsamples = 4\nvalue = [2, 4]\nclass = 0", fillcolor="#9ccef2"] ;
434 -> 435 ;
436 [label="gini = 0.0\nsamples = 2\nvalue = [2, 0]\nclass = 1", fillcolor="#e58139"] ;
435 -> 436 ;
437 [label="gini = 0.0\nsamples = 2\nvalue = [0, 4]\nclass = 0", fillcolor="#399de5"] ;
435 -> 437 ;
438 [label="gini = 0.0\nsamples = 3\nvalue = [3, 0]\nclass = 1", fillcolor="#e58139"] ;
434 -> 438 ;
439 [label="etytr <= 0.51\ngini = 0.08\nsamples = 17\nvalue = [1, 23]\nclass = 0", fillcolor="#42a1e6"] ;
433 -> 439 ;
440 [label="etytr <= 0.48\ngini = 0.38\nsamples = 3\nvalue = [1, 3]\nclass = 0", fillcolor="#7bbeee"] ;
439 -> 440 ;
441 [label="gini = 0.0\nsamples = 2\nvalue = [0, 3]\nclass = 0", fillcolor="#399de5"] ;
440 -> 441 ;
442 [label="gini = 0.0\nsamples = 1\nvalue = [1, 0]\nclass = 1", fillcolor="#e58139"] ;
440 -> 442 ;
443 [label="gini = 0.0\nsamples = 14\nvalue = [0, 20]\nclass = 0", fillcolor="#399de5"] ;
439 -> 443 ;
444 [label="gini = 0.0\nsamples = 9\nvalue = [0, 14]\nclass = 0", fillcolor="#399de5"] ;
432 -> 444 ;
445 [label="hematokrit <= 0.38\ngini = 0.5\nsamples = 85\nvalue = [75, 69]\nclass = 1", fillcolor="#fdf5ef"] ;
405 -> 445 ;
446 [label="etytr <= 0.43\ngini = 0.43\nsamples = 27\nvalue = [15, 32]\nclass = 0", fillcolor="#96cbf1"] ;
445 -> 446 ;
447 [label="gini = 0.0\nsamples = 10\nvalue = [15, 0]\nclass = 1", fillcolor="#e58139"] ;
446 -> 447 ;
448 [label="gini = 0.0\nsamples = 17\nvalue = [0, 32]\nclass = 0", fillcolor="#399de5"] ;
446 -> 448 ;
449 [label="blood_group <= 2.5\ngini = 0.47\nsamples = 58\nvalue = [60, 37]\nclass = 1", fillcolor="#f5cfb3"] ;
445 -> 449 ;
450 [label="er-cv <= 0.67\ngini = 0.48\nsamples = 18\nvalue = [13, 20]\nclass = 0", fillcolor="#baddf6"] ;
449 -> 450 ;
451 [label="er-cv <= 0.65\ngini = 0.39\nsamples = 11\nvalue = [6, 17]\nclass = 0", fillcolor="#7fc0ee"] ;
450 -> 451 ;
452 [label="hematokrit <= 0.66\ngini = 0.48\nsamples = 8\nvalue = [6, 9]\nclass = 0", fillcolor="#bddef6"] ;
451 -> 452 ;
453 [label="etytr <= 0.35\ngini = 0.2\nsamples = 5\nvalue = [1, 8]\nclass = 0", fillcolor="#52a9e8"] ;
452 -> 453 ;
454 [label="gini = 0.0\nsamples = 1\nvalue = [1, 0]\nclass = 1", fillcolor="#e58139"] ;
453 -> 454 ;
455 [label="gini = 0.0\nsamples = 4\nvalue = [0, 8]\nclass = 0", fillcolor="#399de5"] ;
453 -> 455 ;
456 [label="erytrocyty <= 0.37\ngini = 0.28\nsamples = 3\nvalue = [5, 1]\nclass = 1", fillcolor="#ea9a61"] ;
452 -> 456 ;
457 [label="gini = 0.0\nsamples = 2\nvalue = [5, 0]\nclass = 1", fillcolor="#e58139"] ;
456 -> 457 ;
458 [label="gini = 0.0\nsamples = 1\nvalue = [0, 1]\nclass = 0", fillcolor="#399de5"] ;
456 -> 458 ;
459 [label="gini = 0.0\nsamples = 3\nvalue = [0, 8]\nclass = 0", fillcolor="#399de5"] ;
451 -> 459 ;
460 [label="hbver <= 0.44\ngini = 0.42\nsamples = 7\nvalue = [7, 3]\nclass = 1", fillcolor="#f0b78e"] ;
450 -> 460 ;
461 [label="gini = 0.0\nsamples = 2\nvalue = [4, 0]\nclass = 1", fillcolor="#e58139"] ;
460 -> 461 ;
462 [label="erytrocyty <= 0.4\ngini = 0.5\nsamples = 5\nvalue = [3, 3]\nclass = 1", fillcolor="#ffffff"] ;
460 -> 462 ;
463 [label="gini = 0.0\nsamples = 2\nvalue = [3, 0]\nclass = 1", fillcolor="#e58139"] ;
462 -> 463 ;
464 [label="gini = 0.0\nsamples = 3\nvalue = [0, 3]\nclass = 0", fillcolor="#399de5"] ;
462 -> 464 ;
465 [label="etytr <= 0.38\ngini = 0.39\nsamples = 40\nvalue = [47, 17]\nclass = 1", fillcolor="#eeaf81"] ;
449 -> 465 ;
466 [label="gini = 0.0\nsamples = 21\nvalue = [41, 0]\nclass = 1", fillcolor="#e58139"] ;
465 -> 466 ;
467 [label="er-cv <= 0.6\ngini = 0.39\nsamples = 19\nvalue = [6, 17]\nclass = 0", fillcolor="#7fc0ee"] ;
465 -> 467 ;
468 [label="gini = 0.0\nsamples = 2\nvalue = [3, 0]\nclass = 1", fillcolor="#e58139"] ;
467 -> 468 ;
469 [label="leukocyty <= 0.77\ngini = 0.26\nsamples = 17\nvalue = [3, 17]\nclass = 0", fillcolor="#5caeea"] ;
467 -> 469 ;
470 [label="erytrocyty <= 0.23\ngini = 0.12\nsamples = 15\nvalue = [1, 15]\nclass = 0", fillcolor="#46a4e7"] ;
469 -> 470 ;
471 [label="hbver <= 0.45\ngini = 0.44\nsamples = 3\nvalue = [1, 2]\nclass = 0", fillcolor="#9ccef2"] ;
470 -> 471 ;
472 [label="gini = 0.0\nsamples = 1\nvalue = [0, 1]\nclass = 0", fillcolor="#399de5"] ;
471 -> 472 ;
473 [label="blood_group <= 3.5\ngini = 0.5\nsamples = 2\nvalue = [1, 1]\nclass = 1", fillcolor="#ffffff"] ;
471 -> 473 ;
474 [label="gini = 0.0\nsamples = 1\nvalue = [1, 0]\nclass = 1", fillcolor="#e58139"] ;
473 -> 474 ;
475 [label="gini = 0.0\nsamples = 1\nvalue = [0, 1]\nclass = 0", fillcolor="#399de5"] ;
473 -> 475 ;
476 [label="gini = 0.0\nsamples = 12\nvalue = [0, 13]\nclass = 0", fillcolor="#399de5"] ;
470 -> 476 ;
477 [label="hbver <= 0.47\ngini = 0.5\nsamples = 2\nvalue = [2, 2]\nclass = 1", fillcolor="#ffffff"] ;
469 -> 477 ;
478 [label="gini = 0.0\nsamples = 1\nvalue = [2, 0]\nclass = 1", fillcolor="#e58139"] ;
477 -> 478 ;
479 [label="gini = 0.0\nsamples = 1\nvalue = [0, 2]\nclass = 0", fillcolor="#399de5"] ;
477 -> 479 ;
480 [label="etytr <= 0.39\ngini = 0.46\nsamples = 279\nvalue = [284, 160]\nclass = 1", fillcolor="#f4c8a9"] ;
404 -> 480 ;
481 [label="erytrocyty <= 0.48\ngini = 0.21\nsamples = 173\nvalue = [251, 33]\nclass = 1", fillcolor="#e89253"] ;
480 -> 481 ;
482 [label="hbver <= 0.54\ngini = 0.11\nsamples = 146\nvalue = [226, 14]\nclass = 1", fillcolor="#e78945"] ;
481 -> 482 ;
483 [label="leukocyty <= 0.44\ngini = 0.07\nsamples = 133\nvalue = [214, 8]\nclass = 1", fillcolor="#e68640"] ;
482 -> 483 ;
484 [label="hematokrit <= 0.64\ngini = 0.32\nsamples = 4\nvalue = [1, 4]\nclass = 0", fillcolor="#6ab6ec"] ;
483 -> 484 ;
485 [label="gini = 0.0\nsamples = 3\nvalue = [0, 4]\nclass = 0", fillcolor="#399de5"] ;
484 -> 485 ;
486 [label="gini = 0.0\nsamples = 1\nvalue = [1, 0]\nclass = 1", fillcolor="#e58139"] ;
484 -> 486 ;
487 [label="hematokrit <= 0.24\ngini = 0.04\nsamples = 129\nvalue = [213, 4]\nclass = 1", fillcolor="#e5833d"] ;
483 -> 487 ;
488 [label="blood_group <= 4.0\ngini = 0.28\nsamples = 5\nvalue = [5, 1]\nclass = 1", fillcolor="#ea9a61"] ;
487 -> 488 ;
489 [label="gini = 0.0\nsamples = 1\nvalue = [0, 1]\nclass = 0", fillcolor="#399de5"] ;
488 -> 489 ;
490 [label="gini = 0.0\nsamples = 4\nvalue = [5, 0]\nclass = 1", fillcolor="#e58139"] ;
488 -> 490 ;
491 [label="leukocyty <= 0.76\ngini = 0.03\nsamples = 124\nvalue = [208, 3]\nclass = 1", fillcolor="#e5833c"] ;
487 -> 491 ;
492 [label="leukocyty <= 0.65\ngini = 0.01\nsamples = 116\nvalue = [198, 1]\nclass = 1", fillcolor="#e5823a"] ;
491 -> 492 ;
493 [label="blood_group <= 5.5\ngini = 0.03\nsamples = 38\nvalue = [61, 1]\nclass = 1", fillcolor="#e5833c"] ;
492 -> 493 ;
494 [label="gini = 0.0\nsamples = 24\nvalue = [37, 0]\nclass = 1", fillcolor="#e58139"] ;
493 -> 494 ;
495 [label="erytrocyty <= 0.44\ngini = 0.08\nsamples = 14\nvalue = [24, 1]\nclass = 1", fillcolor="#e68641"] ;
493 -> 495 ;
496 [label="gini = 0.0\nsamples = 10\nvalue = [21, 0]\nclass = 1", fillcolor="#e58139"] ;
495 -> 496 ;
497 [label="er-cv <= 0.53\ngini = 0.38\nsamples = 4\nvalue = [3, 1]\nclass = 1", fillcolor="#eeab7b"] ;
495 -> 497 ;
498 [label="gini = 0.0\nsamples = 1\nvalue = [0, 1]\nclass = 0", fillcolor="#399de5"] ;
497 -> 498 ;
499 [label="gini = 0.0\nsamples = 3\nvalue = [3, 0]\nclass = 1", fillcolor="#e58139"] ;
497 -> 499 ;
500 [label="gini = 0.0\nsamples = 78\nvalue = [137, 0]\nclass = 1", fillcolor="#e58139"] ;
492 -> 500 ;
501 [label="erytrocyty <= 0.25\ngini = 0.28\nsamples = 8\nvalue = [10, 2]\nclass = 1", fillcolor="#ea9a61"] ;
491 -> 501 ;
502 [label="gini = 0.0\nsamples = 1\nvalue = [0, 2]\nclass = 0", fillcolor="#399de5"] ;
501 -> 502 ;
503 [label="gini = 0.0\nsamples = 7\nvalue = [10, 0]\nclass = 1", fillcolor="#e58139"] ;
501 -> 503 ;
504 [label="leukocyty <= 0.37\ngini = 0.44\nsamples = 13\nvalue = [12, 6]\nclass = 1", fillcolor="#f2c09c"] ;
482 -> 504 ;
505 [label="gini = 0.0\nsamples = 2\nvalue = [0, 4]\nclass = 0", fillcolor="#399de5"] ;
504 -> 505 ;
506 [label="etytr <= 0.26\ngini = 0.24\nsamples = 11\nvalue = [12, 2]\nclass = 1", fillcolor="#e9965a"] ;
504 -> 506 ;
507 [label="gini = 0.0\nsamples = 6\nvalue = [7, 0]\nclass = 1", fillcolor="#e58139"] ;
506 -> 507 ;
508 [label="er-cv <= 0.43\ngini = 0.41\nsamples = 5\nvalue = [5, 2]\nclass = 1", fillcolor="#efb388"] ;
506 -> 508 ;
509 [label="etytr <= 0.28\ngini = 0.5\nsamples = 3\nvalue = [2, 2]\nclass = 1", fillcolor="#ffffff"] ;
508 -> 509 ;
510 [label="gini = 0.0\nsamples = 1\nvalue = [0, 2]\nclass = 0", fillcolor="#399de5"] ;
509 -> 510 ;
511 [label="gini = 0.0\nsamples = 2\nvalue = [2, 0]\nclass = 1", fillcolor="#e58139"] ;
509 -> 511 ;
512 [label="gini = 0.0\nsamples = 2\nvalue = [3, 0]\nclass = 1", fillcolor="#e58139"] ;
508 -> 512 ;
513 [label="etytr <= 0.15\ngini = 0.49\nsamples = 27\nvalue = [25, 19]\nclass = 1", fillcolor="#f9e1cf"] ;
481 -> 513 ;
514 [label="gini = 0.0\nsamples = 7\nvalue = [12, 0]\nclass = 1", fillcolor="#e58139"] ;
513 -> 514 ;
515 [label="er-cv <= 0.75\ngini = 0.48\nsamples = 20\nvalue = [13, 19]\nclass = 0", fillcolor="#c0e0f7"] ;
513 -> 515 ;
516 [label="leukocyty <= 0.38\ngini = 0.49\nsamples = 18\nvalue = [13, 16]\nclass = 0", fillcolor="#daedfa"] ;
515 -> 516 ;
517 [label="gini = 0.0\nsamples = 7\nvalue = [0, 12]\nclass = 0", fillcolor="#399de5"] ;
516 -> 517 ;
518 [label="blood_group <= 1.5\ngini = 0.36\nsamples = 11\nvalue = [13, 4]\nclass = 1", fillcolor="#eda876"] ;
516 -> 518 ;
519 [label="etytr <= 0.27\ngini = 0.44\nsamples = 2\nvalue = [1, 2]\nclass = 0", fillcolor="#9ccef2"] ;
518 -> 519 ;
520 [label="gini = 0.0\nsamples = 1\nvalue = [1, 0]\nclass = 1", fillcolor="#e58139"] ;
519 -> 520 ;
521 [label="gini = 0.0\nsamples = 1\nvalue = [0, 2]\nclass = 0", fillcolor="#399de5"] ;
519 -> 521 ;
522 [label="erytrocyty <= 0.52\ngini = 0.24\nsamples = 9\nvalue = [12, 2]\nclass = 1", fillcolor="#e9965a"] ;
518 -> 522 ;
523 [label="gini = 0.0\nsamples = 6\nvalue = [9, 0]\nclass = 1", fillcolor="#e58139"] ;
522 -> 523 ;
524 [label="er-cv <= 0.6\ngini = 0.48\nsamples = 3\nvalue = [3, 2]\nclass = 1", fillcolor="#f6d5bd"] ;
522 -> 524 ;
525 [label="gini = 0.0\nsamples = 2\nvalue = [3, 0]\nclass = 1", fillcolor="#e58139"] ;
524 -> 525 ;
526 [label="gini = 0.0\nsamples = 1\nvalue = [0, 2]\nclass = 0", fillcolor="#399de5"] ;
524 -> 526 ;
527 [label="gini = 0.0\nsamples = 2\nvalue = [0, 3]\nclass = 0", fillcolor="#399de5"] ;
515 -> 527 ;
528 [label="blood_group <= 4.5\ngini = 0.33\nsamples = 106\nvalue = [33, 127]\nclass = 0", fillcolor="#6cb6ec"] ;
480 -> 528 ;
529 [label="hematokrit <= 0.92\ngini = 0.27\nsamples = 66\nvalue = [15, 77]\nclass = 0", fillcolor="#60b0ea"] ;
528 -> 529 ;
530 [label="leukocyty <= 0.65\ngini = 0.26\nsamples = 65\nvalue = [14, 77]\nclass = 0", fillcolor="#5dafea"] ;
529 -> 530 ;
531 [label="smoker <= 0.5\ngini = 0.49\nsamples = 10\nvalue = [8, 6]\nclass = 1", fillcolor="#f8e0ce"] ;
530 -> 531 ;
532 [label="gini = 0.0\nsamples = 3\nvalue = [5, 0]\nclass = 1", fillcolor="#e58139"] ;
531 -> 532 ;
533 [label="hematokrit <= 0.58\ngini = 0.44\nsamples = 7\nvalue = [3, 6]\nclass = 0", fillcolor="#9ccef2"] ;
531 -> 533 ;
534 [label="er-cv <= 0.36\ngini = 0.48\nsamples = 5\nvalue = [3, 2]\nclass = 1", fillcolor="#f6d5bd"] ;
533 -> 534 ;
535 [label="gini = 0.0\nsamples = 2\nvalue = [2, 0]\nclass = 1", fillcolor="#e58139"] ;
534 -> 535 ;
536 [label="etytr <= 0.6\ngini = 0.44\nsamples = 3\nvalue = [1, 2]\nclass = 0", fillcolor="#9ccef2"] ;
534 -> 536 ;
537 [label="gini = 0.0\nsamples = 2\nvalue = [0, 2]\nclass = 0", fillcolor="#399de5"] ;
536 -> 537 ;
538 [label="gini = 0.0\nsamples = 1\nvalue = [1, 0]\nclass = 1", fillcolor="#e58139"] ;
536 -> 538 ;
539 [label="gini = 0.0\nsamples = 2\nvalue = [0, 4]\nclass = 0", fillcolor="#399de5"] ;
533 -> 539 ;
540 [label="etytr <= 0.4\ngini = 0.14\nsamples = 55\nvalue = [6, 71]\nclass = 0", fillcolor="#4aa5e7"] ;
530 -> 540 ;
541 [label="gini = 0.0\nsamples = 1\nvalue = [1, 0]\nclass = 1", fillcolor="#e58139"] ;
540 -> 541 ;
542 [label="erytrocyty <= 0.48\ngini = 0.12\nsamples = 54\nvalue = [5, 71]\nclass = 0", fillcolor="#47a4e7"] ;
540 -> 542 ;
543 [label="gini = 0.0\nsamples = 39\nvalue = [0, 57]\nclass = 0", fillcolor="#399de5"] ;
542 -> 543 ;
544 [label="blood_group <= 2.5\ngini = 0.39\nsamples = 15\nvalue = [5, 14]\nclass = 0", fillcolor="#80c0ee"] ;
542 -> 544 ;
545 [label="hematokrit <= 0.59\ngini = 0.5\nsamples = 7\nvalue = [4, 4]\nclass = 1", fillcolor="#ffffff"] ;
544 -> 545 ;
546 [label="etytr <= 0.44\ngini = 0.32\nsamples = 5\nvalue = [4, 1]\nclass = 1", fillcolor="#eca06a"] ;
545 -> 546 ;
547 [label="gini = 0.0\nsamples = 1\nvalue = [0, 1]\nclass = 0", fillcolor="#399de5"] ;
546 -> 547 ;
548 [label="gini = 0.0\nsamples = 4\nvalue = [4, 0]\nclass = 1", fillcolor="#e58139"] ;
546 -> 548 ;
549 [label="gini = 0.0\nsamples = 2\nvalue = [0, 3]\nclass = 0", fillcolor="#399de5"] ;
545 -> 549 ;
550 [label="hbver <= 0.52\ngini = 0.17\nsamples = 8\nvalue = [1, 10]\nclass = 0", fillcolor="#4da7e8"] ;
544 -> 550 ;
551 [label="gini = 0.0\nsamples = 6\nvalue = [0, 8]\nclass = 0", fillcolor="#399de5"] ;
550 -> 551 ;
552 [label="er-cv <= 0.49\ngini = 0.44\nsamples = 2\nvalue = [1, 2]\nclass = 0", fillcolor="#9ccef2"] ;
550 -> 552 ;
553 [label="gini = 0.0\nsamples = 1\nvalue = [1, 0]\nclass = 1", fillcolor="#e58139"] ;
552 -> 553 ;
554 [label="gini = 0.0\nsamples = 1\nvalue = [0, 2]\nclass = 0", fillcolor="#399de5"] ;
552 -> 554 ;
555 [label="gini = 0.0\nsamples = 1\nvalue = [1, 0]\nclass = 1", fillcolor="#e58139"] ;
529 -> 555 ;
556 [label="smoker <= 0.5\ngini = 0.39\nsamples = 40\nvalue = [18, 50]\nclass = 0", fillcolor="#80c0ee"] ;
528 -> 556 ;
557 [label="erytrocyty <= 0.26\ngini = 0.47\nsamples = 19\nvalue = [11, 18]\nclass = 0", fillcolor="#b2d9f5"] ;
556 -> 557 ;
558 [label="gini = 0.0\nsamples = 1\nvalue = [3, 0]\nclass = 1", fillcolor="#e58139"] ;
557 -> 558 ;
559 [label="er-cv <= 0.42\ngini = 0.43\nsamples = 18\nvalue = [8, 18]\nclass = 0", fillcolor="#91c9f1"] ;
557 -> 559 ;
560 [label="gini = 0.0\nsamples = 6\nvalue = [0, 8]\nclass = 0", fillcolor="#399de5"] ;
559 -> 560 ;
561 [label="leukocyty <= 0.66\ngini = 0.49\nsamples = 12\nvalue = [8, 10]\nclass = 0", fillcolor="#d7ebfa"] ;
559 -> 561 ;
562 [label="gini = 0.0\nsamples = 4\nvalue = [7, 0]\nclass = 1", fillcolor="#e58139"] ;
561 -> 562 ;
563 [label="erytrocyty <= 0.49\ngini = 0.17\nsamples = 8\nvalue = [1, 10]\nclass = 0", fillcolor="#4da7e8"] ;
561 -> 563 ;
564 [label="gini = 0.0\nsamples = 5\nvalue = [0, 7]\nclass = 0", fillcolor="#399de5"] ;
563 -> 564 ;
565 [label="erytrocyty <= 0.5\ngini = 0.38\nsamples = 3\nvalue = [1, 3]\nclass = 0", fillcolor="#7bbeee"] ;
563 -> 565 ;
566 [label="gini = 0.0\nsamples = 1\nvalue = [1, 0]\nclass = 1", fillcolor="#e58139"] ;
565 -> 566 ;
567 [label="gini = 0.0\nsamples = 2\nvalue = [0, 3]\nclass = 0", fillcolor="#399de5"] ;
565 -> 567 ;
568 [label="erytrocyty <= 0.52\ngini = 0.29\nsamples = 21\nvalue = [7, 32]\nclass = 0", fillcolor="#64b2eb"] ;
556 -> 568 ;
569 [label="erytrocyty <= 0.35\ngini = 0.23\nsamples = 20\nvalue = [5, 32]\nclass = 0", fillcolor="#58ace9"] ;
568 -> 569 ;
570 [label="leukocyty <= 0.68\ngini = 0.49\nsamples = 6\nvalue = [4, 5]\nclass = 0", fillcolor="#d7ebfa"] ;
569 -> 570 ;
571 [label="gini = 0.0\nsamples = 2\nvalue = [3, 0]\nclass = 1", fillcolor="#e58139"] ;
570 -> 571 ;
572 [label="blood_group <= 6.5\ngini = 0.28\nsamples = 4\nvalue = [1, 5]\nclass = 0", fillcolor="#61b1ea"] ;
570 -> 572 ;
573 [label="gini = 0.0\nsamples = 3\nvalue = [0, 5]\nclass = 0", fillcolor="#399de5"] ;
572 -> 573 ;
574 [label="gini = 0.0\nsamples = 1\nvalue = [1, 0]\nclass = 1", fillcolor="#e58139"] ;
572 -> 574 ;
575 [label="leukocyty <= 0.6\ngini = 0.07\nsamples = 14\nvalue = [1, 27]\nclass = 0", fillcolor="#40a1e6"] ;
569 -> 575 ;
576 [label="gini = 0.0\nsamples = 1\nvalue = [1, 0]\nclass = 1", fillcolor="#e58139"] ;
575 -> 576 ;
577 [label="gini = 0.0\nsamples = 13\nvalue = [0, 27]\nclass = 0", fillcolor="#399de5"] ;
575 -> 577 ;
578 [label="gini = 0.0\nsamples = 1\nvalue = [2, 0]\nclass = 1", fillcolor="#e58139"] ;
568 -> 578 ;
579 [label="etytr <= 0.46\ngini = 0.27\nsamples = 596\nvalue = [780, 153]\nclass = 1", fillcolor="#ea9a60"] ;
387 -> 579 ;
580 [label="etytr <= 0.24\ngini = 0.21\nsamples = 532\nvalue = [737, 97]\nclass = 1", fillcolor="#e89253"] ;
579 -> 580 ;
581 [label="etytr <= 0.14\ngini = 0.37\nsamples = 196\nvalue = [233, 76]\nclass = 1", fillcolor="#edaa7a"] ;
580 -> 581 ;
582 [label="hematokrit <= 0.25\ngini = 0.5\nsamples = 30\nvalue = [25, 25]\nclass = 1", fillcolor="#ffffff"] ;
581 -> 582 ;
583 [label="erytrocyty <= 0.49\ngini = 0.22\nsamples = 4\nvalue = [7, 1]\nclass = 1", fillcolor="#e99355"] ;
582 -> 583 ;
584 [label="gini = 0.0\nsamples = 3\nvalue = [7, 0]\nclass = 1", fillcolor="#e58139"] ;
583 -> 584 ;
585 [label="gini = 0.0\nsamples = 1\nvalue = [0, 1]\nclass = 0", fillcolor="#399de5"] ;
583 -> 585 ;
586 [label="hbver <= 0.64\ngini = 0.49\nsamples = 26\nvalue = [18, 24]\nclass = 0", fillcolor="#cee6f8"] ;
582 -> 586 ;
587 [label="leukocyty <= 0.26\ngini = 0.47\nsamples = 15\nvalue = [16, 10]\nclass = 1", fillcolor="#f5d0b5"] ;
586 -> 587 ;
588 [label="gini = 0.0\nsamples = 5\nvalue = [0, 10]\nclass = 0", fillcolor="#399de5"] ;
587 -> 588 ;
589 [label="gini = 0.0\nsamples = 10\nvalue = [16, 0]\nclass = 1", fillcolor="#e58139"] ;
587 -> 589 ;
590 [label="hbver <= 0.69\ngini = 0.22\nsamples = 11\nvalue = [2, 14]\nclass = 0", fillcolor="#55abe9"] ;
586 -> 590 ;
591 [label="blood_group <= 1.5\ngini = 0.41\nsamples = 5\nvalue = [2, 5]\nclass = 0", fillcolor="#88c4ef"] ;
590 -> 591 ;
592 [label="gini = 0.0\nsamples = 2\nvalue = [0, 4]\nclass = 0", fillcolor="#399de5"] ;
591 -> 592 ;
593 [label="hbver <= 0.65\ngini = 0.44\nsamples = 3\nvalue = [2, 1]\nclass = 1", fillcolor="#f2c09c"] ;
591 -> 593 ;
594 [label="gini = 0.0\nsamples = 1\nvalue = [0, 1]\nclass = 0", fillcolor="#399de5"] ;
593 -> 594 ;
595 [label="gini = 0.0\nsamples = 2\nvalue = [2, 0]\nclass = 1", fillcolor="#e58139"] ;
593 -> 595 ;
596 [label="gini = 0.0\nsamples = 6\nvalue = [0, 9]\nclass = 0", fillcolor="#399de5"] ;
590 -> 596 ;
597 [label="leukocyty <= 0.26\ngini = 0.32\nsamples = 166\nvalue = [208, 51]\nclass = 1", fillcolor="#eba06a"] ;
581 -> 597 ;
598 [label="hematokrit <= 0.77\ngini = 0.08\nsamples = 32\nvalue = [2, 44]\nclass = 0", fillcolor="#42a1e6"] ;
597 -> 598 ;
599 [label="erytrocyty <= 0.44\ngini = 0.05\nsamples = 29\nvalue = [1, 39]\nclass = 0", fillcolor="#3ea0e6"] ;
598 -> 599 ;
600 [label="blood_group <= 1.5\ngini = 0.28\nsamples = 5\nvalue = [1, 5]\nclass = 0", fillcolor="#61b1ea"] ;
599 -> 600 ;
601 [label="erytrocyty <= 0.43\ngini = 0.44\nsamples = 2\nvalue = [1, 2]\nclass = 0", fillcolor="#9ccef2"] ;
600 -> 601 ;
602 [label="gini = 0.0\nsamples = 1\nvalue = [0, 2]\nclass = 0", fillcolor="#399de5"] ;
601 -> 602 ;
603 [label="gini = 0.0\nsamples = 1\nvalue = [1, 0]\nclass = 1", fillcolor="#e58139"] ;
601 -> 603 ;
604 [label="gini = 0.0\nsamples = 3\nvalue = [0, 3]\nclass = 0", fillcolor="#399de5"] ;
600 -> 604 ;
605 [label="gini = 0.0\nsamples = 24\nvalue = [0, 34]\nclass = 0", fillcolor="#399de5"] ;
599 -> 605 ;
606 [label="hbver <= 0.55\ngini = 0.28\nsamples = 3\nvalue = [1, 5]\nclass = 0", fillcolor="#61b1ea"] ;
598 -> 606 ;
607 [label="gini = 0.0\nsamples = 1\nvalue = [1, 0]\nclass = 1", fillcolor="#e58139"] ;
606 -> 607 ;
608 [label="gini = 0.0\nsamples = 2\nvalue = [0, 5]\nclass = 0", fillcolor="#399de5"] ;
606 -> 608 ;
609 [label="erytrocyty <= 0.25\ngini = 0.06\nsamples = 134\nvalue = [206, 7]\nclass = 1", fillcolor="#e68540"] ;
597 -> 609 ;
610 [label="leukocyty <= 0.6\ngini = 0.44\nsamples = 2\nvalue = [1, 2]\nclass = 0", fillcolor="#9ccef2"] ;
609 -> 610 ;
611 [label="gini = 0.0\nsamples = 1\nvalue = [0, 2]\nclass = 0", fillcolor="#399de5"] ;
610 -> 611 ;
612 [label="gini = 0.0\nsamples = 1\nvalue = [1, 0]\nclass = 1", fillcolor="#e58139"] ;
610 -> 612 ;
613 [label="hematokrit <= 0.33\ngini = 0.05\nsamples = 132\nvalue = [205, 5]\nclass = 1", fillcolor="#e6843e"] ;
609 -> 613 ;
614 [label="blood_group <= 1.5\ngini = 0.36\nsamples = 10\nvalue = [10, 3]\nclass = 1", fillcolor="#eda774"] ;
613 -> 614 ;
615 [label="blood_group <= 0.5\ngini = 0.38\nsamples = 3\nvalue = [1, 3]\nclass = 0", fillcolor="#7bbeee"] ;
614 -> 615 ;
616 [label="gini = 0.0\nsamples = 1\nvalue = [1, 0]\nclass = 1", fillcolor="#e58139"] ;
615 -> 616 ;
617 [label="gini = 0.0\nsamples = 2\nvalue = [0, 3]\nclass = 0", fillcolor="#399de5"] ;
615 -> 617 ;
618 [label="gini = 0.0\nsamples = 7\nvalue = [9, 0]\nclass = 1", fillcolor="#e58139"] ;
614 -> 618 ;
619 [label="etytr <= 0.14\ngini = 0.02\nsamples = 122\nvalue = [195, 2]\nclass = 1", fillcolor="#e5823b"] ;
613 -> 619 ;
620 [label="etytr <= 0.14\ngini = 0.14\nsamples = 5\nvalue = [12, 1]\nclass = 1", fillcolor="#e78c49"] ;
619 -> 620 ;
621 [label="gini = 0.0\nsamples = 4\nvalue = [12, 0]\nclass = 1", fillcolor="#e58139"] ;
620 -> 621 ;
622 [label="gini = 0.0\nsamples = 1\nvalue = [0, 1]\nclass = 0", fillcolor="#399de5"] ;
620 -> 622 ;
623 [label="erytrocyty <= 0.45\ngini = 0.01\nsamples = 117\nvalue = [183, 1]\nclass = 1", fillcolor="#e5823a"] ;
619 -> 623 ;
624 [label="gini = 0.0\nsamples = 71\nvalue = [111, 0]\nclass = 1", fillcolor="#e58139"] ;
623 -> 624 ;
625 [label="hbver <= 0.66\ngini = 0.03\nsamples = 46\nvalue = [72, 1]\nclass = 1", fillcolor="#e5833c"] ;
623 -> 625 ;
626 [label="gini = 0.0\nsamples = 34\nvalue = [51, 0]\nclass = 1", fillcolor="#e58139"] ;
625 -> 626 ;
627 [label="blood_group <= 5.5\ngini = 0.09\nsamples = 12\nvalue = [21, 1]\nclass = 1", fillcolor="#e68742"] ;
625 -> 627 ;
628 [label="gini = 0.0\nsamples = 9\nvalue = [15, 0]\nclass = 1", fillcolor="#e58139"] ;
627 -> 628 ;
629 [label="leukocyty <= 0.4\ngini = 0.24\nsamples = 3\nvalue = [6, 1]\nclass = 1", fillcolor="#e9965a"] ;
627 -> 629 ;
630 [label="gini = 0.0\nsamples = 2\nvalue = [6, 0]\nclass = 1", fillcolor="#e58139"] ;
629 -> 630 ;
631 [label="gini = 0.0\nsamples = 1\nvalue = [0, 1]\nclass = 0", fillcolor="#399de5"] ;
629 -> 631 ;
632 [label="hematokrit <= 0.16\ngini = 0.08\nsamples = 336\nvalue = [504, 21]\nclass = 1", fillcolor="#e68641"] ;
580 -> 632 ;
633 [label="leukocyty <= 0.7\ngini = 0.3\nsamples = 10\nvalue = [13, 3]\nclass = 1", fillcolor="#eb9e67"] ;
632 -> 633 ;
634 [label="gini = 0.0\nsamples = 8\nvalue = [13, 0]\nclass = 1", fillcolor="#e58139"] ;
633 -> 634 ;
635 [label="gini = 0.0\nsamples = 2\nvalue = [0, 3]\nclass = 0", fillcolor="#399de5"] ;
633 -> 635 ;
636 [label="hematokrit <= 0.91\ngini = 0.07\nsamples = 326\nvalue = [491, 18]\nclass = 1", fillcolor="#e68640"] ;
632 -> 636 ;
637 [label="er-cv <= 0.54\ngini = 0.06\nsamples = 321\nvalue = [483, 16]\nclass = 1", fillcolor="#e68540"] ;
636 -> 637 ;
638 [label="smoker <= 0.5\ngini = 0.1\nsamples = 191\nvalue = [276, 16]\nclass = 1", fillcolor="#e78844"] ;
637 -> 638 ;
639 [label="leukocyty <= 0.37\ngini = 0.13\nsamples = 118\nvalue = [167, 12]\nclass = 1", fillcolor="#e78a47"] ;
638 -> 639 ;
640 [label="blood_group <= 3.5\ngini = 0.49\nsamples = 12\nvalue = [6, 8]\nclass = 0", fillcolor="#cee6f8"] ;
639 -> 640 ;
641 [label="hbver <= 0.67\ngini = 0.38\nsamples = 4\nvalue = [3, 1]\nclass = 1", fillcolor="#eeab7b"] ;
640 -> 641 ;
642 [label="gini = 0.0\nsamples = 1\nvalue = [0, 1]\nclass = 0", fillcolor="#399de5"] ;
641 -> 642 ;
643 [label="gini = 0.0\nsamples = 3\nvalue = [3, 0]\nclass = 1", fillcolor="#e58139"] ;
641 -> 643 ;
644 [label="etytr <= 0.35\ngini = 0.42\nsamples = 8\nvalue = [3, 7]\nclass = 0", fillcolor="#8ec7f0"] ;
640 -> 644 ;
645 [label="gini = 0.0\nsamples = 4\nvalue = [0, 6]\nclass = 0", fillcolor="#399de5"] ;
644 -> 645 ;
646 [label="hbver <= 0.72\ngini = 0.38\nsamples = 4\nvalue = [3, 1]\nclass = 1", fillcolor="#eeab7b"] ;
644 -> 646 ;
647 [label="gini = 0.0\nsamples = 1\nvalue = [0, 1]\nclass = 0", fillcolor="#399de5"] ;
646 -> 647 ;
648 [label="gini = 0.0\nsamples = 3\nvalue = [3, 0]\nclass = 1", fillcolor="#e58139"] ;
646 -> 648 ;
649 [label="er-cv <= 0.51\ngini = 0.05\nsamples = 106\nvalue = [161, 4]\nclass = 1", fillcolor="#e6843e"] ;
639 -> 649 ;
650 [label="hbver <= 0.69\ngini = 0.02\nsamples = 101\nvalue = [156, 2]\nclass = 1", fillcolor="#e5833c"] ;
649 -> 650 ;
651 [label="etytr <= 0.43\ngini = 0.01\nsamples = 92\nvalue = [145, 1]\nclass = 1", fillcolor="#e5823a"] ;
650 -> 651 ;
652 [label="gini = 0.0\nsamples = 84\nvalue = [133, 0]\nclass = 1", fillcolor="#e58139"] ;
651 -> 652 ;
653 [label="leukocyty <= 0.52\ngini = 0.14\nsamples = 8\nvalue = [12, 1]\nclass = 1", fillcolor="#e78c49"] ;
651 -> 653 ;
654 [label="gini = 0.0\nsamples = 6\nvalue = [11, 0]\nclass = 1", fillcolor="#e58139"] ;
653 -> 654 ;
655 [label="etytr <= 0.43\ngini = 0.5\nsamples = 2\nvalue = [1, 1]\nclass = 1", fillcolor="#ffffff"] ;
653 -> 655 ;
656 [label="gini = 0.0\nsamples = 1\nvalue = [0, 1]\nclass = 0", fillcolor="#399de5"] ;
655 -> 656 ;
657 [label="gini = 0.0\nsamples = 1\nvalue = [1, 0]\nclass = 1", fillcolor="#e58139"] ;
655 -> 657 ;
658 [label="hematokrit <= 0.71\ngini = 0.15\nsamples = 9\nvalue = [11, 1]\nclass = 1", fillcolor="#e78c4b"] ;
650 -> 658 ;
659 [label="gini = 0.0\nsamples = 7\nvalue = [9, 0]\nclass = 1", fillcolor="#e58139"] ;
658 -> 659 ;
660 [label="erytrocyty <= 0.5\ngini = 0.44\nsamples = 2\nvalue = [2, 1]\nclass = 1", fillcolor="#f2c09c"] ;
658 -> 660 ;
661 [label="gini = 0.0\nsamples = 1\nvalue = [2, 0]\nclass = 1", fillcolor="#e58139"] ;
660 -> 661 ;
662 [label="gini = 0.0\nsamples = 1\nvalue = [0, 1]\nclass = 0", fillcolor="#399de5"] ;
660 -> 662 ;
663 [label="etytr <= 0.38\ngini = 0.41\nsamples = 5\nvalue = [5, 2]\nclass = 1", fillcolor="#efb388"] ;
649 -> 663 ;
664 [label="gini = 0.0\nsamples = 4\nvalue = [5, 0]\nclass = 1", fillcolor="#e58139"] ;
663 -> 664 ;
665 [label="gini = 0.0\nsamples = 1\nvalue = [0, 2]\nclass = 0", fillcolor="#399de5"] ;
663 -> 665 ;
666 [label="er-cv <= 0.53\ngini = 0.07\nsamples = 73\nvalue = [109, 4]\nclass = 1", fillcolor="#e68640"] ;
638 -> 666 ;
667 [label="er-cv <= 0.16\ngini = 0.05\nsamples = 72\nvalue = [109, 3]\nclass = 1", fillcolor="#e6843e"] ;
666 -> 667 ;
668 [label="erytrocyty <= 0.39\ngini = 0.38\nsamples = 3\nvalue = [3, 1]\nclass = 1", fillcolor="#eeab7b"] ;
667 -> 668 ;
669 [label="gini = 0.0\nsamples = 1\nvalue = [0, 1]\nclass = 0", fillcolor="#399de5"] ;
668 -> 669 ;
670 [label="gini = 0.0\nsamples = 2\nvalue = [3, 0]\nclass = 1", fillcolor="#e58139"] ;
668 -> 670 ;
671 [label="erytrocyty <= 0.51\ngini = 0.04\nsamples = 69\nvalue = [106, 2]\nclass = 1", fillcolor="#e5833d"] ;
667 -> 671 ;
672 [label="erytrocyty <= 0.31\ngini = 0.02\nsamples = 66\nvalue = [102, 1]\nclass = 1", fillcolor="#e5823b"] ;
671 -> 672 ;
673 [label="er-cv <= 0.43\ngini = 0.12\nsamples = 10\nvalue = [14, 1]\nclass = 1", fillcolor="#e78a47"] ;
672 -> 673 ;
674 [label="gini = 0.0\nsamples = 6\nvalue = [9, 0]\nclass = 1", fillcolor="#e58139"] ;
673 -> 674 ;
675 [label="er-cv <= 0.45\ngini = 0.28\nsamples = 4\nvalue = [5, 1]\nclass = 1", fillcolor="#ea9a61"] ;
673 -> 675 ;
676 [label="gini = 0.0\nsamples = 1\nvalue = [0, 1]\nclass = 0", fillcolor="#399de5"] ;
675 -> 676 ;
677 [label="gini = 0.0\nsamples = 3\nvalue = [5, 0]\nclass = 1", fillcolor="#e58139"] ;
675 -> 677 ;
678 [label="gini = 0.0\nsamples = 56\nvalue = [88, 0]\nclass = 1", fillcolor="#e58139"] ;
672 -> 678 ;
679 [label="hematokrit <= 0.61\ngini = 0.32\nsamples = 3\nvalue = [4, 1]\nclass = 1", fillcolor="#eca06a"] ;
671 -> 679 ;
680 [label="gini = 0.0\nsamples = 2\nvalue = [4, 0]\nclass = 1", fillcolor="#e58139"] ;
679 -> 680 ;
681 [label="gini = 0.0\nsamples = 1\nvalue = [0, 1]\nclass = 0", fillcolor="#399de5"] ;
679 -> 681 ;
682 [label="gini = 0.0\nsamples = 1\nvalue = [0, 1]\nclass = 0", fillcolor="#399de5"] ;
666 -> 682 ;
683 [label="gini = 0.0\nsamples = 130\nvalue = [207, 0]\nclass = 1", fillcolor="#e58139"] ;
637 -> 683 ;
684 [label="blood_group <= 4.5\ngini = 0.32\nsamples = 5\nvalue = [8, 2]\nclass = 1", fillcolor="#eca06a"] ;
636 -> 684 ;
685 [label="hematokrit <= 0.95\ngini = 0.5\nsamples = 2\nvalue = [2, 2]\nclass = 1", fillcolor="#ffffff"] ;
684 -> 685 ;
686 [label="gini = 0.0\nsamples = 1\nvalue = [0, 2]\nclass = 0", fillcolor="#399de5"] ;
685 -> 686 ;
687 [label="gini = 0.0\nsamples = 1\nvalue = [2, 0]\nclass = 1", fillcolor="#e58139"] ;
685 -> 687 ;
688 [label="gini = 0.0\nsamples = 3\nvalue = [6, 0]\nclass = 1", fillcolor="#e58139"] ;
684 -> 688 ;
689 [label="hbver <= 0.62\ngini = 0.49\nsamples = 64\nvalue = [43, 56]\nclass = 0", fillcolor="#d1e8f9"] ;
579 -> 689 ;
690 [label="erytrocyty <= 0.42\ngini = 0.39\nsamples = 41\nvalue = [17, 47]\nclass = 0", fillcolor="#81c0ee"] ;
689 -> 690 ;
691 [label="leukocyty <= 0.88\ngini = 0.17\nsamples = 20\nvalue = [3, 29]\nclass = 0", fillcolor="#4da7e8"] ;
690 -> 691 ;
692 [label="hbver <= 0.57\ngini = 0.12\nsamples = 19\nvalue = [2, 29]\nclass = 0", fillcolor="#47a4e7"] ;
691 -> 692 ;
693 [label="blood_group <= 1.0\ngini = 0.35\nsamples = 6\nvalue = [2, 7]\nclass = 0", fillcolor="#72b9ec"] ;
692 -> 693 ;
694 [label="gini = 0.0\nsamples = 1\nvalue = [1, 0]\nclass = 1", fillcolor="#e58139"] ;
693 -> 694 ;
695 [label="etytr <= 0.52\ngini = 0.22\nsamples = 5\nvalue = [1, 7]\nclass = 0", fillcolor="#55abe9"] ;
693 -> 695 ;
696 [label="gini = 0.0\nsamples = 1\nvalue = [1, 0]\nclass = 1", fillcolor="#e58139"] ;
695 -> 696 ;
697 [label="gini = 0.0\nsamples = 4\nvalue = [0, 7]\nclass = 0", fillcolor="#399de5"] ;
695 -> 697 ;
698 [label="gini = 0.0\nsamples = 13\nvalue = [0, 22]\nclass = 0", fillcolor="#399de5"] ;
692 -> 698 ;
699 [label="gini = 0.0\nsamples = 1\nvalue = [1, 0]\nclass = 1", fillcolor="#e58139"] ;
691 -> 699 ;
700 [label="hematokrit <= 0.31\ngini = 0.49\nsamples = 21\nvalue = [14, 18]\nclass = 0", fillcolor="#d3e9f9"] ;
690 -> 700 ;
701 [label="leukocyty <= 0.78\ngini = 0.24\nsamples = 4\nvalue = [6, 1]\nclass = 1", fillcolor="#e9965a"] ;
700 -> 701 ;
702 [label="gini = 0.0\nsamples = 3\nvalue = [6, 0]\nclass = 1", fillcolor="#e58139"] ;
701 -> 702 ;
703 [label="gini = 0.0\nsamples = 1\nvalue = [0, 1]\nclass = 0", fillcolor="#399de5"] ;
701 -> 703 ;
704 [label="hematokrit <= 0.68\ngini = 0.44\nsamples = 17\nvalue = [8, 17]\nclass = 0", fillcolor="#96cbf1"] ;
700 -> 704 ;
705 [label="leukocyty <= 0.63\ngini = 0.49\nsamples = 14\nvalue = [8, 11]\nclass = 0", fillcolor="#c9e4f8"] ;
704 -> 705 ;
706 [label="gini = 0.0\nsamples = 3\nvalue = [5, 0]\nclass = 1", fillcolor="#e58139"] ;
705 -> 706 ;
707 [label="blood_group <= 3.5\ngini = 0.34\nsamples = 11\nvalue = [3, 11]\nclass = 0", fillcolor="#6fb8ec"] ;
705 -> 707 ;
708 [label="erytrocyty <= 0.49\ngini = 0.5\nsamples = 5\nvalue = [3, 3]\nclass = 1", fillcolor="#ffffff"] ;
707 -> 708 ;
709 [label="etytr <= 0.67\ngini = 0.38\nsamples = 3\nvalue = [3, 1]\nclass = 1", fillcolor="#eeab7b"] ;
708 -> 709 ;
710 [label="leukocyty <= 0.77\ngini = 0.5\nsamples = 2\nvalue = [1, 1]\nclass = 1", fillcolor="#ffffff"] ;
709 -> 710 ;
711 [label="gini = 0.0\nsamples = 1\nvalue = [1, 0]\nclass = 1", fillcolor="#e58139"] ;
710 -> 711 ;
712 [label="gini = 0.0\nsamples = 1\nvalue = [0, 1]\nclass = 0", fillcolor="#399de5"] ;
710 -> 712 ;
713 [label="gini = 0.0\nsamples = 1\nvalue = [2, 0]\nclass = 1", fillcolor="#e58139"] ;
709 -> 713 ;
714 [label="gini = 0.0\nsamples = 2\nvalue = [0, 2]\nclass = 0", fillcolor="#399de5"] ;
708 -> 714 ;
715 [label="gini = 0.0\nsamples = 6\nvalue = [0, 8]\nclass = 0", fillcolor="#399de5"] ;
707 -> 715 ;
716 [label="gini = 0.0\nsamples = 3\nvalue = [0, 6]\nclass = 0", fillcolor="#399de5"] ;
704 -> 716 ;
717 [label="leukocyty <= 0.82\ngini = 0.38\nsamples = 23\nvalue = [26, 9]\nclass = 1", fillcolor="#eead7e"] ;
689 -> 717 ;
718 [label="erytrocyty <= 0.36\ngini = 0.07\nsamples = 17\nvalue = [25, 1]\nclass = 1", fillcolor="#e68641"] ;
717 -> 718 ;
719 [label="erytrocyty <= 0.32\ngini = 0.44\nsamples = 3\nvalue = [2, 1]\nclass = 1", fillcolor="#f2c09c"] ;
718 -> 719 ;
720 [label="gini = 0.0\nsamples = 2\nvalue = [2, 0]\nclass = 1", fillcolor="#e58139"] ;
719 -> 720 ;
721 [label="gini = 0.0\nsamples = 1\nvalue = [0, 1]\nclass = 0", fillcolor="#399de5"] ;
719 -> 721 ;
722 [label="gini = 0.0\nsamples = 14\nvalue = [23, 0]\nclass = 1", fillcolor="#e58139"] ;
718 -> 722 ;
723 [label="er-cv <= 0.29\ngini = 0.2\nsamples = 6\nvalue = [1, 8]\nclass = 0", fillcolor="#52a9e8"] ;
717 -> 723 ;
724 [label="leukocyty <= 0.85\ngini = 0.5\nsamples = 2\nvalue = [1, 1]\nclass = 1", fillcolor="#ffffff"] ;
723 -> 724 ;
725 [label="gini = 0.0\nsamples = 1\nvalue = [0, 1]\nclass = 0", fillcolor="#399de5"] ;
724 -> 725 ;
726 [label="gini = 0.0\nsamples = 1\nvalue = [1, 0]\nclass = 1", fillcolor="#e58139"] ;
724 -> 726 ;
727 [label="gini = 0.0\nsamples = 4\nvalue = [0, 7]\nclass = 0", fillcolor="#399de5"] ;
723 -> 727 ;
728 [label="hbver <= 0.79\ngini = 0.49\nsamples = 1628\nvalue = [1097, 1473]\nclass = 0", fillcolor="#cce6f8"] ;
386 -> 728 ;
729 [label="erytrocyty <= 0.65\ngini = 0.49\nsamples = 1479\nvalue = [1041, 1300]\nclass = 0", fillcolor="#d8ebfa"] ;
728 -> 729 ;
730 [label="leukocyty <= 0.29\ngini = 0.5\nsamples = 527\nvalue = [437, 406]\nclass = 1", fillcolor="#fdf6f1"] ;
729 -> 730 ;
731 [label="hbver <= 0.79\ngini = 0.14\nsamples = 191\nvalue = [23, 278]\nclass = 0", fillcolor="#49a5e7"] ;
730 -> 731 ;
732 [label="er-cv <= 0.65\ngini = 0.13\nsamples = 189\nvalue = [20, 277]\nclass = 0", fillcolor="#47a4e7"] ;
731 -> 732 ;
733 [label="leukocyty <= 0.08\ngini = 0.08\nsamples = 143\nvalue = [9, 213]\nclass = 0", fillcolor="#41a1e6"] ;
732 -> 733 ;
734 [label="gini = 0.0\nsamples = 33\nvalue = [0, 51]\nclass = 0", fillcolor="#399de5"] ;
733 -> 734 ;
735 [label="etytr <= 0.23\ngini = 0.1\nsamples = 110\nvalue = [9, 162]\nclass = 0", fillcolor="#44a2e6"] ;
733 -> 735 ;
736 [label="blood_group <= 0.5\ngini = 0.16\nsamples = 65\nvalue = [9, 92]\nclass = 0", fillcolor="#4ca7e8"] ;
735 -> 736 ;
737 [label="hematokrit <= 0.51\ngini = 0.4\nsamples = 5\nvalue = [3, 8]\nclass = 0", fillcolor="#83c2ef"] ;
736 -> 737 ;
738 [label="leukocyty <= 0.09\ngini = 0.38\nsamples = 2\nvalue = [3, 1]\nclass = 1", fillcolor="#eeab7b"] ;
737 -> 738 ;
739 [label="gini = 0.0\nsamples = 1\nvalue = [3, 0]\nclass = 1", fillcolor="#e58139"] ;
738 -> 739 ;
740 [label="gini = 0.0\nsamples = 1\nvalue = [0, 1]\nclass = 0", fillcolor="#399de5"] ;
738 -> 740 ;
741 [label="gini = 0.0\nsamples = 3\nvalue = [0, 7]\nclass = 0", fillcolor="#399de5"] ;
737 -> 741 ;
742 [label="etytr <= 0.23\ngini = 0.12\nsamples = 60\nvalue = [6, 84]\nclass = 0", fillcolor="#47a4e7"] ;
736 -> 742 ;
743 [label="smoker <= 0.5\ngini = 0.11\nsamples = 59\nvalue = [5, 84]\nclass = 0", fillcolor="#45a3e7"] ;
742 -> 743 ;
744 [label="leukocyty <= 0.25\ngini = 0.16\nsamples = 29\nvalue = [4, 43]\nclass = 0", fillcolor="#4ba6e7"] ;
743 -> 744 ;
745 [label="hematokrit <= 0.33\ngini = 0.12\nsamples = 28\nvalue = [3, 43]\nclass = 0", fillcolor="#47a4e7"] ;
744 -> 745 ;
746 [label="blood_group <= 5.0\ngini = 0.41\nsamples = 5\nvalue = [2, 5]\nclass = 0", fillcolor="#88c4ef"] ;
745 -> 746 ;
747 [label="gini = 0.0\nsamples = 3\nvalue = [0, 5]\nclass = 0", fillcolor="#399de5"] ;
746 -> 747 ;
748 [label="gini = 0.0\nsamples = 2\nvalue = [2, 0]\nclass = 1", fillcolor="#e58139"] ;
746 -> 748 ;
749 [label="blood_group <= 2.5\ngini = 0.05\nsamples = 23\nvalue = [1, 38]\nclass = 0", fillcolor="#3ea0e6"] ;
745 -> 749 ;
750 [label="er-cv <= 0.45\ngini = 0.24\nsamples = 4\nvalue = [1, 6]\nclass = 0", fillcolor="#5aade9"] ;
749 -> 750 ;
751 [label="gini = 0.0\nsamples = 1\nvalue = [1, 0]\nclass = 1", fillcolor="#e58139"] ;
750 -> 751 ;
752 [label="gini = 0.0\nsamples = 3\nvalue = [0, 6]\nclass = 0", fillcolor="#399de5"] ;
750 -> 752 ;
753 [label="gini = 0.0\nsamples = 19\nvalue = [0, 32]\nclass = 0", fillcolor="#399de5"] ;
749 -> 753 ;
754 [label="gini = 0.0\nsamples = 1\nvalue = [1, 0]\nclass = 1", fillcolor="#e58139"] ;
744 -> 754 ;
755 [label="leukocyty <= 0.14\ngini = 0.05\nsamples = 30\nvalue = [1, 41]\nclass = 0", fillcolor="#3e9fe6"] ;
743 -> 755 ;
756 [label="gini = 0.0\nsamples = 19\nvalue = [0, 26]\nclass = 0", fillcolor="#399de5"] ;
755 -> 756 ;
757 [label="leukocyty <= 0.14\ngini = 0.12\nsamples = 11\nvalue = [1, 15]\nclass = 0", fillcolor="#46a4e7"] ;
755 -> 757 ;
758 [label="gini = 0.0\nsamples = 1\nvalue = [1, 0]\nclass = 1", fillcolor="#e58139"] ;
757 -> 758 ;
759 [label="gini = 0.0\nsamples = 10\nvalue = [0, 15]\nclass = 0", fillcolor="#399de5"] ;
757 -> 759 ;
760 [label="gini = 0.0\nsamples = 1\nvalue = [1, 0]\nclass = 1", fillcolor="#e58139"] ;
742 -> 760 ;
761 [label="gini = 0.0\nsamples = 45\nvalue = [0, 70]\nclass = 0", fillcolor="#399de5"] ;
735 -> 761 ;
762 [label="leukocyty <= 0.03\ngini = 0.25\nsamples = 46\nvalue = [11, 64]\nclass = 0", fillcolor="#5baee9"] ;
732 -> 762 ;
763 [label="hbver <= 0.7\ngini = 0.5\nsamples = 6\nvalue = [6, 5]\nclass = 1", fillcolor="#fbeade"] ;
762 -> 763 ;
764 [label="gini = 0.0\nsamples = 4\nvalue = [0, 5]\nclass = 0", fillcolor="#399de5"] ;
763 -> 764 ;
765 [label="gini = 0.0\nsamples = 2\nvalue = [6, 0]\nclass = 1", fillcolor="#e58139"] ;
763 -> 765 ;
766 [label="erytrocyty <= 0.59\ngini = 0.14\nsamples = 40\nvalue = [5, 59]\nclass = 0", fillcolor="#4aa5e7"] ;
762 -> 766 ;
767 [label="etytr <= 0.22\ngini = 0.29\nsamples = 18\nvalue = [5, 24]\nclass = 0", fillcolor="#62b1ea"] ;
766 -> 767 ;
768 [label="er-cv <= 0.67\ngini = 0.12\nsamples = 9\nvalue = [1, 15]\nclass = 0", fillcolor="#46a4e7"] ;
767 -> 768 ;
769 [label="hbver <= 0.56\ngini = 0.5\nsamples = 2\nvalue = [1, 1]\nclass = 1", fillcolor="#ffffff"] ;
768 -> 769 ;
770 [label="gini = 0.0\nsamples = 1\nvalue = [0, 1]\nclass = 0", fillcolor="#399de5"] ;
769 -> 770 ;
771 [label="gini = 0.0\nsamples = 1\nvalue = [1, 0]\nclass = 1", fillcolor="#e58139"] ;
769 -> 771 ;
772 [label="gini = 0.0\nsamples = 7\nvalue = [0, 14]\nclass = 0", fillcolor="#399de5"] ;
768 -> 772 ;
773 [label="smoker <= 0.5\ngini = 0.43\nsamples = 9\nvalue = [4, 9]\nclass = 0", fillcolor="#91c9f1"] ;
767 -> 773 ;
774 [label="erytrocyty <= 0.56\ngini = 0.2\nsamples = 7\nvalue = [1, 8]\nclass = 0", fillcolor="#52a9e8"] ;
773 -> 774 ;
775 [label="gini = 0.0\nsamples = 3\nvalue = [0, 4]\nclass = 0", fillcolor="#399de5"] ;
774 -> 775 ;
776 [label="er-cv <= 0.67\ngini = 0.32\nsamples = 4\nvalue = [1, 4]\nclass = 0", fillcolor="#6ab6ec"] ;
774 -> 776 ;
777 [label="gini = 0.0\nsamples = 1\nvalue = [1, 0]\nclass = 1", fillcolor="#e58139"] ;
776 -> 777 ;
778 [label="gini = 0.0\nsamples = 3\nvalue = [0, 4]\nclass = 0", fillcolor="#399de5"] ;
776 -> 778 ;
779 [label="leukocyty <= 0.15\ngini = 0.38\nsamples = 2\nvalue = [3, 1]\nclass = 1", fillcolor="#eeab7b"] ;
773 -> 779 ;
780 [label="gini = 0.0\nsamples = 1\nvalue = [0, 1]\nclass = 0", fillcolor="#399de5"] ;
779 -> 780 ;
781 [label="gini = 0.0\nsamples = 1\nvalue = [3, 0]\nclass = 1", fillcolor="#e58139"] ;
779 -> 781 ;
782 [label="gini = 0.0\nsamples = 22\nvalue = [0, 35]\nclass = 0", fillcolor="#399de5"] ;
766 -> 782 ;
783 [label="hbver <= 0.79\ngini = 0.38\nsamples = 2\nvalue = [3, 1]\nclass = 1", fillcolor="#eeab7b"] ;
731 -> 783 ;
784 [label="gini = 0.0\nsamples = 1\nvalue = [3, 0]\nclass = 1", fillcolor="#e58139"] ;
783 -> 784 ;
785 [label="gini = 0.0\nsamples = 1\nvalue = [0, 1]\nclass = 0", fillcolor="#399de5"] ;
783 -> 785 ;
786 [label="hbver <= 0.48\ngini = 0.36\nsamples = 336\nvalue = [414, 128]\nclass = 1", fillcolor="#eda876"] ;
730 -> 786 ;
787 [label="etytr <= 0.53\ngini = 0.49\nsamples = 63\nvalue = [46, 63]\nclass = 0", fillcolor="#cae5f8"] ;
786 -> 787 ;
788 [label="er-cv <= 0.52\ngini = 0.41\nsamples = 34\nvalue = [42, 17]\nclass = 1", fillcolor="#f0b489"] ;
787 -> 788 ;
789 [label="hematokrit <= 0.52\ngini = 0.48\nsamples = 21\nvalue = [23, 16]\nclass = 1", fillcolor="#f7d9c3"] ;
788 -> 789 ;
790 [label="smoker <= 0.5\ngini = 0.38\nsamples = 17\nvalue = [21, 7]\nclass = 1", fillcolor="#eeab7b"] ;
789 -> 790 ;
791 [label="hematokrit <= 0.41\ngini = 0.32\nsamples = 12\nvalue = [16, 4]\nclass = 1", fillcolor="#eca06a"] ;
790 -> 791 ;
792 [label="hematokrit <= 0.3\ngini = 0.12\nsamples = 9\nvalue = [14, 1]\nclass = 1", fillcolor="#e78a47"] ;
791 -> 792 ;
793 [label="hbver <= 0.47\ngini = 0.5\nsamples = 2\nvalue = [1, 1]\nclass = 1", fillcolor="#ffffff"] ;
792 -> 793 ;
794 [label="gini = 0.0\nsamples = 1\nvalue = [0, 1]\nclass = 0", fillcolor="#399de5"] ;
793 -> 794 ;
795 [label="gini = 0.0\nsamples = 1\nvalue = [1, 0]\nclass = 1", fillcolor="#e58139"] ;
793 -> 795 ;
796 [label="gini = 0.0\nsamples = 7\nvalue = [13, 0]\nclass = 1", fillcolor="#e58139"] ;
792 -> 796 ;
797 [label="erytrocyty <= 0.61\ngini = 0.48\nsamples = 3\nvalue = [2, 3]\nclass = 0", fillcolor="#bddef6"] ;
791 -> 797 ;
798 [label="gini = 0.0\nsamples = 2\nvalue = [0, 3]\nclass = 0", fillcolor="#399de5"] ;
797 -> 798 ;
799 [label="gini = 0.0\nsamples = 1\nvalue = [2, 0]\nclass = 1", fillcolor="#e58139"] ;
797 -> 799 ;
800 [label="hbver <= 0.44\ngini = 0.47\nsamples = 5\nvalue = [5, 3]\nclass = 1", fillcolor="#f5cdb0"] ;
790 -> 800 ;
801 [label="gini = 0.0\nsamples = 2\nvalue = [0, 2]\nclass = 0", fillcolor="#399de5"] ;
800 -> 801 ;
802 [label="erytrocyty <= 0.56\ngini = 0.28\nsamples = 3\nvalue = [5, 1]\nclass = 1", fillcolor="#ea9a61"] ;
800 -> 802 ;
803 [label="gini = 0.0\nsamples = 1\nvalue = [0, 1]\nclass = 0", fillcolor="#399de5"] ;
802 -> 803 ;
804 [label="gini = 0.0\nsamples = 2\nvalue = [5, 0]\nclass = 1", fillcolor="#e58139"] ;
802 -> 804 ;
805 [label="etytr <= 0.48\ngini = 0.3\nsamples = 4\nvalue = [2, 9]\nclass = 0", fillcolor="#65b3eb"] ;
789 -> 805 ;
806 [label="gini = 0.0\nsamples = 2\nvalue = [0, 7]\nclass = 0", fillcolor="#399de5"] ;
805 -> 806 ;
807 [label="hematokrit <= 0.8\ngini = 0.5\nsamples = 2\nvalue = [2, 2]\nclass = 1", fillcolor="#ffffff"] ;
805 -> 807 ;
808 [label="gini = 0.0\nsamples = 1\nvalue = [2, 0]\nclass = 1", fillcolor="#e58139"] ;
807 -> 808 ;
809 [label="gini = 0.0\nsamples = 1\nvalue = [0, 2]\nclass = 0", fillcolor="#399de5"] ;
807 -> 809 ;
810 [label="hbver <= 0.47\ngini = 0.09\nsamples = 13\nvalue = [19, 1]\nclass = 1", fillcolor="#e68843"] ;
788 -> 810 ;
811 [label="gini = 0.0\nsamples = 10\nvalue = [17, 0]\nclass = 1", fillcolor="#e58139"] ;
810 -> 811 ;
812 [label="leukocyty <= 0.33\ngini = 0.44\nsamples = 3\nvalue = [2, 1]\nclass = 1", fillcolor="#f2c09c"] ;
810 -> 812 ;
813 [label="gini = 0.0\nsamples = 1\nvalue = [0, 1]\nclass = 0", fillcolor="#399de5"] ;
812 -> 813 ;
814 [label="gini = 0.0\nsamples = 2\nvalue = [2, 0]\nclass = 1", fillcolor="#e58139"] ;
812 -> 814 ;
815 [label="er-cv <= 0.61\ngini = 0.15\nsamples = 29\nvalue = [4, 46]\nclass = 0", fillcolor="#4aa6e7"] ;
787 -> 815 ;
816 [label="gini = 0.0\nsamples = 25\nvalue = [0, 43]\nclass = 0", fillcolor="#399de5"] ;
815 -> 816 ;
817 [label="smoker <= 0.5\ngini = 0.49\nsamples = 4\nvalue = [4, 3]\nclass = 1", fillcolor="#f8e0ce"] ;
815 -> 817 ;
818 [label="erytrocyty <= 0.61\ngini = 0.32\nsamples = 3\nvalue = [4, 1]\nclass = 1", fillcolor="#eca06a"] ;
817 -> 818 ;
819 [label="gini = 0.0\nsamples = 1\nvalue = [0, 1]\nclass = 0", fillcolor="#399de5"] ;
818 -> 819 ;
820 [label="gini = 0.0\nsamples = 2\nvalue = [4, 0]\nclass = 1", fillcolor="#e58139"] ;
818 -> 820 ;
821 [label="gini = 0.0\nsamples = 1\nvalue = [0, 2]\nclass = 0", fillcolor="#399de5"] ;
817 -> 821 ;
822 [label="hbver <= 0.58\ngini = 0.26\nsamples = 273\nvalue = [368, 65]\nclass = 1", fillcolor="#ea975c"] ;
786 -> 822 ;
823 [label="erytrocyty <= 0.55\ngini = 0.34\nsamples = 107\nvalue = [142, 40]\nclass = 1", fillcolor="#eca471"] ;
822 -> 823 ;
824 [label="hematokrit <= 0.42\ngini = 0.49\nsamples = 20\nvalue = [14, 18]\nclass = 0", fillcolor="#d3e9f9"] ;
823 -> 824 ;
825 [label="etytr <= 0.41\ngini = 0.3\nsamples = 6\nvalue = [9, 2]\nclass = 1", fillcolor="#eb9d65"] ;
824 -> 825 ;
826 [label="gini = 0.0\nsamples = 4\nvalue = [9, 0]\nclass = 1", fillcolor="#e58139"] ;
825 -> 826 ;
827 [label="gini = 0.0\nsamples = 2\nvalue = [0, 2]\nclass = 0", fillcolor="#399de5"] ;
825 -> 827 ;
828 [label="etytr <= 0.37\ngini = 0.36\nsamples = 14\nvalue = [5, 16]\nclass = 0", fillcolor="#77bced"] ;
824 -> 828 ;
829 [label="gini = 0.0\nsamples = 3\nvalue = [4, 0]\nclass = 1", fillcolor="#e58139"] ;
828 -> 829 ;
830 [label="leukocyty <= 0.54\ngini = 0.11\nsamples = 11\nvalue = [1, 16]\nclass = 0", fillcolor="#45a3e7"] ;
828 -> 830 ;
831 [label="gini = 0.0\nsamples = 1\nvalue = [1, 0]\nclass = 1", fillcolor="#e58139"] ;
830 -> 831 ;
832 [label="gini = 0.0\nsamples = 10\nvalue = [0, 16]\nclass = 0", fillcolor="#399de5"] ;
830 -> 832 ;
833 [label="etytr <= 0.59\ngini = 0.25\nsamples = 87\nvalue = [128, 22]\nclass = 1", fillcolor="#e9975b"] ;
823 -> 833 ;
834 [label="leukocyty <= 0.71\ngini = 0.19\nsamples = 76\nvalue = [120, 14]\nclass = 1", fillcolor="#e89050"] ;
833 -> 834 ;
835 [label="er-cv <= 0.6\ngini = 0.1\nsamples = 62\nvalue = [106, 6]\nclass = 1", fillcolor="#e68844"] ;
834 -> 835 ;
836 [label="er-cv <= 0.28\ngini = 0.03\nsamples = 40\nvalue = [73, 1]\nclass = 1", fillcolor="#e5833c"] ;
835 -> 836 ;
837 [label="leukocyty <= 0.5\ngini = 0.2\nsamples = 5\nvalue = [8, 1]\nclass = 1", fillcolor="#e89152"] ;
836 -> 837 ;
838 [label="etytr <= 0.3\ngini = 0.44\nsamples = 2\nvalue = [2, 1]\nclass = 1", fillcolor="#f2c09c"] ;
837 -> 838 ;
839 [label="gini = 0.0\nsamples = 1\nvalue = [2, 0]\nclass = 1", fillcolor="#e58139"] ;
838 -> 839 ;
840 [label="gini = 0.0\nsamples = 1\nvalue = [0, 1]\nclass = 0", fillcolor="#399de5"] ;
838 -> 840 ;
841 [label="gini = 0.0\nsamples = 3\nvalue = [6, 0]\nclass = 1", fillcolor="#e58139"] ;
837 -> 841 ;
842 [label="gini = 0.0\nsamples = 35\nvalue = [65, 0]\nclass = 1", fillcolor="#e58139"] ;
836 -> 842 ;
843 [label="er-cv <= 0.61\ngini = 0.23\nsamples = 22\nvalue = [33, 5]\nclass = 1", fillcolor="#e99457"] ;
835 -> 843 ;
844 [label="gini = 0.0\nsamples = 1\nvalue = [0, 2]\nclass = 0", fillcolor="#399de5"] ;
843 -> 844 ;
845 [label="hematokrit <= 0.53\ngini = 0.15\nsamples = 21\nvalue = [33, 3]\nclass = 1", fillcolor="#e78c4b"] ;
843 -> 845 ;
846 [label="hbver <= 0.54\ngini = 0.3\nsamples = 9\nvalue = [13, 3]\nclass = 1", fillcolor="#eb9e67"] ;
845 -> 846 ;
847 [label="gini = 0.0\nsamples = 5\nvalue = [10, 0]\nclass = 1", fillcolor="#e58139"] ;
846 -> 847 ;
848 [label="hbver <= 0.56\ngini = 0.5\nsamples = 4\nvalue = [3, 3]\nclass = 1", fillcolor="#ffffff"] ;
846 -> 848 ;
849 [label="gini = 0.0\nsamples = 3\nvalue = [0, 3]\nclass = 0", fillcolor="#399de5"] ;
848 -> 849 ;
850 [label="gini = 0.0\nsamples = 1\nvalue = [3, 0]\nclass = 1", fillcolor="#e58139"] ;
848 -> 850 ;
851 [label="gini = 0.0\nsamples = 12\nvalue = [20, 0]\nclass = 1", fillcolor="#e58139"] ;
845 -> 851 ;
852 [label="hbver <= 0.56\ngini = 0.46\nsamples = 14\nvalue = [14, 8]\nclass = 1", fillcolor="#f4c9aa"] ;
834 -> 852 ;
853 [label="erytrocyty <= 0.56\ngini = 0.35\nsamples = 12\nvalue = [14, 4]\nclass = 1", fillcolor="#eca572"] ;
852 -> 853 ;
854 [label="gini = 0.0\nsamples = 2\nvalue = [0, 2]\nclass = 0", fillcolor="#399de5"] ;
853 -> 854 ;
855 [label="leukocyty <= 0.72\ngini = 0.22\nsamples = 10\nvalue = [14, 2]\nclass = 1", fillcolor="#e99355"] ;
853 -> 855 ;
856 [label="gini = 0.0\nsamples = 1\nvalue = [0, 1]\nclass = 0", fillcolor="#399de5"] ;
855 -> 856 ;
857 [label="erytrocyty <= 0.62\ngini = 0.12\nsamples = 9\nvalue = [14, 1]\nclass = 1", fillcolor="#e78a47"] ;
855 -> 857 ;
858 [label="gini = 0.0\nsamples = 6\nvalue = [12, 0]\nclass = 1", fillcolor="#e58139"] ;
857 -> 858 ;
859 [label="er-cv <= 0.47\ngini = 0.44\nsamples = 3\nvalue = [2, 1]\nclass = 1", fillcolor="#f2c09c"] ;
857 -> 859 ;
860 [label="gini = 0.0\nsamples = 1\nvalue = [1, 0]\nclass = 1", fillcolor="#e58139"] ;
859 -> 860 ;
861 [label="smoker <= 0.5\ngini = 0.5\nsamples = 2\nvalue = [1, 1]\nclass = 1", fillcolor="#ffffff"] ;
859 -> 861 ;
862 [label="gini = 0.0\nsamples = 1\nvalue = [1, 0]\nclass = 1", fillcolor="#e58139"] ;
861 -> 862 ;
863 [label="gini = 0.0\nsamples = 1\nvalue = [0, 1]\nclass = 0", fillcolor="#399de5"] ;
861 -> 863 ;
864 [label="gini = 0.0\nsamples = 2\nvalue = [0, 4]\nclass = 0", fillcolor="#399de5"] ;
852 -> 864 ;
865 [label="etytr <= 0.6\ngini = 0.5\nsamples = 11\nvalue = [8, 8]\nclass = 1", fillcolor="#ffffff"] ;
833 -> 865 ;
866 [label="gini = 0.0\nsamples = 2\nvalue = [0, 4]\nclass = 0", fillcolor="#399de5"] ;
865 -> 866 ;
867 [label="er-cv <= 0.41\ngini = 0.44\nsamples = 9\nvalue = [8, 4]\nclass = 1", fillcolor="#f2c09c"] ;
865 -> 867 ;
868 [label="gini = 0.0\nsamples = 2\nvalue = [4, 0]\nclass = 1", fillcolor="#e58139"] ;
867 -> 868 ;
869 [label="smoker <= 0.5\ngini = 0.5\nsamples = 7\nvalue = [4, 4]\nclass = 1", fillcolor="#ffffff"] ;
867 -> 869 ;
870 [label="gini = 0.0\nsamples = 2\nvalue = [2, 0]\nclass = 1", fillcolor="#e58139"] ;
869 -> 870 ;
871 [label="leukocyty <= 0.65\ngini = 0.44\nsamples = 5\nvalue = [2, 4]\nclass = 0", fillcolor="#9ccef2"] ;
869 -> 871 ;
872 [label="gini = 0.0\nsamples = 1\nvalue = [2, 0]\nclass = 1", fillcolor="#e58139"] ;
871 -> 872 ;
873 [label="gini = 0.0\nsamples = 4\nvalue = [0, 4]\nclass = 0", fillcolor="#399de5"] ;
871 -> 873 ;
874 [label="leukocyty <= 0.42\ngini = 0.18\nsamples = 166\nvalue = [226, 25]\nclass = 1", fillcolor="#e88f4f"] ;
822 -> 874 ;
875 [label="etytr <= 0.22\ngini = 0.43\nsamples = 46\nvalue = [45, 20]\nclass = 1", fillcolor="#f1b991"] ;
874 -> 875 ;
876 [label="gini = 0.0\nsamples = 11\nvalue = [14, 0]\nclass = 1", fillcolor="#e58139"] ;
875 -> 876 ;
877 [label="erytrocyty <= 0.62\ngini = 0.48\nsamples = 35\nvalue = [31, 20]\nclass = 1", fillcolor="#f6d2b9"] ;
875 -> 877 ;
878 [label="hbver <= 0.66\ngini = 0.38\nsamples = 26\nvalue = [29, 10]\nclass = 1", fillcolor="#eeac7d"] ;
877 -> 878 ;
879 [label="hematokrit <= 0.44\ngini = 0.42\nsamples = 8\nvalue = [3, 7]\nclass = 0", fillcolor="#8ec7f0"] ;
878 -> 879 ;
880 [label="gini = 0.0\nsamples = 2\nvalue = [3, 0]\nclass = 1", fillcolor="#e58139"] ;
879 -> 880 ;
881 [label="gini = 0.0\nsamples = 6\nvalue = [0, 7]\nclass = 0", fillcolor="#399de5"] ;
879 -> 881 ;
882 [label="er-cv <= 0.67\ngini = 0.19\nsamples = 18\nvalue = [26, 3]\nclass = 1", fillcolor="#e89050"] ;
878 -> 882 ;
883 [label="erytrocyty <= 0.54\ngini = 0.13\nsamples = 17\nvalue = [26, 2]\nclass = 1", fillcolor="#e78b48"] ;
882 -> 883 ;
884 [label="gini = 0.0\nsamples = 1\nvalue = [0, 1]\nclass = 0", fillcolor="#399de5"] ;
883 -> 884 ;
885 [label="erytrocyty <= 0.58\ngini = 0.07\nsamples = 16\nvalue = [26, 1]\nclass = 1", fillcolor="#e68641"] ;
883 -> 885 ;
886 [label="gini = 0.0\nsamples = 10\nvalue = [18, 0]\nclass = 1", fillcolor="#e58139"] ;
885 -> 886 ;
887 [label="hbver <= 0.77\ngini = 0.2\nsamples = 6\nvalue = [8, 1]\nclass = 1", fillcolor="#e89152"] ;
885 -> 887 ;
888 [label="gini = 0.0\nsamples = 5\nvalue = [8, 0]\nclass = 1", fillcolor="#e58139"] ;
887 -> 888 ;
889 [label="gini = 0.0\nsamples = 1\nvalue = [0, 1]\nclass = 0", fillcolor="#399de5"] ;
887 -> 889 ;
890 [label="gini = 0.0\nsamples = 1\nvalue = [0, 1]\nclass = 0", fillcolor="#399de5"] ;
882 -> 890 ;
891 [label="erytrocyty <= 0.64\ngini = 0.28\nsamples = 9\nvalue = [2, 10]\nclass = 0", fillcolor="#61b1ea"] ;
877 -> 891 ;
892 [label="erytrocyty <= 0.63\ngini = 0.44\nsamples = 5\nvalue = [2, 4]\nclass = 0", fillcolor="#9ccef2"] ;
891 -> 892 ;
893 [label="gini = 0.0\nsamples = 3\nvalue = [0, 4]\nclass = 0", fillcolor="#399de5"] ;
892 -> 893 ;
894 [label="gini = 0.0\nsamples = 2\nvalue = [2, 0]\nclass = 1", fillcolor="#e58139"] ;
892 -> 894 ;
895 [label="gini = 0.0\nsamples = 4\nvalue = [0, 6]\nclass = 0", fillcolor="#399de5"] ;
891 -> 895 ;
896 [label="er-cv <= 0.48\ngini = 0.05\nsamples = 120\nvalue = [181, 5]\nclass = 1", fillcolor="#e6843e"] ;
874 -> 896 ;
897 [label="hbver <= 0.64\ngini = 0.11\nsamples = 54\nvalue = [81, 5]\nclass = 1", fillcolor="#e78945"] ;
896 -> 897 ;
898 [label="leukocyty <= 0.77\ngini = 0.21\nsamples = 25\nvalue = [37, 5]\nclass = 1", fillcolor="#e99254"] ;
897 -> 898 ;
