digraph Tree {
node [shape=box, style="filled, rounded", color="black", fontname="helvetica"] ;
edge [fontname="helvetica"] ;
0 [label="leukocyty <= 0.32\ngini = 0.47\nsamples = 7058\nvalue = [2605, 4453]\nclass = 1", fillcolor="#add6f4"] ;
1 [label="hbver <= 0.72\ngini = 0.13\nsamples = 1330\nvalue = [92, 1238]\nclass = 1", fillcolor="#48a4e7"] ;
0 -> 1 [labeldistance=2.5, labelangle=45, headlabel="True"] ;
2 [label="hbver <= 0.53\ngini = 0.08\nsamples = 1052\nvalue = [46, 1006]\nclass = 1", fillcolor="#42a1e6"] ;
1 -> 2 ;
3 [label="etytr <= 0.35\ngini = 0.12\nsamples = 522\nvalue = [32, 490]\nclass = 1", fillcolor="#46a3e7"] ;
2 -> 3 ;
4 [label="hbver <= 0.53\ngini = 0.08\nsamples = 491\nvalue = [21, 470]\nclass = 1", fillcolor="#42a1e6"] ;
3 -> 4 ;
5 [label="leukocyty <= 0.32\ngini = 0.08\nsamples = 489\nvalue = [20, 469]\nclass = 1", fillcolor="#41a1e6"] ;
4 -> 5 ;
6 [label="etytr <= 0.25\ngini = 0.08\nsamples = 486\nvalue = [19, 467]\nclass = 1", fillcolor="#41a1e6"] ;
5 -> 6 ;
7 [label="er-cv <= 0.12\ngini = 0.1\nsamples = 334\nvalue = [18, 316]\nclass = 1", fillcolor="#44a3e6"] ;
6 -> 7 ;
8 [label="er-cv <= 0.11\ngini = 0.44\nsamples = 6\nvalue = [2, 4]\nclass = 1", fillcolor="#9ccef2"] ;
7 -> 8 ;
9 [label="gini = 0.0\nsamples = 4\nvalue = [0, 4]\nclass = 1", fillcolor="#399de5"] ;
8 -> 9 ;
10 [label="gini = 0.0\nsamples = 2\nvalue = [2, 0]\nclass = 0", fillcolor="#e58139"] ;
8 -> 10 ;
11 [label="leukocyty <= 0.19\ngini = 0.09\nsamples = 328\nvalue = [16, 312]\nclass = 1", fillcolor="#43a2e6"] ;
7 -> 11 ;
12 [label="blood_group <= 0.5\ngini = 0.06\nsamples = 247\nvalue = [8, 239]\nclass = 1", fillcolor="#40a0e6"] ;
11 -> 12 ;
13 [label="hbver <= 0.44\ngini = 0.21\nsamples = 34\nvalue = [4, 30]\nclass = 1", fillcolor="#53aae8"] ;
12 -> 13 ;
14 [label="gini = 0.0\nsamples = 16\nvalue = [0, 16]\nclass = 1", fillcolor="#399de5"] ;
13 -> 14 ;
15 [label="hematokrit <= 0.25\ngini = 0.35\nsamples = 18\nvalue = [4, 14]\nclass = 1", fillcolor="#72b9ec"] ;
13 -> 15 ;
16 [label="gini = 0.0\nsamples = 5\nvalue = [0, 5]\nclass = 1", fillcolor="#399de5"] ;
15 -> 16 ;
17 [label="hbver <= 0.49\ngini = 0.43\nsamples = 13\nvalue = [4, 9]\nclass = 1", fillcolor="#91c9f1"] ;
15 -> 17 ;
18 [label="erytrocyty <= 0.68\ngini = 0.44\nsamples = 6\nvalue = [4, 2]\nclass = 0", fillcolor="#f2c09c"] ;
17 -> 18 ;
19 [label="etytr <= 0.23\ngini = 0.5\nsamples = 4\nvalue = [2, 2]\nclass = 0", fillcolor="#ffffff"] ;
18 -> 19 ;
20 [label="gini = 0.5\nsamples = 2\nvalue = [1, 1]\nclass = 0", fillcolor="#ffffff"] ;
19 -> 20 ;
21 [label="gini = 0.5\nsamples = 2\nvalue = [1, 1]\nclass = 0", fillcolor="#ffffff"] ;
19 -> 21 ;
22 [label="gini = 0.0\nsamples = 2\nvalue = [2, 0]\nclass = 0", fillcolor="#e58139"] ;
18 -> 22 ;
23 [label="gini = 0.0\nsamples = 7\nvalue = [0, 7]\nclass = 1", fillcolor="#399de5"] ;
17 -> 23 ;
24 [label="blood_group <= 3.5\ngini = 0.04\nsamples = 213\nvalue = [4, 209]\nclass = 1", fillcolor="#3d9fe5"] ;
12 -> 24 ;
25 [label="gini = 0.0\nsamples = 75\nvalue = [0, 75]\nclass = 1", fillcolor="#399de5"] ;
24 -> 25 ;
26 [label="erytrocyty <= 0.44\ngini = 0.06\nsamples = 138\nvalue = [4, 134]\nclass = 1", fillcolor="#3fa0e6"] ;
24 -> 26 ;
27 [label="er-cv <= 0.63\ngini = 0.38\nsamples = 4\nvalue = [1, 3]\nclass = 1", fillcolor="#7bbeee"] ;
26 -> 27 ;
28 [label="gini = 0.0\nsamples = 2\nvalue = [0, 2]\nclass = 1", fillcolor="#399de5"] ;
27 -> 28 ;
29 [label="gini = 0.5\nsamples = 2\nvalue = [1, 1]\nclass = 0", fillcolor="#ffffff"] ;
27 -> 29 ;
30 [label="erytrocyty <= 0.63\ngini = 0.04\nsamples = 134\nvalue = [3, 131]\nclass = 1", fillcolor="#3e9fe6"] ;
26 -> 30 ;
31 [label="gini = 0.0\nsamples = 61\nvalue = [0, 61]\nclass = 1", fillcolor="#399de5"] ;
30 -> 31 ;
32 [label="leukocyty <= 0.08\ngini = 0.08\nsamples = 73\nvalue = [3, 70]\nclass = 1", fillcolor="#41a1e6"] ;
30 -> 32 ;
33 [label="er-cv <= 0.49\ngini = 0.2\nsamples = 18\nvalue = [2, 16]\nclass = 1", fillcolor="#52a9e8"] ;
32 -> 33 ;
34 [label="leukocyty <= 0.07\ngini = 0.44\nsamples = 6\nvalue = [2, 4]\nclass = 1", fillcolor="#9ccef2"] ;
33 -> 34 ;
35 [label="gini = 0.0\nsamples = 4\nvalue = [0, 4]\nclass = 1", fillcolor="#399de5"] ;
34 -> 35 ;
36 [label="gini = 0.0\nsamples = 2\nvalue = [2, 0]\nclass = 0", fillcolor="#e58139"] ;
34 -> 36 ;
37 [label="gini = 0.0\nsamples = 12\nvalue = [0, 12]\nclass = 1", fillcolor="#399de5"] ;
33 -> 37 ;
38 [label="hematokrit <= 0.27\ngini = 0.04\nsamples = 55\nvalue = [1, 54]\nclass = 1", fillcolor="#3d9fe5"] ;
32 -> 38 ;
39 [label="hematokrit <= 0.24\ngini = 0.2\nsamples = 9\nvalue = [1, 8]\nclass = 1", fillcolor="#52a9e8"] ;
38 -> 39 ;
40 [label="gini = 0.0\nsamples = 7\nvalue = [0, 7]\nclass = 1", fillcolor="#399de5"] ;
39 -> 40 ;
41 [label="gini = 0.5\nsamples = 2\nvalue = [1, 1]\nclass = 0", fillcolor="#ffffff"] ;
39 -> 41 ;
42 [label="gini = 0.0\nsamples = 46\nvalue = [0, 46]\nclass = 1", fillcolor="#399de5"] ;
38 -> 42 ;
43 [label="leukocyty <= 0.21\ngini = 0.18\nsamples = 81\nvalue = [8, 73]\nclass = 1", fillcolor="#4fa8e8"] ;
11 -> 43 ;
44 [label="leukocyty <= 0.2\ngini = 0.43\nsamples = 19\nvalue = [6, 13]\nclass = 1", fillcolor="#94caf1"] ;
43 -> 44 ;
45 [label="etytr <= 0.21\ngini = 0.24\nsamples = 14\nvalue = [2, 12]\nclass = 1", fillcolor="#5aade9"] ;
44 -> 45 ;
46 [label="blood_group <= 3.5\ngini = 0.5\nsamples = 4\nvalue = [2, 2]\nclass = 0", fillcolor="#ffffff"] ;
45 -> 46 ;
47 [label="gini = 0.0\nsamples = 2\nvalue = [0, 2]\nclass = 1", fillcolor="#399de5"] ;
46 -> 47 ;
48 [label="gini = 0.0\nsamples = 2\nvalue = [2, 0]\nclass = 0", fillcolor="#e58139"] ;
46 -> 48 ;
49 [label="gini = 0.0\nsamples = 10\nvalue = [0, 10]\nclass = 1", fillcolor="#399de5"] ;
45 -> 49 ;
50 [label="etytr <= 0.24\ngini = 0.32\nsamples = 5\nvalue = [4, 1]\nclass = 0", fillcolor="#eca06a"] ;
44 -> 50 ;
51 [label="gini = 0.0\nsamples = 3\nvalue = [3, 0]\nclass = 0", fillcolor="#e58139"] ;
50 -> 51 ;
52 [label="gini = 0.5\nsamples = 2\nvalue = [1, 1]\nclass = 0", fillcolor="#ffffff"] ;
50 -> 52 ;
53 [label="etytr <= 0.18\ngini = 0.06\nsamples = 62\nvalue = [2, 60]\nclass = 1", fillcolor="#40a0e6"] ;
43 -> 53 ;
54 [label="gini = 0.5\nsamples = 2\nvalue = [1, 1]\nclass = 0", fillcolor="#ffffff"] ;
53 -> 54 ;
55 [label="leukocyty <= 0.27\ngini = 0.03\nsamples = 60\nvalue = [1, 59]\nclass = 1", fillcolor="#3c9fe5"] ;
53 -> 55 ;
56 [label="gini = 0.0\nsamples = 45\nvalue = [0, 45]\nclass = 1", fillcolor="#399de5"] ;
55 -> 56 ;
57 [label="er-cv <= 0.55\ngini = 0.12\nsamples = 15\nvalue = [1, 14]\nclass = 1", fillcolor="#47a4e7"] ;
55 -> 57 ;
58 [label="gini = 0.0\nsamples = 8\nvalue = [0, 8]\nclass = 1", fillcolor="#399de5"] ;
57 -> 58 ;
59 [label="hematokrit <= 0.65\ngini = 0.24\nsamples = 7\nvalue = [1, 6]\nclass = 1", fillcolor="#5aade9"] ;
57 -> 59 ;
60 [label="gini = 0.0\nsamples = 5\nvalue = [0, 5]\nclass = 1", fillcolor="#399de5"] ;
59 -> 60 ;
61 [label="gini = 0.5\nsamples = 2\nvalue = [1, 1]\nclass = 0", fillcolor="#ffffff"] ;
59 -> 61 ;
62 [label="er-cv <= 0.62\ngini = 0.01\nsamples = 152\nvalue = [1, 151]\nclass = 1", fillcolor="#3a9ee5"] ;
6 -> 62 ;
63 [label="gini = 0.0\nsamples = 115\nvalue = [0, 115]\nclass = 1", fillcolor="#399de5"] ;
62 -> 63 ;
64 [label="er-cv <= 0.63\ngini = 0.05\nsamples = 37\nvalue = [1, 36]\nclass = 1", fillcolor="#3ea0e6"] ;
62 -> 64 ;
65 [label="gini = 0.5\nsamples = 2\nvalue = [1, 1]\nclass = 0", fillcolor="#ffffff"] ;
64 -> 65 ;
66 [label="gini = 0.0\nsamples = 35\nvalue = [0, 35]\nclass = 1", fillcolor="#399de5"] ;
64 -> 66 ;
67 [label="gini = 0.44\nsamples = 3\nvalue = [1, 2]\nclass = 1", fillcolor="#9ccef2"] ;
5 -> 67 ;
68 [label="gini = 0.5\nsamples = 2\nvalue = [1, 1]\nclass = 0", fillcolor="#ffffff"] ;
4 -> 68 ;
69 [label="hbver <= 0.27\ngini = 0.46\nsamples = 31\nvalue = [11, 20]\nclass = 1", fillcolor="#a6d3f3"] ;
3 -> 69 ;
70 [label="gini = 0.0\nsamples = 17\nvalue = [0, 17]\nclass = 1", fillcolor="#399de5"] ;
69 -> 70 ;
71 [label="leukocyty <= 0.31\ngini = 0.34\nsamples = 14\nvalue = [11, 3]\nclass = 0", fillcolor="#eca36f"] ;
69 -> 71 ;
72 [label="erytrocyty <= 0.71\ngini = 0.44\nsamples = 9\nvalue = [6, 3]\nclass = 0", fillcolor="#f2c09c"] ;
71 -> 72 ;
73 [label="gini = 0.0\nsamples = 5\nvalue = [5, 0]\nclass = 0", fillcolor="#e58139"] ;
72 -> 73 ;
74 [label="hbver <= 0.43\ngini = 0.38\nsamples = 4\nvalue = [1, 3]\nclass = 1", fillcolor="#7bbeee"] ;
72 -> 74 ;
75 [label="gini = 0.0\nsamples = 2\nvalue = [0, 2]\nclass = 1", fillcolor="#399de5"] ;
74 -> 75 ;
76 [label="gini = 0.5\nsamples = 2\nvalue = [1, 1]\nclass = 0", fillcolor="#ffffff"] ;
74 -> 76 ;
77 [label="gini = 0.0\nsamples = 5\nvalue = [5, 0]\nclass = 0", fillcolor="#e58139"] ;
71 -> 77 ;
78 [label="etytr <= 0.42\ngini = 0.05\nsamples = 530\nvalue = [14, 516]\nclass = 1", fillcolor="#3ea0e6"] ;
2 -> 78 ;
79 [label="erytrocyty <= 0.37\ngini = 0.03\nsamples = 523\nvalue = [8, 515]\nclass = 1", fillcolor="#3c9fe5"] ;
78 -> 79 ;
80 [label="gini = 0.5\nsamples = 2\nvalue = [1, 1]\nclass = 0", fillcolor="#ffffff"] ;
79 -> 80 ;
81 [label="etytr <= 0.09\ngini = 0.03\nsamples = 521\nvalue = [7, 514]\nclass = 1", fillcolor="#3c9ee5"] ;
79 -> 81 ;
82 [label="etytr <= 0.09\ngini = 0.28\nsamples = 6\nvalue = [1, 5]\nclass = 1", fillcolor="#61b1ea"] ;
81 -> 82 ;
83 [label="gini = 0.0\nsamples = 4\nvalue = [0, 4]\nclass = 1", fillcolor="#399de5"] ;
82 -> 83 ;
84 [label="gini = 0.5\nsamples = 2\nvalue = [1, 1]\nclass = 0", fillcolor="#ffffff"] ;
82 -> 84 ;
85 [label="etytr <= 0.23\ngini = 0.02\nsamples = 515\nvalue = [6, 509]\nclass = 1", fillcolor="#3b9ee5"] ;
81 -> 85 ;
86 [label="blood_group <= 0.5\ngini = 0.01\nsamples = 277\nvalue = [1, 276]\nclass = 1", fillcolor="#3a9de5"] ;
85 -> 86 ;
87 [label="erytrocyty <= 0.57\ngini = 0.07\nsamples = 28\nvalue = [1, 27]\nclass = 1", fillcolor="#40a1e6"] ;
86 -> 87 ;
88 [label="hbver <= 0.66\ngini = 0.32\nsamples = 5\nvalue = [1, 4]\nclass = 1", fillcolor="#6ab6ec"] ;
87 -> 88 ;
89 [label="gini = 0.0\nsamples = 3\nvalue = [0, 3]\nclass = 1", fillcolor="#399de5"] ;
88 -> 89 ;
90 [label="gini = 0.5\nsamples = 2\nvalue = [1, 1]\nclass = 0", fillcolor="#ffffff"] ;
88 -> 90 ;
91 [label="gini = 0.0\nsamples = 23\nvalue = [0, 23]\nclass = 1", fillcolor="#399de5"] ;
87 -> 91 ;
92 [label="gini = 0.0\nsamples = 249\nvalue = [0, 249]\nclass = 1", fillcolor="#399de5"] ;
86 -> 92 ;
93 [label="etytr <= 0.23\ngini = 0.04\nsamples = 238\nvalue = [5, 233]\nclass = 1", fillcolor="#3d9fe6"] ;
85 -> 93 ;
94 [label="gini = 0.5\nsamples = 2\nvalue = [1, 1]\nclass = 0", fillcolor="#ffffff"] ;
93 -> 94 ;
95 [label="leukocyty <= 0.09\ngini = 0.03\nsamples = 236\nvalue = [4, 232]\nclass = 1", fillcolor="#3c9fe5"] ;
93 -> 95 ;
96 [label="gini = 0.44\nsamples = 3\nvalue = [1, 2]\nclass = 1", fillcolor="#9ccef2"] ;
95 -> 96 ;
97 [label="hbver <= 0.54\ngini = 0.03\nsamples = 233\nvalue = [3, 230]\nclass = 1", fillcolor="#3c9ee5"] ;
95 -> 97 ;
98 [label="erytrocyty <= 0.73\ngini = 0.18\nsamples = 10\nvalue = [1, 9]\nclass = 1", fillcolor="#4fa8e8"] ;
97 -> 98 ;
99 [label="gini = 0.0\nsamples = 8\nvalue = [0, 8]\nclass = 1", fillcolor="#399de5"] ;
98 -> 99 ;
100 [label="gini = 0.5\nsamples = 2\nvalue = [1, 1]\nclass = 0", fillcolor="#ffffff"] ;
98 -> 100 ;
101 [label="erytrocyty <= 0.49\ngini = 0.02\nsamples = 223\nvalue = [2, 221]\nclass = 1", fillcolor="#3b9ee5"] ;
97 -> 101 ;
102 [label="er-cv <= 0.6\ngini = 0.2\nsamples = 9\nvalue = [1, 8]\nclass = 1", fillcolor="#52a9e8"] ;
101 -> 102 ;
103 [label="gini = 0.0\nsamples = 7\nvalue = [0, 7]\nclass = 1", fillcolor="#399de5"] ;
102 -> 103 ;
104 [label="gini = 0.5\nsamples = 2\nvalue = [1, 1]\nclass = 0", fillcolor="#ffffff"] ;
102 -> 104 ;
105 [label="hbver <= 0.7\ngini = 0.01\nsamples = 214\nvalue = [1, 213]\nclass = 1", fillcolor="#3a9de5"] ;
101 -> 105 ;
106 [label="gini = 0.0\nsamples = 198\nvalue = [0, 198]\nclass = 1", fillcolor="#399de5"] ;
105 -> 106 ;
107 [label="er-cv <= 0.55\ngini = 0.12\nsamples = 16\nvalue = [1, 15]\nclass = 1", fillcolor="#46a4e7"] ;
105 -> 107 ;
108 [label="gini = 0.0\nsamples = 12\nvalue = [0, 12]\nclass = 1", fillcolor="#399de5"] ;
107 -> 108 ;
109 [label="hematokrit <= 0.45\ngini = 0.38\nsamples = 4\nvalue = [1, 3]\nclass = 1", fillcolor="#7bbeee"] ;
107 -> 109 ;
110 [label="gini = 0.0\nsamples = 2\nvalue = [0, 2]\nclass = 1", fillcolor="#399de5"] ;
109 -> 110 ;
111 [label="gini = 0.5\nsamples = 2\nvalue = [1, 1]\nclass = 0", fillcolor="#ffffff"] ;
109 -> 111 ;
112 [label="erytrocyty <= 0.66\ngini = 0.24\nsamples = 7\nvalue = [6, 1]\nclass = 0", fillcolor="#e9965a"] ;
78 -> 112 ;
113 [label="gini = 0.5\nsamples = 2\nvalue = [1, 1]\nclass = 0", fillcolor="#ffffff"] ;
112 -> 113 ;
114 [label="gini = 0.0\nsamples = 5\nvalue = [5, 0]\nclass = 0", fillcolor="#e58139"] ;
112 -> 114 ;
115 [label="er-cv <= 0.62\ngini = 0.28\nsamples = 278\nvalue = [46, 232]\nclass = 1", fillcolor="#60b0ea"] ;
1 -> 115 ;
116 [label="etytr <= 0.3\ngini = 0.3\nsamples = 192\nvalue = [36, 156]\nclass = 1", fillcolor="#67b4eb"] ;
115 -> 116 ;
117 [label="hbver <= 0.8\ngini = 0.19\nsamples = 165\nvalue = [18, 147]\nclass = 1", fillcolor="#51a9e8"] ;
116 -> 117 ;
118 [label="erytrocyty <= 0.49\ngini = 0.29\nsamples = 101\nvalue = [18, 83]\nclass = 1", fillcolor="#64b2eb"] ;
117 -> 118 ;
119 [label="hematokrit <= 0.46\ngini = 0.49\nsamples = 14\nvalue = [8, 6]\nclass = 0", fillcolor="#f8e0ce"] ;
118 -> 119 ;
120 [label="hematokrit <= 0.3\ngini = 0.24\nsamples = 7\nvalue = [6, 1]\nclass = 0", fillcolor="#e9965a"] ;
119 -> 120 ;
121 [label="gini = 0.5\nsamples = 2\nvalue = [1, 1]\nclass = 0", fillcolor="#ffffff"] ;
120 -> 121 ;
122 [label="gini = 0.0\nsamples = 5\nvalue = [5, 0]\nclass = 0", fillcolor="#e58139"] ;
120 -> 122 ;
123 [label="hematokrit <= 0.67\ngini = 0.41\nsamples = 7\nvalue = [2, 5]\nclass = 1", fillcolor="#88c4ef"] ;
119 -> 123 ;
124 [label="gini = 0.0\nsamples = 4\nvalue = [0, 4]\nclass = 1", fillcolor="#399de5"] ;
123 -> 124 ;
125 [label="gini = 0.44\nsamples = 3\nvalue = [2, 1]\nclass = 0", fillcolor="#f2c09c"] ;
123 -> 125 ;
126 [label="leukocyty <= 0.28\ngini = 0.2\nsamples = 87\nvalue = [10, 77]\nclass = 1", fillcolor="#53aae8"] ;
118 -> 126 ;
127 [label="hematokrit <= 0.68\ngini = 0.12\nsamples = 78\nvalue = [5, 73]\nclass = 1", fillcolor="#47a4e7"] ;
126 -> 127 ;
128 [label="etytr <= 0.26\ngini = 0.06\nsamples = 68\nvalue = [2, 66]\nclass = 1", fillcolor="#3fa0e6"] ;
127 -> 128 ;
129 [label="leukocyty <= 0.27\ngini = 0.03\nsamples = 63\nvalue = [1, 62]\nclass = 1", fillcolor="#3c9fe5"] ;
128 -> 129 ;
130 [label="gini = 0.0\nsamples = 59\nvalue = [0, 59]\nclass = 1", fillcolor="#399de5"] ;
129 -> 130 ;
131 [label="hbver <= 0.78\ngini = 0.38\nsamples = 4\nvalue = [1, 3]\nclass = 1", fillcolor="#7bbeee"] ;
129 -> 131 ;
132 [label="gini = 0.5\nsamples = 2\nvalue = [1, 1]\nclass = 0", fillcolor="#ffffff"] ;
131 -> 132 ;
133 [label="gini = 0.0\nsamples = 2\nvalue = [0, 2]\nclass = 1", fillcolor="#399de5"] ;
131 -> 133 ;
134 [label="blood_group <= 5.0\ngini = 0.32\nsamples = 5\nvalue = [1, 4]\nclass = 1", fillcolor="#6ab6ec"] ;
128 -> 134 ;
135 [label="gini = 0.0\nsamples = 3\nvalue = [0, 3]\nclass = 1", fillcolor="#399de5"] ;
134 -> 135 ;
136 [label="gini = 0.5\nsamples = 2\nvalue = [1, 1]\nclass = 0", fillcolor="#ffffff"] ;
134 -> 136 ;
137 [label="erytrocyty <= 0.71\ngini = 0.42\nsamples = 10\nvalue = [3, 7]\nclass = 1", fillcolor="#8ec7f0"] ;
127 -> 137 ;
138 [label="erytrocyty <= 0.63\ngini = 0.24\nsamples = 7\nvalue = [1, 6]\nclass = 1", fillcolor="#5aade9"] ;
137 -> 138 ;
139 [label="gini = 0.5\nsamples = 2\nvalue = [1, 1]\nclass = 0", fillcolor="#ffffff"] ;
138 -> 139 ;
140 [label="gini = 0.0\nsamples = 5\nvalue = [0, 5]\nclass = 1", fillcolor="#399de5"] ;
138 -> 140 ;
141 [label="gini = 0.44\nsamples = 3\nvalue = [2, 1]\nclass = 0", fillcolor="#f2c09c"] ;
137 -> 141 ;
142 [label="er-cv <= 0.53\ngini = 0.49\nsamples = 9\nvalue = [5, 4]\nclass = 0", fillcolor="#fae6d7"] ;
126 -> 142 ;
143 [label="etytr <= 0.26\ngini = 0.44\nsamples = 6\nvalue = [2, 4]\nclass = 1", fillcolor="#9ccef2"] ;
142 -> 143 ;
144 [label="gini = 0.0\nsamples = 3\nvalue = [0, 3]\nclass = 1", fillcolor="#399de5"] ;
143 -> 144 ;
145 [label="gini = 0.44\nsamples = 3\nvalue = [2, 1]\nclass = 0", fillcolor="#f2c09c"] ;
143 -> 145 ;
146 [label="gini = 0.0\nsamples = 3\nvalue = [3, 0]\nclass = 0", fillcolor="#e58139"] ;
142 -> 146 ;
147 [label="gini = 0.0\nsamples = 64\nvalue = [0, 64]\nclass = 1", fillcolor="#399de5"] ;
117 -> 147 ;
148 [label="erytrocyty <= 0.62\ngini = 0.44\nsamples = 27\nvalue = [18, 9]\nclass = 0", fillcolor="#f2c09c"] ;
116 -> 148 ;
149 [label="hbver <= 0.77\ngini = 0.19\nsamples = 19\nvalue = [17, 2]\nclass = 0", fillcolor="#e89050"] ;
148 -> 149 ;
150 [label="gini = 0.0\nsamples = 13\nvalue = [13, 0]\nclass = 0", fillcolor="#e58139"] ;
149 -> 150 ;
151 [label="leukocyty <= 0.25\ngini = 0.44\nsamples = 6\nvalue = [4, 2]\nclass = 0", fillcolor="#f2c09c"] ;
149 -> 151 ;
152 [label="gini = 0.0\nsamples = 3\nvalue = [3, 0]\nclass = 0", fillcolor="#e58139"] ;
151 -> 152 ;
153 [label="gini = 0.44\nsamples = 3\nvalue = [1, 2]\nclass = 1", fillcolor="#9ccef2"] ;
151 -> 153 ;
154 [label="hematokrit <= 0.38\ngini = 0.22\nsamples = 8\nvalue = [1, 7]\nclass = 1", fillcolor="#55abe9"] ;
148 -> 154 ;
155 [label="gini = 0.5\nsamples = 2\nvalue = [1, 1]\nclass = 0", fillcolor="#ffffff"] ;
154 -> 155 ;
156 [label="gini = 0.0\nsamples = 6\nvalue = [0, 6]\nclass = 1", fillcolor="#399de5"] ;
154 -> 156 ;
157 [label="leukocyty <= 0.03\ngini = 0.21\nsamples = 86\nvalue = [10, 76]\nclass = 1", fillcolor="#53aae8"] ;
115 -> 157 ;
158 [label="etytr <= 0.14\ngini = 0.5\nsamples = 6\nvalue = [3, 3]\nclass = 0", fillcolor="#ffffff"] ;
157 -> 158 ;
159 [label="gini = 0.0\nsamples = 2\nvalue = [0, 2]\nclass = 1", fillcolor="#399de5"] ;
158 -> 159 ;
160 [label="hematokrit <= 0.45\ngini = 0.38\nsamples = 4\nvalue = [3, 1]\nclass = 0", fillcolor="#eeab7b"] ;
158 -> 160 ;
161 [label="gini = 0.0\nsamples = 2\nvalue = [2, 0]\nclass = 0", fillcolor="#e58139"] ;
160 -> 161 ;
162 [label="gini = 0.5\nsamples = 2\nvalue = [1, 1]\nclass = 0", fillcolor="#ffffff"] ;
160 -> 162 ;
163 [label="etytr <= 0.31\ngini = 0.16\nsamples = 80\nvalue = [7, 73]\nclass = 1", fillcolor="#4ca6e7"] ;
157 -> 163 ;
164 [label="erytrocyty <= 0.59\ngini = 0.08\nsamples = 75\nvalue = [3, 72]\nclass = 1", fillcolor="#41a1e6"] ;
163 -> 164 ;
165 [label="leukocyty <= 0.28\ngini = 0.21\nsamples = 25\nvalue = [3, 22]\nclass = 1", fillcolor="#54aae9"] ;
164 -> 165 ;
166 [label="gini = 0.0\nsamples = 22\nvalue = [0, 22]\nclass = 1", fillcolor="#399de5"] ;
165 -> 166 ;
167 [label="gini = 0.0\nsamples = 3\nvalue = [3, 0]\nclass = 0", fillcolor="#e58139"] ;
165 -> 167 ;
168 [label="gini = 0.0\nsamples = 50\nvalue = [0, 50]\nclass = 1", fillcolor="#399de5"] ;
164 -> 168 ;
169 [label="leukocyty <= 0.26\ngini = 0.32\nsamples = 5\nvalue = [4, 1]\nclass = 0", fillcolor="#eca06a"] ;
163 -> 169 ;
170 [label="gini = 0.0\nsamples = 3\nvalue = [3, 0]\nclass = 0", fillcolor="#e58139"] ;
169 -> 170 ;
171 [label="gini = 0.5\nsamples = 2\nvalue = [1, 1]\nclass = 0", fillcolor="#ffffff"] ;
169 -> 171 ;
172 [label="erytrocyty <= 0.57\ngini = 0.49\nsamples = 5728\nvalue = [2513, 3215]\nclass = 1", fillcolor="#d4eaf9"] ;
0 -> 172 [labeldistance=2.5, labelangle=-45, headlabel="False"] ;
173 [label="hbver <= 0.44\ngini = 0.47\nsamples = 3912\nvalue = [1507, 2405]\nclass = 1", fillcolor="#b5daf5"] ;
172 -> 173 ;
174 [label="leukocyty <= 0.75\ngini = 0.16\nsamples = 2139\nvalue = [182, 1957]\nclass = 1", fillcolor="#4ba6e7"] ;
173 -> 174 ;
175 [label="etytr <= 0.3\ngini = 0.09\nsamples = 2044\nvalue = [97, 1947]\nclass = 1", fillcolor="#43a2e6"] ;
174 -> 175 ;
176 [label="etytr <= 0.29\ngini = 0.5\nsamples = 43\nvalue = [23, 20]\nclass = 0", fillcolor="#fcefe5"] ;
175 -> 176 ;
177 [label="erytrocyty <= 0.46\ngini = 0.49\nsamples = 34\nvalue = [15, 19]\nclass = 1", fillcolor="#d5eafa"] ;
176 -> 177 ;
178 [label="blood_group <= 3.5\ngini = 0.26\nsamples = 20\nvalue = [3, 17]\nclass = 1", fillcolor="#5caeea"] ;
177 -> 178 ;
179 [label="hbver <= 0.37\ngini = 0.38\nsamples = 12\nvalue = [3, 9]\nclass = 1", fillcolor="#7bbeee"] ;
178 -> 179 ;
180 [label="er-cv <= 0.38\ngini = 0.2\nsamples = 9\nvalue = [1, 8]\nclass = 1", fillcolor="#52a9e8"] ;
179 -> 180 ;
181 [label="gini = 0.5\nsamples = 2\nvalue = [1, 1]\nclass = 0", fillcolor="#ffffff"] ;
180 -> 181 ;
182 [label="gini = 0.0\nsamples = 7\nvalue = [0, 7]\nclass = 1", fillcolor="#399de5"] ;
180 -> 182 ;
183 [label="gini = 0.44\nsamples = 3\nvalue = [2, 1]\nclass = 0", fillcolor="#f2c09c"] ;
179 -> 183 ;
184 [label="gini = 0.0\nsamples = 8\nvalue = [0, 8]\nclass = 1", fillcolor="#399de5"] ;
178 -> 184 ;
185 [label="etytr <= 0.28\ngini = 0.24\nsamples = 14\nvalue = [12, 2]\nclass = 0", fillcolor="#e9965a"] ;
177 -> 185 ;
186 [label="leukocyty <= 0.41\ngini = 0.15\nsamples = 12\nvalue = [11, 1]\nclass = 0", fillcolor="#e78c4b"] ;
185 -> 186 ;
187 [label="gini = 0.44\nsamples = 3\nvalue = [2, 1]\nclass = 0", fillcolor="#f2c09c"] ;
186 -> 187 ;
188 [label="gini = 0.0\nsamples = 9\nvalue = [9, 0]\nclass = 0", fillcolor="#e58139"] ;
186 -> 188 ;
189 [label="gini = 0.5\nsamples = 2\nvalue = [1, 1]\nclass = 0", fillcolor="#ffffff"] ;
185 -> 189 ;
190 [label="blood_group <= 1.5\ngini = 0.2\nsamples = 9\nvalue = [8, 1]\nclass = 0", fillcolor="#e89152"] ;
176 -> 190 ;
191 [label="gini = 0.5\nsamples = 2\nvalue = [1, 1]\nclass = 0", fillcolor="#ffffff"] ;
190 -> 191 ;
192 [label="gini = 0.0\nsamples = 7\nvalue = [7, 0]\nclass = 0", fillcolor="#e58139"] ;
190 -> 192 ;
193 [label="hbver <= 0.38\ngini = 0.07\nsamples = 2001\nvalue = [74, 1927]\nclass = 1", fillcolor="#41a1e6"] ;
175 -> 193 ;
194 [label="etytr <= 0.39\ngini = 0.05\nsamples = 1568\nvalue = [43, 1525]\nclass = 1", fillcolor="#3fa0e6"] ;
193 -> 194 ;
195 [label="blood_group <= 0.5\ngini = 0.19\nsamples = 92\nvalue = [10, 82]\nclass = 1", fillcolor="#51a9e8"] ;
194 -> 195 ;
196 [label="erytrocyty <= 0.38\ngini = 0.49\nsamples = 9\nvalue = [4, 5]\nclass = 1", fillcolor="#d7ebfa"] ;
195 -> 196 ;
197 [label="gini = 0.0\nsamples = 4\nvalue = [0, 4]\nclass = 1", fillcolor="#399de5"] ;
196 -> 197 ;
198 [label="er-cv <= 0.45\ngini = 0.32\nsamples = 5\nvalue = [4, 1]\nclass = 0", fillcolor="#eca06a"] ;
196 -> 198 ;
199 [label="gini = 0.5\nsamples = 2\nvalue = [1, 1]\nclass = 0", fillcolor="#ffffff"] ;
198 -> 199 ;
200 [label="gini = 0.0\nsamples = 3\nvalue = [3, 0]\nclass = 0", fillcolor="#e58139"] ;
198 -> 200 ;
201 [label="smoker <= 0.5\ngini = 0.13\nsamples = 83\nvalue = [6, 77]\nclass = 1", fillcolor="#48a5e7"] ;
195 -> 201 ;
202 [label="leukocyty <= 0.65\ngini = 0.21\nsamples = 41\nvalue = [5, 36]\nclass = 1", fillcolor="#54abe9"] ;
201 -> 202 ;
203 [label="er-cv <= 0.77\ngini = 0.1\nsamples = 38\nvalue = [2, 36]\nclass = 1", fillcolor="#44a2e6"] ;
202 -> 203 ;
204 [label="etytr <= 0.38\ngini = 0.05\nsamples = 36\nvalue = [1, 35]\nclass = 1", fillcolor="#3fa0e6"] ;
203 -> 204 ;
205 [label="gini = 0.0\nsamples = 34\nvalue = [0, 34]\nclass = 1", fillcolor="#399de5"] ;
204 -> 205 ;
206 [label="gini = 0.5\nsamples = 2\nvalue = [1, 1]\nclass = 0", fillcolor="#ffffff"] ;
204 -> 206 ;
207 [label="gini = 0.5\nsamples = 2\nvalue = [1, 1]\nclass = 0", fillcolor="#ffffff"] ;
203 -> 207 ;
208 [label="gini = 0.0\nsamples = 3\nvalue = [3, 0]\nclass = 0", fillcolor="#e58139"] ;
202 -> 208 ;
209 [label="erytrocyty <= 0.52\ngini = 0.05\nsamples = 42\nvalue = [1, 41]\nclass = 1", fillcolor="#3e9fe6"] ;
201 -> 209 ;
210 [label="gini = 0.0\nsamples = 40\nvalue = [0, 40]\nclass = 1", fillcolor="#399de5"] ;
209 -> 210 ;
211 [label="gini = 0.5\nsamples = 2\nvalue = [1, 1]\nclass = 0", fillcolor="#ffffff"] ;
209 -> 211 ;
212 [label="erytrocyty <= 0.1\ngini = 0.04\nsamples = 1476\nvalue = [33, 1443]\nclass = 1", fillcolor="#3e9fe6"] ;
194 -> 212 ;
213 [label="smoker <= 0.5\ngini = 0.38\nsamples = 4\nvalue = [1, 3]\nclass = 1", fillcolor="#7bbeee"] ;
212 -> 213 ;
214 [label="gini = 0.5\nsamples = 2\nvalue = [1, 1]\nclass = 0", fillcolor="#ffffff"] ;
213 -> 214 ;
215 [label="gini = 0.0\nsamples = 2\nvalue = [0, 2]\nclass = 1", fillcolor="#399de5"] ;
213 -> 215 ;
216 [label="hematokrit <= 0.07\ngini = 0.04\nsamples = 1472\nvalue = [32, 1440]\nclass = 1", fillcolor="#3d9fe6"] ;
212 -> 216 ;
217 [label="leukocyty <= 0.48\ngini = 0.24\nsamples = 7\nvalue = [1, 6]\nclass = 1", fillcolor="#5aade9"] ;
216 -> 217 ;
218 [label="gini = 0.5\nsamples = 2\nvalue = [1, 1]\nclass = 0", fillcolor="#ffffff"] ;
217 -> 218 ;
219 [label="gini = 0.0\nsamples = 5\nvalue = [0, 5]\nclass = 1", fillcolor="#399de5"] ;
217 -> 219 ;
220 [label="er-cv <= 0.42\ngini = 0.04\nsamples = 1465\nvalue = [31, 1434]\nclass = 1", fillcolor="#3d9fe6"] ;
216 -> 220 ;
221 [label="er-cv <= 0.42\ngini = 0.06\nsamples = 516\nvalue = [16, 500]\nclass = 1", fillcolor="#3fa0e6"] ;
220 -> 221 ;
222 [label="er-cv <= 0.4\ngini = 0.06\nsamples = 514\nvalue = [15, 499]\nclass = 1", fillcolor="#3fa0e6"] ;
221 -> 222 ;
223 [label="leukocyty <= 0.58\ngini = 0.04\nsamples = 443\nvalue = [10, 433]\nclass = 1", fillcolor="#3e9fe6"] ;
222 -> 223 ;
224 [label="smoker <= 0.5\ngini = 0.06\nsamples = 304\nvalue = [10, 294]\nclass = 1", fillcolor="#40a0e6"] ;
223 -> 224 ;
225 [label="etytr <= 0.4\ngini = 0.03\nsamples = 173\nvalue = [3, 170]\nclass = 1", fillcolor="#3c9fe5"] ;
224 -> 225 ;
226 [label="leukocyty <= 0.55\ngini = 0.38\nsamples = 4\nvalue = [1, 3]\nclass = 1", fillcolor="#7bbeee"] ;
225 -> 226 ;
227 [label="gini = 0.5\nsamples = 2\nvalue = [1, 1]\nclass = 0", fillcolor="#ffffff"] ;
226 -> 227 ;
228 [label="gini = 0.0\nsamples = 2\nvalue = [0, 2]\nclass = 1", fillcolor="#399de5"] ;
226 -> 228 ;
229 [label="hematokrit <= 0.23\ngini = 0.02\nsamples = 169\nvalue = [2, 167]\nclass = 1", fillcolor="#3b9ee5"] ;
225 -> 229 ;
230 [label="hbver <= 0.32\ngini = 0.14\nsamples = 13\nvalue = [1, 12]\nclass = 1", fillcolor="#49a5e7"] ;
229 -> 230 ;
231 [label="gini = 0.0\nsamples = 10\nvalue = [0, 10]\nclass = 1", fillcolor="#399de5"] ;
230 -> 231 ;
232 [label="gini = 0.44\nsamples = 3\nvalue = [1, 2]\nclass = 1", fillcolor="#9ccef2"] ;
230 -> 232 ;
233 [label="blood_group <= 0.5\ngini = 0.01\nsamples = 156\nvalue = [1, 155]\nclass = 1", fillcolor="#3a9ee5"] ;
229 -> 233 ;
234 [label="hematokrit <= 0.51\ngini = 0.08\nsamples = 23\nvalue = [1, 22]\nclass = 1", fillcolor="#42a1e6"] ;
233 -> 234 ;
235 [label="etytr <= 0.51\ngini = 0.22\nsamples = 8\nvalue = [1, 7]\nclass = 1", fillcolor="#55abe9"] ;
234 -> 235 ;
236 [label="gini = 0.0\nsamples = 5\nvalue = [0, 5]\nclass = 1", fillcolor="#399de5"] ;
235 -> 236 ;
237 [label="gini = 0.44\nsamples = 3\nvalue = [1, 2]\nclass = 1", fillcolor="#9ccef2"] ;
235 -> 237 ;
238 [label="gini = 0.0\nsamples = 15\nvalue = [0, 15]\nclass = 1", fillcolor="#399de5"] ;
234 -> 238 ;
239 [label="gini = 0.0\nsamples = 133\nvalue = [0, 133]\nclass = 1", fillcolor="#399de5"] ;
233 -> 239 ;
240 [label="er-cv <= 0.37\ngini = 0.1\nsamples = 131\nvalue = [7, 124]\nclass = 1", fillcolor="#44a3e6"] ;
224 -> 240 ;
241 [label="erytrocyty <= 0.33\ngini = 0.13\nsamples = 104\nvalue = [7, 97]\nclass = 1", fillcolor="#47a4e7"] ;
240 -> 241 ;
242 [label="blood_group <= 3.5\ngini = 0.24\nsamples = 28\nvalue = [4, 24]\nclass = 1", fillcolor="#5aade9"] ;
241 -> 242 ;
243 [label="hematokrit <= 0.55\ngini = 0.36\nsamples = 17\nvalue = [4, 13]\nclass = 1", fillcolor="#76bbed"] ;
242 -> 243 ;
244 [label="leukocyty <= 0.53\ngini = 0.48\nsamples = 10\nvalue = [4, 6]\nclass = 1", fillcolor="#bddef6"] ;
243 -> 244 ;
245 [label="er-cv <= 0.28\ngini = 0.38\nsamples = 4\nvalue = [1, 3]\nclass = 1", fillcolor="#7bbeee"] ;
244 -> 245 ;
246 [label="gini = 0.5\nsamples = 2\nvalue = [1, 1]\nclass = 0", fillcolor="#ffffff"] ;
245 -> 246 ;
247 [label="gini = 0.0\nsamples = 2\nvalue = [0, 2]\nclass = 1", fillcolor="#399de5"] ;
245 -> 247 ;
248 [label="erytrocyty <= 0.31\ngini = 0.5\nsamples = 6\nvalue = [3, 3]\nclass = 0", fillcolor="#ffffff"] ;
244 -> 248 ;
249 [label="blood_group <= 2.0\ngini = 0.38\nsamples = 4\nvalue = [1, 3]\nclass = 1", fillcolor="#7bbeee"] ;
248 -> 249 ;
250 [label="gini = 0.0\nsamples = 2\nvalue = [0, 2]\nclass = 1", fillcolor="#399de5"] ;
249 -> 250 ;
251 [label="gini = 0.5\nsamples = 2\nvalue = [1, 1]\nclass = 0", fillcolor="#ffffff"] ;
249 -> 251 ;
252 [label="gini = 0.0\nsamples = 2\nvalue = [2, 0]\nclass = 0", fillcolor="#e58139"] ;
248 -> 252 ;
253 [label="gini = 0.0\nsamples = 7\nvalue = [0, 7]\nclass = 1", fillcolor="#399de5"] ;
243 -> 253 ;
254 [label="gini = 0.0\nsamples = 11\nvalue = [0, 11]\nclass = 1", fillcolor="#399de5"] ;
242 -> 254 ;
255 [label="leukocyty <= 0.58\ngini = 0.08\nsamples = 76\nvalue = [3, 73]\nclass = 1", fillcolor="#41a1e6"] ;
241 -> 255 ;
256 [label="etytr <= 0.41\ngini = 0.05\nsamples = 74\nvalue = [2, 72]\nclass = 1", fillcolor="#3ea0e6"] ;
255 -> 256 ;
257 [label="erytrocyty <= 0.48\ngini = 0.38\nsamples = 4\nvalue = [1, 3]\nclass = 1", fillcolor="#7bbeee"] ;
256 -> 257 ;
258 [label="gini = 0.0\nsamples = 2\nvalue = [0, 2]\nclass = 1", fillcolor="#399de5"] ;
257 -> 258 ;
259 [label="gini = 0.5\nsamples = 2\nvalue = [1, 1]\nclass = 0", fillcolor="#ffffff"] ;
257 -> 259 ;
260 [label="erytrocyty <= 0.43\ngini = 0.03\nsamples = 70\nvalue = [1, 69]\nclass = 1", fillcolor="#3c9ee5"] ;
256 -> 260 ;
261 [label="er-cv <= 0.33\ngini = 0.07\nsamples = 28\nvalue = [1, 27]\nclass = 1", fillcolor="#40a1e6"] ;
260 -> 261 ;
262 [label="gini = 0.0\nsamples = 24\nvalue = [0, 24]\nclass = 1", fillcolor="#399de5"] ;
261 -> 262 ;
263 [label="er-cv <= 0.35\ngini = 0.38\nsamples = 4\nvalue = [1, 3]\nclass = 1", fillcolor="#7bbeee"] ;
261 -> 263 ;
264 [label="gini = 0.5\nsamples = 2\nvalue = [1, 1]\nclass = 0", fillcolor="#ffffff"] ;
263 -> 264 ;
265 [label="gini = 0.0\nsamples = 2\nvalue = [0, 2]\nclass = 1", fillcolor="#399de5"] ;
263 -> 265 ;
266 [label="gini = 0.0\nsamples = 42\nvalue = [0, 42]\nclass = 1", fillcolor="#399de5"] ;
260 -> 266 ;
267 [label="gini = 0.5\nsamples = 2\nvalue = [1, 1]\nclass = 0", fillcolor="#ffffff"] ;
255 -> 267 ;
268 [label="gini = 0.0\nsamples = 27\nvalue = [0, 27]\nclass = 1", fillcolor="#399de5"] ;
240 -> 268 ;
269 [label="gini = 0.0\nsamples = 139\nvalue = [0, 139]\nclass = 1", fillcolor="#399de5"] ;
223 -> 269 ;
270 [label="leukocyty <= 0.64\ngini = 0.13\nsamples = 71\nvalue = [5, 66]\nclass = 1", fillcolor="#48a4e7"] ;
222 -> 270 ;
271 [label="erytrocyty <= 0.27\ngini = 0.11\nsamples = 69\nvalue = [4, 65]\nclass = 1", fillcolor="#45a3e7"] ;
270 -> 271 ;
272 [label="hbver <= 0.21\ngini = 0.41\nsamples = 7\nvalue = [2, 5]\nclass = 1", fillcolor="#88c4ef"] ;
271 -> 272 ;
273 [label="gini = 0.0\nsamples = 2\nvalue = [2, 0]\nclass = 0", fillcolor="#e58139"] ;
272 -> 273 ;
274 [label="gini = 0.0\nsamples = 5\nvalue = [0, 5]\nclass = 1", fillcolor="#399de5"] ;
272 -> 274 ;
275 [label="hbver <= 0.36\ngini = 0.06\nsamples = 62\nvalue = [2, 60]\nclass = 1", fillcolor="#40a0e6"] ;
271 -> 275 ;
276 [label="leukocyty <= 0.48\ngini = 0.03\nsamples = 57\nvalue = [1, 56]\nclass = 1", fillcolor="#3d9fe5"] ;
275 -> 276 ;
277 [label="etytr <= 0.58\ngini = 0.14\nsamples = 13\nvalue = [1, 12]\nclass = 1", fillcolor="#49a5e7"] ;
276 -> 277 ;
278 [label="gini = 0.0\nsamples = 9\nvalue = [0, 9]\nclass = 1", fillcolor="#399de5"] ;
277 -> 278 ;
279 [label="hematokrit <= 0.41\ngini = 0.38\nsamples = 4\nvalue = [1, 3]\nclass = 1", fillcolor="#7bbeee"] ;
277 -> 279 ;
280 [label="gini = 0.0\nsamples = 2\nvalue = [0, 2]\nclass = 1", fillcolor="#399de5"] ;
279 -> 280 ;
281 [label="gini = 0.5\nsamples = 2\nvalue = [1, 1]\nclass = 0", fillcolor="#ffffff"] ;
279 -> 281 ;
282 [label="gini = 0.0\nsamples = 44\nvalue = [0, 44]\nclass = 1", fillcolor="#399de5"] ;
276 -> 282 ;
283 [label="hematokrit <= 0.47\ngini = 0.32\nsamples = 5\nvalue = [1, 4]\nclass = 1", fillcolor="#6ab6ec"] ;
275 -> 283 ;
284 [label="gini = 0.0\nsamples = 3\nvalue = [0, 3]\nclass = 1", fillcolor="#399de5"] ;
283 -> 284 ;
285 [label="gini = 0.5\nsamples = 2\nvalue = [1, 1]\nclass = 0", fillcolor="#ffffff"] ;
283 -> 285 ;
286 [label="gini = 0.5\nsamples = 2\nvalue = [1, 1]\nclass = 0", fillcolor="#ffffff"] ;
270 -> 286 ;
287 [label="gini = 0.5\nsamples = 2\nvalue = [1, 1]\nclass = 0", fillcolor="#ffffff"] ;
221 -> 287 ;
288 [label="erytrocyty <= 0.49\ngini = 0.03\nsamples = 949\nvalue = [15, 934]\nclass = 1", fillcolor="#3c9fe5"] ;
220 -> 288 ;
289 [label="leukocyty <= 0.68\ngini = 0.02\nsamples = 794\nvalue = [8, 786]\nclass = 1", fillcolor="#3b9ee5"] ;
288 -> 289 ;
290 [label="smoker <= 0.5\ngini = 0.02\nsamples = 781\nvalue = [7, 774]\nclass = 1", fillcolor="#3b9ee5"] ;
289 -> 290 ;
291 [label="etytr <= 0.39\ngini = 0.03\nsamples = 428\nvalue = [7, 421]\nclass = 1", fillcolor="#3c9fe5"] ;
290 -> 291 ;
292 [label="hematokrit <= 0.48\ngini = 0.32\nsamples = 5\nvalue = [1, 4]\nclass = 1", fillcolor="#6ab6ec"] ;
291 -> 292 ;
293 [label="gini = 0.5\nsamples = 2\nvalue = [1, 1]\nclass = 0", fillcolor="#ffffff"] ;
292 -> 293 ;
294 [label="gini = 0.0\nsamples = 3\nvalue = [0, 3]\nclass = 1", fillcolor="#399de5"] ;
292 -> 294 ;
295 [label="hbver <= 0.26\ngini = 0.03\nsamples = 423\nvalue = [6, 417]\nclass = 1", fillcolor="#3c9ee5"] ;
291 -> 295 ;
296 [label="gini = 0.0\nsamples = 166\nvalue = [0, 166]\nclass = 1", fillcolor="#399de5"] ;
295 -> 296 ;
297 [label="leukocyty <= 0.58\ngini = 0.05\nsamples = 257\nvalue = [6, 251]\nclass = 1", fillcolor="#3e9fe6"] ;
295 -> 297 ;
298 [label="hematokrit <= 0.5\ngini = 0.08\nsamples = 151\nvalue = [6, 145]\nclass = 1", fillcolor="#41a1e6"] ;
297 -> 298 ;
299 [label="hematokrit <= 0.49\ngini = 0.14\nsamples = 68\nvalue = [5, 63]\nclass = 1", fillcolor="#49a5e7"] ;
298 -> 299 ;
300 [label="er-cv <= 0.62\ngini = 0.11\nsamples = 66\nvalue = [4, 62]\nclass = 1", fillcolor="#46a3e7"] ;
299 -> 300 ;
301 [label="etytr <= 0.54\ngini = 0.05\nsamples = 41\nvalue = [1, 40]\nclass = 1", fillcolor="#3e9fe6"] ;
300 -> 301 ;
302 [label="leukocyty <= 0.56\ngini = 0.12\nsamples = 16\nvalue = [1, 15]\nclass = 1", fillcolor="#46a4e7"] ;
301 -> 302 ;
303 [label="gini = 0.0\nsamples = 11\nvalue = [0, 11]\nclass = 1", fillcolor="#399de5"] ;
302 -> 303 ;
304 [label="hbver <= 0.31\ngini = 0.32\nsamples = 5\nvalue = [1, 4]\nclass = 1", fillcolor="#6ab6ec"] ;
302 -> 304 ;
305 [label="gini = 0.5\nsamples = 2\nvalue = [1, 1]\nclass = 0", fillcolor="#ffffff"] ;
304 -> 305 ;
306 [label="gini = 0.0\nsamples = 3\nvalue = [0, 3]\nclass = 1", fillcolor="#399de5"] ;
304 -> 306 ;
307 [label="gini = 0.0\nsamples = 25\nvalue = [0, 25]\nclass = 1", fillcolor="#399de5"] ;
301 -> 307 ;
308 [label="er-cv <= 0.67\ngini = 0.21\nsamples = 25\nvalue = [3, 22]\nclass = 1", fillcolor="#54aae9"] ;
300 -> 308 ;
309 [label="erytrocyty <= 0.41\ngini = 0.5\nsamples = 4\nvalue = [2, 2]\nclass = 0", fillcolor="#ffffff"] ;
308 -> 309 ;
310 [label="gini = 0.5\nsamples = 2\nvalue = [1, 1]\nclass = 0", fillcolor="#ffffff"] ;
309 -> 310 ;
311 [label="gini = 0.5\nsamples = 2\nvalue = [1, 1]\nclass = 0", fillcolor="#ffffff"] ;
309 -> 311 ;
312 [label="leukocyty <= 0.51\ngini = 0.09\nsamples = 21\nvalue = [1, 20]\nclass = 1", fillcolor="#43a2e6"] ;
308 -> 312 ;
313 [label="hematokrit <= 0.39\ngini = 0.32\nsamples = 5\nvalue = [1, 4]\nclass = 1", fillcolor="#6ab6ec"] ;
312 -> 313 ;
314 [label="gini = 0.0\nsamples = 3\nvalue = [0, 3]\nclass = 1", fillcolor="#399de5"] ;
313 -> 314 ;
315 [label="gini = 0.5\nsamples = 2\nvalue = [1, 1]\nclass = 0", fillcolor="#ffffff"] ;
313 -> 315 ;
316 [label="gini = 0.0\nsamples = 16\nvalue = [0, 16]\nclass = 1", fillcolor="#399de5"] ;
312 -> 316 ;
317 [label="gini = 0.5\nsamples = 2\nvalue = [1, 1]\nclass = 0", fillcolor="#ffffff"] ;
299 -> 317 ;
318 [label="er-cv <= 0.46\ngini = 0.02\nsamples = 83\nvalue = [1, 82]\nclass = 1", fillcolor="#3b9ee5"] ;
298 -> 318 ;
319 [label="hematokrit <= 0.7\ngini = 0.22\nsamples = 8\nvalue = [1, 7]\nclass = 1", fillcolor="#55abe9"] ;
318 -> 319 ;
320 [label="gini = 0.0\nsamples = 6\nvalue = [0, 6]\nclass = 1", fillcolor="#399de5"] ;
319 -> 320 ;
321 [label="gini = 0.5\nsamples = 2\nvalue = [1, 1]\nclass = 0", fillcolor="#ffffff"] ;
319 -> 321 ;
322 [label="gini = 0.0\nsamples = 75\nvalue = [0, 75]\nclass = 1", fillcolor="#399de5"] ;
318 -> 322 ;
323 [label="gini = 0.0\nsamples = 106\nvalue = [0, 106]\nclass = 1", fillcolor="#399de5"] ;
297 -> 323 ;
324 [label="gini = 0.0\nsamples = 353\nvalue = [0, 353]\nclass = 1", fillcolor="#399de5"] ;
290 -> 324 ;
325 [label="blood_group <= 4.5\ngini = 0.14\nsamples = 13\nvalue = [1, 12]\nclass = 1", fillcolor="#49a5e7"] ;
289 -> 325 ;
326 [label="gini = 0.44\nsamples = 3\nvalue = [1, 2]\nclass = 1", fillcolor="#9ccef2"] ;
325 -> 326 ;
327 [label="gini = 0.0\nsamples = 10\nvalue = [0, 10]\nclass = 1", fillcolor="#399de5"] ;
325 -> 327 ;
328 [label="leukocyty <= 0.44\ngini = 0.09\nsamples = 155\nvalue = [7, 148]\nclass = 1", fillcolor="#42a2e6"] ;
288 -> 328 ;
329 [label="hematokrit <= 0.51\ngini = 0.4\nsamples = 11\nvalue = [3, 8]\nclass = 1", fillcolor="#83c2ef"] ;
328 -> 329 ;
330 [label="leukocyty <= 0.39\ngini = 0.5\nsamples = 6\nvalue = [3, 3]\nclass = 0", fillcolor="#ffffff"] ;
329 -> 330 ;
331 [label="gini = 0.0\nsamples = 2\nvalue = [0, 2]\nclass = 1", fillcolor="#399de5"] ;
330 -> 331 ;
332 [label="hematokrit <= 0.37\ngini = 0.38\nsamples = 4\nvalue = [3, 1]\nclass = 0", fillcolor="#eeab7b"] ;
330 -> 332 ;
333 [label="gini = 0.5\nsamples = 2\nvalue = [1, 1]\nclass = 0", fillcolor="#ffffff"] ;
332 -> 333 ;
334 [label="gini = 0.0\nsamples = 2\nvalue = [2, 0]\nclass = 0", fillcolor="#e58139"] ;
332 -> 334 ;
335 [label="gini = 0.0\nsamples = 5\nvalue = [0, 5]\nclass = 1", fillcolor="#399de5"] ;
329 -> 335 ;
336 [label="erytrocyty <= 0.49\ngini = 0.05\nsamples = 144\nvalue = [4, 140]\nclass = 1", fillcolor="#3fa0e6"] ;
328 -> 336 ;
337 [label="gini = 0.5\nsamples = 2\nvalue = [1, 1]\nclass = 0", fillcolor="#ffffff"] ;
336 -> 337 ;
338 [label="hbver <= 0.36\ngini = 0.04\nsamples = 142\nvalue = [3, 139]\nclass = 1", fillcolor="#3d9fe6"] ;
336 -> 338 ;
339 [label="erytrocyty <= 0.51\ngini = 0.03\nsamples = 128\nvalue = [2, 126]\nclass = 1", fillcolor="#3c9fe5"] ;
338 -> 339 ;
340 [label="erytrocyty <= 0.51\ngini = 0.09\nsamples = 41\nvalue = [2, 39]\nclass = 1", fillcolor="#43a2e6"] ;
339 -> 340 ;
341 [label="er-cv <= 0.47\ngini = 0.05\nsamples = 39\nvalue = [1, 38]\nclass = 1", fillcolor="#3ea0e6"] ;
340 -> 341 ;
342 [label="leukocyty <= 0.51\ngini = 0.28\nsamples = 6\nvalue = [1, 5]\nclass = 1", fillcolor="#61b1ea"] ;
341 -> 342 ;
343 [label="gini = 0.0\nsamples = 4\nvalue = [0, 4]\nclass = 1", fillcolor="#399de5"] ;
342 -> 343 ;
344 [label="gini = 0.5\nsamples = 2\nvalue = [1, 1]\nclass = 0", fillcolor="#ffffff"] ;
342 -> 344 ;
345 [label="gini = 0.0\nsamples = 33\nvalue = [0, 33]\nclass = 1", fillcolor="#399de5"] ;
341 -> 345 ;
346 [label="gini = 0.5\nsamples = 2\nvalue = [1, 1]\nclass = 0", fillcolor="#ffffff"] ;
340 -> 346 ;
347 [label="gini = 0.0\nsamples = 87\nvalue = [0, 87]\nclass = 1", fillcolor="#399de5"] ;
339 -> 347 ;
348 [label="erytrocyty <= 0.5\ngini = 0.13\nsamples = 14\nvalue = [1, 13]\nclass = 1", fillcolor="#48a5e7"] ;
338 -> 348 ;
349 [label="gini = 0.44\nsamples = 3\nvalue = [1, 2]\nclass = 1", fillcolor="#9ccef2"] ;
348 -> 349 ;
350 [label="gini = 0.0\nsamples = 11\nvalue = [0, 11]\nclass = 1", fillcolor="#399de5"] ;
348 -> 350 ;
351 [label="erytrocyty <= 0.57\ngini = 0.13\nsamples = 433\nvalue = [31, 402]\nclass = 1", fillcolor="#48a5e7"] ;
193 -> 351 ;
352 [label="leukocyty <= 0.46\ngini = 0.12\nsamples = 427\nvalue = [28, 399]\nclass = 1", fillcolor="#47a4e7"] ;
351 -> 352 ;
353 [label="gini = 0.0\nsamples = 3\nvalue = [3, 0]\nclass = 0", fillcolor="#e58139"] ;
352 -> 353 ;
354 [label="etytr <= 0.45\ngini = 0.11\nsamples = 424\nvalue = [25, 399]\nclass = 1", fillcolor="#45a3e7"] ;
352 -> 354 ;
355 [label="erytrocyty <= 0.4\ngini = 0.37\nsamples = 66\nvalue = [16, 50]\nclass = 1", fillcolor="#78bced"] ;
354 -> 355 ;
356 [label="leukocyty <= 0.71\ngini = 0.07\nsamples = 29\nvalue = [1, 28]\nclass = 1", fillcolor="#40a0e6"] ;
355 -> 356 ;
357 [label="gini = 0.0\nsamples = 27\nvalue = [0, 27]\nclass = 1", fillcolor="#399de5"] ;
356 -> 357 ;
358 [label="gini = 0.5\nsamples = 2\nvalue = [1, 1]\nclass = 0", fillcolor="#ffffff"] ;
356 -> 358 ;
359 [label="er-cv <= 0.47\ngini = 0.48\nsamples = 37\nvalue = [15, 22]\nclass = 1", fillcolor="#c0e0f7"] ;
355 -> 359 ;
360 [label="hematokrit <= 0.44\ngini = 0.4\nsamples = 11\nvalue = [8, 3]\nclass = 0", fillcolor="#efb083"] ;
359 -> 360 ;
361 [label="gini = 0.0\nsamples = 5\nvalue = [5, 0]\nclass = 0", fillcolor="#e58139"] ;
360 -> 361 ;
362 [label="etytr <= 0.4\ngini = 0.5\nsamples = 6\nvalue = [3, 3]\nclass = 0", fillcolor="#ffffff"] ;
360 -> 362 ;
363 [label="gini = 0.0\nsamples = 3\nvalue = [3, 0]\nclass = 0", fillcolor="#e58139"] ;
362 -> 363 ;
364 [label="gini = 0.0\nsamples = 3\nvalue = [0, 3]\nclass = 1", fillcolor="#399de5"] ;
362 -> 364 ;
365 [label="etytr <= 0.44\ngini = 0.39\nsamples = 26\nvalue = [7, 19]\nclass = 1", fillcolor="#82c1ef"] ;
359 -> 365 ;
366 [label="smoker <= 0.5\ngini = 0.34\nsamples = 23\nvalue = [5, 18]\nclass = 1", fillcolor="#70b8ec"] ;
365 -> 366 ;
367 [label="etytr <= 0.39\ngini = 0.49\nsamples = 12\nvalue = [5, 7]\nclass = 1", fillcolor="#c6e3f8"] ;
366 -> 367 ;
368 [label="etytr <= 0.35\ngini = 0.28\nsamples = 6\nvalue = [5, 1]\nclass = 0", fillcolor="#ea9a61"] ;
367 -> 368 ;
369 [label="gini = 0.5\nsamples = 2\nvalue = [1, 1]\nclass = 0", fillcolor="#ffffff"] ;
368 -> 369 ;
370 [label="gini = 0.0\nsamples = 4\nvalue = [4, 0]\nclass = 0", fillcolor="#e58139"] ;
368 -> 370 ;
371 [label="gini = 0.0\nsamples = 6\nvalue = [0, 6]\nclass = 1", fillcolor="#399de5"] ;
367 -> 371 ;
372 [label="gini = 0.0\nsamples = 11\nvalue = [0, 11]\nclass = 1", fillcolor="#399de5"] ;
366 -> 372 ;
373 [label="gini = 0.44\nsamples = 3\nvalue = [2, 1]\nclass = 0", fillcolor="#f2c09c"] ;
365 -> 373 ;
374 [label="erytrocyty <= 0.12\ngini = 0.05\nsamples = 358\nvalue = [9, 349]\nclass = 1", fillcolor="#3ea0e6"] ;
354 -> 374 ;
375 [label="gini = 0.44\nsamples = 3\nvalue = [1, 2]\nclass = 1", fillcolor="#9ccef2"] ;
374 -> 375 ;
376 [label="hematokrit <= 0.12\ngini = 0.04\nsamples = 355\nvalue = [8, 347]\nclass = 1", fillcolor="#3e9fe6"] ;
374 -> 376 ;
377 [label="leukocyty <= 0.61\ngini = 0.32\nsamples = 5\nvalue = [1, 4]\nclass = 1", fillcolor="#6ab6ec"] ;
376 -> 377 ;
378 [label="gini = 0.5\nsamples = 2\nvalue = [1, 1]\nclass = 0", fillcolor="#ffffff"] ;
377 -> 378 ;
379 [label="gini = 0.0\nsamples = 3\nvalue = [0, 3]\nclass = 1", fillcolor="#399de5"] ;
377 -> 379 ;
380 [label="leukocyty <= 0.6\ngini = 0.04\nsamples = 350\nvalue = [7, 343]\nclass = 1", fillcolor="#3d9fe6"] ;
376 -> 380 ;
381 [label="leukocyty <= 0.6\ngini = 0.1\nsamples = 77\nvalue = [4, 73]\nclass = 1", fillcolor="#44a2e6"] ;
380 -> 381 ;
382 [label="erytrocyty <= 0.39\ngini = 0.08\nsamples = 75\nvalue = [3, 72]\nclass = 1", fillcolor="#41a1e6"] ;
381 -> 382 ;
383 [label="gini = 0.0\nsamples = 35\nvalue = [0, 35]\nclass = 1", fillcolor="#399de5"] ;
382 -> 383 ;
384 [label="etytr <= 0.51\ngini = 0.14\nsamples = 40\nvalue = [3, 37]\nclass = 1", fillcolor="#49a5e7"] ;
382 -> 384 ;
385 [label="hematokrit <= 0.43\ngini = 0.42\nsamples = 10\nvalue = [3, 7]\nclass = 1", fillcolor="#8ec7f0"] ;
384 -> 385 ;
386 [label="gini = 0.44\nsamples = 3\nvalue = [2, 1]\nclass = 0", fillcolor="#f2c09c"] ;
385 -> 386 ;
387 [label="etytr <= 0.51\ngini = 0.24\nsamples = 7\nvalue = [1, 6]\nclass = 1", fillcolor="#5aade9"] ;
385 -> 387 ;
388 [label="gini = 0.0\nsamples = 5\nvalue = [0, 5]\nclass = 1", fillcolor="#399de5"] ;
387 -> 388 ;
389 [label="gini = 0.5\nsamples = 2\nvalue = [1, 1]\nclass = 0", fillcolor="#ffffff"] ;
387 -> 389 ;
390 [label="gini = 0.0\nsamples = 30\nvalue = [0, 30]\nclass = 1", fillcolor="#399de5"] ;
384 -> 390 ;
391 [label="gini = 0.5\nsamples = 2\nvalue = [1, 1]\nclass = 0", fillcolor="#ffffff"] ;
381 -> 391 ;
392 [label="hbver <= 0.38\ngini = 0.02\nsamples = 273\nvalue = [3, 270]\nclass = 1", fillcolor="#3b9ee5"] ;
380 -> 392 ;
393 [label="hematokrit <= 0.79\ngini = 0.1\nsamples = 18\nvalue = [1, 17]\nclass = 1", fillcolor="#45a3e7"] ;
392 -> 393 ;
394 [label="gini = 0.0\nsamples = 16\nvalue = [0, 16]\nclass = 1", fillcolor="#399de5"] ;
393 -> 394 ;
395 [label="gini = 0.5\nsamples = 2\nvalue = [1, 1]\nclass = 0", fillcolor="#ffffff"] ;
393 -> 395 ;
396 [label="erytrocyty <= 0.42\ngini = 0.02\nsamples = 255\nvalue = [2, 253]\nclass = 1", fillcolor="#3b9ee5"] ;
392 -> 396 ;
397 [label="hbver <= 0.41\ngini = 0.03\nsamples = 124\nvalue = [2, 122]\nclass = 1", fillcolor="#3c9fe5"] ;
396 -> 397 ;
398 [label="hematokrit <= 0.41\ngini = 0.07\nsamples = 57\nvalue = [2, 55]\nclass = 1", fillcolor="#40a1e6"] ;
397 -> 398 ;
399 [label="hematokrit <= 0.4\ngini = 0.16\nsamples = 23\nvalue = [2, 21]\nclass = 1", fillcolor="#4ca6e7"] ;
398 -> 399 ;
400 [label="erytrocyty <= 0.41\ngini = 0.09\nsamples = 21\nvalue = [1, 20]\nclass = 1", fillcolor="#43a2e6"] ;
399 -> 400 ;
401 [label="gini = 0.0\nsamples = 19\nvalue = [0, 19]\nclass = 1", fillcolor="#399de5"] ;
400 -> 401 ;
402 [label="gini = 0.5\nsamples = 2\nvalue = [1, 1]\nclass = 0", fillcolor="#ffffff"] ;
400 -> 402 ;
403 [label="gini = 0.5\nsamples = 2\nvalue = [1, 1]\nclass = 0", fillcolor="#ffffff"] ;
399 -> 403 ;
404 [label="gini = 0.0\nsamples = 34\nvalue = [0, 34]\nclass = 1", fillcolor="#399de5"] ;
398 -> 404 ;
405 [label="gini = 0.0\nsamples = 67\nvalue = [0, 67]\nclass = 1", fillcolor="#399de5"] ;
397 -> 405 ;
406 [label="gini = 0.0\nsamples = 131\nvalue = [0, 131]\nclass = 1", fillcolor="#399de5"] ;
396 -> 406 ;
407 [label="hbver <= 0.4\ngini = 0.5\nsamples = 6\nvalue = [3, 3]\nclass = 0", fillcolor="#ffffff"] ;
351 -> 407 ;
408 [label="gini = 0.0\nsamples = 2\nvalue = [2, 0]\nclass = 0", fillcolor="#e58139"] ;
407 -> 408 ;
409 [label="hbver <= 0.43\ngini = 0.38\nsamples = 4\nvalue = [1, 3]\nclass = 1", fillcolor="#7bbeee"] ;
407 -> 409 ;
410 [label="gini = 0.5\nsamples = 2\nvalue = [1, 1]\nclass = 0", fillcolor="#ffffff"] ;
409 -> 410 ;
411 [label="gini = 0.0\nsamples = 2\nvalue = [0, 2]\nclass = 1", fillcolor="#399de5"] ;
409 -> 411 ;
412 [label="hematokrit <= 0.18\ngini = 0.19\nsamples = 95\nvalue = [85, 10]\nclass = 0", fillcolor="#e89050"] ;
174 -> 412 ;
413 [label="gini = 0.44\nsamples = 3\nvalue = [1, 2]\nclass = 1", fillcolor="#9ccef2"] ;
412 -> 413 ;
414 [label="etytr <= 0.46\ngini = 0.16\nsamples = 92\nvalue = [84, 8]\nclass = 0", fillcolor="#e78d4c"] ;
412 -> 414 ;
415 [label="etytr <= 0.39\ngini = 0.02\nsamples = 83\nvalue = [82, 1]\nclass = 0", fillcolor="#e5833b"] ;
414 -> 415 ;
416 [label="gini = 0.0\nsamples = 78\nvalue = [78, 0]\nclass = 0", fillcolor="#e58139"] ;
415 -> 416 ;
417 [label="hematokrit <= 0.47\ngini = 0.32\nsamples = 5\nvalue = [4, 1]\nclass = 0", fillcolor="#eca06a"] ;
415 -> 417 ;
418 [label="gini = 0.0\nsamples = 3\nvalue = [3, 0]\nclass = 0", fillcolor="#e58139"] ;
417 -> 418 ;
419 [label="gini = 0.5\nsamples = 2\nvalue = [1, 1]\nclass = 0", fillcolor="#ffffff"] ;
417 -> 419 ;
420 [label="etytr <= 0.5\ngini = 0.35\nsamples = 9\nvalue = [2, 7]\nclass = 1", fillcolor="#72b9ec"] ;
414 -> 420 ;
421 [label="blood_group <= 4.0\ngini = 0.5\nsamples = 4\nvalue = [2, 2]\nclass = 0", fillcolor="#ffffff"] ;
420 -> 421 ;
422 [label="gini = 0.0\nsamples = 2\nvalue = [0, 2]\nclass = 1", fillcolor="#399de5"] ;
421 -> 422 ;
423 [label="gini = 0.0\nsamples = 2\nvalue = [2, 0]\nclass = 0", fillcolor="#e58139"] ;
421 -> 423 ;
424 [label="gini = 0.0\nsamples = 5\nvalue = [0, 5]\nclass = 1", fillcolor="#399de5"] ;
420 -> 424 ;
425 [label="er-cv <= 0.18\ngini = 0.38\nsamples = 1773\nvalue = [1325, 448]\nclass = 0", fillcolor="#eeac7c"] ;
173 -> 425 ;
426 [label="etytr <= 0.37\ngini = 0.46\nsamples = 71\nvalue = [45, 26]\nclass = 0", fillcolor="#f4caab"] ;
425 -> 426 ;
427 [label="er-cv <= 0.18\ngini = 0.05\nsamples = 37\nvalue = [36, 1]\nclass = 0", fillcolor="#e6843e"] ;
426 -> 427 ;
428 [label="gini = 0.0\nsamples = 35\nvalue = [35, 0]\nclass = 0", fillcolor="#e58139"] ;
427 -> 428 ;
429 [label="gini = 0.5\nsamples = 2\nvalue = [1, 1]\nclass = 0", fillcolor="#ffffff"] ;
427 -> 429 ;
430 [label="erytrocyty <= 0.5\ngini = 0.39\nsamples = 34\nvalue = [9, 25]\nclass = 1", fillcolor="#80c0ee"] ;
426 -> 430 ;
431 [label="leukocyty <= 0.63\ngini = 0.29\nsamples = 28\nvalue = [5, 23]\nclass = 1", fillcolor="#64b2eb"] ;
430 -> 431 ;
432 [label="hbver <= 0.5\ngini = 0.47\nsamples = 8\nvalue = [5, 3]\nclass = 0", fillcolor="#f5cdb0"] ;
431 -> 432 ;
433 [label="gini = 0.0\nsamples = 2\nvalue = [0, 2]\nclass = 1", fillcolor="#399de5"] ;
432 -> 433 ;
434 [label="blood_group <= 0.5\ngini = 0.28\nsamples = 6\nvalue = [5, 1]\nclass = 0", fillcolor="#ea9a61"] ;
432 -> 434 ;
435 [label="gini = 0.5\nsamples = 2\nvalue = [1, 1]\nclass = 0", fillcolor="#ffffff"] ;
434 -> 435 ;
436 [label="gini = 0.0\nsamples = 4\nvalue = [4, 0]\nclass = 0", fillcolor="#e58139"] ;
434 -> 436 ;
437 [label="gini = 0.0\nsamples = 20\nvalue = [0, 20]\nclass = 1", fillcolor="#399de5"] ;
431 -> 437 ;
438 [label="etytr <= 0.64\ngini = 0.44\nsamples = 6\nvalue = [4, 2]\nclass = 0", fillcolor="#f2c09c"] ;
430 -> 438 ;
439 [label="gini = 0.44\nsamples = 3\nvalue = [1, 2]\nclass = 1", fillcolor="#9ccef2"] ;
438 -> 439 ;
440 [label="gini = 0.0\nsamples = 3\nvalue = [3, 0]\nclass = 0", fillcolor="#e58139"] ;
438 -> 440 ;
441 [label="hematokrit <= 0.41\ngini = 0.37\nsamples = 1702\nvalue = [1280, 422]\nclass = 0", fillcolor="#eeab7a"] ;
425 -> 441 ;
442 [label="leukocyty <= 0.64\ngini = 0.41\nsamples = 500\nvalue = [358, 142]\nclass = 0", fillcolor="#efb388"] ;
441 -> 442 ;
443 [label="hbver <= 0.48\ngini = 0.17\nsamples = 264\nvalue = [240, 24]\nclass = 0", fillcolor="#e88e4d"] ;
442 -> 443 ;
444 [label="erytrocyty <= 0.46\ngini = 0.32\nsamples = 15\nvalue = [3, 12]\nclass = 1", fillcolor="#6ab6ec"] ;
443 -> 444 ;
445 [label="gini = 0.0\nsamples = 6\nvalue = [0, 6]\nclass = 1", fillcolor="#399de5"] ;
444 -> 445 ;
446 [label="erytrocyty <= 0.5\ngini = 0.44\nsamples = 9\nvalue = [3, 6]\nclass = 1", fillcolor="#9ccef2"] ;
444 -> 446 ;
447 [label="gini = 0.0\nsamples = 2\nvalue = [2, 0]\nclass = 0", fillcolor="#e58139"] ;
446 -> 447 ;
448 [label="leukocyty <= 0.61\ngini = 0.24\nsamples = 7\nvalue = [1, 6]\nclass = 1", fillcolor="#5aade9"] ;
446 -> 448 ;
449 [label="gini = 0.0\nsamples = 5\nvalue = [0, 5]\nclass = 1", fillcolor="#399de5"] ;
448 -> 449 ;
450 [label="gini = 0.5\nsamples = 2\nvalue = [1, 1]\nclass = 0", fillcolor="#ffffff"] ;
448 -> 450 ;
451 [label="leukocyty <= 0.35\ngini = 0.09\nsamples = 249\nvalue = [237, 12]\nclass = 0", fillcolor="#e68743"] ;
443 -> 451 ;
452 [label="hematokrit <= 0.35\ngini = 0.48\nsamples = 10\nvalue = [6, 4]\nclass = 0", fillcolor="#f6d5bd"] ;
451 -> 452 ;
453 [label="hbver <= 0.73\ngini = 0.28\nsamples = 6\nvalue = [5, 1]\nclass = 0", fillcolor="#ea9a61"] ;
452 -> 453 ;
454 [label="gini = 0.5\nsamples = 2\nvalue = [1, 1]\nclass = 0", fillcolor="#ffffff"] ;
453 -> 454 ;
455 [label="gini = 0.0\nsamples = 4\nvalue = [4, 0]\nclass = 0", fillcolor="#e58139"] ;
453 -> 455 ;
456 [label="er-cv <= 0.46\ngini = 0.38\nsamples = 4\nvalue = [1, 3]\nclass = 1", fillcolor="#7bbeee"] ;
452 -> 456 ;
457 [label="gini = 0.0\nsamples = 2\nvalue = [0, 2]\nclass = 1", fillcolor="#399de5"] ;
456 -> 457 ;
458 [label="gini = 0.5\nsamples = 2\nvalue = [1, 1]\nclass = 0", fillcolor="#ffffff"] ;
456 -> 458 ;
459 [label="blood_group <= 1.5\ngini = 0.06\nsamples = 239\nvalue = [231, 8]\nclass = 0", fillcolor="#e68540"] ;
451 -> 459 ;
460 [label="etytr <= 0.07\ngini = 0.15\nsamples = 73\nvalue = [67, 6]\nclass = 0", fillcolor="#e78c4b"] ;
459 -> 460 ;
461 [label="gini = 0.5\nsamples = 2\nvalue = [1, 1]\nclass = 0", fillcolor="#ffffff"] ;
460 -> 461 ;
462 [label="etytr <= 0.35\ngini = 0.13\nsamples = 71\nvalue = [66, 5]\nclass = 0", fillcolor="#e78b48"] ;
460 -> 462 ;
463 [label="hbver <= 0.59\ngini = 0.07\nsamples = 52\nvalue = [50, 2]\nclass = 0", fillcolor="#e68641"] ;
462 -> 463 ;
464 [label="etytr <= 0.24\ngini = 0.19\nsamples = 19\nvalue = [17, 2]\nclass = 0", fillcolor="#e89050"] ;
463 -> 464 ;
465 [label="hbver <= 0.58\ngini = 0.41\nsamples = 7\nvalue = [5, 2]\nclass = 0", fillcolor="#efb388"] ;
464 -> 465 ;
466 [label="gini = 0.0\nsamples = 4\nvalue = [4, 0]\nclass = 0", fillcolor="#e58139"] ;
465 -> 466 ;
467 [label="gini = 0.44\nsamples = 3\nvalue = [1, 2]\nclass = 1", fillcolor="#9ccef2"] ;
465 -> 467 ;
468 [label="gini = 0.0\nsamples = 12\nvalue = [12, 0]\nclass = 0", fillcolor="#e58139"] ;
464 -> 468 ;
469 [label="gini = 0.0\nsamples = 33\nvalue = [33, 0]\nclass = 0", fillcolor="#e58139"] ;
463 -> 469 ;
470 [label="hematokrit <= 0.32\ngini = 0.27\nsamples = 19\nvalue = [16, 3]\nclass = 0", fillcolor="#ea995e"] ;
462 -> 470 ;
471 [label="hematokrit <= 0.14\ngini = 0.42\nsamples = 10\nvalue = [7, 3]\nclass = 0", fillcolor="#f0b78e"] ;
470 -> 471 ;
472 [label="gini = 0.0\nsamples = 3\nvalue = [3, 0]\nclass = 0", fillcolor="#e58139"] ;
471 -> 472 ;
473 [label="er-cv <= 0.52\ngini = 0.49\nsamples = 7\nvalue = [4, 3]\nclass = 0", fillcolor="#f8e0ce"] ;
471 -> 473 ;
474 [label="hematokrit <= 0.27\ngini = 0.38\nsamples = 4\nvalue = [1, 3]\nclass = 1", fillcolor="#7bbeee"] ;
473 -> 474 ;
475 [label="gini = 0.0\nsamples = 2\nvalue = [0, 2]\nclass = 1", fillcolor="#399de5"] ;
474 -> 475 ;
476 [label="gini = 0.5\nsamples = 2\nvalue = [1, 1]\nclass = 0", fillcolor="#ffffff"] ;
474 -> 476 ;
477 [label="gini = 0.0\nsamples = 3\nvalue = [3, 0]\nclass = 0", fillcolor="#e58139"] ;
473 -> 477 ;
478 [label="gini = 0.0\nsamples = 9\nvalue = [9, 0]\nclass = 0", fillcolor="#e58139"] ;
470 -> 478 ;
479 [label="hbver <= 0.51\ngini = 0.02\nsamples = 166\nvalue = [164, 2]\nclass = 0", fillcolor="#e5833b"] ;
459 -> 479 ;
480 [label="hbver <= 0.5\ngini = 0.2\nsamples = 9\nvalue = [8, 1]\nclass = 0", fillcolor="#e89152"] ;
479 -> 480 ;
481 [label="gini = 0.0\nsamples = 7\nvalue = [7, 0]\nclass = 0", fillcolor="#e58139"] ;
480 -> 481 ;
482 [label="gini = 0.5\nsamples = 2\nvalue = [1, 1]\nclass = 0", fillcolor="#ffffff"] ;
480 -> 482 ;
483 [label="hematokrit <= 0.4\ngini = 0.01\nsamples = 157\nvalue = [156, 1]\nclass = 0", fillcolor="#e5823a"] ;
479 -> 483 ;
484 [label="gini = 0.0\nsamples = 143\nvalue = [143, 0]\nclass = 0", fillcolor="#e58139"] ;
483 -> 484 ;
485 [label="er-cv <= 0.68\ngini = 0.13\nsamples = 14\nvalue = [13, 1]\nclass = 0", fillcolor="#e78b48"] ;
483 -> 485 ;
486 [label="gini = 0.0\nsamples = 12\nvalue = [12, 0]\nclass = 0", fillcolor="#e58139"] ;
485 -> 486 ;
487 [label="gini = 0.5\nsamples = 2\nvalue = [1, 1]\nclass = 0", fillcolor="#ffffff"] ;
485 -> 487 ;
488 [label="etytr <= 0.38\ngini = 0.5\nsamples = 236\nvalue = [118, 118]\nclass = 0", fillcolor="#ffffff"] ;
442 -> 488 ;
489 [label="etytr <= 0.07\ngini = 0.06\nsamples = 95\nvalue = [92, 3]\nclass = 0", fillcolor="#e6853f"] ;
488 -> 489 ;
490 [label="gini = 0.5\nsamples = 2\nvalue = [1, 1]\nclass = 0", fillcolor="#ffffff"] ;
489 -> 490 ;
491 [label="etytr <= 0.35\ngini = 0.04\nsamples = 93\nvalue = [91, 2]\nclass = 0", fillcolor="#e6843d"] ;
489 -> 491 ;
492 [label="erytrocyty <= 0.43\ngini = 0.02\nsamples = 84\nvalue = [83, 1]\nclass = 0", fillcolor="#e5833b"] ;
491 -> 492 ;
493 [label="gini = 0.0\nsamples = 61\nvalue = [61, 0]\nclass = 0", fillcolor="#e58139"] ;
492 -> 493 ;
494 [label="erytrocyty <= 0.43\ngini = 0.08\nsamples = 23\nvalue = [22, 1]\nclass = 0", fillcolor="#e68742"] ;
492 -> 494 ;
495 [label="gini = 0.5\nsamples = 2\nvalue = [1, 1]\nclass = 0", fillcolor="#ffffff"] ;
494 -> 495 ;
496 [label="gini = 0.0\nsamples = 21\nvalue = [21, 0]\nclass = 0", fillcolor="#e58139"] ;
494 -> 496 ;
497 [label="etytr <= 0.35\ngini = 0.2\nsamples = 9\nvalue = [8, 1]\nclass = 0", fillcolor="#e89152"] ;
491 -> 497 ;
498 [label="gini = 0.5\nsamples = 2\nvalue = [1, 1]\nclass = 0", fillcolor="#ffffff"] ;
497 -> 498 ;
499 [label="gini = 0.0\nsamples = 7\nvalue = [7, 0]\nclass = 0", fillcolor="#e58139"] ;
497 -> 499 ;
500 [label="etytr <= 0.81\ngini = 0.3\nsamples = 141\nvalue = [26, 115]\nclass = 1", fillcolor="#66b3eb"] ;
488 -> 500 ;
501 [label="leukocyty <= 0.7\ngini = 0.27\nsamples = 137\nvalue = [22, 115]\nclass = 1", fillcolor="#5fb0ea"] ;
500 -> 501 ;
502 [label="er-cv <= 0.48\ngini = 0.41\nsamples = 46\nvalue = [13, 33]\nclass = 1", fillcolor="#87c4ef"] ;
501 -> 502 ;
503 [label="hbver <= 0.56\ngini = 0.49\nsamples = 25\nvalue = [11, 14]\nclass = 1", fillcolor="#d5eaf9"] ;
502 -> 503 ;
504 [label="etytr <= 0.5\ngini = 0.44\nsamples = 21\nvalue = [7, 14]\nclass = 1", fillcolor="#9ccef2"] ;
503 -> 504 ;
505 [label="erytrocyty <= 0.53\ngini = 0.44\nsamples = 9\nvalue = [6, 3]\nclass = 0", fillcolor="#f2c09c"] ;
504 -> 505 ;
506 [label="er-cv <= 0.42\ngini = 0.48\nsamples = 5\nvalue = [2, 3]\nclass = 1", fillcolor="#bddef6"] ;
505 -> 506 ;
507 [label="gini = 0.0\nsamples = 3\nvalue = [0, 3]\nclass = 1", fillcolor="#399de5"] ;
506 -> 507 ;
508 [label="gini = 0.0\nsamples = 2\nvalue = [2, 0]\nclass = 0", fillcolor="#e58139"] ;
506 -> 508 ;
509 [label="gini = 0.0\nsamples = 4\nvalue = [4, 0]\nclass = 0", fillcolor="#e58139"] ;
505 -> 509 ;
510 [label="smoker <= 0.5\ngini = 0.15\nsamples = 12\nvalue = [1, 11]\nclass = 1", fillcolor="#4ba6e7"] ;
504 -> 510 ;
511 [label="erytrocyty <= 0.4\ngini = 0.38\nsamples = 4\nvalue = [1, 3]\nclass = 1", fillcolor="#7bbeee"] ;
510 -> 511 ;
512 [label="gini = 0.0\nsamples = 2\nvalue = [0, 2]\nclass = 1", fillcolor="#399de5"] ;
511 -> 512 ;
513 [label="gini = 0.5\nsamples = 2\nvalue = [1, 1]\nclass = 0", fillcolor="#ffffff"] ;
511 -> 513 ;
514 [label="gini = 0.0\nsamples = 8\nvalue = [0, 8]\nclass = 1", fillcolor="#399de5"] ;
510 -> 514 ;
515 [label="gini = 0.0\nsamples = 4\nvalue = [4, 0]\nclass = 0", fillcolor="#e58139"] ;
503 -> 515 ;
516 [label="er-cv <= 0.72\ngini = 0.17\nsamples = 21\nvalue = [2, 19]\nclass = 1", fillcolor="#4ea7e8"] ;
502 -> 516 ;
517 [label="gini = 0.0\nsamples = 14\nvalue = [0, 14]\nclass = 1", fillcolor="#399de5"] ;
516 -> 517 ;
518 [label="hematokrit <= 0.34\ngini = 0.41\nsamples = 7\nvalue = [2, 5]\nclass = 1", fillcolor="#88c4ef"] ;
516 -> 518 ;
519 [label="erytrocyty <= 0.42\ngini = 0.5\nsamples = 4\nvalue = [2, 2]\nclass = 0", fillcolor="#ffffff"] ;
518 -> 519 ;
520 [label="gini = 0.5\nsamples = 2\nvalue = [1, 1]\nclass = 0", fillcolor="#ffffff"] ;
519 -> 520 ;
521 [label="gini = 0.5\nsamples = 2\nvalue = [1, 1]\nclass = 0", fillcolor="#ffffff"] ;
519 -> 521 ;
522 [label="gini = 0.0\nsamples = 3\nvalue = [0, 3]\nclass = 1", fillcolor="#399de5"] ;
518 -> 522 ;
523 [label="smoker <= 0.5\ngini = 0.18\nsamples = 91\nvalue = [9, 82]\nclass = 1", fillcolor="#4fa8e8"] ;
501 -> 523 ;
524 [label="erytrocyty <= 0.24\ngini = 0.29\nsamples = 46\nvalue = [8, 38]\nclass = 1", fillcolor="#63b2ea"] ;
523 -> 524 ;
525 [label="gini = 0.0\nsamples = 2\nvalue = [2, 0]\nclass = 0", fillcolor="#e58139"] ;
524 -> 525 ;
526 [label="erytrocyty <= 0.31\ngini = 0.24\nsamples = 44\nvalue = [6, 38]\nclass = 1", fillcolor="#58ace9"] ;
524 -> 526 ;
527 [label="hbver <= 0.53\ngini = 0.47\nsamples = 8\nvalue = [3, 5]\nclass = 1", fillcolor="#b0d8f5"] ;
526 -> 527 ;
528 [label="etytr <= 0.49\ngini = 0.38\nsamples = 4\nvalue = [3, 1]\nclass = 0", fillcolor="#eeab7b"] ;
527 -> 528 ;
529 [label="gini = 0.0\nsamples = 2\nvalue = [2, 0]\nclass = 0", fillcolor="#e58139"] ;
528 -> 529 ;
530 [label="gini = 0.5\nsamples = 2\nvalue = [1, 1]\nclass = 0", fillcolor="#ffffff"] ;
528 -> 530 ;
531 [label="gini = 0.0\nsamples = 4\nvalue = [0, 4]\nclass = 1", fillcolor="#399de5"] ;
527 -> 531 ;
532 [label="leukocyty <= 0.77\ngini = 0.15\nsamples = 36\nvalue = [3, 33]\nclass = 1", fillcolor="#4ba6e7"] ;
526 -> 532 ;
533 [label="hbver <= 0.6\ngini = 0.22\nsamples = 24\nvalue = [3, 21]\nclass = 1", fillcolor="#55abe9"] ;
532 -> 533 ;
534 [label="hbver <= 0.48\ngini = 0.09\nsamples = 22\nvalue = [1, 21]\nclass = 1", fillcolor="#42a2e6"] ;
533 -> 534 ;
535 [label="leukocyty <= 0.76\ngini = 0.18\nsamples = 10\nvalue = [1, 9]\nclass = 1", fillcolor="#4fa8e8"] ;
534 -> 535 ;
536 [label="gini = 0.0\nsamples = 8\nvalue = [0, 8]\nclass = 1", fillcolor="#399de5"] ;
535 -> 536 ;
537 [label="gini = 0.5\nsamples = 2\nvalue = [1, 1]\nclass = 0", fillcolor="#ffffff"] ;
535 -> 537 ;
538 [label="gini = 0.0\nsamples = 12\nvalue = [0, 12]\nclass = 1", fillcolor="#399de5"] ;
534 -> 538 ;
539 [label="gini = 0.0\nsamples = 2\nvalue = [2, 0]\nclass = 0", fillcolor="#e58139"] ;
533 -> 539 ;
540 [label="gini = 0.0\nsamples = 12\nvalue = [0, 12]\nclass = 1", fillcolor="#399de5"] ;
532 -> 540 ;
541 [label="etytr <= 0.42\ngini = 0.04\nsamples = 45\nvalue = [1, 44]\nclass = 1", fillcolor="#3d9fe6"] ;
523 -> 541 ;
542 [label="gini = 0.44\nsamples = 3\nvalue = [1, 2]\nclass = 1", fillcolor="#9ccef2"] ;
541 -> 542 ;
543 [label="gini = 0.0\nsamples = 42\nvalue = [0, 42]\nclass = 1", fillcolor="#399de5"] ;
541 -> 543 ;
544 [label="gini = 0.0\nsamples = 4\nvalue = [4, 0]\nclass = 0", fillcolor="#e58139"] ;
500 -> 544 ;
545 [label="erytrocyty <= 0.57\ngini = 0.36\nsamples = 1202\nvalue = [922, 280]\nclass = 0", fillcolor="#eda775"] ;
441 -> 545 ;
546 [label="leukocyty <= 0.65\ngini = 0.35\nsamples = 1185\nvalue = [913, 272]\nclass = 0", fillcolor="#eda774"] ;
545 -> 546 ;
547 [label="leukocyty <= 0.64\ngini = 0.15\nsamples = 713\nvalue = [654, 59]\nclass = 0", fillcolor="#e78c4b"] ;
546 -> 547 ;
548 [label="hbver <= 0.51\ngini = 0.13\nsamples = 656\nvalue = [609, 47]\nclass = 0", fillcolor="#e78b48"] ;
547 -> 548 ;
549 [label="leukocyty <= 0.54\ngini = 0.5\nsamples = 52\nvalue = [28, 24]\nclass = 0", fillcolor="#fbede3"] ;
548 -> 549 ;
550 [label="hbver <= 0.5\ngini = 0.3\nsamples = 16\nvalue = [13, 3]\nclass = 0", fillcolor="#eb9e67"] ;
549 -> 550 ;
551 [label="hematokrit <= 0.77\ngini = 0.13\nsamples = 14\nvalue = [13, 1]\nclass = 0", fillcolor="#e78b48"] ;
550 -> 551 ;
552 [label="gini = 0.0\nsamples = 12\nvalue = [12, 0]\nclass = 0", fillcolor="#e58139"] ;
551 -> 552 ;
553 [label="gini = 0.5\nsamples = 2\nvalue = [1, 1]\nclass = 0", fillcolor="#ffffff"] ;
551 -> 553 ;
554 [label="gini = 0.0\nsamples = 2\nvalue = [0, 2]\nclass = 1", fillcolor="#399de5"] ;
550 -> 554 ;
555 [label="etytr <= 0.36\ngini = 0.49\nsamples = 36\nvalue = [15, 21]\nclass = 1", fillcolor="#c6e3f8"] ;
549 -> 555 ;
556 [label="gini = 0.0\nsamples = 7\nvalue = [7, 0]\nclass = 0", fillcolor="#e58139"] ;
555 -> 556 ;
557 [label="hbver <= 0.48\ngini = 0.4\nsamples = 29\nvalue = [8, 21]\nclass = 1", fillcolor="#84c2ef"] ;
555 -> 557 ;
558 [label="erytrocyty <= 0.54\ngini = 0.2\nsamples = 18\nvalue = [2, 16]\nclass = 1", fillcolor="#52a9e8"] ;
557 -> 558 ;
559 [label="hematokrit <= 0.63\ngini = 0.12\nsamples = 16\nvalue = [1, 15]\nclass = 1", fillcolor="#46a4e7"] ;
558 -> 559 ;
560 [label="gini = 0.0\nsamples = 11\nvalue = [0, 11]\nclass = 1", fillcolor="#399de5"] ;
559 -> 560 ;
561 [label="etytr <= 0.5\ngini = 0.32\nsamples = 5\nvalue = [1, 4]\nclass = 1", fillcolor="#6ab6ec"] ;
559 -> 561 ;
562 [label="gini = 0.5\nsamples = 2\nvalue = [1, 1]\nclass = 0", fillcolor="#ffffff"] ;
561 -> 562 ;
563 [label="gini = 0.0\nsamples = 3\nvalue = [0, 3]\nclass = 1", fillcolor="#399de5"] ;
561 -> 563 ;
564 [label="gini = 0.5\nsamples = 2\nvalue = [1, 1]\nclass = 0", fillcolor="#ffffff"] ;
558 -> 564 ;
565 [label="hematokrit <= 0.8\ngini = 0.5\nsamples = 11\nvalue = [6, 5]\nclass = 0", fillcolor="#fbeade"] ;
557 -> 565 ;
566 [label="hbver <= 0.49\ngini = 0.38\nsamples = 8\nvalue = [6, 2]\nclass = 0", fillcolor="#eeab7b"] ;
565 -> 566 ;
567 [label="gini = 0.0\nsamples = 4\nvalue = [4, 0]\nclass = 0", fillcolor="#e58139"] ;
566 -> 567 ;
568 [label="blood_group <= 3.0\ngini = 0.5\nsamples = 4\nvalue = [2, 2]\nclass = 0", fillcolor="#ffffff"] ;
566 -> 568 ;
569 [label="gini = 0.5\nsamples = 2\nvalue = [1, 1]\nclass = 0", fillcolor="#ffffff"] ;
568 -> 569 ;
570 [label="gini = 0.5\nsamples = 2\nvalue = [1, 1]\nclass = 0", fillcolor="#ffffff"] ;
568 -> 570 ;
571 [label="gini = 0.0\nsamples = 3\nvalue = [0, 3]\nclass = 1", fillcolor="#399de5"] ;
565 -> 571 ;
572 [label="hbver <= 0.81\ngini = 0.07\nsamples = 604\nvalue = [581, 23]\nclass = 0", fillcolor="#e68641"] ;
548 -> 572 ;
573 [label="hbver <= 0.74\ngini = 0.06\nsamples = 601\nvalue = [581, 20]\nclass = 0", fillcolor="#e68540"] ;
572 -> 573 ;
574 [label="leukocyty <= 0.42\ngini = 0.06\nsamples = 582\nvalue = [565, 17]\nclass = 0", fillcolor="#e6853f"] ;
573 -> 574 ;
575 [label="leukocyty <= 0.41\ngini = 0.14\nsamples = 67\nvalue = [62, 5]\nclass = 0", fillcolor="#e78b49"] ;
574 -> 575 ;
576 [label="etytr <= 0.44\ngini = 0.12\nsamples = 65\nvalue = [61, 4]\nclass = 0", fillcolor="#e78946"] ;
575 -> 576 ;
577 [label="erytrocyty <= 0.5\ngini = 0.06\nsamples = 60\nvalue = [58, 2]\nclass = 0", fillcolor="#e68540"] ;
576 -> 577 ;
578 [label="gini = 0.0\nsamples = 39\nvalue = [39, 0]\nclass = 0", fillcolor="#e58139"] ;
577 -> 578 ;
579 [label="erytrocyty <= 0.5\ngini = 0.17\nsamples = 21\nvalue = [19, 2]\nclass = 0", fillcolor="#e88e4e"] ;
577 -> 579 ;
580 [label="gini = 0.5\nsamples = 2\nvalue = [1, 1]\nclass = 0", fillcolor="#ffffff"] ;
579 -> 580 ;
581 [label="blood_group <= 2.5\ngini = 0.1\nsamples = 19\nvalue = [18, 1]\nclass = 0", fillcolor="#e68844"] ;
579 -> 581 ;
582 [label="gini = 0.5\nsamples = 2\nvalue = [1, 1]\nclass = 0", fillcolor="#ffffff"] ;
581 -> 582 ;
583 [label="gini = 0.0\nsamples = 17\nvalue = [17, 0]\nclass = 0", fillcolor="#e58139"] ;
581 -> 583 ;
584 [label="hbver <= 0.7\ngini = 0.48\nsamples = 5\nvalue = [3, 2]\nclass = 0", fillcolor="#f6d5bd"] ;
576 -> 584 ;
585 [label="gini = 0.0\nsamples = 3\nvalue = [3, 0]\nclass = 0", fillcolor="#e58139"] ;
584 -> 585 ;
586 [label="gini = 0.0\nsamples = 2\nvalue = [0, 2]\nclass = 1", fillcolor="#399de5"] ;
584 -> 586 ;
587 [label="gini = 0.5\nsamples = 2\nvalue = [1, 1]\nclass = 0", fillcolor="#ffffff"] ;
575 -> 587 ;
588 [label="blood_group <= 0.5\ngini = 0.05\nsamples = 515\nvalue = [503, 12]\nclass = 0", fillcolor="#e6843e"] ;
574 -> 588 ;
589 [label="erytrocyty <= 0.31\ngini = 0.13\nsamples = 56\nvalue = [52, 4]\nclass = 0", fillcolor="#e78b48"] ;
588 -> 589 ;
590 [label="er-cv <= 0.46\ngini = 0.48\nsamples = 5\nvalue = [3, 2]\nclass = 0", fillcolor="#f6d5bd"] ;
589 -> 590 ;
591 [label="gini = 0.44\nsamples = 3\nvalue = [1, 2]\nclass = 1", fillcolor="#9ccef2"] ;
590 -> 591 ;
592 [label="gini = 0.0\nsamples = 2\nvalue = [2, 0]\nclass = 0", fillcolor="#e58139"] ;
590 -> 592 ;
593 [label="hbver <= 0.56\ngini = 0.08\nsamples = 51\nvalue = [49, 2]\nclass = 0", fillcolor="#e68641"] ;
589 -> 593 ;
594 [label="er-cv <= 0.44\ngini = 0.38\nsamples = 4\nvalue = [3, 1]\nclass = 0", fillcolor="#eeab7b"] ;
593 -> 594 ;
595 [label="gini = 0.0\nsamples = 2\nvalue = [2, 0]\nclass = 0", fillcolor="#e58139"] ;
594 -> 595 ;
596 [label="gini = 0.5\nsamples = 2\nvalue = [1, 1]\nclass = 0", fillcolor="#ffffff"] ;
594 -> 596 ;
597 [label="etytr <= 0.32\ngini = 0.04\nsamples = 47\nvalue = [46, 1]\nclass = 0", fillcolor="#e6843d"] ;
593 -> 597 ;
598 [label="gini = 0.0\nsamples = 35\nvalue = [35, 0]\nclass = 0", fillcolor="#e58139"] ;
597 -> 598 ;
599 [label="hematokrit <= 0.64\ngini = 0.15\nsamples = 12\nvalue = [11, 1]\nclass = 0", fillcolor="#e78c4b"] ;
597 -> 599 ;
600 [label="gini = 0.0\nsamples = 9\nvalue = [9, 0]\nclass = 0", fillcolor="#e58139"] ;
599 -> 600 ;
601 [label="gini = 0.44\nsamples = 3\nvalue = [2, 1]\nclass = 0", fillcolor="#f2c09c"] ;
599 -> 601 ;
602 [label="hematokrit <= 0.92\ngini = 0.03\nsamples = 459\nvalue = [451, 8]\nclass = 0", fillcolor="#e5833d"] ;
588 -> 602 ;
603 [label="hbver <= 0.53\ngini = 0.03\nsamples = 455\nvalue = [448, 7]\nclass = 0", fillcolor="#e5833c"] ;
602 -> 603 ;
604 [label="leukocyty <= 0.62\ngini = 0.16\nsamples = 23\nvalue = [21, 2]\nclass = 0", fillcolor="#e78d4c"] ;
603 -> 604 ;
605 [label="gini = 0.0\nsamples = 17\nvalue = [17, 0]\nclass = 0", fillcolor="#e58139"] ;
604 -> 605 ;
606 [label="hematokrit <= 0.55\ngini = 0.44\nsamples = 6\nvalue = [4, 2]\nclass = 0", fillcolor="#f2c09c"] ;
604 -> 606 ;
607 [label="gini = 0.0\nsamples = 2\nvalue = [0, 2]\nclass = 1", fillcolor="#399de5"] ;
606 -> 607 ;
608 [label="gini = 0.0\nsamples = 4\nvalue = [4, 0]\nclass = 0", fillcolor="#e58139"] ;
606 -> 608 ;
609 [label="etytr <= 0.4\ngini = 0.02\nsamples = 432\nvalue = [427, 5]\nclass = 0", fillcolor="#e5823b"] ;
603 -> 609 ;
610 [label="leukocyty <= 0.47\ngini = 0.02\nsamples = 391\nvalue = [388, 3]\nclass = 0", fillcolor="#e5823b"] ;
609 -> 610 ;
611 [label="etytr <= 0.23\ngini = 0.08\nsamples = 71\nvalue = [68, 3]\nclass = 0", fillcolor="#e68742"] ;
610 -> 611 ;
612 [label="blood_group <= 1.5\ngini = 0.29\nsamples = 17\nvalue = [14, 3]\nclass = 0", fillcolor="#eb9c63"] ;
611 -> 612 ;
613 [label="gini = 0.44\nsamples = 3\nvalue = [1, 2]\nclass = 1", fillcolor="#9ccef2"] ;
612 -> 613 ;
614 [label="hematokrit <= 0.51\ngini = 0.13\nsamples = 14\nvalue = [13, 1]\nclass = 0", fillcolor="#e78b48"] ;
612 -> 614 ;
615 [label="gini = 0.44\nsamples = 3\nvalue = [2, 1]\nclass = 0", fillcolor="#f2c09c"] ;
614 -> 615 ;
616 [label="gini = 0.0\nsamples = 11\nvalue = [11, 0]\nclass = 0", fillcolor="#e58139"] ;
614 -> 616 ;
617 [label="gini = 0.0\nsamples = 54\nvalue = [54, 0]\nclass = 0", fillcolor="#e58139"] ;
611 -> 617 ;
618 [label="gini = 0.0\nsamples = 320\nvalue = [320, 0]\nclass = 0", fillcolor="#e58139"] ;
610 -> 618 ;
619 [label="etytr <= 0.41\ngini = 0.09\nsamples = 41\nvalue = [39, 2]\nclass = 0", fillcolor="#e68743"] ;
609 -> 619 ;
620 [label="gini = 0.5\nsamples = 2\nvalue = [1, 1]\nclass = 0", fillcolor="#ffffff"] ;
619 -> 620 ;
621 [label="hematokrit <= 0.59\ngini = 0.05\nsamples = 39\nvalue = [38, 1]\nclass = 0", fillcolor="#e6843e"] ;
619 -> 621 ;
622 [label="gini = 0.0\nsamples = 24\nvalue = [24, 0]\nclass = 0", fillcolor="#e58139"] ;
621 -> 622 ;
623 [label="erytrocyty <= 0.31\ngini = 0.12\nsamples = 15\nvalue = [14, 1]\nclass = 0", fillcolor="#e78a47"] ;
621 -> 623 ;
624 [label="hbver <= 0.62\ngini = 0.28\nsamples = 6\nvalue = [5, 1]\nclass = 0", fillcolor="#ea9a61"] ;
623 -> 624 ;
625 [label="gini = 0.5\nsamples = 2\nvalue = [1, 1]\nclass = 0", fillcolor="#ffffff"] ;
624 -> 625 ;
626 [label="gini = 0.0\nsamples = 4\nvalue = [4, 0]\nclass = 0", fillcolor="#e58139"] ;
624 -> 626 ;
627 [label="gini = 0.0\nsamples = 9\nvalue = [9, 0]\nclass = 0", fillcolor="#e58139"] ;
623 -> 627 ;
628 [label="erytrocyty <= 0.4\ngini = 0.38\nsamples = 4\nvalue = [3, 1]\nclass = 0", fillcolor="#eeab7b"] ;
602 -> 628 ;
629 [label="gini = 0.5\nsamples = 2\nvalue = [1, 1]\nclass = 0", fillcolor="#ffffff"] ;
628 -> 629 ;
630 [label="gini = 0.0\nsamples = 2\nvalue = [2, 0]\nclass = 0", fillcolor="#e58139"] ;
628 -> 630 ;
631 [label="leukocyty <= 0.4\ngini = 0.27\nsamples = 19\nvalue = [16, 3]\nclass = 0", fillcolor="#ea995e"] ;
573 -> 631 ;
632 [label="gini = 0.0\nsamples = 14\nvalue = [14, 0]\nclass = 0", fillcolor="#e58139"] ;
631 -> 632 ;
633 [label="erytrocyty <= 0.54\ngini = 0.48\nsamples = 5\nvalue = [2, 3]\nclass = 1", fillcolor="#bddef6"] ;
631 -> 633 ;
634 [label="gini = 0.0\nsamples = 3\nvalue = [0, 3]\nclass = 1", fillcolor="#399de5"] ;
633 -> 634 ;
635 [label="gini = 0.0\nsamples = 2\nvalue = [2, 0]\nclass = 0", fillcolor="#e58139"] ;
633 -> 635 ;
636 [label="gini = 0.0\nsamples = 3\nvalue = [0, 3]\nclass = 1", fillcolor="#399de5"] ;
572 -> 636 ;
637 [label="leukocyty <= 0.65\ngini = 0.33\nsamples = 57\nvalue = [45, 12]\nclass = 0", fillcolor="#eca36e"] ;
547 -> 637 ;
638 [label="leukocyty <= 0.65\ngini = 0.42\nsamples = 36\nvalue = [25, 11]\nclass = 0", fillcolor="#f0b890"] ;
637 -> 638 ;
639 [label="hbver <= 0.5\ngini = 0.39\nsamples = 34\nvalue = [25, 9]\nclass = 0", fillcolor="#eeae80"] ;
638 -> 639 ;
640 [label="erytrocyty <= 0.45\ngini = 0.4\nsamples = 11\nvalue = [3, 8]\nclass = 1", fillcolor="#83c2ef"] ;
639 -> 640 ;
641 [label="gini = 0.0\nsamples = 5\nvalue = [0, 5]\nclass = 1", fillcolor="#399de5"] ;
640 -> 641 ;
642 [label="leukocyty <= 0.64\ngini = 0.5\nsamples = 6\nvalue = [3, 3]\nclass = 0", fillcolor="#ffffff"] ;
640 -> 642 ;
643 [label="leukocyty <= 0.64\ngini = 0.38\nsamples = 4\nvalue = [3, 1]\nclass = 0", fillcolor="#eeab7b"] ;
642 -> 643 ;
644 [label="gini = 0.5\nsamples = 2\nvalue = [1, 1]\nclass = 0", fillcolor="#ffffff"] ;
643 -> 644 ;
645 [label="gini = 0.0\nsamples = 2\nvalue = [2, 0]\nclass = 0", fillcolor="#e58139"] ;
643 -> 645 ;
646 [label="gini = 0.0\nsamples = 2\nvalue = [0, 2]\nclass = 1", fillcolor="#399de5"] ;
642 -> 646 ;
647 [label="etytr <= 0.36\ngini = 0.08\nsamples = 23\nvalue = [22, 1]\nclass = 0", fillcolor="#e68742"] ;
639 -> 647 ;
648 [label="gini = 0.0\nsamples = 21\nvalue = [21, 0]\nclass = 0", fillcolor="#e58139"] ;
647 -> 648 ;
649 [label="gini = 0.5\nsamples = 2\nvalue = [1, 1]\nclass = 0", fillcolor="#ffffff"] ;
647 -> 649 ;
650 [label="gini = 0.0\nsamples = 2\nvalue = [0, 2]\nclass = 1", fillcolor="#399de5"] ;
638 -> 650 ;
651 [label="hbver <= 0.48\ngini = 0.09\nsamples = 21\nvalue = [20, 1]\nclass = 0", fillcolor="#e68743"] ;
637 -> 651 ;
652 [label="gini = 0.5\nsamples = 2\nvalue = [1, 1]\nclass = 0", fillcolor="#ffffff"] ;
651 -> 652 ;
653 [label="gini = 0.0\nsamples = 19\nvalue = [19, 0]\nclass = 0", fillcolor="#e58139"] ;
651 -> 653 ;
654 [label="hbver <= 0.57\ngini = 0.5\nsamples = 472\nvalue = [259, 213]\nclass = 0", fillcolor="#fae9dc"] ;
546 -> 654 ;
655 [label="hematokrit <= 0.61\ngini = 0.49\nsamples = 431\nvalue = [245, 186]\nclass = 0", fillcolor="#f9e1cf"] ;
654 -> 655 ;
656 [label="leukocyty <= 0.65\ngini = 0.47\nsamples = 258\nvalue = [160, 98]\nclass = 0", fillcolor="#f5ceb2"] ;
655 -> 656 ;
657 [label="gini = 0.0\nsamples = 5\nvalue = [0, 5]\nclass = 1", fillcolor="#399de5"] ;
656 -> 657 ;
658 [label="erytrocyty <= 0.43\ngini = 0.46\nsamples = 253\nvalue = [160, 93]\nclass = 0", fillcolor="#f4caac"] ;
656 -> 658 ;
659 [label="etytr <= 0.45\ngini = 0.42\nsamples = 164\nvalue = [114, 50]\nclass = 0", fillcolor="#f0b890"] ;
658 -> 659 ;
660 [label="erytrocyty <= 0.22\ngini = 0.07\nsamples = 116\nvalue = [112, 4]\nclass = 0", fillcolor="#e68640"] ;
659 -> 660 ;
661 [label="smoker <= 0.5\ngini = 0.48\nsamples = 5\nvalue = [3, 2]\nclass = 0", fillcolor="#f6d5bd"] ;
660 -> 661 ;
662 [label="gini = 0.0\nsamples = 3\nvalue = [3, 0]\nclass = 0", fillcolor="#e58139"] ;
661 -> 662 ;
663 [label="gini = 0.0\nsamples = 2\nvalue = [0, 2]\nclass = 1", fillcolor="#399de5"] ;
661 -> 663 ;
664 [label="erytrocyty <= 0.25\ngini = 0.04\nsamples = 111\nvalue = [109, 2]\nclass = 0", fillcolor="#e5833d"] ;
660 -> 664 ;
665 [label="etytr <= 0.24\ngini = 0.2\nsamples = 9\nvalue = [8, 1]\nclass = 0", fillcolor="#e89152"] ;
664 -> 665 ;
666 [label="gini = 0.5\nsamples = 2\nvalue = [1, 1]\nclass = 0", fillcolor="#ffffff"] ;
665 -> 666 ;
667 [label="gini = 0.0\nsamples = 7\nvalue = [7, 0]\nclass = 0", fillcolor="#e58139"] ;
665 -> 667 ;
668 [label="hematokrit <= 0.45\ngini = 0.02\nsamples = 102\nvalue = [101, 1]\nclass = 0", fillcolor="#e5823b"] ;
664 -> 668 ;
669 [label="er-cv <= 0.42\ngini = 0.11\nsamples = 17\nvalue = [16, 1]\nclass = 0", fillcolor="#e78945"] ;
668 -> 669 ;
670 [label="hematokrit <= 0.42\ngini = 0.32\nsamples = 5\nvalue = [4, 1]\nclass = 0", fillcolor="#eca06a"] ;
669 -> 670 ;
671 [label="gini = 0.0\nsamples = 3\nvalue = [3, 0]\nclass = 0", fillcolor="#e58139"] ;
670 -> 671 ;
672 [label="gini = 0.5\nsamples = 2\nvalue = [1, 1]\nclass = 0", fillcolor="#ffffff"] ;
670 -> 672 ;
673 [label="gini = 0.0\nsamples = 12\nvalue = [12, 0]\nclass = 0", fillcolor="#e58139"] ;
669 -> 673 ;
674 [label="gini = 0.0\nsamples = 85\nvalue = [85, 0]\nclass = 0", fillcolor="#e58139"] ;
668 -> 674 ;
675 [label="hbver <= 0.48\ngini = 0.08\nsamples = 48\nvalue = [2, 46]\nclass = 1", fillcolor="#42a1e6"] ;
659 -> 675 ;
676 [label="hbver <= 0.47\ngini = 0.17\nsamples = 21\nvalue = [2, 19]\nclass = 1", fillcolor="#4ea7e8"] ;
675 -> 676 ;
677 [label="gini = 0.0\nsamples = 18\nvalue = [0, 18]\nclass = 1", fillcolor="#399de5"] ;
676 -> 677 ;
678 [label="gini = 0.44\nsamples = 3\nvalue = [2, 1]\nclass = 0", fillcolor="#f2c09c"] ;
676 -> 678 ;
679 [label="gini = 0.0\nsamples = 27\nvalue = [0, 27]\nclass = 1", fillcolor="#399de5"] ;
675 -> 679 ;
680 [label="erytrocyty <= 0.44\ngini = 0.5\nsamples = 89\nvalue = [46, 43]\nclass = 0", fillcolor="#fdf7f2"] ;
658 -> 680 ;
681 [label="erytrocyty <= 0.43\ngini = 0.41\nsamples = 14\nvalue = [4, 10]\nclass = 1", fillcolor="#88c4ef"] ;
680 -> 681 ;
682 [label="gini = 0.0\nsamples = 3\nvalue = [0, 3]\nclass = 1", fillcolor="#399de5"] ;
681 -> 682 ;
683 [label="erytrocyty <= 0.44\ngini = 0.46\nsamples = 11\nvalue = [4, 7]\nclass = 1", fillcolor="#aad5f4"] ;
681 -> 683 ;
684 [label="er-cv <= 0.54\ngini = 0.38\nsamples = 4\nvalue = [3, 1]\nclass = 0", fillcolor="#eeab7b"] ;
683 -> 684 ;
685 [label="gini = 0.5\nsamples = 2\nvalue = [1, 1]\nclass = 0", fillcolor="#ffffff"] ;
684 -> 685 ;
686 [label="gini = 0.0\nsamples = 2\nvalue = [2, 0]\nclass = 0", fillcolor="#e58139"] ;
684 -> 686 ;
687 [label="smoker <= 0.5\ngini = 0.24\nsamples = 7\nvalue = [1, 6]\nclass = 1", fillcolor="#5aade9"] ;
683 -> 687 ;
688 [label="gini = 0.0\nsamples = 5\nvalue = [0, 5]\nclass = 1", fillcolor="#399de5"] ;
687 -> 688 ;
689 [label="gini = 0.5\nsamples = 2\nvalue = [1, 1]\nclass = 0", fillcolor="#ffffff"] ;
687 -> 689 ;
690 [label="hematokrit <= 0.43\ngini = 0.49\nsamples = 75\nvalue = [42, 33]\nclass = 0", fillcolor="#f9e4d5"] ;
680 -> 690 ;
691 [label="gini = 0.0\nsamples = 4\nvalue = [0, 4]\nclass = 1", fillcolor="#399de5"] ;
690 -> 691 ;
692 [label="etytr <= 0.4\ngini = 0.48\nsamples = 71\nvalue = [42, 29]\nclass = 0", fillcolor="#f7d8c2"] ;
690 -> 692 ;
693 [label="gini = 0.0\nsamples = 33\nvalue = [33, 0]\nclass = 0", fillcolor="#e58139"] ;
692 -> 693 ;
694 [label="leukocyty <= 0.82\ngini = 0.36\nsamples = 38\nvalue = [9, 29]\nclass = 1", fillcolor="#76bbed"] ;
692 -> 694 ;
695 [label="hematokrit <= 0.44\ngini = 0.31\nsamples = 36\nvalue = [7, 29]\nclass = 1", fillcolor="#69b5eb"] ;
694 -> 695 ;
696 [label="leukocyty <= 0.7\ngini = 0.38\nsamples = 4\nvalue = [3, 1]\nclass = 0", fillcolor="#eeab7b"] ;
695 -> 696 ;
697 [label="gini = 0.0\nsamples = 2\nvalue = [2, 0]\nclass = 0", fillcolor="#e58139"] ;
696 -> 697 ;
698 [label="gini = 0.5\nsamples = 2\nvalue = [1, 1]\nclass = 0", fillcolor="#ffffff"] ;
696 -> 698 ;
699 [label="er-cv <= 0.81\ngini = 0.22\nsamples = 32\nvalue = [4, 28]\nclass = 1", fillcolor="#55abe9"] ;
695 -> 699 ;
700 [label="erytrocyty <= 0.56\ngini = 0.18\nsamples = 30\nvalue = [3, 27]\nclass = 1", fillcolor="#4fa8e8"] ;
699 -> 700 ;
701 [label="leukocyty <= 0.67\ngini = 0.13\nsamples = 28\nvalue = [2, 26]\nclass = 1", fillcolor="#48a5e7"] ;
700 -> 701 ;
702 [label="gini = 0.44\nsamples = 3\nvalue = [1, 2]\nclass = 1", fillcolor="#9ccef2"] ;
701 -> 702 ;
703 [label="erytrocyty <= 0.51\ngini = 0.08\nsamples = 25\nvalue = [1, 24]\nclass = 1", fillcolor="#41a1e6"] ;
701 -> 703 ;
704 [label="gini = 0.0\nsamples = 15\nvalue = [0, 15]\nclass = 1", fillcolor="#399de5"] ;
703 -> 704 ;
705 [label="hematokrit <= 0.48\ngini = 0.18\nsamples = 10\nvalue = [1, 9]\nclass = 1", fillcolor="#4fa8e8"] ;
703 -> 705 ;
706 [label="gini = 0.5\nsamples = 2\nvalue = [1, 1]\nclass = 0", fillcolor="#ffffff"] ;
705 -> 706 ;
707 [label="gini = 0.0\nsamples = 8\nvalue = [0, 8]\nclass = 1", fillcolor="#399de5"] ;
705 -> 707 ;
708 [label="gini = 0.5\nsamples = 2\nvalue = [1, 1]\nclass = 0", fillcolor="#ffffff"] ;
700 -> 708 ;
709 [label="gini = 0.5\nsamples = 2\nvalue = [1, 1]\nclass = 0", fillcolor="#ffffff"] ;
699 -> 709 ;
710 [label="gini = 0.0\nsamples = 2\nvalue = [2, 0]\nclass = 0", fillcolor="#e58139"] ;
694 -> 710 ;
711 [label="etytr <= 0.38\ngini = 0.5\nsamples = 173\nvalue = [85, 88]\nclass = 1", fillcolor="#f8fcfe"] ;
655 -> 711 ;
712 [label="leukocyty <= 0.66\ngini = 0.05\nsamples = 80\nvalue = [78, 2]\nclass = 0", fillcolor="#e6843e"] ;
711 -> 712 ;
713 [label="gini = 0.44\nsamples = 3\nvalue = [2, 1]\nclass = 0", fillcolor="#f2c09c"] ;
712 -> 713 ;
714 [label="blood_group <= 0.5\ngini = 0.03\nsamples = 77\nvalue = [76, 1]\nclass = 0", fillcolor="#e5833c"] ;
712 -> 714 ;
715 [label="hbver <= 0.53\ngini = 0.18\nsamples = 10\nvalue = [9, 1]\nclass = 0", fillcolor="#e88f4f"] ;
714 -> 715 ;
716 [label="gini = 0.0\nsamples = 8\nvalue = [8, 0]\nclass = 0", fillcolor="#e58139"] ;
715 -> 716 ;
717 [label="gini = 0.5\nsamples = 2\nvalue = [1, 1]\nclass = 0", fillcolor="#ffffff"] ;
715 -> 717 ;
718 [label="gini = 0.0\nsamples = 67\nvalue = [67, 0]\nclass = 0", fillcolor="#e58139"] ;
714 -> 718 ;
719 [label="hematokrit <= 0.63\ngini = 0.14\nsamples = 93\nvalue = [7, 86]\nclass = 1", fillcolor="#49a5e7"] ;
711 -> 719 ;
720 [label="er-cv <= 0.53\ngini = 0.4\nsamples = 11\nvalue = [3, 8]\nclass = 1", fillcolor="#83c2ef"] ;
719 -> 720 ;
721 [label="erytrocyty <= 0.39\ngini = 0.5\nsamples = 6\nvalue = [3, 3]\nclass = 0", fillcolor="#ffffff"] ;
720 -> 721 ;
722 [label="hematokrit <= 0.62\ngini = 0.38\nsamples = 4\nvalue = [1, 3]\nclass = 1", fillcolor="#7bbeee"] ;
721 -> 722 ;
723 [label="gini = 0.0\nsamples = 2\nvalue = [0, 2]\nclass = 1", fillcolor="#399de5"] ;
722 -> 723 ;
724 [label="gini = 0.5\nsamples = 2\nvalue = [1, 1]\nclass = 0", fillcolor="#ffffff"] ;
722 -> 724 ;
725 [label="gini = 0.0\nsamples = 2\nvalue = [2, 0]\nclass = 0", fillcolor="#e58139"] ;
721 -> 725 ;
726 [label="gini = 0.0\nsamples = 5\nvalue = [0, 5]\nclass = 1", fillcolor="#399de5"] ;
720 -> 726 ;
727 [label="etytr <= 0.47\ngini = 0.09\nsamples = 82\nvalue = [4, 78]\nclass = 1", fillcolor="#43a2e6"] ;
719 -> 727 ;
728 [label="blood_group <= 1.5\ngini = 0.32\nsamples = 10\nvalue = [2, 8]\nclass = 1", fillcolor="#6ab6ec"] ;
727 -> 728 ;
729 [label="hbver <= 0.49\ngini = 0.48\nsamples = 5\nvalue = [2, 3]\nclass = 1", fillcolor="#bddef6"] ;
728 -> 729 ;
730 [label="gini = 0.5\nsamples = 2\nvalue = [1, 1]\nclass = 0", fillcolor="#ffffff"] ;
729 -> 730 ;
731 [label="gini = 0.44\nsamples = 3\nvalue = [1, 2]\nclass = 1", fillcolor="#9ccef2"] ;
729 -> 731 ;
732 [label="gini = 0.0\nsamples = 5\nvalue = [0, 5]\nclass = 1", fillcolor="#399de5"] ;
728 -> 732 ;
733 [label="er-cv <= 0.44\ngini = 0.05\nsamples = 72\nvalue = [2, 70]\nclass = 1", fillcolor="#3fa0e6"] ;
727 -> 733 ;
734 [label="leukocyty <= 0.77\ngini = 0.17\nsamples = 21\nvalue = [2, 19]\nclass = 1", fillcolor="#4ea7e8"] ;
733 -> 734 ;
735 [label="er-cv <= 0.41\ngini = 0.1\nsamples = 19\nvalue = [1, 18]\nclass = 1", fillcolor="#44a2e6"] ;
734 -> 735 ;
736 [label="gini = 0.0\nsamples = 17\nvalue = [0, 17]\nclass = 1", fillcolor="#399de5"] ;
735 -> 736 ;
737 [label="gini = 0.5\nsamples = 2\nvalue = [1, 1]\nclass = 0", fillcolor="#ffffff"] ;
735 -> 737 ;
738 [label="gini = 0.5\nsamples = 2\nvalue = [1, 1]\nclass = 0", fillcolor="#ffffff"] ;
734 -> 738 ;
739 [label="gini = 0.0\nsamples = 51\nvalue = [0, 51]\nclass = 1", fillcolor="#399de5"] ;
733 -> 739 ;
740 [label="er-cv <= 0.32\ngini = 0.45\nsamples = 41\nvalue = [14, 27]\nclass = 1", fillcolor="#a0d0f2"] ;
654 -> 740 ;
741 [label="leukocyty <= 0.79\ngini = 0.32\nsamples = 5\nvalue = [4, 1]\nclass = 0", fillcolor="#eca06a"] ;
740 -> 741 ;
742 [label="gini = 0.0\nsamples = 3\nvalue = [3, 0]\nclass = 0", fillcolor="#e58139"] ;
741 -> 742 ;
743 [label="gini = 0.5\nsamples = 2\nvalue = [1, 1]\nclass = 0", fillcolor="#ffffff"] ;
741 -> 743 ;
744 [label="etytr <= 0.78\ngini = 0.4\nsamples = 36\nvalue = [10, 26]\nclass = 1", fillcolor="#85c3ef"] ;
740 -> 744 ;
745 [label="etytr <= 0.67\ngini = 0.3\nsamples = 32\nvalue = [6, 26]\nclass = 1", fillcolor="#67b4eb"] ;
744 -> 745 ;
746 [label="leukocyty <= 0.72\ngini = 0.21\nsamples = 25\nvalue = [3, 22]\nclass = 1", fillcolor="#54aae9"] ;
745 -> 746 ;
747 [label="gini = 0.0\nsamples = 2\nvalue = [2, 0]\nclass = 0", fillcolor="#e58139"] ;
746 -> 747 ;
748 [label="erytrocyty <= 0.54\ngini = 0.08\nsamples = 23\nvalue = [1, 22]\nclass = 1", fillcolor="#42a1e6"] ;
746 -> 748 ;
749 [label="gini = 0.0\nsamples = 21\nvalue = [0, 21]\nclass = 1", fillcolor="#399de5"] ;
748 -> 749 ;
750 [label="gini = 0.5\nsamples = 2\nvalue = [1, 1]\nclass = 0", fillcolor="#ffffff"] ;
748 -> 750 ;
751 [label="hematokrit <= 0.49\ngini = 0.49\nsamples = 7\nvalue = [3, 4]\nclass = 1", fillcolor="#cee6f8"] ;
745 -> 751 ;
752 [label="gini = 0.44\nsamples = 3\nvalue = [2, 1]\nclass = 0", fillcolor="#f2c09c"] ;
751 -> 752 ;
753 [label="hbver <= 0.58\ngini = 0.38\nsamples = 4\nvalue = [1, 3]\nclass = 1", fillcolor="#7bbeee"] ;
751 -> 753 ;
754 [label="gini = 0.0\nsamples = 2\nvalue = [0, 2]\nclass = 1", fillcolor="#399de5"] ;
753 -> 754 ;
755 [label="gini = 0.5\nsamples = 2\nvalue = [1, 1]\nclass = 0", fillcolor="#ffffff"] ;
753 -> 755 ;
756 [label="gini = 0.0\nsamples = 4\nvalue = [4, 0]\nclass = 0", fillcolor="#e58139"] ;
744 -> 756 ;
757 [label="etytr <= 0.56\ngini = 0.5\nsamples = 17\nvalue = [9, 8]\nclass = 0", fillcolor="#fcf1e9"] ;
545 -> 757 ;
758 [label="etytr <= 0.36\ngini = 0.38\nsamples = 12\nvalue = [9, 3]\nclass = 0", fillcolor="#eeab7b"] ;
757 -> 758 ;
759 [label="er-cv <= 0.58\ngini = 0.47\nsamples = 8\nvalue = [5, 3]\nclass = 0", fillcolor="#f5cdb0"] ;
758 -> 759 ;
760 [label="erytrocyty <= 0.57\ngini = 0.32\nsamples = 5\nvalue = [4, 1]\nclass = 0", fillcolor="#eca06a"] ;
759 -> 760 ;
761 [label="gini = 0.5\nsamples = 2\nvalue = [1, 1]\nclass = 0", fillcolor="#ffffff"] ;
760 -> 761 ;
762 [label="gini = 0.0\nsamples = 3\nvalue = [3, 0]\nclass = 0", fillcolor="#e58139"] ;
760 -> 762 ;
763 [label="gini = 0.44\nsamples = 3\nvalue = [1, 2]\nclass = 1", fillcolor="#9ccef2"] ;
759 -> 763 ;
764 [label="gini = 0.0\nsamples = 4\nvalue = [4, 0]\nclass = 0", fillcolor="#e58139"] ;
758 -> 764 ;
765 [label="gini = 0.0\nsamples = 5\nvalue = [0, 5]\nclass = 1", fillcolor="#399de5"] ;
757 -> 765 ;
766 [label="etytr <= 0.4\ngini = 0.49\nsamples = 1816\nvalue = [1006, 810]\nclass = 0", fillcolor="#fae6d8"] ;
172 -> 766 ;
767 [label="etytr <= 0.23\ngini = 0.44\nsamples = 786\nvalue = [256, 530]\nclass = 1", fillcolor="#99ccf2"] ;
766 -> 767 ;
768 [label="etytr <= 0.19\ngini = 0.2\nsamples = 79\nvalue = [70, 9]\nclass = 0", fillcolor="#e89152"] ;
767 -> 768 ;
769 [label="leukocyty <= 0.53\ngini = 0.04\nsamples = 50\nvalue = [49, 1]\nclass = 0", fillcolor="#e6843d"] ;
768 -> 769 ;
770 [label="erytrocyty <= 0.64\ngini = 0.08\nsamples = 23\nvalue = [22, 1]\nclass = 0", fillcolor="#e68742"] ;
769 -> 770 ;
771 [label="gini = 0.0\nsamples = 17\nvalue = [17, 0]\nclass = 0", fillcolor="#e58139"] ;
770 -> 771 ;
772 [label="erytrocyty <= 0.69\ngini = 0.28\nsamples = 6\nvalue = [5, 1]\nclass = 0", fillcolor="#ea9a61"] ;
770 -> 772 ;
773 [label="gini = 0.5\nsamples = 2\nvalue = [1, 1]\nclass = 0", fillcolor="#ffffff"] ;
772 -> 773 ;
774 [label="gini = 0.0\nsamples = 4\nvalue = [4, 0]\nclass = 0", fillcolor="#e58139"] ;
772 -> 774 ;
775 [label="gini = 0.0\nsamples = 27\nvalue = [27, 0]\nclass = 0", fillcolor="#e58139"] ;
769 -> 775 ;
776 [label="hbver <= 0.7\ngini = 0.4\nsamples = 29\nvalue = [21, 8]\nclass = 0", fillcolor="#efb184"] ;
768 -> 776 ;
777 [label="er-cv <= 0.4\ngini = 0.1\nsamples = 19\nvalue = [18, 1]\nclass = 0", fillcolor="#e68844"] ;
776 -> 777 ;
778 [label="gini = 0.5\nsamples = 2\nvalue = [1, 1]\nclass = 0", fillcolor="#ffffff"] ;
777 -> 778 ;
779 [label="gini = 0.0\nsamples = 17\nvalue = [17, 0]\nclass = 0", fillcolor="#e58139"] ;
777 -> 779 ;
780 [label="etytr <= 0.22\ngini = 0.42\nsamples = 10\nvalue = [3, 7]\nclass = 1", fillcolor="#8ec7f0"] ;
776 -> 780 ;
781 [label="er-cv <= 0.48\ngini = 0.24\nsamples = 7\nvalue = [1, 6]\nclass = 1", fillcolor="#5aade9"] ;
780 -> 781 ;
782 [label="gini = 0.5\nsamples = 2\nvalue = [1, 1]\nclass = 0", fillcolor="#ffffff"] ;
781 -> 782 ;
783 [label="gini = 0.0\nsamples = 5\nvalue = [0, 5]\nclass = 1", fillcolor="#399de5"] ;
781 -> 783 ;
784 [label="gini = 0.44\nsamples = 3\nvalue = [2, 1]\nclass = 0", fillcolor="#f2c09c"] ;
780 -> 784 ;
785 [label="hbver <= 0.54\ngini = 0.39\nsamples = 707\nvalue = [186, 521]\nclass = 1", fillcolor="#80c0ee"] ;
767 -> 785 ;
786 [label="leukocyty <= 0.46\ngini = 0.5\nsamples = 344\nvalue = [155, 189]\nclass = 1", fillcolor="#dbedfa"] ;
785 -> 786 ;
787 [label="etytr <= 0.4\ngini = 0.3\nsamples = 181\nvalue = [33, 148]\nclass = 1", fillcolor="#65b3eb"] ;
786 -> 787 ;
788 [label="leukocyty <= 0.38\ngini = 0.29\nsamples = 179\nvalue = [31, 148]\nclass = 1", fillcolor="#62b2ea"] ;
787 -> 788 ;
789 [label="leukocyty <= 0.34\ngini = 0.11\nsamples = 82\nvalue = [5, 77]\nclass = 1", fillcolor="#46a3e7"] ;
788 -> 789 ;
790 [label="gini = 0.0\nsamples = 29\nvalue = [0, 29]\nclass = 1", fillcolor="#399de5"] ;
789 -> 790 ;
791 [label="hbver <= 0.27\ngini = 0.17\nsamples = 53\nvalue = [5, 48]\nclass = 1", fillcolor="#4ea7e8"] ;
789 -> 791 ;
792 [label="etytr <= 0.27\ngini = 0.48\nsamples = 5\nvalue = [2, 3]\nclass = 1", fillcolor="#bddef6"] ;
791 -> 792 ;
793 [label="gini = 0.0\nsamples = 2\nvalue = [2, 0]\nclass = 0", fillcolor="#e58139"] ;
792 -> 793 ;
794 [label="gini = 0.0\nsamples = 3\nvalue = [0, 3]\nclass = 1", fillcolor="#399de5"] ;
792 -> 794 ;
795 [label="etytr <= 0.36\ngini = 0.12\nsamples = 48\nvalue = [3, 45]\nclass = 1", fillcolor="#46a4e7"] ;
791 -> 795 ;
796 [label="gini = 0.0\nsamples = 40\nvalue = [0, 40]\nclass = 1", fillcolor="#399de5"] ;
795 -> 796 ;
797 [label="hbver <= 0.42\ngini = 0.47\nsamples = 8\nvalue = [3, 5]\nclass = 1", fillcolor="#b0d8f5"] ;
795 -> 797 ;
798 [label="blood_group <= 5.0\ngini = 0.48\nsamples = 5\nvalue = [3, 2]\nclass = 0", fillcolor="#f6d5bd"] ;
797 -> 798 ;
799 [label="gini = 0.44\nsamples = 3\nvalue = [1, 2]\nclass = 1", fillcolor="#9ccef2"] ;
798 -> 799 ;
800 [label="gini = 0.0\nsamples = 2\nvalue = [2, 0]\nclass = 0", fillcolor="#e58139"] ;
798 -> 800 ;
801 [label="gini = 0.0\nsamples = 3\nvalue = [0, 3]\nclass = 1", fillcolor="#399de5"] ;
797 -> 801 ;
802 [label="erytrocyty <= 0.7\ngini = 0.39\nsamples = 97\nvalue = [26, 71]\nclass = 1", fillcolor="#82c1ef"] ;
788 -> 802 ;
803 [label="etytr <= 0.31\ngini = 0.49\nsamples = 19\nvalue = [11, 8]\nclass = 0", fillcolor="#f8ddc9"] ;
802 -> 803 ;
804 [label="hematokrit <= 0.45\ngini = 0.24\nsamples = 7\nvalue = [6, 1]\nclass = 0", fillcolor="#e9965a"] ;
803 -> 804 ;
805 [label="gini = 0.0\nsamples = 5\nvalue = [5, 0]\nclass = 0", fillcolor="#e58139"] ;
804 -> 805 ;
806 [label="gini = 0.5\nsamples = 2\nvalue = [1, 1]\nclass = 0", fillcolor="#ffffff"] ;
804 -> 806 ;
807 [label="blood_group <= 1.0\ngini = 0.49\nsamples = 12\nvalue = [5, 7]\nclass = 1", fillcolor="#c6e3f8"] ;
803 -> 807 ;
808 [label="gini = 0.0\nsamples = 3\nvalue = [3, 0]\nclass = 0", fillcolor="#e58139"] ;
807 -> 808 ;
809 [label="blood_group <= 5.5\ngini = 0.35\nsamples = 9\nvalue = [2, 7]\nclass = 1", fillcolor="#72b9ec"] ;
807 -> 809 ;
810 [label="gini = 0.0\nsamples = 5\nvalue = [0, 5]\nclass = 1", fillcolor="#399de5"] ;
809 -> 810 ;
811 [label="etytr <= 0.37\ngini = 0.5\nsamples = 4\nvalue = [2, 2]\nclass = 0", fillcolor="#ffffff"] ;
809 -> 811 ;
812 [label="gini = 0.0\nsamples = 2\nvalue = [0, 2]\nclass = 1", fillcolor="#399de5"] ;
811 -> 812 ;
813 [label="gini = 0.0\nsamples = 2\nvalue = [2, 0]\nclass = 0", fillcolor="#e58139"] ;
811 -> 813 ;
814 [label="etytr <= 0.31\ngini = 0.31\nsamples = 78\nvalue = [15, 63]\nclass = 1", fillcolor="#68b4eb"] ;
802 -> 814 ;
815 [label="hematokrit <= 0.53\ngini = 0.47\nsamples = 19\nvalue = [7, 12]\nclass = 1", fillcolor="#acd6f4"] ;
814 -> 815 ;
816 [label="blood_group <= 0.5\ngini = 0.5\nsamples = 13\nvalue = [7, 6]\nclass = 0", fillcolor="#fbede3"] ;
815 -> 816 ;
817 [label="gini = 0.0\nsamples = 2\nvalue = [2, 0]\nclass = 0", fillcolor="#e58139"] ;
816 -> 817 ;
818 [label="er-cv <= 0.39\ngini = 0.5\nsamples = 11\nvalue = [5, 6]\nclass = 1", fillcolor="#deeffb"] ;
816 -> 818 ;
819 [label="gini = 0.0\nsamples = 5\nvalue = [5, 0]\nclass = 0", fillcolor="#e58139"] ;
818 -> 819 ;
820 [label="gini = 0.0\nsamples = 6\nvalue = [0, 6]\nclass = 1", fillcolor="#399de5"] ;
818 -> 820 ;
821 [label="gini = 0.0\nsamples = 6\nvalue = [0, 6]\nclass = 1", fillcolor="#399de5"] ;
815 -> 821 ;
822 [label="er-cv <= 0.32\ngini = 0.23\nsamples = 59\nvalue = [8, 51]\nclass = 1", fillcolor="#58ace9"] ;
814 -> 822 ;
823 [label="gini = 0.0\nsamples = 12\nvalue = [0, 12]\nclass = 1", fillcolor="#399de5"] ;
822 -> 823 ;
824 [label="er-cv <= 0.41\ngini = 0.28\nsamples = 47\nvalue = [8, 39]\nclass = 1", fillcolor="#62b1ea"] ;
822 -> 824 ;
825 [label="blood_group <= 4.5\ngini = 0.49\nsamples = 9\nvalue = [4, 5]\nclass = 1", fillcolor="#d7ebfa"] ;
824 -> 825 ;
826 [label="hbver <= 0.47\ngini = 0.44\nsamples = 6\nvalue = [4, 2]\nclass = 0", fillcolor="#f2c09c"] ;
825 -> 826 ;
827 [label="gini = 0.44\nsamples = 3\nvalue = [1, 2]\nclass = 1", fillcolor="#9ccef2"] ;
826 -> 827 ;
828 [label="gini = 0.0\nsamples = 3\nvalue = [3, 0]\nclass = 0", fillcolor="#e58139"] ;
826 -> 828 ;
829 [label="gini = 0.0\nsamples = 3\nvalue = [0, 3]\nclass = 1", fillcolor="#399de5"] ;
825 -> 829 ;
830 [label="leukocyty <= 0.39\ngini = 0.19\nsamples = 38\nvalue = [4, 34]\nclass = 1", fillcolor="#50a9e8"] ;
824 -> 830 ;
831 [label="gini = 0.44\nsamples = 3\nvalue = [2, 1]\nclass = 0", fillcolor="#f2c09c"] ;
830 -> 831 ;
832 [label="smoker <= 0.5\ngini = 0.11\nsamples = 35\nvalue = [2, 33]\nclass = 1", fillcolor="#45a3e7"] ;
830 -> 832 ;
833 [label="gini = 0.0\nsamples = 20\nvalue = [0, 20]\nclass = 1", fillcolor="#399de5"] ;
832 -> 833 ;
834 [label="erytrocyty <= 0.84\ngini = 0.23\nsamples = 15\nvalue = [2, 13]\nclass = 1", fillcolor="#57ace9"] ;
832 -> 834 ;
835 [label="hbver <= 0.5\ngini = 0.14\nsamples = 13\nvalue = [1, 12]\nclass = 1", fillcolor="#49a5e7"] ;
834 -> 835 ;
836 [label="gini = 0.0\nsamples = 11\nvalue = [0, 11]\nclass = 1", fillcolor="#399de5"] ;
835 -> 836 ;
837 [label="gini = 0.5\nsamples = 2\nvalue = [1, 1]\nclass = 0", fillcolor="#ffffff"] ;
835 -> 837 ;
838 [label="gini = 0.5\nsamples = 2\nvalue = [1, 1]\nclass = 0", fillcolor="#ffffff"] ;
834 -> 838 ;
839 [label="gini = 0.0\nsamples = 2\nvalue = [2, 0]\nclass = 0", fillcolor="#e58139"] ;
787 -> 839 ;
840 [label="erytrocyty <= 0.84\ngini = 0.38\nsamples = 163\nvalue = [122, 41]\nclass = 0", fillcolor="#eeab7c"] ;
786 -> 840 ;
841 [label="hbver <= 0.27\ngini = 0.32\nsamples = 147\nvalue = [118, 29]\nclass = 0", fillcolor="#eba06a"] ;
840 -> 841 ;
842 [label="etytr <= 0.31\ngini = 0.5\nsamples = 14\nvalue = [7, 7]\nclass = 0", fillcolor="#ffffff"] ;
841 -> 842 ;
843 [label="gini = 0.0\nsamples = 7\nvalue = [7, 0]\nclass = 0", fillcolor="#e58139"] ;
842 -> 843 ;
844 [label="gini = 0.0\nsamples = 7\nvalue = [0, 7]\nclass = 1", fillcolor="#399de5"] ;
842 -> 844 ;
845 [label="leukocyty <= 0.52\ngini = 0.28\nsamples = 133\nvalue = [111, 22]\nclass = 0", fillcolor="#ea9a60"] ;
841 -> 845 ;
846 [label="etytr <= 0.34\ngini = 0.43\nsamples = 45\nvalue = [31, 14]\nclass = 0", fillcolor="#f1ba92"] ;
845 -> 846 ;
847 [label="erytrocyty <= 0.81\ngini = 0.18\nsamples = 20\nvalue = [18, 2]\nclass = 0", fillcolor="#e88f4f"] ;
846 -> 847 ;
848 [label="gini = 0.0\nsamples = 17\nvalue = [17, 0]\nclass = 0", fillcolor="#e58139"] ;
847 -> 848 ;
849 [label="gini = 0.44\nsamples = 3\nvalue = [1, 2]\nclass = 1", fillcolor="#9ccef2"] ;
847 -> 849 ;
850 [label="etytr <= 0.36\ngini = 0.5\nsamples = 25\nvalue = [13, 12]\nclass = 0", fillcolor="#fdf5f0"] ;
846 -> 850 ;
851 [label="gini = 0.0\nsamples = 5\nvalue = [0, 5]\nclass = 1", fillcolor="#399de5"] ;
850 -> 851 ;
852 [label="hematokrit <= 0.31\ngini = 0.45\nsamples = 20\nvalue = [13, 7]\nclass = 0", fillcolor="#f3c5a4"] ;
850 -> 852 ;
853 [label="gini = 0.0\nsamples = 3\nvalue = [0, 3]\nclass = 1", fillcolor="#399de5"] ;
852 -> 853 ;
854 [label="er-cv <= 0.54\ngini = 0.36\nsamples = 17\nvalue = [13, 4]\nclass = 0", fillcolor="#eda876"] ;
852 -> 854 ;
855 [label="smoker <= 0.5\ngini = 0.5\nsamples = 8\nvalue = [4, 4]\nclass = 0", fillcolor="#ffffff"] ;
854 -> 855 ;
856 [label="gini = 0.0\nsamples = 4\nvalue = [4, 0]\nclass = 0", fillcolor="#e58139"] ;
855 -> 856 ;
857 [label="gini = 0.0\nsamples = 4\nvalue = [0, 4]\nclass = 1", fillcolor="#399de5"] ;
855 -> 857 ;
858 [label="gini = 0.0\nsamples = 9\nvalue = [9, 0]\nclass = 0", fillcolor="#e58139"] ;
854 -> 858 ;
859 [label="hematokrit <= 0.76\ngini = 0.17\nsamples = 88\nvalue = [80, 8]\nclass = 0", fillcolor="#e88e4d"] ;
845 -> 859 ;
860 [label="etytr <= 0.36\ngini = 0.1\nsamples = 79\nvalue = [75, 4]\nclass = 0", fillcolor="#e68844"] ;
859 -> 860 ;
861 [label="gini = 0.0\nsamples = 48\nvalue = [48, 0]\nclass = 0", fillcolor="#e58139"] ;
860 -> 861 ;
862 [label="hematokrit <= 0.46\ngini = 0.22\nsamples = 31\nvalue = [27, 4]\nclass = 0", fillcolor="#e99456"] ;
860 -> 862 ;
863 [label="hbver <= 0.47\ngini = 0.41\nsamples = 14\nvalue = [10, 4]\nclass = 0", fillcolor="#efb388"] ;
862 -> 863 ;
864 [label="er-cv <= 0.47\ngini = 0.5\nsamples = 6\nvalue = [3, 3]\nclass = 0", fillcolor="#ffffff"] ;
863 -> 864 ;
865 [label="leukocyty <= 0.62\ngini = 0.38\nsamples = 4\nvalue = [1, 3]\nclass = 1", fillcolor="#7bbeee"] ;
864 -> 865 ;
866 [label="gini = 0.5\nsamples = 2\nvalue = [1, 1]\nclass = 0", fillcolor="#ffffff"] ;
865 -> 866 ;
867 [label="gini = 0.0\nsamples = 2\nvalue = [0, 2]\nclass = 1", fillcolor="#399de5"] ;
865 -> 867 ;
868 [label="gini = 0.0\nsamples = 2\nvalue = [2, 0]\nclass = 0", fillcolor="#e58139"] ;
864 -> 868 ;
869 [label="er-cv <= 0.52\ngini = 0.22\nsamples = 8\nvalue = [7, 1]\nclass = 0", fillcolor="#e99355"] ;
863 -> 869 ;
870 [label="gini = 0.0\nsamples = 4\nvalue = [4, 0]\nclass = 0", fillcolor="#e58139"] ;
869 -> 870 ;
871 [label="erytrocyty <= 0.61\ngini = 0.38\nsamples = 4\nvalue = [3, 1]\nclass = 0", fillcolor="#eeab7b"] ;
869 -> 871 ;
872 [label="gini = 0.5\nsamples = 2\nvalue = [1, 1]\nclass = 0", fillcolor="#ffffff"] ;
871 -> 872 ;
873 [label="gini = 0.0\nsamples = 2\nvalue = [2, 0]\nclass = 0", fillcolor="#e58139"] ;
871 -> 873 ;
874 [label="gini = 0.0\nsamples = 17\nvalue = [17, 0]\nclass = 0", fillcolor="#e58139"] ;
862 -> 874 ;
875 [label="er-cv <= 0.39\ngini = 0.49\nsamples = 9\nvalue = [5, 4]\nclass = 0", fillcolor="#fae6d7"] ;
859 -> 875 ;
876 [label="gini = 0.0\nsamples = 3\nvalue = [3, 0]\nclass = 0", fillcolor="#e58139"] ;
875 -> 876 ;
877 [label="leukocyty <= 0.57\ngini = 0.44\nsamples = 6\nvalue = [2, 4]\nclass = 1", fillcolor="#9ccef2"] ;
875 -> 877 ;
878 [label="gini = 0.0\nsamples = 2\nvalue = [2, 0]\nclass = 0", fillcolor="#e58139"] ;
877 -> 878 ;
879 [label="gini = 0.0\nsamples = 4\nvalue = [0, 4]\nclass = 1", fillcolor="#399de5"] ;
877 -> 879 ;
880 [label="hematokrit <= 0.39\ngini = 0.38\nsamples = 16\nvalue = [4, 12]\nclass = 1", fillcolor="#7bbeee"] ;
840 -> 880 ;
881 [label="hbver <= 0.43\ngini = 0.48\nsamples = 5\nvalue = [3, 2]\nclass = 0", fillcolor="#f6d5bd"] ;
880 -> 881 ;
882 [label="gini = 0.5\nsamples = 2\nvalue = [1, 1]\nclass = 0", fillcolor="#ffffff"] ;
881 -> 882 ;
883 [label="gini = 0.44\nsamples = 3\nvalue = [2, 1]\nclass = 0", fillcolor="#f2c09c"] ;
881 -> 883 ;
884 [label="leukocyty <= 0.56\ngini = 0.17\nsamples = 11\nvalue = [1, 10]\nclass = 1", fillcolor="#4da7e8"] ;
880 -> 884 ;
885 [label="gini = 0.0\nsamples = 9\nvalue = [0, 9]\nclass = 1", fillcolor="#399de5"] ;
884 -> 885 ;
886 [label="gini = 0.5\nsamples = 2\nvalue = [1, 1]\nclass = 0", fillcolor="#ffffff"] ;
884 -> 886 ;
887 [label="etytr <= 0.27\ngini = 0.16\nsamples = 363\nvalue = [31, 332]\nclass = 1", fillcolor="#4ba6e7"] ;
785 -> 887 ;
888 [label="leukocyty <= 0.38\ngini = 0.4\nsamples = 59\nvalue = [16, 43]\nclass = 1", fillcolor="#83c1ef"] ;
887 -> 888 ;
889 [label="etytr <= 0.24\ngini = 0.06\nsamples = 35\nvalue = [1, 34]\nclass = 1", fillcolor="#3fa0e6"] ;
888 -> 889 ;
890 [label="gini = 0.5\nsamples = 2\nvalue = [1, 1]\nclass = 0", fillcolor="#ffffff"] ;
889 -> 890 ;
891 [label="gini = 0.0\nsamples = 33\nvalue = [0, 33]\nclass = 1", fillcolor="#399de5"] ;
889 -> 891 ;
892 [label="leukocyty <= 0.46\ngini = 0.47\nsamples = 24\nvalue = [15, 9]\nclass = 0", fillcolor="#f5cdb0"] ;
888 -> 892 ;
893 [label="erytrocyty <= 0.72\ngini = 0.49\nsamples = 16\nvalue = [7, 9]\nclass = 1", fillcolor="#d3e9f9"] ;
892 -> 893 ;
894 [label="hbver <= 0.65\ngini = 0.22\nsamples = 8\nvalue = [7, 1]\nclass = 0", fillcolor="#e99355"] ;
893 -> 894 ;
895 [label="gini = 0.5\nsamples = 2\nvalue = [1, 1]\nclass = 0", fillcolor="#ffffff"] ;
894 -> 895 ;
896 [label="gini = 0.0\nsamples = 6\nvalue = [6, 0]\nclass = 0", fillcolor="#e58139"] ;
894 -> 896 ;
897 [label="gini = 0.0\nsamples = 8\nvalue = [0, 8]\nclass = 1", fillcolor="#399de5"] ;
